<?xml version="1.0" encoding="UTF-8"?>
<!-- This file was created by ACADEMIC version of SMILE -->
<smile version="1.0" id="Unnamed" numsamples="10000" discsamples="10000">
	<nodes>
		<cpt id="time_zero_norace_mean">
			<state id="S_103_685___109_435" />
			<state id="S_109_435___117_385" />
			<state id="S_10_885___21_705" />
			<state id="S_21_705___26_205" />
			<state id="S_26_205___28_315" />
			<state id="S_28_315___34_045" />
			<state id="S_34_045___40_855" />
			<state id="S_40_855___48_385" />
			<state id="S_48_385___57_595" />
			<state id="S_57_595___64_395" />
			<state id="S_64_395___71_555" />
			<state id="S_6_835___8_725" />
			<state id="S_71_555___87_725" />
			<state id="S_87_725___95_185" />
			<state id="S_8_725___10_885" />
			<state id="S_95_185___103_685" />
			<state id="S_le_117_385" />
			<state id="S_s_6_835" />
			<probabilities>0.04961289281824648 0.04421002820155988 0.03296853358280423 0.01648351065890581 0.008457257956858394 0.02536313085230957 0.03624355677411659 0.04837752807894255 0.07784140827100448 0.07030521837001752 0.08532350928306032 0.002934956248587751 0.2331266417750195 0.1119704048734429 0.004431687595885246 0.1043764588709783 0.04627863384184812 0.00169464194641242</probabilities>
		</cpt>
		<cpt id="year1_reduction_40_ge">
			<state id="S_0" />
			<state id="S_1" />
			<parents>time_zero_norace_mean</parents>
			<probabilities>0.9332830613548728 0.06671693864512725 0.9326716022592245 0.06732839774077544 0.7035999283522955 0.2964000716477045 0.7353526289255387 0.2646473710744612 0.8053537987354707 0.1946462012645293 0.7949654186156964 0.2050345813843035 0.8268193517526442 0.1731806482473559 0.8509643184922878 0.1490356815077123 0.8734639449261647 0.1265360550738354 0.8875018963715464 0.1124981036284536 0.8951754436638878 0.1048245563361123 0.7456329837200365 0.2543670162799635 0.9049502366848159 0.09504976331518408 0.9175680648754979 0.08243193512450205 0.700698078685694 0.299301921314306 0.9160691039772838 0.08393089602271622 0.9386209950548321 0.06137900494516786 0.7608982354616157 0.2391017645383844</probabilities>
		</cpt>
		<cpt id="study_entry_period_egfrckd_norace_flag">
			<state id="S_0" />
			<state id="S_1" />
			<parents>time_zero_norace_mean</parents>
			<probabilities>0.9999306692628034 6.933073719669484e-05 0.9999221332022276 7.786679777241644e-05 0.0001031785776361507 0.9998968214223638 0.0002063264060645635 0.9997936735939355 0.0004019891657137387 0.9995980108342863 0.0001341099266766053 0.9998658900733234 9.3856856540136e-05 0.9999061431434598 7.031896237792948e-05 0.9999296810376221 4.370461290274186e-05 0.9999562953870972 0.6677196736160915 0.3322803263839085 0.9999599645062335 4.00354937664697e-05 0.001156704067660251 0.9988432959323397 0.9999853304625814 1.466953741865004e-05 0.9999694230588424 3.057694115768269e-05 0.0007666115267267786 0.9992333884732731 0.9999671145034057 3.288549659419317e-05 0.9999255814837457 7.441851625442832e-05 0.002000101363158848 0.9979998986368412</probabilities>
		</cpt>
		<cpt id="study_entry_period_dxckd_flag">
			<state id="S_0" />
			<state id="S_1" />
			<parents>time_zero_norace_mean</parents>
			<probabilities>0.9884119545496317 0.01158804545036836 0.9842259058809296 0.01577409411907041 0.6781983479389738 0.3218016520610263 0.7504989420675927 0.2495010579324073 0.7580490611974062 0.2419509388025937 0.7894138370798758 0.2105861629201241 0.8364677602429755 0.1635322397570245 0.8777961604257136 0.1222038395742863 0.9192828418067227 0.08071715819327728 0.9510970312124042 0.04890296878759576 0.9641547027220952 0.03584529727790475 0.6183596234444608 0.3816403765555393 0.9788243185116017 0.02117568148839827 0.9845952831363739 0.01540471686362619 0.6238708389880816 0.3761291610119183 0.9847783550344592 0.0152216449655409 0.9819905725615232 0.01800942743847677 0.6990987807372857 0.3009012192627143</probabilities>
		</cpt>
		<cpt id="study_entry_age">
			<state id="S_38_5___44_5" />
			<state id="S_44_5___50_5" />
			<state id="S_50_5___56_5" />
			<state id="S_56_5___63_5" />
			<state id="S_63_5___69_5" />
			<state id="S_69_5___75_5" />
			<state id="S_75_5___91_5" />
			<state id="S_le_91_5" />
			<state id="S_s_38_5" />
			<parents>time_zero_norace_mean</parents>
			<probabilities>0.2121655487483587 0.2853965038619621 0.1830925718936059 0.09847927160756471 0.0107118851713076 0.002346557749636634 0.0002895103687572199 1.523738793677736e-05 0.2075029132108701 0.2407065389628652 0.1729934068959227 0.0657296178960147 0.02340890105990909 0.005557261577056692 1.709926386171426e-05 1.709926365534934e-05 1.709926378573517e-05 0.4915529758169289 0.05147843644288025 0.07429270401800682 0.1081219045853654 0.156751856731299 0.149140134061525 0.1506862540272977 0.214809331113059 0.01591931861916254 0.07880006040140453 0.04672239040697201 0.05179227319690547 0.09435651734857967 0.1482248165937479 0.155980207019999 0.142187023535365 0.2961473504553082 0.02894603021699198 0.03564339122613071 0.03989852005141803 0.06272882040226101 0.06595196175275668 0.111710936384721 0.141134829297631 0.1594867612586876 0.3444521753988325 0.04352823963043359 0.03110775582325867 0.01764705760862238 0.03395147303158727 0.08058844343563179 0.107144696160877 0.1401183127660504 0.1329633861106326 0.3997091039342112 0.04538478474185892 0.04249274221052853 0.02222088928141818 0.03649346520046889 0.06379482576400394 0.1067039072813563 0.1306271019382368 0.1332615498526403 0.4194945599644124 0.05824864339774878 0.02915505731971443 0.02390412868463076 0.03588582134563759 0.05944712262604843 0.09521783757820484 0.1372143224405195 0.1420692484338625 0.4349040520932393 0.05180548030077929 0.01955198649707769 0.01883801865418729 0.03186188047585012 0.063003501954204 0.1150023100287976 0.1468989899374277 0.1733369135522261 0.393637125275583 0.03491142000120229 0.02250984012052208 0.02002218190630651 0.03965604692918744 0.07168255555204614 0.145937845562729 0.1711710151983403 0.1627443015830548 0.339493021375394 0.02537303918392041 0.02391999270902152 0.02768031997465994 0.05590999507258116 0.08940282257922333 0.1748095097364426 0.1825447357934071 0.1518429720169548 0.2770423162351456 0.01627680097446928 0.02449052761711597 0.07500722920483358 0.1242548580978035 0.1383181590681314 0.1911478261254615 0.1185121580526953 0.1022169450851823 0.1067609578407477 0.009514644235512924 0.1342672222896319 0.04308430131693082 0.07851818070437705 0.1299177329052031 0.1774644977161104 0.1615571908184237 0.152625748886444 0.1974872499725082 0.008059049457638417 0.05128604822236435 0.08046374107607621 0.09632422216498152 0.1045886799873213 0.2277656198293442 0.244233755191735 0.1217860220106424 0.04211904429457718 6.752010966385813e-06 0.08271216343435589 0.08219249516528913 0.1195163049814121 0.1040583348258644 0.1806540251421573 0.1446115096917578 0.1214971888393666 0.144414364012898 0.004771915444012865 0.09828386189724177 0.06832537182139012 0.1507243396637644 0.2653266817144125 0.2567868775047292 0.09055481310407698 0.02145443447244502 0.003592639921728568 7.243225669484042e-06 0.1432275985717837 0.07484726404119926 0.02368584429825124 0.014276844498661 0.00530889351733829 1.633505337501047e-05 1.633505106545338e-05 1.633505086705624e-05 1.633505098867405e-05 0.8818158134382539 0.08933127159312391 0.1622838083835388 0.1137269209601853 0.2016696065535561 0.1127151128434085 0.06854738006196066 0.09652468739900662 0.004446803153529873 0.1507544090516902</probabilities>
		</cpt>
		<cpt id="time_zero_uacr_mean">
			<state id="S_116_576___441_388" />
			<state id="S_11_5907___37_7477" />
			<state id="S_37_7477___116_576" />
			<state id="S_441_388___827_324" />
			<state id="S_4_4997___11_5907" />
			<state id="S_827_324___2379_15" />
			<state id="S_le_2379_15" />
			<state id="S_s_4_4997" />
			<parents>study_entry_period_egfrckd_norace_flag</parents>
			<probabilities>0.0606044529408825 0.1088144608347568 0.007925018386164837 0.1267148332683996 0.1314251617846588 0.05400456134064208 0.0600834271861424 0.4504280842583532 0.1253634185399763 0.06397851671768477 0.01421838274008153 0.07029781732988719 0.2150779360371922 0.1031077730139209 0.121411627579943 0.2865445280413141</probabilities>
		</cpt>
		<cpt id="study_entry_DM_flag">
			<state id="S_0" />
			<state id="S_1" />
			<parents>time_zero_uacr_mean</parents>
			<probabilities>0.6506400025192891 0.3493599974807109 0.6725789649114591 0.3274210350885408 0.3705876713026953 0.6294123286973049 0.8599018658519542 0.1400981341480456 0.5011600838028951 0.4988399161971048 0.4846374969384195 0.5153625030615805 0.6152786943177004 0.3847213056822994 0.979726550059796 0.02027344994020394</probabilities>
		</cpt>
		<cpt id="time_zero_pp_mean">
			<state id="S_44_5___49_5" />
			<state id="S_49_5___54_5" />
			<state id="S_54_5___58_5" />
			<state id="S_58_5___64_5" />
			<state id="S_64_5___70_5" />
			<state id="S_70_5___74_5" />
			<state id="S_74_5___87_5" />
			<state id="S_le_87_5" />
			<state id="S_s_44_5" />
			<parents>time_zero_uacr_mean</parents>
			<probabilities>0.006256340401437309 0.01269011608800515 0.01313768337252888 0.1684421322686862 0.2800696972516826 0.1616832783450474 0.2753591793124979 0.07169568998846534 0.01066588297164941 0.2025853919775328 0.2039380706041592 0.147679593890493 0.1284827210906404 0.04889899598836472 0.008366139928925058 0.01008629157458991 0.003181851202047443 0.2467809437432475 0.1098671177574582 0.1685427120153914 0.114799778139332 0.1808453297558246 0.09072587228649021 0.03893739646209723 0.06691917516194973 0.04506772051558867 0.184294897905868 0.1677719701331949 0.2416122020273757 0.1693909710788687 0.191459293745779 0.0680031726155336 0.008459776718970103 0.003409586476662985 0.00136376198849648 0.1485292652151185 0.1951895760086629 0.1943532518684454 0.1117162033844116 0.1275075505844428 0.054194154712482 0.01388167337916227 0.01358096518985455 0.005295280755306876 0.2842813441172315 0.1011019013453586 0.1413582429147522 0.1107226031620762 0.1776689334202466 0.1335014120196328 0.06170012896270801 0.1148953638203085 0.0335151405674021 0.1255362737875149 0.01763362909016758 0.03943118477160365 0.04665734800842736 0.1150717659019648 0.1613631766618808 0.1072562782425416 0.2896863238339529 0.2108823692712267 0.01201792421823452 0.207925002809118 0.1842664408557185 0.09424794790561022 0.06368513904219267 0.01072636829396042 0.002201325629594277 0.001197308363568532 0.0004883036211359316 0.4352621634791013</probabilities>
		</cpt>
		<cpt id="time_zero_aceiarb_coverage">
			<state id="S_2_5___77_5" />
			<state id="S_77_5___89_5" />
			<state id="S_le_89_5" />
			<state id="S_s_2_5" />
			<parents>time_zero_uacr_mean</parents>
			<probabilities>0.06050314540661564 0.05388236645808867 0.02206136198287562 0.8635531261524201 0.06034424553526179 0.04753963112803179 0.05024906725692791 0.8418670560797785 0.06739971989425741 0.03364849042004042 0.1345474468971602 0.7644043427885419 0.03525809153043331 0.02161355912785673 0.04245396780223974 0.9006743815394702 0.01215475312812139 0.007686251540982534 0.01313283061065521 0.9670261647202408 0.06415845533490772 0.003800418968185152 0.7345690174615758 0.1974721082353313 0.05331303080549959 0.05748556038819952 0.1932963459967312 0.6959050628095697 0.004104540478292698 0.002609077644746324 0.001384698635008769 0.9919016832419523</probabilities>
		</cpt>
		<cpt id="time_zero_sbp_mean">
			<state id="S_120_5___129_5" />
			<state id="S_129_5___135_5" />
			<state id="S_135_5___142_5" />
			<state id="S_142_5___146_5" />
			<state id="S_146_5___155_5" />
			<state id="S_155_5___171_5" />
			<state id="S_le_171_5" />
			<state id="S_s_120_5" />
			<parents>time_zero_uacr_mean</parents>
			<probabilities>0.04079586992809872 0.1923396716051945 0.3619963300752779 0.1537793087286284 0.1801324671979743 0.05283911530723222 0.005374998434416174 0.01274223872317794 0.3423625100126199 0.1216087550211247 0.02775783753830062 0.006787992879567431 0.008726962788052893 0.007838925917346341 0.00193206616038964 0.4829849496825985 0.1805307017293574 0.1516120918604755 0.203285736678107 0.05962707980100816 0.09573105621973406 0.05834497821975385 0.04206139162373458 0.2088069638678294 0.06085596757261372 0.2278883413479551 0.403091670561005 0.1570342690597175 0.1401707804858697 0.005621662571380457 0.001362436829188609 0.003974871572270152 0.2642261868874746 0.09194205346443594 0.02734369515793133 0.00834223414562207 0.01029450686070684 0.009908522180316034 0.002413853054774556 0.5855289482487388 0.2542141270649353 0.1763837537158143 0.1517381823709002 0.06053185368873896 0.07631298005621442 0.02964856971562687 0.005973801839050733 0.2451967315487192 0.00271709007660989 0.004069607018460373 0.009075528973801539 0.02818498391845701 0.2783831827280132 0.4762704957393097 0.1983181082135808 0.002981003331767516 0.320317844216558 0.1079001701113055 0.007755665640112083 0.001422545948762711 0.001974807404059511 0.0009864052888640324 0.0001217643943042902 0.5595207969960339</probabilities>
		</cpt>
		<cpt id="time_zero_ppi_coverage">
			<state id="S_le_78_5" />
			<state id="S_s_78_5" />
			<parents>time_zero_uacr_mean</parents>
			<probabilities>0.06961518566411933 0.9303848143358806 0.2741792217163412 0.7258207782836589 0.04423146230987405 0.9557685376901259 0.03481391801421048 0.9651860819857895 0.006296745855773119 0.9937032541442269 0.2536560795411437 0.7463439204588563 0.07649148020196325 0.9235085197980367 0.001992267485732348 0.9980077325142678</probabilities>
		</cpt>
		<cpt id="study_entry_aceiarb_flag">
			<state id="S_0" />
			<state id="S_1" />
			<parents>time_zero_uacr_mean</parents>
			<probabilities>0.8348981701534046 0.1651018298465954 0.7458755423644852 0.2541244576355148 0.7457439463017327 0.2542560536982673 0.8685328243268747 0.1314671756731253 0.948771167620042 0.05122883237995789 0.06972066550574303 0.9302793344942569 0.592779940483084 0.4072200595169159 0.9917711879928586 0.008228812007141525</probabilities>
		</cpt>
		<cpt id="study_entry_period_albprockd_flag">
			<state id="S_0" />
			<state id="S_1" />
			<parents>time_zero_uacr_mean</parents>
			<probabilities>0.9016102206076648 0.09838977939233508 0.9763527513361641 0.0236472486638358 0.03725831222927897 0.9627416877707212 0.9708312639136742 0.02916873608632583 0.999868956314672 0.0001310436853279208 0.9023346064516777 0.09766539354832218 0.9191303935768222 0.08086960642317774 0.999988907274283 1.109272571709536e-05</probabilities>
		</cpt>
		<cpt id="time_zero_dbp_mean">
			<state id="S_56_5___67_5" />
			<state id="S_67_5___77_5" />
			<state id="S_77_5___90_5" />
			<state id="S_90_5___100_5" />
			<state id="S_le_100_5" />
			<state id="S_s_56_5" />
			<parents>time_zero_uacr_mean</parents>
			<probabilities>0.3387860595209301 0.5754376039950275 0.03240258342902562 0.005263954700983412 0.0007891064084960209 0.04732069194553748 0.3621890734623988 0.4217304469343137 0.1504690309180078 0.006279947721712474 0.001190811246202683 0.05814068971736466 0.1464252664640583 0.337594206671306 0.405171600732993 0.06474565752284248 0.02008469398599926 0.02597857462280085 0.003203151088340183 0.01025417530170104 0.8193055575780277 0.1597377419091181 0.007291011250910273 0.0002083628719025892 0.4025493898807301 0.3399025412794915 0.1416021045496587 0.009537424620752655 0.0009841673588628661 0.1054243723105044 0.3496544171065283 0.3951907017120347 0.1696517405575869 0.01318692796461744 0.001687324985933786 0.0706288876732989 0.01142676691907162 0.2014545110316455 0.4763596971822249 0.2313685362798684 0.07788523165206528 0.00150525693512434 0.2540569546649203 0.4693756781039446 0.2523677355795521 0.002222835429266507 9.630346446369652e-06 0.02196716587587001</probabilities>
		</cpt>
		<cpt id="time_zero_hba1c_mean">
			<state id="S_4_85835___5_945" />
			<state id="S_5_945___6_02915" />
			<state id="S_6_02915___6_32915" />
			<state id="S_6_32915___6_7125" />
			<state id="S_6_7125___7_82665" />
			<state id="S_7_82665___9_45835" />
			<state id="S_9_45835___12_6417" />
			<state id="S_le_12_6417" />
			<state id="S_s_4_85835" />
			<parents>time_zero_uacr_mean</parents>
			<probabilities>0.2234295548283869 0.03896571671833771 0.09572400872746392 0.09713477608296447 0.2050329813999014 0.1424503351728053 0.1352599328330583 0.05288634396419213 0.0091163502728898 0.3108619223991167 0.04628769583973854 0.1012667621754964 0.09904362697235571 0.1652935044941685 0.1094530192904419 0.1025671495361204 0.03425781140703806 0.03096850788552375 0.1243190151172352 0.02662854058771742 0.08168030731278385 0.112293865359823 0.216321524703674 0.2054802123691534 0.1699669800722813 0.05901528196907473 0.004294272508257231 0.4955271703140774 0.03994073528844283 0.1070137297876999 0.06572843807805778 0.08066222030305384 0.07785892090760523 0.07833125789793197 0.03441809272464073 0.02051943469849034 0.08524266552938002 0.01463009107985269 0.05548624700105938 0.1542881432486537 0.3011715016441719 0.1859144379780759 0.1543917002537212 0.04593331918900521 0.002941894076080049 0.2327926438067386 0.02430790029788566 0.08926475772769694 0.1121214764050258 0.1898995103905463 0.1648956593970194 0.1295715708070459 0.04591737075042566 0.01122911041761573 0.2419575680847749 0.03706169315144711 0.07844739235117809 0.08661948812104016 0.1528825631693846 0.1648970842174677 0.1665931989467834 0.05608019159200153 0.01546082036592247 0.6617414976461721 0.06739133016946097 0.1364276484776824 0.04544632601057268 0.03808013884617462 0.01536681019375223 0.006516260901003824 0.0007053533571529223 0.02832463439802827</probabilities>
		</cpt>
		<cpt id="time_zero_map_mean">
			<state id="S_105_017___113_055" />
			<state id="S_113_055___121_538" />
			<state id="S_98_0399___105_017" />
			<state id="S_le_121_538" />
			<state id="S_s_98_0399" />
			<parents>time_zero_uacr_mean</parents>
			<probabilities>0.008555348723240782 0.004137941954402057 0.155057229736395 0.002288278116418585 0.8299612014695436 0.01063238020853359 0.00481817532131796 0.02545564784498389 0.001013958572385147 0.9580798380527794 0.1174557403001737 0.04233196268091801 0.2155443862057511 0.02869681030591327 0.5959711005072441 0.3007674653845048 0.02831662863472446 0.643705689876382 0.002174427403338322 0.02503578870105038 0.0130398864652032 0.005158827097323986 0.02894869210365645 0.002019542672548242 0.9508330516612681 0.02401386618306291 0.007022601313546512 0.1218509707732801 0.003298422700758679 0.8438141390293519 0.3627905203135545 0.2586576081091516 0.2145777570254842 0.1457186046461472 0.01825550990566265 0.002222200875615643 0.0007324449134121128 0.02822926105300587 1.19295426248207e-05 0.9688041636153415</probabilities>
		</cpt>
		<cpt id="time_zero_mra_coverage">
			<state id="S_le_1_5" />
			<state id="S_s_1_5" />
			<parents>time_zero_uacr_mean</parents>
			<probabilities>0.003299916807832912 0.9967000831921671 0.01282527930474792 0.987174720695252 0.004476130366829183 0.9955238696331709 0.0009258290694146061 0.9990741709305854 0.001225716013074675 0.9987742839869254 0.01821615870295069 0.9817838412970492 0.005140951011299716 0.9948590489887004 0.0005805946479880982 0.9994194053520119</probabilities>
		</cpt>
		<cpt id="demo_race_ethnicity_cat">
			<state id="S_1A" />
			<state id="S_1B" />
			<state id="S_2" />
			<state id="S_3" />
			<state id="S_4" />
			<state id="S_5" />
			<state id="S_8" />
			<state id="S_minus_9" />
			<parents>time_zero_uacr_mean</parents>
			<probabilities>0.6682608017031813 0.04598398398969867 0.05828624601191573 0.07270173314482058 0.008052721667167032 0.01016232488715081 0.1081049641682893 0.02844722442777677 0.7149527430917574 0.02903586596134971 0.0408399399563445 0.05639482765797325 0.01468789088684253 0.007067182886654825 0.1054883056944402 0.03153324386463755 0.5011982670391937 0.05899572696862147 0.08102648702090835 0.1318910544509081 0.008591728216390879 0.02345803209341568 0.1269546134387416 0.06788409077182023 0.6704895869749773 0.03723264852214732 0.07108817494087963 0.05731505337388188 0.01206830299766664 0.01402054865810251 0.09447123479726563 0.04331444973507917 0.5887087318669429 0.05877126301964872 0.0611746953550453 0.06349113715872748 0.01152724861775805 0.01398168183257483 0.1126169546299136 0.08972828751938909 0.7105868795758687 0.02659275053844733 0.05466486143278721 0.06924170308542743 0.01183218511350363 0.01757318894032224 0.08841754077047846 0.02109089054316494 0.5909939252956182 0.04043271987524976 0.1097273631883175 0.08400208007265528 0.009057476208975833 0.01817757618334655 0.1257263206195692 0.02188253855626766 0.7187891169089259 0.03570156554568855 0.0414419323383914 0.05753696965623689 0.009654814459922185 0.0035743372705742 0.07846208266767346 0.05483918115258738</probabilities>
		</cpt>
		<cpt id="study_entry_ppi_flag">
			<state id="S_0" />
			<state id="S_1" />
			<parents>time_zero_uacr_mean</parents>
			<probabilities>0.8812377534633844 0.1187622465366157 0.5963331732159457 0.4036668267840542 0.9254760815339124 0.07452391846608761 0.9157277992288948 0.0842722007711053 0.9852841229624749 0.014715877037525 0.6821819481138152 0.3178180518861848 0.8644313531569833 0.1355686468430166 0.9920171679639768 0.007982832036023289</probabilities>
		</cpt>
		<cpt id="time_zero_upcr_mean">
			<state id="S_0_21745___0_60395" />
			<state id="S_0_60395___2_00825" />
			<state id="S_le_2_00825" />
			<state id="S_s_0_21745" />
			<parents>time_zero_uacr_mean</parents>
			<probabilities>0.1050595334837301 0.2547464541402278 0.5650995092070061 0.07509450316903594 0.1317578188674519 0.1419408563117414 0.4179706497278253 0.3083306750929815 0.183380160252688 0.2542995860904969 0.5320261745951194 0.03029407906169595 0.1335906322169875 0.2795597597436315 0.4732135803794745 0.1136360276599065 0.4754277989773388 0.4531579645084144 0.03170175590846325 0.03971248060578354 0.006324682546307989 0.124224526582597 0.7043659706771307 0.1650848201939643 0.01173576977481075 0.08867690205652348 0.8597201260512262 0.03986720211743951 0.5304180307344201 0.3656353805017305 0.01021417275758771 0.09373241600626171</probabilities>
		</cpt>
		<cpt id="study_entry_HTN_flag">
			<state id="S_0" />
			<state id="S_1" />
			<parents>time_zero_upcr_mean</parents>
			<probabilities>0.9366532225597031 0.063346777440297 0.8666874400566217 0.1333125599433782 0.1136412801993751 0.8863587198006249 0.4423236988378326 0.5576763011621673</probabilities>
		</cpt>
		<cpt id="time_zero_nsaid_coverage">
			<state id="S_0_5___12_5" />
			<state id="S_le_12_5" />
			<state id="S_s_0_5" />
			<parents>time_zero_upcr_mean</parents>
			<probabilities>0.001271885913186505 0.006270311696240646 0.9924578023905729 0.002109387844280163 0.003289048444528458 0.9946015637111913 0.0138023383874434 0.03336772261216717 0.9528299390003894 0.09477311606807365 0.4402504500744909 0.4649764338574354</probabilities>
		</cpt>
		<cpt id="ruca_4_class">
			<state id="S_isolated" />
			<state id="S_large_rural" />
			<state id="S_small_rural" />
			<state id="S_urban" />
			<parents>time_zero_upcr_mean</parents>
			<probabilities>0.01918925646389566 0.04397543833031362 0.02006299161626813 0.9167723135895226 0.0294024127830627 0.05557025690235472 0.03248684388903302 0.8825404864255496 0.02573537585341572 0.06544592649774868 0.02582075001822029 0.8829979476306152 0.03357195742644879 0.06919182517802586 0.03000199523240045 0.8672342221631248</probabilities>
		</cpt>
		<cpt id="study_entry_nsaid_flag">
			<state id="S_0" />
			<state id="S_1" />
			<parents>time_zero_upcr_mean</parents>
			<probabilities>0.9937152126246466 0.00628478737535349 0.9956033665933036 0.004396633406696448 0.8954977942489324 0.1045022057510674 0.3496432071204443 0.6503567928795557</probabilities>
		</cpt>
		<cpt id="demo_sex">
			<state id="S_0" />
			<state id="S_1" />
			<parents>time_zero_upcr_mean</parents>
			<probabilities>0.391091516928038 0.608908483071962 0.5329181835874404 0.4670818164125596 0.5108952108853169 0.4891047891146831 0.382153243267979 0.6178467567320209</probabilities>
		</cpt>
		<cpt id="study_entry_mra_flag">
			<state id="S_0" />
			<state id="S_1" />
			<parents>time_zero_upcr_mean</parents>
			<probabilities>0.9994228427386627 0.0005771572613371997 0.9981336995063019 0.001866300493698126 0.9921366692039405 0.00786333079605939 0.9955357263450935 0.004464273654906644</probabilities>
		</cpt>
		<cpt id="study_entry_PDM_flag">
			<state id="S_0" />
			<state id="S_1" />
			<parents>time_zero_upcr_mean</parents>
			<probabilities>0.9174106970732393 0.08258930292676073 0.947101221598841 0.05289877840115913 0.8990209782423187 0.1009790217576812 0.9205483947513478 0.07945160524865216</probabilities>
		</cpt>
		<cpt id="study_entry_glp1_flag">
			<state id="S_0" />
			<state id="S_1" />
			<parents>time_zero_upcr_mean</parents>
			<probabilities>0.999935796887416 6.420311258398117e-05 0.9998457744418188 0.0001542255581812692 0.9917200986023342 0.008279901397665866 0.9965519602926817 0.003448039707318262</probabilities>
		</cpt>
		<cpt id="time_zero_glp1_coverage">
			<state id="S_le_0_5" />
			<state id="S_s_0_5" />
			<parents>time_zero_upcr_mean</parents>
			<probabilities>0.0003134887923090224 0.999686511207691 9.969548751442846e-05 0.9999003045124856 0.005930387845663966 0.994069612154336 0.002437280749715418 0.9975627192502845</probabilities>
		</cpt>
		<cpt id="study_entry_sglt2_flag">
			<state id="S_0" />
			<state id="S_1" />
			<parents>time_zero_upcr_mean</parents>
			<probabilities>0.9999514989744812 4.850102551871842e-05 0.9998953776310507 0.0001046223689492806 0.9957686355221245 0.004231364477875447 0.9982167085228594 0.001783291477140564</probabilities>
		</cpt>
		<cpt id="time_zero_sglt2_coverage">
			<state id="S_le_34_5" />
			<state id="S_s_34_5" />
			<parents>time_zero_upcr_mean</parents>
			<probabilities>1.723674112884945e-05 0.999982763258871 1.721759316193393e-05 0.9999827824068379 0.001974720362435229 0.9980252796375647 0.0007890722455349377 0.9992109277544652</probabilities>
		</cpt>
	</nodes>
	<extensions>
		<genie version="1.0" app="SMILE_ACADEMIC 1.6.2@b061b4f1f63d" name="Unnamed">
			<node id="time_zero_norace_mean">
				<name>time_zero_norace_mean</name>
				<interior color="e5f6f7" />
				<outline color="0000bb" />
				<font color="000000" name="MS Sans Serif" size="8" />
				<position>960 40 1045 95</position>
			</node>
			<node id="year1_reduction_40_ge">
				<name>year1_reduction_40_ge</name>
				<interior color="e5f6f7" />
				<outline color="0000bb" />
				<font color="000000" name="MS Sans Serif" size="8" />
				<position>942 206 1027 261</position>
			</node>
			<node id="study_entry_period_egfrckd_norace_flag">
				<name>study_entry_period_egfrckd_norace_flag</name>
				<interior color="e5f6f7" />
				<outline color="0000bb" />
				<font color="000000" name="MS Sans Serif" size="8" />
				<position>890 365 975 420</position>
			</node>
			<node id="study_entry_period_dxckd_flag">
				<name>study_entry_period_dxckd_flag</name>
				<interior color="e5f6f7" />
				<outline color="0000bb" />
				<font color="000000" name="MS Sans Serif" size="8" />
				<position>807 510 892 565</position>
			</node>
			<node id="study_entry_age">
				<name>study_entry_age</name>
				<interior color="e5f6f7" />
				<outline color="0000bb" />
				<font color="000000" name="MS Sans Serif" size="8" />
				<position>695 634 780 689</position>
			</node>
			<node id="time_zero_uacr_mean">
				<name>time_zero_uacr_mean</name>
				<interior color="e5f6f7" />
				<outline color="0000bb" />
				<font color="000000" name="MS Sans Serif" size="8" />
				<position>560 732 645 787</position>
			</node>
			<node id="study_entry_DM_flag">
				<name>study_entry_DM_flag</name>
				<interior color="e5f6f7" />
				<outline color="0000bb" />
				<font color="000000" name="MS Sans Serif" size="8" />
				<position>407 800 492 855</position>
			</node>
			<node id="time_zero_pp_mean">
				<name>time_zero_pp_mean</name>
				<interior color="e5f6f7" />
				<outline color="0000bb" />
				<font color="000000" name="MS Sans Serif" size="8" />
				<position>243 835 328 890</position>
			</node>
			<node id="time_zero_aceiarb_coverage">
				<name>time_zero_aceiarb_coverage</name>
				<interior color="e5f6f7" />
				<outline color="0000bb" />
				<font color="000000" name="MS Sans Serif" size="8" />
				<position>76 835 161 890</position>
			</node>
			<node id="time_zero_sbp_mean">
				<name>time_zero_sbp_mean</name>
				<interior color="e5f6f7" />
				<outline color="0000bb" />
				<font color="000000" name="MS Sans Serif" size="8" />
				<position>-87 800 -2 855</position>
			</node>
			<node id="time_zero_ppi_coverage">
				<name>time_zero_ppi_coverage</name>
				<interior color="e5f6f7" />
				<outline color="0000bb" />
				<font color="000000" name="MS Sans Serif" size="8" />
				<position>-239 732 -154 787</position>
			</node>
			<node id="study_entry_aceiarb_flag">
				<name>study_entry_aceiarb_flag</name>
				<interior color="e5f6f7" />
				<outline color="0000bb" />
				<font color="000000" name="MS Sans Serif" size="8" />
				<position>-375 634 -290 689</position>
			</node>
			<node id="study_entry_period_albprockd_flag">
				<name>study_entry_period_albprockd_flag</name>
				<interior color="e5f6f7" />
				<outline color="0000bb" />
				<font color="000000" name="MS Sans Serif" size="8" />
				<position>-487 510 -402 565</position>
			</node>
			<node id="time_zero_dbp_mean">
				<name>time_zero_dbp_mean</name>
				<interior color="e5f6f7" />
				<outline color="0000bb" />
				<font color="000000" name="MS Sans Serif" size="8" />
				<position>-570 365 -485 420</position>
			</node>
			<node id="time_zero_hba1c_mean">
				<name>time_zero_hba1c_mean</name>
				<interior color="e5f6f7" />
				<outline color="0000bb" />
				<font color="000000" name="MS Sans Serif" size="8" />
				<position>-622 206 -537 261</position>
			</node>
			<node id="time_zero_map_mean">
				<name>time_zero_map_mean</name>
				<interior color="e5f6f7" />
				<outline color="0000bb" />
				<font color="000000" name="MS Sans Serif" size="8" />
				<position>-640 40 -555 95</position>
			</node>
			<node id="time_zero_mra_coverage">
				<name>time_zero_mra_coverage</name>
				<interior color="e5f6f7" />
				<outline color="0000bb" />
				<font color="000000" name="MS Sans Serif" size="8" />
				<position>-622 -126 -537 -71</position>
			</node>
			<node id="demo_race_ethnicity_cat">
				<name>demo_race_ethnicity_cat</name>
				<interior color="e5f6f7" />
				<outline color="0000bb" />
				<font color="000000" name="MS Sans Serif" size="8" />
				<position>-570 -285 -485 -230</position>
			</node>
			<node id="study_entry_ppi_flag">
				<name>study_entry_ppi_flag</name>
				<interior color="e5f6f7" />
				<outline color="0000bb" />
				<font color="000000" name="MS Sans Serif" size="8" />
				<position>-487 -430 -402 -375</position>
			</node>
			<node id="time_zero_upcr_mean">
				<name>time_zero_upcr_mean</name>
				<interior color="e5f6f7" />
				<outline color="0000bb" />
				<font color="000000" name="MS Sans Serif" size="8" />
				<position>-375 -554 -290 -499</position>
			</node>
			<node id="study_entry_HTN_flag">
				<name>study_entry_HTN_flag</name>
				<interior color="e5f6f7" />
				<outline color="0000bb" />
				<font color="000000" name="MS Sans Serif" size="8" />
				<position>-240 -652 -155 -597</position>
			</node>
			<node id="time_zero_nsaid_coverage">
				<name>time_zero_nsaid_coverage</name>
				<interior color="e5f6f7" />
				<outline color="0000bb" />
				<font color="000000" name="MS Sans Serif" size="8" />
				<position>-87 -720 -2 -665</position>
			</node>
			<node id="ruca_4_class">
				<name>ruca_4_class</name>
				<interior color="e5f6f7" />
				<outline color="0000bb" />
				<font color="000000" name="MS Sans Serif" size="8" />
				<position>76 -755 161 -700</position>
			</node>
			<node id="study_entry_nsaid_flag">
				<name>study_entry_nsaid_flag</name>
				<interior color="e5f6f7" />
				<outline color="0000bb" />
				<font color="000000" name="MS Sans Serif" size="8" />
				<position>243 -755 328 -700</position>
			</node>
			<node id="demo_sex">
				<name>demo_sex</name>
				<interior color="e5f6f7" />
				<outline color="0000bb" />
				<font color="000000" name="MS Sans Serif" size="8" />
				<position>407 -720 492 -665</position>
			</node>
			<node id="study_entry_mra_flag">
				<name>study_entry_mra_flag</name>
				<interior color="e5f6f7" />
				<outline color="0000bb" />
				<font color="000000" name="MS Sans Serif" size="8" />
				<position>559 -652 644 -597</position>
			</node>
			<node id="study_entry_PDM_flag">
				<name>study_entry_PDM_flag</name>
				<interior color="e5f6f7" />
				<outline color="0000bb" />
				<font color="000000" name="MS Sans Serif" size="8" />
				<position>695 -554 780 -499</position>
			</node>
			<node id="study_entry_glp1_flag">
				<name>study_entry_glp1_flag</name>
				<interior color="e5f6f7" />
				<outline color="0000bb" />
				<font color="000000" name="MS Sans Serif" size="8" />
				<position>807 -430 892 -375</position>
			</node>
			<node id="time_zero_glp1_coverage">
				<name>time_zero_glp1_coverage</name>
				<interior color="e5f6f7" />
				<outline color="0000bb" />
				<font color="000000" name="MS Sans Serif" size="8" />
				<position>890 -285 975 -230</position>
			</node>
			<node id="study_entry_sglt2_flag">
				<name>study_entry_sglt2_flag</name>
				<interior color="e5f6f7" />
				<outline color="0000bb" />
				<font color="000000" name="MS Sans Serif" size="8" />
				<position>942 -126 1027 -71</position>
			</node>
			<node id="time_zero_sglt2_coverage">
				<name>time_zero_sglt2_coverage</name>
				<interior color="e5f6f7" />
				<outline color="0000bb" />
				<font color="000000" name="MS Sans Serif" size="8" />
				<position>960 39 1045 94</position>
			</node>
		</genie>
	</extensions>
</smile>
