<?xml version="1.0" encoding="UTF-8"?>
<!-- This file was created by ACADEMIC version of SMILE -->
<smile version="1.0" id="Unnamed" numsamples="10000" discsamples="10000">
	<nodes>
		<cpt id="time_zero_mean">
			<state id="S_11_325___20_925" />
			<state id="S_20_925___23_715" />
			<state id="S_23_715___34_045" />
			<state id="S_34_045___42_015" />
			<state id="S_42_015___50_265" />
			<state id="S_50_265___55_985" />
			<state id="S_55_985___62_585" />
			<state id="S_62_585___71_015" />
			<state id="S_6_795___8_975" />
			<state id="S_71_015___82_385" />
			<state id="S_82_385___88_705" />
			<state id="S_88_705___109_665" />
			<state id="S_8_975___11_325" />
			<state id="S_le_109_665" />
			<state id="S_s_6_795" />
			<probabilities>0.02872171687205111 0.009053515461610925 0.04343132359196825 0.04472905695221283 0.05575495825107609 0.04718273093383707 0.06096677160836958 0.09273090143312843 0.003934416973017585 0.1497353353028009 0.09368007110848231 0.2557095171873873 0.005686546388067159 0.1068910073828587 0.001792130553131871</probabilities>
		</cpt>
		<cpt id="year1_reduction_40_ge">
			<state id="S_0" />
			<state id="S_1" />
			<parents>time_zero_mean</parents>
			<probabilities>0.6917089061181949 0.3082910938818051 0.6841445096502492 0.3158554903497507 0.751002733532263 0.248997266467737 0.7919818593855364 0.2080181406144636 0.8225694794468469 0.1774305205531532 0.8381552230982856 0.1618447769017144 0.853085206284896 0.146914793715104 0.8658217374979091 0.1341782625020909 0.7142658402419212 0.2857341597580788 0.8829230579819074 0.1170769420180926 0.8912121593421808 0.1087878406578192 0.9055459650229453 0.09445403497705465 0.6483620136281029 0.351637986371897 0.92798886131588 0.07201113868412001 0.7501185865186979 0.2498814134813021</probabilities>
		</cpt>
		<cpt id="time_zero_scr_count">
			<state id="S_10_5___114_5" />
			<state id="S_1_5___2_5" />
			<state id="S_2_5___4_5" />
			<state id="S_4_5___10_5" />
			<state id="S_le_114_5" />
			<state id="S_s_1_5" />
			<parents>time_zero_mean</parents>
			<probabilities>0.1706461309710925 0.1457038656425745 0.1741132864205738 0.1803100979303773 0.0004481453682112755 0.3287784736671706 0.1551763874285691 0.175984235867526 0.1429989921498004 0.1628620078663252 0.0002029438526863418 0.3627754328350929 0.1269919464368754 0.1489653725737702 0.1632113661115341 0.17850289886512 0.001312630934872555 0.3810157850778277 0.1005445990055179 0.1683276308893334 0.1616686792696825 0.1593779593442987 0.002261309158462309 0.4078198223327053 0.08263573670070407 0.1679427371629351 0.1388389655775344 0.1502944159409149 0.003001681897103291 0.4572864627208081 0.08079654209511226 0.1548888043813013 0.1394745815853245 0.127167088772485 0.003079188038856742 0.4945937951269204 0.0608803133460389 0.1595001301300767 0.1292775259761493 0.1200755179268646 0.002926120202423664 0.5273403924184469 0.05940337612028481 0.1572255773192312 0.1244991804156078 0.1099805585163061 0.002994961361286633 0.5458963462672834 0.1464998942472518 0.1185150585280276 0.1632904256588191 0.2316294597398117 0.0004663060509240895 0.3395988557751656 0.06133302837612396 0.1478601481205292 0.1129250145389383 0.1061443553428524 0.001412637280938631 0.5703248163406175 0.05196919915917236 0.1398476205414942 0.1093375621506636 0.09897121161608198 0.001079828348228687 0.5987945781843593 0.04994244526324938 0.1354840895156984 0.09564810160740569 0.08533304250030836 0.0003956264336693472 0.6331966946796689 0.1618224844109006 0.0975922381827958 0.1518344750578201 0.2265864605894815 0.0003228883836739135 0.3618414533753281 0.04833436016325233 0.125765699975209 0.081991153791401 0.0658854970276518 0.0003269321113657887 0.67769635693112 0.124147607318932 0.1426105281535056 0.1976665128687757 0.2051809024340537 0.001020535794631573 0.3293739134301014</probabilities>
		</cpt>
		<cpt id="study_entry_period_egfrckd_flag">
			<state id="S_0" />
			<state id="S_1" />
			<parents>time_zero_mean</parents>
			<probabilities>0.0001920623006619753 0.9998079376993381 0.0006088315580590253 0.9993911684419411 0.0001270288001489569 0.9998729711998511 0.000123344135916126 0.9998766558640838 9.895654605835026e-05 0.9999010434539416 0.0001169311913489902 0.9998830688086511 0.4071530347640431 0.5928469652359569 0.9999402452269245 5.975477307554921e-05 0.001398918152772269 0.9986010818472276 0.9999629378679066 3.706213209349176e-05 0.9999406837024587 5.931629754131506e-05 0.999978180534757 2.181946524300779e-05 0.0009686651510217411 0.9990313348489782 0.9999476730421093 5.232695789074679e-05 0.00306160738389472 0.9969383926161053</probabilities>
		</cpt>
		<cpt id="time_zero_bp_count">
			<state id="S_0_5___6_5" />
			<state id="S_1475_5___21039_5" />
			<state id="S_161_5___1475_5" />
			<state id="S_16_5___24_5" />
			<state id="S_24_5___161_5" />
			<state id="S_6_5___16_5" />
			<state id="S_le_21039_5" />
			<state id="S_s_0_5" />
			<parents>time_zero_scr_count</parents>
			<probabilities>0.02905317240254445 0.09886233893328984 0.3652136682433535 0.004424237481650628 0.1247961180884032 0.00263007665959876 0.003445604305985973 0.3715747838851737 0.1829113203249563 9.490547414774884e-06 0.02301457748082909 0.06492483486447498 0.1954388429124592 0.1502638372181307 9.490547414774884e-06 0.3834276061043201 0.0756389020350213 0.0001064836725035495 0.06323946994794132 0.07734264079507809 0.3004377662091813 0.09456933270231897 1.183151916706105e-05 0.3886535731187885 0.03943079237713139 0.00332246740220662 0.1868731193580742 0.03230942828485456 0.3240847542627883 0.02659227683049147 1.253761283851555e-05 0.3873746238716148 0.001 0.449 0.009000000000000001 0.001 0.001 0.001 0.345 0.193 0.3207724580454097 4.195459032576506e-05 0.004503948667324779 0.02778134254689043 0.06961747285291214 0.08426702862783811 2.46791707798618e-06 0.4930133267522211</probabilities>
		</cpt>
		<cpt id="study_entry_age">
			<state id="S_38_5___44_5" />
			<state id="S_44_5___50_5" />
			<state id="S_50_5___56_5" />
			<state id="S_56_5___66_5" />
			<state id="S_66_5___71_5" />
			<state id="S_71_5___76_5" />
			<state id="S_le_76_5" />
			<state id="S_s_38_5" />
			<parents>time_zero_mean</parents>
			<probabilities>0.04536541996910727 0.05557657824115778 0.09800129668475913 0.2305222202467605 0.1327279372383909 0.1013416707748273 0.27675394469366 0.05971093215133694 0.04480561835664326 0.04205725465330255 0.07385083396598632 0.194412732793178 0.1403691475655413 0.1124098280096134 0.3363853788933629 0.05570920576237229 0.01945517040651018 0.03584149861209095 0.06385904238029418 0.1711357457837335 0.1129976198222105 0.1092243698967664 0.4532117730658048 0.03427478003258949 0.01613803764375943 0.02961396855148195 0.04608662808637789 0.1570486832516191 0.1154237815706146 0.1193642488400768 0.495564911214965 0.02075974084110515 0.01760725520076524 0.02864364849970503 0.04997759768457406 0.1409255748504496 0.1102582071805911 0.1284591816238066 0.5052748230298194 0.01885371193028892 0.01436375323387921 0.02650086622827225 0.05317339381323014 0.1620711222681516 0.1279575947442069 0.1283644672617668 0.4676686000414501 0.01990020240904296 0.01615629764492147 0.03502624593735387 0.0597516805958384 0.1981740950334067 0.1420866497476261 0.1326216672147284 0.3955730351550511 0.02061032867107391 0.02095979781194889 0.05094911933071052 0.08391351384737332 0.2360020242042636 0.1367517372002402 0.124256196965979 0.3248987693408362 0.02226884129864817 0.08007450491563657 0.08806323920699377 0.1160326310750769 0.2558266401691345 0.09838736611209711 0.07889662601815974 0.1431148408150417 0.1396041516878596 0.03899803257209777 0.07297506093562961 0.1067309292602385 0.2667397423437109 0.1328953978168551 0.1118163886433324 0.2305516195536828 0.03929282887445291 0.04937276003334024 0.08836444162162566 0.1431411537561075 0.229252527244218 0.1423164854845586 0.1199345818089139 0.1512692292018156 0.07634882084942068 0.1021633811747545 0.1510196832114837 0.1865397048842835 0.2905534766733344 0.07808047690244772 0.03388540516755757 0.01437742434627057 0.143380447639868 0.06531137242140318 0.09019564051721544 0.08816952822502067 0.2626179229688252 0.1340441681638086 0.09742452651137185 0.1436972182278125 0.1185396229645425 0.1448611989454803 0.09675052968435353 0.05070461721781305 0.02406823178405764 0.002284223302287066 0.0001161469439136119 0.0001161469359095985 0.6810989051861853 0.08801032489791437 0.08757369369480011 0.1242339963655905 0.2158591646978142 0.08660067311803127 0.0682706722346358 0.08652901563812557 0.2429224593530882</probabilities>
		</cpt>
		<cpt id="study_entry_period_dxckd_flag">
			<state id="S_0" />
			<state id="S_1" />
			<parents>time_zero_mean</parents>
			<probabilities>0.6556585598732108 0.3443414401267894 0.7462629655211713 0.2537370344788287 0.7817024776664921 0.2182975223335078 0.8437845944784281 0.156215405521572 0.8907417137990556 0.1092582862009444 0.9177931643699507 0.08220683563004924 0.9465897004290595 0.05341029957094041 0.9654290138769618 0.03457098612303812 0.6774172691570988 0.3225827308429012 0.9743882667312534 0.02561173326874658 0.9809753803277466 0.01902461967225335 0.9852179541636128 0.01478204583638714 0.6031920363757866 0.3968079636242134 0.9839458918700947 0.0160541081299051 0.7004841085003408 0.2995158914996592</probabilities>
		</cpt>
		<cpt id="time_zero_ipv_count">
			<state id="S_0_5___1_5" />
			<state id="S_le_1_5" />
			<state id="S_s_0_5" />
			<parents>time_zero_scr_count</parents>
			<probabilities>0.3579078997444681 0.3091393464905127 0.3329527537650193 0.08263103282463999 0.005491863437349732 0.9118771037380102 0.2074144186780249 0.02170689383183468 0.7708786874901403 0.3511868940153794 0.07826813774657305 0.5705449682380475 0.2346666666666667 0.1706666666666667 0.5946666666666667 0.01704508061862455 0.001289897992760776 0.9816650213886148</probabilities>
		</cpt>
		<cpt id="time_zero_av_count">
			<state id="S_0_5___2_5" />
			<state id="S_10_5___20_5" />
			<state id="S_20_5___67_5" />
			<state id="S_2_5___10_5" />
			<state id="S_le_67_5" />
			<state id="S_s_0_5" />
			<parents>time_zero_bp_count</parents>
			<probabilities>0.2587590086716267 0.08429453571012467 0.01493816680814234 0.4385163362793562 8.32209850035785e-06 0.2034836304322498 0.001669051025274202 0.2606103958035288 0.6340009537434431 0.04172627563185504 0.06175488793514545 0.0002384358607534573 0.03642592243384247 0.3109874913570934 0.2904330881890753 0.3585077629015023 0.001728581306178892 0.001917153812307498 0.2272285408768349 0.1802760766015359 0.05779138718771265 0.4619908622533295 4.860503548167591e-05 0.07266452804510548 0.1886192952050837 0.1935171928766986 0.1034712279908573 0.4794037123552609 0.0003139677994624872 0.03467460377263708 0.2393951470067304 0.1539806942968473 0.04691374424371236 0.4375885582713425 2.213956783563584e-05 0.1220997166135317 0.002564102564102564 0.002564102564102564 0.4487179487179487 0.002564102564102564 0.541025641025641 0.002564102564102564 0.3157491975247361 0.04028508554220855 0.008268804394586188 0.260874780767067 4.136470432509348e-06 0.3748179953009695</probabilities>
		</cpt>
		<cpt id="study_entry_DM_flag">
			<state id="S_0" />
			<state id="S_1" />
			<parents>time_zero_bp_count</parents>
			<probabilities>0.7967493883257601 0.2032506116742398 0.4871244635193133 0.5128755364806867 0.6018291533094474 0.3981708466905525 0.7020997375328084 0.2979002624671916 0.6794137593248437 0.3205862406751563 0.7383767268862912 0.2616232731137088 0.4076923076923077 0.5923076923076923 0.8200511267745457 0.1799488732254542</probabilities>
		</cpt>
		<cpt id="time_zero_uacr_mean">
			<state id="S_111_02___440_058" />
			<state id="S_11_0034___51_8122" />
			<state id="S_440_058___867_873" />
			<state id="S_51_8122___111_02" />
			<state id="S_867_873___2725_15" />
			<state id="S_le_2725_15" />
			<state id="S_s_11_0034" />
			<parents>study_entry_period_egfrckd_flag</parents>
			<probabilities>0.06473320764286085 0.1418943435280037 0.0773643594763255 0.1342700695026273 0.02869298678516121 0.1045543826082307 0.4484906504567907 0.09398454589728346 0.09989428896493704 0.2384024346261229 0.1590996733688317 0.1174095496868869 0.1059704400815643 0.1852390673743737</probabilities>
		</cpt>
		<cpt id="time_zero_pp_mean">
			<state id="S_45_5___52_5" />
			<state id="S_52_5___56_5" />
			<state id="S_56_5___63_5" />
			<state id="S_63_5___68_5" />
			<state id="S_68_5___74_5" />
			<state id="S_74_5___87_5" />
			<state id="S_le_87_5" />
			<state id="S_s_45_5" />
			<parents>time_zero_uacr_mean</parents>
			<probabilities>0.2429276124423571 0.1566810951774758 0.2284358341319389 0.08845609467084439 0.04524829079910403 0.01759267247134167 0.004864255644919376 0.2157941446620188 0.2068533144727938 0.1519997770293771 0.2621044604445604 0.1603127683613336 0.08296998419144239 0.009936546691170105 0.001669939337796812 0.1241532094715259 0.008933603221601224 0.03570950928084816 0.1995430202662732 0.2086102256107873 0.2434354945197652 0.2490064368301593 0.04855281947763791 0.006208890792927686 0.2533140058441504 0.09142211768944018 0.123757466393193 0.05177236769764135 0.02345307626851535 0.01788613163506431 0.003413684547967807 0.4349811499240276 0.009205000430549675 0.006547984449922378 0.02799240500975166 0.03772528125059615 0.1710123966924632 0.4869607427560073 0.2549008089591451 0.005655380451564669 0.148599771747273 0.09471307040093857 0.1856071790374512 0.1203411070364644 0.113076093897772 0.1592624706062852 0.09746705062538047 0.08093325664843518 0.334388333659661 0.1252261482175855 0.09501021079663857 0.01005268850909935 0.003277786271199532 0.002640927650173802 0.0005830525852269152 0.4288208523104153</probabilities>
		</cpt>
		<cpt id="time_zero_aceiarb_coverage">
			<state id="S_le_1_5" />
			<state id="S_s_1_5" />
			<parents>time_zero_uacr_mean</parents>
			<probabilities>0.4697268162370632 0.5302731837629368 0.3391332526374938 0.6608667473625063 0.01660462444408567 0.9833953755559143 0.02126409610522842 0.9787359038947716 0.5071937342846595 0.4928062657153406 0.2080104866243385 0.7919895133756614 0.01587658994136265 0.9841234100586375</probabilities>
		</cpt>
		<cpt id="time_zero_ppi_coverage">
			<state id="S_4_5___78_5" />
			<state id="S_le_78_5" />
			<state id="S_s_4_5" />
			<parents>time_zero_uacr_mean</parents>
			<probabilities>0.1169661906976689 0.3906221530759544 0.4924116562263767 0.0582277007703545 0.1410488560005283 0.8007234432291171 0.003696366871688341 0.003247439196033041 0.9930561939322786 0.0215828514918729 0.01383542394907906 0.9645817245590479 0.06479747774288769 0.2227985725188115 0.7124039497383008 0.023953549828952 0.04307921707302001 0.932967233098028 0.0149892872984022 0.0109578419266063 0.9740528707749916</probabilities>
		</cpt>
		<cpt id="time_zero_sbp_mean">
			<state id="S_132_5___144_5" />
			<state id="S_144_5___153_5" />
			<state id="S_153_5___169_5" />
			<state id="S_le_169_5" />
			<state id="S_s_132_5" />
			<parents>time_zero_uacr_mean</parents>
			<probabilities>0.02452003343645319 0.007890709349289038 0.004229344857560736 0.003182459703169399 0.9601774526535276 0.488280459804195 0.03754476936316659 0.00488479885136685 0.001131878671633734 0.4681580933096378 0.5904290969618278 0.2735296803074934 0.07559559254943776 0.008120819239099065 0.05232481094214191 0.01565356167393594 0.005723380939337152 0.003140457894691433 0.001067838516845341 0.9744147609751902 0.2312470365680347 0.3361218891540549 0.332545802820135 0.0818958794309898 0.01818939202678553 0.2170597330889776 0.2703237140308901 0.3281989004408311 0.168798206339652 0.01561944609964911 0.07599212763734695 0.004122604711078655 0.002214515716416553 0.0005066020130461457 0.9171641499221117</probabilities>
		</cpt>
		<cpt id="time_zero_hba1c_mean">
			<state id="S_4_425___4_85835" />
			<state id="S_4_85835___6_02915" />
			<state id="S_6_02915___6_32915" />
			<state id="S_6_32915___7_71" />
			<state id="S_7_71___12_3416" />
			<state id="S_le_12_3416" />
			<state id="S_s_4_425" />
			<parents>time_zero_uacr_mean</parents>
			<probabilities>0.02084248655159784 0.3569990714624607 0.08985047010292924 0.2405114613743265 0.2431906045020691 0.03865768584917639 0.009948220157440098 0.009768129408906446 0.3417808432930123 0.1019369476407498 0.2381874727458203 0.2479553350989302 0.05522937432987658 0.005141897482704347 0.007157009950581036 0.2845960935702875 0.1310463522184222 0.2995118544644167 0.2502175419106811 0.02193208274239918 0.005539065143212358 0.007123188975839293 0.3717346613590892 0.09786855017414234 0.2530163504950161 0.2289140320026889 0.02861854877726623 0.012724668215958 0.01137086716237691 0.2140273286216584 0.09118001746100672 0.2620947096958904 0.3664609642715586 0.05313679221938909 0.001729320568119866 0.01235278073446667 0.4473889441265692 0.08677631561671208 0.1687773035451571 0.2359349218101907 0.04385321068718706 0.004916523479717375 0.0181998853296532 0.5559575174608115 0.0879381779690091 0.1749486972047131 0.1320302020178103 0.02832250246016666 0.002603017557836436</probabilities>
		</cpt>
		<cpt id="study_entry_aceiarb_flag">
			<state id="S_0" />
			<state id="S_1" />
			<parents>time_zero_uacr_mean</parents>
			<probabilities>0.4676694052264331 0.5323305947735668 0.5476896598691381 0.452310340130862 0.9767965779203215 0.02320342207967853 0.9613542785629097 0.03864572143709029 0.4120407388594983 0.5879592611405017 0.7260079803456345 0.2739920196543654 0.9739307248364679 0.02606927516353214</probabilities>
		</cpt>
		<cpt id="time_zero_dbp_mean">
			<state id="S_47_5___56_5" />
			<state id="S_56_5___69_5" />
			<state id="S_69_5___77_5" />
			<state id="S_77_5___90_5" />
			<state id="S_le_90_5" />
			<state id="S_s_47_5" />
			<parents>time_zero_uacr_mean</parents>
			<probabilities>0.1142654925618553 0.6787625784375452 0.1466866236008465 0.04191532917708314 0.005432216804030379 0.01293775941863954 0.00185176888539617 0.2222032482328481 0.3931780049437812 0.3779599393158691 0.004687391001420078 0.0001196476206853095 0.0195077245343779 0.3391382355758863 0.4161564791062081 0.2168187243376536 0.00818485339867607 0.0001939830471979751 0.1759038591757273 0.7556246822598557 0.02126678473051721 0.01767686513089706 0.006847203948148843 0.02268060475485398 0.03877505496454366 0.3979812823030456 0.3973941790977057 0.1468102063761684 0.01318801328133832 0.005851263977198387 0.0004492979419996491 0.004878283497225243 0.01488348293052504 0.5487737241190727 0.4309911684072473 2.404310393010329e-05 0.001765188079328308 0.2045552208295302 0.4355395144715725 0.3498141607201057 0.008314024639949017 1.189125951425581e-05</probabilities>
		</cpt>
		<cpt id="study_entry_period_albprockd_flag">
			<state id="S_0" />
			<state id="S_1" />
			<parents>time_zero_uacr_mean</parents>
			<probabilities>0.9235580729729942 0.07644192702700571 0.9674145439525423 0.03258545604745761 0.9791512439203991 0.02084875607960094 0.9695497422014945 0.03045025779850557 0.8721557329914652 0.1278442670085348 0.9603967352484494 0.03960326475155058 0.9999833412325495 1.665876745055055e-05</probabilities>
		</cpt>
		<cpt id="time_zero_upcr_count">
			<state id="S_le_0_5" />
			<state id="S_s_0_5" />
			<parents>time_zero_uacr_mean</parents>
			<probabilities>0.02261311159510569 0.9773868884048943 0.01534904913680519 0.9846509508631949 0.006867482250796955 0.9931325177492031 0.007347215767061133 0.9926527842329389 0.05619162960463869 0.9438083703953614 0.02399586023386534 0.9760041397661348 0.004085648534557414 0.9959143514654426</probabilities>
		</cpt>
		<cpt id="demo_race_ethnicity_cat">
			<state id="S_1A" />
			<state id="S_1B" />
			<state id="S_2" />
			<state id="S_3" />
			<state id="S_4" />
			<state id="S_5" />
			<state id="S_8" />
			<state id="S_minus_9" />
			<parents>time_zero_uacr_mean</parents>
			<probabilities>0.7433697119810398 0.02433156754304292 0.03710177137782958 0.05813439331020373 0.01508663020444109 0.01110165816776916 0.08584604719119261 0.02502822022448091 0.6991330596879306 0.03270863300265374 0.04966799385179138 0.05790160170211281 0.01369511139928811 0.009889313255567377 0.1033814475561166 0.03362283954453945 0.6301547143496844 0.04173203878159751 0.04280241198354976 0.0477790037999715 0.006914283980728766 0.01061452011346855 0.07589100515400102 0.1441120218369985 0.6662653580053105 0.04615880356869975 0.02943386345620766 0.06201106480858051 0.01282744906465214 0.00760683212479794 0.09240142763787487 0.08329520133387656 0.6222459260489221 0.04268362088190079 0.0636729126384098 0.07945856192383184 0.00804919813877036 0.01800907902783133 0.1448318899916855 0.02104881134864829 0.6345589659187408 0.0390447696014205 0.09317413741928525 0.05997770348795091 0.01380803034466553 0.01668989023791954 0.1062052619965808 0.03654124099343668 0.6789659014429085 0.043027728579384 0.04850922911395684 0.05182819763232063 0.01140030663867637 0.005898159777598028 0.1000667591333875 0.06030371768176826</probabilities>
		</cpt>
		<cpt id="time_zero_mra_coverage">
			<state id="S_le_1_5" />
			<state id="S_s_1_5" />
			<parents>time_zero_uacr_mean</parents>
			<probabilities>0.02723225664832338 0.9727677433516766 0.006803807288026345 0.9931961927119737 9.183721604067056e-05 0.9999081627839592 0.001651595155095645 0.9983484048449043 0.007024720527188945 0.9929752794728111 0.003279490258411736 0.9967205097415883 0.0005668825956906649 0.9994331174043094</probabilities>
		</cpt>
		<cpt id="time_zero_map_mean">
			<state id="S_104_039___109_699" />
			<state id="S_109_699___117_038" />
			<state id="S_80_9784___104_039" />
			<state id="S_le_117_038" />
			<state id="S_s_80_9784" />
			<parents>time_zero_uacr_mean</parents>
			<probabilities>0.00785221268333299 0.003361610452156746 0.5749471570630218 0.002852525583861148 0.4109864942176273 0.01862483865243099 0.003326351258101296 0.968511861169882 0.002079035612434205 0.007457913307151446 0.01997708008329128 0.006363386746023809 0.9606193367951089 0.007325318557353128 0.00571487781822298 0.006449618929374522 0.002948567183877927 0.1415468196263725 0.001888518724242553 0.8471664755361324 0.1499470829859877 0.04824064908136522 0.7773265737726113 0.01629959553783524 0.008186098622200511 0.4055523800969174 0.3430889219576895 0.02118618557328073 0.2295081703641937 0.0006643420079186531 0.008188681275750526 0.002251148036833869 0.9725040787396656 0.001004097410541703 0.01605199453720843</probabilities>
		</cpt>
		<cpt id="study_entry_ppi_flag">
			<state id="S_0" />
			<state id="S_1" />
			<parents>time_zero_uacr_mean</parents>
			<probabilities>0.4964404713934916 0.5035595286065085 0.7521091845721082 0.2478908154278919 0.9917914061526006 0.008208593847399347 0.9718293183998655 0.02817068160013457 0.6975371077111034 0.3024628922888965 0.8981573683555995 0.1018426316444005 0.9678911762134809 0.03210882378651909</probabilities>
		</cpt>
		<cpt id="time_zero_hba1c_count">
			<state id="S_le_1_5" />
			<state id="S_s_1_5" />
			<parents>time_zero_uacr_mean</parents>
			<probabilities>0.05095083588402103 0.9490491641159789 0.03216812416548667 0.9678318758345134 0.03437958105551566 0.9656204189444844 0.02185167940534082 0.9781483205946593 0.05993258552394921 0.9400674144760508 0.02297479622948663 0.9770252037705134 0.01477131895260282 0.985228681047397</probabilities>
		</cpt>
		<cpt id="time_zero_upcr_mean">
			<state id="S_0_59875___2_3791" />
			<state id="S_le_2_3791" />
			<state id="S_s_0_59875" />
			<parents>time_zero_uacr_mean</parents>
			<probabilities>0.235763046166954 0.4712399559935577 0.2929969978394883 0.05932328217385194 0.6440628139036503 0.2966139039224978 0.8099842638032126 0.1677318616710159 0.0222838745257715 0.8720984298604632 0.01892468506767132 0.1089768850718655 0.04583011821397776 0.8426586329129576 0.1115112488730646 0.1362823730580466 0.7088479687983771 0.1548696581435762 0.79150033361466 0.07507570350620012 0.1334239628791398</probabilities>
		</cpt>
		<cpt id="study_entry_nsaid_flag">
			<state id="S_0" />
			<state id="S_1" />
			<parents>time_zero_upcr_mean</parents>
			<probabilities>0.9837746034866578 0.01622539651334225 0.9329673542385083 0.06703264576149164 0.3841353616872523 0.6158646383127476</probabilities>
		</cpt>
		<cpt id="time_zero_nsaid_coverage">
			<state id="S_le_16_5" />
			<state id="S_s_16_5" />
			<parents>time_zero_upcr_mean</parents>
			<probabilities>0.009832759668719878 0.9901672403312802 0.005114572490592635 0.9948854275094073 0.3886913298520449 0.6113086701479551</probabilities>
		</cpt>
		<cpt id="study_entry_mra_flag">
			<state id="S_0" />
			<state id="S_1" />
			<parents>time_zero_upcr_mean</parents>
			<probabilities>0.998883066905351 0.00111693309464915 0.9924274333175136 0.007572566682486263 0.9946726300227332 0.005327369977266847</probabilities>
		</cpt>
		<cpt id="ruca_4_class">
			<state id="S_isolated" />
			<state id="S_large_rural" />
			<state id="S_small_rural" />
			<state id="S_urban" />
			<parents>time_zero_upcr_mean</parents>
			<probabilities>0.02455765267988981 0.04935775353428826 0.0265199977285385 0.8995645960572834 0.03168382315139361 0.07154522144902831 0.02945811910177313 0.867312836297805 0.03497001126594865 0.07397716824247071 0.03328374396738374 0.857769076524197</probabilities>
		</cpt>
		<cpt id="demo_sex">
			<state id="S_0" />
			<state id="S_1" />
			<parents>time_zero_upcr_mean</parents>
			<probabilities>0.4642796883045889 0.5357203116954111 0.537874088643102 0.462125911356898 0.4110630836378152 0.5889369163621847</probabilities>
		</cpt>
		<cpt id="study_entry_HTN_flag">
			<state id="S_0" />
			<state id="S_1" />
			<parents>time_zero_upcr_mean</parents>
			<probabilities>0.9148203877331078 0.08517961226689212 0.1581526880418377 0.8418473119581622 0.3482760096759787 0.6517239903240213</probabilities>
		</cpt>
		<cpt id="study_entry_PDM_flag">
			<state id="S_0" />
			<state id="S_1" />
			<parents>time_zero_upcr_mean</parents>
			<probabilities>0.9324582018451234 0.06754179815487654 0.9017390065323424 0.09826099346765751 0.9188240595242056 0.08117594047579427</probabilities>
		</cpt>
		<cpt id="time_zero_uacr_count">
			<state id="S_le_1_5" />
			<state id="S_s_1_5" />
			<parents>time_zero_upcr_mean</parents>
			<probabilities>0.001123352477727483 0.9988766475222726 0.007097772594200364 0.9929022274057996 0.00261919928453004 0.99738080071547</probabilities>
		</cpt>
		<cpt id="study_entry_glp1_flag">
			<state id="S_0" />
			<state id="S_1" />
			<parents>time_zero_upcr_mean</parents>
			<probabilities>0.9998210552094488 0.0001789447905512414 0.991820240679991 0.008179759320008988 0.99637694547336 0.003623054526640071</probabilities>
		</cpt>
		<cpt id="study_entry_sglt2_flag">
			<state id="S_0" />
			<state id="S_1" />
			<parents>time_zero_upcr_mean</parents>
			<probabilities>0.9999248706409216 7.512935907834062e-05 0.9942918454716024 0.005708154528397596 0.9984355074823281 0.00156449251767183</probabilities>
		</cpt>
		<cpt id="time_zero_glp1_coverage">
			<state id="S_le_84_5" />
			<state id="S_s_84_5" />
			<parents>time_zero_upcr_mean</parents>
			<probabilities>1.64374329384833e-05 0.9999835625670616 0.002249248643849679 0.9977507513561502 0.001087949640010998 0.9989120503599891</probabilities>
		</cpt>
		<cpt id="time_zero_sglt2_coverage">
			<state id="S_le_14_5" />
			<state id="S_s_14_5" />
			<parents>time_zero_upcr_mean</parents>
			<probabilities>5.451936376766476e-05 0.9999454806362323 0.002947236131024398 0.9970527638689757 0.0007061829494866346 0.9992938170505133</probabilities>
		</cpt>
	</nodes>
	<extensions>
		<genie version="1.0" app="SMILE_ACADEMIC 1.6.2@b061b4f1f63d" name="Unnamed">
			<node id="time_zero_mean">
				<name>time_zero_mean</name>
				<interior color="e5f6f7" />
				<outline color="0000bb" />
				<font color="000000" name="MS Sans Serif" size="8" />
				<position>960 40 1045 95</position>
			</node>
			<node id="year1_reduction_40_ge">
				<name>year1_reduction_40_ge</name>
				<interior color="e5f6f7" />
				<outline color="0000bb" />
				<font color="000000" name="MS Sans Serif" size="8" />
				<position>948 175 1033 230</position>
			</node>
			<node id="time_zero_scr_count">
				<name>time_zero_scr_count</name>
				<interior color="e5f6f7" />
				<outline color="0000bb" />
				<font color="000000" name="MS Sans Serif" size="8" />
				<position>914 306 999 361</position>
			</node>
			<node id="study_entry_period_egfrckd_flag">
				<name>study_entry_period_egfrckd_flag</name>
				<interior color="e5f6f7" />
				<outline color="0000bb" />
				<font color="000000" name="MS Sans Serif" size="8" />
				<position>858 430 943 485</position>
			</node>
			<node id="time_zero_bp_count">
				<name>time_zero_bp_count</name>
				<interior color="e5f6f7" />
				<outline color="0000bb" />
				<font color="000000" name="MS Sans Serif" size="8" />
				<position>782 542 867 597</position>
			</node>
			<node id="study_entry_age">
				<name>study_entry_age</name>
				<interior color="e5f6f7" />
				<outline color="0000bb" />
				<font color="000000" name="MS Sans Serif" size="8" />
				<position>688 640 773 695</position>
			</node>
			<node id="study_entry_period_dxckd_flag">
				<name>study_entry_period_dxckd_flag</name>
				<interior color="e5f6f7" />
				<outline color="0000bb" />
				<font color="000000" name="MS Sans Serif" size="8" />
				<position>579 721 664 776</position>
			</node>
			<node id="time_zero_ipv_count">
				<name>time_zero_ipv_count</name>
				<interior color="e5f6f7" />
				<outline color="0000bb" />
				<font color="000000" name="MS Sans Serif" size="8" />
				<position>458 782 543 837</position>
			</node>
			<node id="time_zero_av_count">
				<name>time_zero_av_count</name>
				<interior color="e5f6f7" />
				<outline color="0000bb" />
				<font color="000000" name="MS Sans Serif" size="8" />
				<position>328 822 413 877</position>
			</node>
			<node id="study_entry_DM_flag">
				<name>study_entry_DM_flag</name>
				<interior color="e5f6f7" />
				<outline color="0000bb" />
				<font color="000000" name="MS Sans Serif" size="8" />
				<position>193 839 278 894</position>
			</node>
			<node id="time_zero_uacr_mean">
				<name>time_zero_uacr_mean</name>
				<interior color="e5f6f7" />
				<outline color="0000bb" />
				<font color="000000" name="MS Sans Serif" size="8" />
				<position>58 833 143 888</position>
			</node>
			<node id="time_zero_pp_mean">
				<name>time_zero_pp_mean</name>
				<interior color="e5f6f7" />
				<outline color="0000bb" />
				<font color="000000" name="MS Sans Serif" size="8" />
				<position>-74 804 11 859</position>
			</node>
			<node id="time_zero_aceiarb_coverage">
				<name>time_zero_aceiarb_coverage</name>
				<interior color="e5f6f7" />
				<outline color="0000bb" />
				<font color="000000" name="MS Sans Serif" size="8" />
				<position>-200 754 -115 809</position>
			</node>
			<node id="time_zero_ppi_coverage">
				<name>time_zero_ppi_coverage</name>
				<interior color="e5f6f7" />
				<outline color="0000bb" />
				<font color="000000" name="MS Sans Serif" size="8" />
				<position>-315 683 -230 738</position>
			</node>
			<node id="time_zero_sbp_mean">
				<name>time_zero_sbp_mean</name>
				<interior color="e5f6f7" />
				<outline color="0000bb" />
				<font color="000000" name="MS Sans Serif" size="8" />
				<position>-417 593 -332 648</position>
			</node>
			<node id="time_zero_hba1c_mean">
				<name>time_zero_hba1c_mean</name>
				<interior color="e5f6f7" />
				<outline color="0000bb" />
				<font color="000000" name="MS Sans Serif" size="8" />
				<position>-502 487 -417 542</position>
			</node>
			<node id="study_entry_aceiarb_flag">
				<name>study_entry_aceiarb_flag</name>
				<interior color="e5f6f7" />
				<outline color="0000bb" />
				<font color="000000" name="MS Sans Serif" size="8" />
				<position>-568 369 -483 424</position>
			</node>
			<node id="time_zero_dbp_mean">
				<name>time_zero_dbp_mean</name>
				<interior color="e5f6f7" />
				<outline color="0000bb" />
				<font color="000000" name="MS Sans Serif" size="8" />
				<position>-614 241 -529 296</position>
			</node>
			<node id="study_entry_period_albprockd_flag">
				<name>study_entry_period_albprockd_flag</name>
				<interior color="e5f6f7" />
				<outline color="0000bb" />
				<font color="000000" name="MS Sans Serif" size="8" />
				<position>-637 107 -552 162</position>
			</node>
			<node id="time_zero_upcr_count">
				<name>time_zero_upcr_count</name>
				<interior color="e5f6f7" />
				<outline color="0000bb" />
				<font color="000000" name="MS Sans Serif" size="8" />
				<position>-637 -27 -552 28</position>
			</node>
			<node id="demo_race_ethnicity_cat">
				<name>demo_race_ethnicity_cat</name>
				<interior color="e5f6f7" />
				<outline color="0000bb" />
				<font color="000000" name="MS Sans Serif" size="8" />
				<position>-614 -161 -529 -106</position>
			</node>
			<node id="time_zero_mra_coverage">
				<name>time_zero_mra_coverage</name>
				<interior color="e5f6f7" />
				<outline color="0000bb" />
				<font color="000000" name="MS Sans Serif" size="8" />
				<position>-568 -289 -483 -234</position>
			</node>
			<node id="time_zero_map_mean">
				<name>time_zero_map_mean</name>
				<interior color="e5f6f7" />
				<outline color="0000bb" />
				<font color="000000" name="MS Sans Serif" size="8" />
				<position>-502 -407 -417 -352</position>
			</node>
			<node id="study_entry_ppi_flag">
				<name>study_entry_ppi_flag</name>
				<interior color="e5f6f7" />
				<outline color="0000bb" />
				<font color="000000" name="MS Sans Serif" size="8" />
				<position>-417 -513 -332 -458</position>
			</node>
			<node id="time_zero_hba1c_count">
				<name>time_zero_hba1c_count</name>
				<interior color="e5f6f7" />
				<outline color="0000bb" />
				<font color="000000" name="MS Sans Serif" size="8" />
				<position>-315 -603 -230 -548</position>
			</node>
			<node id="time_zero_upcr_mean">
				<name>time_zero_upcr_mean</name>
				<interior color="e5f6f7" />
				<outline color="0000bb" />
				<font color="000000" name="MS Sans Serif" size="8" />
				<position>-200 -674 -115 -619</position>
			</node>
			<node id="study_entry_nsaid_flag">
				<name>study_entry_nsaid_flag</name>
				<interior color="e5f6f7" />
				<outline color="0000bb" />
				<font color="000000" name="MS Sans Serif" size="8" />
				<position>-74 -724 11 -669</position>
			</node>
			<node id="time_zero_nsaid_coverage">
				<name>time_zero_nsaid_coverage</name>
				<interior color="e5f6f7" />
				<outline color="0000bb" />
				<font color="000000" name="MS Sans Serif" size="8" />
				<position>58 -753 143 -698</position>
			</node>
			<node id="study_entry_mra_flag">
				<name>study_entry_mra_flag</name>
				<interior color="e5f6f7" />
				<outline color="0000bb" />
				<font color="000000" name="MS Sans Serif" size="8" />
				<position>193 -759 278 -704</position>
			</node>
			<node id="ruca_4_class">
				<name>ruca_4_class</name>
				<interior color="e5f6f7" />
				<outline color="0000bb" />
				<font color="000000" name="MS Sans Serif" size="8" />
				<position>328 -742 413 -687</position>
			</node>
			<node id="demo_sex">
				<name>demo_sex</name>
				<interior color="e5f6f7" />
				<outline color="0000bb" />
				<font color="000000" name="MS Sans Serif" size="8" />
				<position>458 -702 543 -647</position>
			</node>
			<node id="study_entry_HTN_flag">
				<name>study_entry_HTN_flag</name>
				<interior color="e5f6f7" />
				<outline color="0000bb" />
				<font color="000000" name="MS Sans Serif" size="8" />
				<position>579 -641 664 -586</position>
			</node>
			<node id="study_entry_PDM_flag">
				<name>study_entry_PDM_flag</name>
				<interior color="e5f6f7" />
				<outline color="0000bb" />
				<font color="000000" name="MS Sans Serif" size="8" />
				<position>688 -560 773 -505</position>
			</node>
			<node id="time_zero_uacr_count">
				<name>time_zero_uacr_count</name>
				<interior color="e5f6f7" />
				<outline color="0000bb" />
				<font color="000000" name="MS Sans Serif" size="8" />
				<position>782 -462 867 -407</position>
			</node>
			<node id="study_entry_glp1_flag">
				<name>study_entry_glp1_flag</name>
				<interior color="e5f6f7" />
				<outline color="0000bb" />
				<font color="000000" name="MS Sans Serif" size="8" />
				<position>858 -350 943 -295</position>
			</node>
			<node id="study_entry_sglt2_flag">
				<name>study_entry_sglt2_flag</name>
				<interior color="e5f6f7" />
				<outline color="0000bb" />
				<font color="000000" name="MS Sans Serif" size="8" />
				<position>914 -226 999 -171</position>
			</node>
			<node id="time_zero_glp1_coverage">
				<name>time_zero_glp1_coverage</name>
				<interior color="e5f6f7" />
				<outline color="0000bb" />
				<font color="000000" name="MS Sans Serif" size="8" />
				<position>948 -95 1033 -40</position>
			</node>
			<node id="time_zero_sglt2_coverage">
				<name>time_zero_sglt2_coverage</name>
				<interior color="e5f6f7" />
				<outline color="0000bb" />
				<font color="000000" name="MS Sans Serif" size="8" />
				<position>960 39 1045 94</position>
			</node>
		</genie>
	</extensions>
</smile>
