<?xml version="1.0" encoding="UTF-8"?>
<!-- This file was created by ACADEMIC version of SMILE -->
<smile version="1.0" id="Unnamed" numsamples="10000" discsamples="10000">
	<nodes>
		<cpt id="time_zero_mean">
			<state id="S_11_325___20_925" />
			<state id="S_20_925___23_715" />
			<state id="S_23_715___34_045" />
			<state id="S_34_045___42_015" />
			<state id="S_42_015___50_265" />
			<state id="S_50_265___55_985" />
			<state id="S_55_985___62_585" />
			<state id="S_62_585___71_015" />
			<state id="S_6_795___8_975" />
			<state id="S_71_015___82_385" />
			<state id="S_82_385___88_705" />
			<state id="S_88_705___109_665" />
			<state id="S_8_975___11_325" />
			<state id="S_le_109_665" />
			<state id="S_s_6_795" />
			<probabilities>0.02873136640289363 0.00905527044392041 0.04343453861375592 0.04472980038701965 0.05575078432345355 0.04717730514545963 0.06095879869214887 0.09273089952983631 0.003935394381097824 0.1497353322756171 0.09368006686467349 0.2557095095709473 0.005687031370867849 0.1068910062717376 0.001792895726570719</probabilities>
		</cpt>
		<cpt id="year1_reduction_40_ge">
			<state id="S_0" />
			<state id="S_1" />
			<parents>time_zero_mean</parents>
			<probabilities>0.6917452017237159 0.308254798276284 0.6841377575210168 0.3158622424789831 0.7510012270272584 0.2489987729727415 0.7919746078625733 0.2080253921374268 0.8225696242577362 0.1774303757422638 0.8381612908278976 0.1618387091721024 0.8530910533953101 0.1469089466046898 0.8658217389763428 0.1341782610236571 0.714336579758111 0.2856634202418889 0.8829230597813076 0.1170769402186924 0.8912121638800404 0.1087878361199595 0.9055459679477488 0.09445403205225139 0.6485043269092442 0.3514956730907558 0.9279888618866942 0.07201113811330577 0.750117978376121 0.2498820216238788</probabilities>
		</cpt>
		<cpt id="study_entry_period_egfrckd_flag">
			<state id="S_0" />
			<state id="S_1" />
			<parents>time_zero_mean</parents>
			<probabilities>0.0001919978189784802 0.9998080021810216 0.0006087136958114381 0.9993912863041886 0.0001270193997146419 0.9998729806002854 0.0001233420863382031 0.9998766579136619 9.896395332919863e-05 0.9999010360466708 0.0001169446364874957 0.9998830553635124 0.4072062780800354 0.5927937219199646 0.9999402657483152 5.97342516846998e-05 0.001398571619700173 0.9986014283802997 0.9999629580826631 3.704191733702154e-05 0.9999407289958774 5.927100412260453e-05 0.9999782103184243 2.178968157581552e-05 0.0009685826938442721 0.9990314173061556 0.9999476834354613 5.231656453877633e-05 0.003060308212955564 0.9969396917870443</probabilities>
		</cpt>
		<cpt id="study_entry_age">
			<state id="S_38_5___44_5" />
			<state id="S_44_5___50_5" />
			<state id="S_50_5___56_5" />
			<state id="S_56_5___66_5" />
			<state id="S_66_5___71_5" />
			<state id="S_71_5___76_5" />
			<state id="S_le_76_5" />
			<state id="S_s_38_5" />
			<parents>time_zero_mean</parents>
			<probabilities>0.04545264690610226 0.05563610945220195 0.09806761669591886 0.230539844491121 0.132673545261185 0.1012755673743196 0.2766704671674612 0.05968420265169024 0.04484954918031375 0.04208899479175809 0.07391401251725374 0.1944108688902908 0.1403312008977878 0.1123794360281767 0.3363262815020114 0.05569965619240759 0.01946099214960563 0.03586712662841877 0.06388060699401428 0.1711457036342628 0.1129870960508061 0.1092156192424335 0.4531714056665256 0.0342714496339333 0.01612940018151891 0.02961741327359302 0.04609352618118188 0.1570416707287718 0.1154208562211075 0.1193755915456552 0.4955546312420866 0.02076691062608525 0.01758031797575022 0.02862661077727669 0.04996397746302972 0.1409131357070412 0.1102701381059857 0.1284774322232182 0.5053080599930501 0.0188603277546482 0.01433467294864293 0.02646718280765448 0.05313781784127537 0.1620567412210519 0.1279733879093408 0.1283877774695363 0.4677268055592755 0.01991561424322263 0.01613261329889577 0.03498501849074349 0.05971780713304704 0.1981651174081974 0.1421092236081636 0.132639715735034 0.3956274377968907 0.02062306652902789 0.02095979482337181 0.05094911244458923 0.08391350877229888 0.2360020247953205 0.1367517403315771 0.1242561993546803 0.3248987764002507 0.02226884307791153 0.08019146461306116 0.08818512786769538 0.1160555136971466 0.2558646157958348 0.09836557175218999 0.07884491252312781 0.143073993831571 0.1394187999193732 0.03899802932855959 0.07297505408832997 0.1067309252643324 0.2667397445967013 0.132895400719741 0.1118163905993571 0.230551624361191 0.03929283104178748 0.04937275316557269 0.08836442565666192 0.1431411441966728 0.2292525324914559 0.1423164924604067 0.1199345864145806 0.1512692362103784 0.0763488294042709 0.102163376935919 0.151019672704506 0.1865397017763922 0.2905534826460374 0.07808047932507711 0.03388540606468317 0.01437742478122328 0.1433804557661619 0.06538178610523769 0.09033418117450855 0.0881825093072371 0.2627015044573313 0.1340344040741278 0.09735378200663217 0.1436793432199554 0.11833248965497 0.1448611753906207 0.09675050274129526 0.05070461153719412 0.02406823142367497 0.002284223331749881 0.0001161469440342878 0.0001161469372694948 0.6810989616941614 0.08812244806819985 0.08764337874257398 0.1242496272317249 0.2158367369793298 0.08656392877626715 0.06823503588935109 0.08649186038217925 0.242856983930374</probabilities>
		</cpt>
		<cpt id="study_entry_period_dxckd_flag">
			<state id="S_0" />
			<state id="S_1" />
			<parents>time_zero_mean</parents>
			<probabilities>0.6557123055898896 0.3442876944101105 0.7463102092001822 0.2536897907998178 0.7817132745742039 0.218286725425796 0.8437908031577489 0.1562091968422512 0.8907495433515964 0.1092504566484036 0.917798412532023 0.08220158746797698 0.9465929488249476 0.05340705117505222 0.9654290141191201 0.0345709858808799 0.6774482207897754 0.3225517792102246 0.97438826702153 0.02561173297846998 0.9809753807376201 0.01902461926237977 0.9852179546190218 0.01478204538097825 0.6032600847751557 0.3967399152248443 0.9839458992278344 0.0160541007721657 0.700418487143264 0.2995815128567359</probabilities>
		</cpt>
		<cpt id="study_entry_DM_flag">
			<state id="S_0" />
			<state id="S_1" />
			<parents>study_entry_age</parents>
			<probabilities>0.8155983293989467 0.1844016706010532 0.7766868740115973 0.2233131259884027 0.7438591149005278 0.2561408850994722 0.7105970535021969 0.2894029464978031 0.7083333333333334 0.2916666666666667 0.7133246244284782 0.2866753755715219 0.7922739382541921 0.2077260617458079 0.8898535220539828 0.1101464779460171</probabilities>
		</cpt>
		<cpt id="time_zero_uacr_mean">
			<state id="S_111_02___440_058" />
			<state id="S_11_0034___51_8122" />
			<state id="S_440_058___867_873" />
			<state id="S_51_8122___111_02" />
			<state id="S_867_873___2725_15" />
			<state id="S_le_2725_15" />
			<state id="S_s_11_0034" />
			<parents>study_entry_period_egfrckd_flag</parents>
			<probabilities>0.09390019128161552 0.1286609801878235 0.05191873096205219 0.1454199988097007 0.04717258705718719 0.07231668584779988 0.460610825853821 0.1461124895942074 0.08335724762111574 0.2555945599608273 0.1540196466462316 0.1078129133935039 0.0529608639153775 0.2001422788687365</probabilities>
		</cpt>
		<cpt id="time_zero_pp_mean">
			<state id="S_45_5___52_5" />
			<state id="S_52_5___56_5" />
			<state id="S_56_5___63_5" />
			<state id="S_63_5___68_5" />
			<state id="S_68_5___74_5" />
			<state id="S_74_5___87_5" />
			<state id="S_le_87_5" />
			<state id="S_s_45_5" />
			<parents>time_zero_uacr_mean</parents>
			<probabilities>0.1976991316362945 0.1266046491528122 0.1905176473130423 0.1042692220161587 0.09933938362657969 0.1101768349376708 0.01459819907655566 0.1567949322408861 0.1567252074972242 0.1619701641249517 0.3251268476668489 0.1913902488204903 0.0978215757831323 0.01355891210746912 0.002173592203599692 0.0512334517962837 0.006578601028123369 0.008972213002211899 0.05728316476769708 0.124570921306997 0.2607033531839041 0.4156596777130644 0.118979666291639 0.007252402706363121 0.2592840415340405 0.09852316726598756 0.1363934477873493 0.05366584992963865 0.02207349707202207 0.01318814801703851 0.0009078207423924348 0.415964027651531 0.01230076933375661 0.01500339782817414 0.06202377915595489 0.07388982504151786 0.1461307947868138 0.3772903292787592 0.3069119959902174 0.006449108584806205 0.245915667594811 0.1492435843440073 0.2586417823585093 0.1326517291137913 0.05884169388624398 0.01306715379967847 0.004468075149732333 0.1371703137532265 0.3347897846599777 0.1177780642505441 0.09071394055821874 0.01001646206216141 0.003135008600773821 0.002561064145280502 0.0005649230957051586 0.4404407526273386</probabilities>
		</cpt>
		<cpt id="time_zero_aceiarb_coverage">
			<state id="S_le_1_5" />
			<state id="S_s_1_5" />
			<parents>time_zero_uacr_mean</parents>
			<probabilities>0.6045817778630092 0.3954182221369909 0.1909225203948159 0.8090774796051841 0.04185394647667944 0.9581460535233207 0.03451671187198561 0.9654832881280144 0.3254024563874985 0.6745975436125016 0.1909732578635437 0.8090267421364563 0.01880943961332131 0.9811905603866787</probabilities>
		</cpt>
		<cpt id="time_zero_ppi_coverage">
			<state id="S_4_5___78_5" />
			<state id="S_le_78_5" />
			<state id="S_s_4_5" />
			<parents>time_zero_uacr_mean</parents>
			<probabilities>0.1062951171425326 0.3672546487523397 0.5264502341051276 0.03685132746431086 0.06559203785525228 0.897556634680437 0.005695213396148019 0.007735703320461607 0.9865690832833904 0.03173239583732988 0.04415765953511222 0.9241099446275579 0.03174257331875359 0.0881516002788398 0.8801058264024066 0.02614353789350633 0.04805624242319113 0.9258002196833025 0.01624045331193492 0.01554095901607566 0.9682185876719893</probabilities>
		</cpt>
		<cpt id="time_zero_sbp_mean">
			<state id="S_132_5___144_5" />
			<state id="S_144_5___153_5" />
			<state id="S_153_5___169_5" />
			<state id="S_le_169_5" />
			<state id="S_s_132_5" />
			<parents>time_zero_uacr_mean</parents>
			<probabilities>0.170773829395026 0.09010987867179207 0.01135125460183065 0.002255507182936469 0.7255095301484148 0.672905891112319 0.06935865356050652 0.006215596534211104 0.00141164613841204 0.2501082126545514 0.4226641562656631 0.3737424233038644 0.1417081150764678 0.01189103498148404 0.04999427037252074 0.01062360574972844 0.003970975773593993 0.002553504392802108 0.0008747160879383811 0.9819771979959371 0.01967270848329646 0.04478624960435452 0.5928276484122297 0.3286994602000575 0.01401393330006188 0.3703958439760398 0.4336098002380022 0.1600594853811709 0.004621438994417138 0.03131343141037007 0.04738979223222443 0.004034989857461255 0.002166142177407555 0.0004975161602216757 0.9459115595726851</probabilities>
		</cpt>
		<cpt id="time_zero_hba1c_mean">
			<state id="S_4_425___4_85835" />
			<state id="S_4_85835___6_02915" />
			<state id="S_6_02915___6_32915" />
			<state id="S_6_32915___7_71" />
			<state id="S_7_71___12_3416" />
			<state id="S_le_12_3416" />
			<state id="S_s_4_425" />
			<parents>time_zero_uacr_mean</parents>
			<probabilities>0.01537598647593938 0.325761882999809 0.09183486521994386 0.267090636171231 0.2528566429221062 0.04142158713162699 0.005658399079343306 0.009346493682782434 0.3560181498058053 0.09902251926415832 0.2242423989347137 0.2503987893866038 0.05565041831017187 0.005321230615764633 0.006863966119818545 0.2428228744940859 0.1372406826713877 0.3284853439811161 0.2599369663998844 0.01983618102672047 0.004813985306986914 0.01069101975270718 0.4083110531432688 0.09695180638774582 0.2318481443044978 0.2094025728018695 0.02701561583348862 0.01577978777642221 0.01517117256086961 0.2672829683123879 0.08138223439388279 0.2050859625137659 0.3676622908073641 0.06129352104615025 0.002121850365579415 0.008476705882407603 0.46659437324803 0.08878398149279922 0.1704574955335896 0.2231539650771847 0.03782779021822272 0.004705688547766002 0.01762084800876547 0.542040935541334 0.09014162207268492 0.1794837089408005 0.1389264247872375 0.02924973553189527 0.00253672511728222</probabilities>
		</cpt>
		<cpt id="study_entry_aceiarb_flag">
			<state id="S_0" />
			<state id="S_1" />
			<parents>time_zero_uacr_mean</parents>
			<probabilities>0.3260203224628415 0.6739796775371585 0.7217766981572621 0.2782233018427379 0.9361424223384497 0.06385757766155029 0.9437599111264333 0.05624008887356668 0.5663141476350818 0.4336858523649182 0.7757126944562123 0.2242873055437877 0.9677881359579745 0.03221186404202551</probabilities>
		</cpt>
		<cpt id="time_zero_dbp_mean">
			<state id="S_47_5___56_5" />
			<state id="S_56_5___69_5" />
			<state id="S_69_5___77_5" />
			<state id="S_77_5___90_5" />
			<state id="S_le_90_5" />
			<state id="S_s_47_5" />
			<parents>time_zero_uacr_mean</parents>
			<probabilities>0.05999877670870131 0.5542359753453552 0.2728988251604202 0.100951889911134 0.003427554691161625 0.008486978183227842 0.002320345111054598 0.152706716154381 0.377886046273193 0.4618682944391841 0.005069810311665764 0.000148787710521466 0.04194973653413298 0.4813298009940846 0.3820402250428327 0.08124454803392063 0.009671138351914231 0.00376455104311503 0.1793306707446332 0.7643664934777172 0.01757960932034983 0.01450410284683079 0.004742041910217029 0.01947708170025211 0.004610161538967854 0.07414943520003041 0.2075394602301637 0.4646112109925069 0.2473954137330743 0.00169431830525677 0.0007001331089538891 0.007377814213808239 0.008840642944875172 0.5388421665097384 0.4442024278255843 3.681539704007661e-05 0.001719748630371197 0.2101556475542078 0.4464063223938732 0.334592646819425 0.007113985821824162 1.164878029850379e-05</probabilities>
		</cpt>
		<cpt id="study_entry_period_albprockd_flag">
			<state id="S_0" />
			<state id="S_1" />
			<parents>time_zero_uacr_mean</parents>
			<probabilities>0.9451246410330969 0.05487535896690308 0.9624691761538389 0.03753082384616115 0.9733646485473825 0.02663535145261756 0.9703370549991958 0.02966294500080419 0.9013440779463069 0.0986559220536931 0.9443071716095286 0.0556928283904714 0.9999762043737883 2.379562621170624e-05</probabilities>
		</cpt>
		<cpt id="demo_race_ethnicity_cat">
			<state id="S_1A" />
			<state id="S_1B" />
			<state id="S_2" />
			<state id="S_3" />
			<state id="S_4" />
			<state id="S_5" />
			<state id="S_8" />
			<state id="S_minus_9" />
			<parents>time_zero_uacr_mean</parents>
			<probabilities>0.7320047225243104 0.02478841187695014 0.04233769476708187 0.06278078063866419 0.01434939995984526 0.01128109102047782 0.08948062197483082 0.02297727723783955 0.680784749600517 0.03815405748002142 0.05383644958589269 0.05464680889815535 0.01240616156600019 0.009540209968343188 0.1134703096411172 0.03716125325995306 0.6137492247305599 0.04070276071300251 0.04188976949551349 0.05374755752764851 0.005767770759559726 0.01148192006050243 0.0773849413228189 0.1552760553903945 0.6840385415581834 0.04544858057800691 0.02958988352631953 0.06109471073855764 0.01355377293302966 0.007741390965800499 0.09625560556564267 0.06227751413445977 0.6006590642300171 0.04419658488291398 0.09388337245257922 0.07286535340513962 0.007570858691321476 0.0202145552751956 0.1356726286073774 0.02493758245545537 0.6488134612283599 0.03792840246480362 0.08180292207299811 0.05399248006571229 0.01771720241165709 0.0165671792732438 0.09664123373338974 0.04653711874983565 0.6770976315891694 0.04262705736167999 0.04814543005483512 0.05167048434974043 0.01133136753957738 0.005844866770782274 0.09737882407693269 0.06590433825728281</probabilities>
		</cpt>
		<cpt id="time_zero_mra_coverage">
			<state id="S_le_1_5" />
			<state id="S_s_1_5" />
			<parents>time_zero_uacr_mean</parents>
			<probabilities>0.02333479788420091 0.9766652021157992 0.002387441850495725 0.9976125581495043 0.0004708225545081823 0.9995291774454917 0.003011184895168244 0.9969888151048317 0.003343915187003079 0.9966560848129968 0.003787900003273302 0.9962120999967268 0.000710719406236556 0.9992892805937634</probabilities>
		</cpt>
		<cpt id="time_zero_map_mean">
			<state id="S_104_039___109_699" />
			<state id="S_109_699___117_038" />
			<state id="S_80_9784___104_039" />
			<state id="S_le_117_038" />
			<state id="S_s_80_9784" />
			<parents>time_zero_uacr_mean</parents>
			<probabilities>0.006483290125313671 0.002264318446012555 0.8113834568636613 0.001915255914543774 0.1779536786504688 0.01418272374725866 0.004136149777406744 0.9705310268900944 0.002574814534317715 0.008575285050922424 0.01346436088157911 0.00819760330707513 0.9577203306332525 0.008523305081400994 0.01209440009669226 0.004565459816661192 0.002269194096163179 0.1480644163547087 0.001550134660245599 0.8435507950722213 0.2495239179265258 0.2754309593050358 0.1954229013444768 0.2778621157739156 0.001760105650046151 0.5604229596709996 0.306587935211675 0.04092914062320632 0.09113756772956494 0.0009223967645541145 0.005170151655770066 0.002106988766460083 0.9771097412769844 0.0009871112563125839 0.01462600704447276</probabilities>
		</cpt>
		<cpt id="study_entry_ppi_flag">
			<state id="S_0" />
			<state id="S_1" />
			<parents>time_zero_uacr_mean</parents>
			<probabilities>0.523060162515446 0.476939837484554 0.8597377180863901 0.1402622819136098 0.9814612406760682 0.01853875932393171 0.9301522518725764 0.06984774812742355 0.8346338432710295 0.1653661567289705 0.8992336322336996 0.1007663677663003 0.9609308829757675 0.03906911702423255</probabilities>
		</cpt>
		<cpt id="time_zero_upcr_mean">
			<state id="S_0_59875___2_3791" />
			<state id="S_le_2_3791" />
			<state id="S_s_0_59875" />
			<parents>time_zero_uacr_mean</parents>
			<probabilities>0.08490311506152808 0.6200600834698989 0.295036801468573 0.1335309678761212 0.6140014851596332 0.2524675469642455 0.7858274791313744 0.1996587974004668 0.01451372346815873 0.8239435135449384 0.03453016959402324 0.1415263168610383 0.03014961707465864 0.8639021396413018 0.1059482432840395 0.1851060245393367 0.6231317852275504 0.1917621902331128 0.7853754810638103 0.07759593989192323 0.1370285790442666</probabilities>
		</cpt>
		<cpt id="study_entry_nsaid_flag">
			<state id="S_0" />
			<state id="S_1" />
			<parents>time_zero_upcr_mean</parents>
			<probabilities>0.9850586946867359 0.01494130531326416 0.9412900982092129 0.05870990179078699 0.3891331805764225 0.6108668194235776</probabilities>
		</cpt>
		<cpt id="time_zero_nsaid_coverage">
			<state id="S_le_16_5" />
			<state id="S_s_16_5" />
			<parents>time_zero_upcr_mean</parents>
			<probabilities>0.01003616148353791 0.9899638385164621 0.00454565124530882 0.9954543487546913 0.374030018299219 0.6259699817007811</probabilities>
		</cpt>
		<cpt id="study_entry_mra_flag">
			<state id="S_0" />
			<state id="S_1" />
			<parents>time_zero_upcr_mean</parents>
			<probabilities>0.998912334887074 0.001087665112926048 0.9924178341556101 0.007582165844389709 0.9949008296795435 0.005099170320456497</probabilities>
		</cpt>
		<cpt id="ruca_4_class">
			<state id="S_isolated" />
			<state id="S_large_rural" />
			<state id="S_small_rural" />
			<state id="S_urban" />
			<parents>time_zero_upcr_mean</parents>
			<probabilities>0.02431771529680598 0.04913523203973513 0.02652524890310414 0.9000218037603547 0.03194400483408308 0.07137693731130884 0.02949976437285485 0.8671792934817533 0.03474942660408585 0.07358884644503573 0.03285160681431144 0.858810120136567</probabilities>
		</cpt>
		<cpt id="demo_sex">
			<state id="S_0" />
			<state id="S_1" />
			<parents>time_zero_upcr_mean</parents>
			<probabilities>0.4629027769188679 0.5370972230811321 0.5403528929239428 0.4596471070760572 0.4117448626412125 0.5882551373587876</probabilities>
		</cpt>
		<cpt id="study_entry_HTN_flag">
			<state id="S_0" />
			<state id="S_1" />
			<parents>time_zero_upcr_mean</parents>
			<probabilities>0.9171035154441221 0.08289648455587802 0.1765566220165246 0.8234433779834754 0.3455248251924748 0.6544751748075252</probabilities>
		</cpt>
		<cpt id="study_entry_PDM_flag">
			<state id="S_0" />
			<state id="S_1" />
			<parents>time_zero_upcr_mean</parents>
			<probabilities>0.9320116493327453 0.0679883506672547 0.9033653095174691 0.09663469048253102 0.9185954258690684 0.08140457413093156</probabilities>
		</cpt>
		<cpt id="study_entry_glp1_flag">
			<state id="S_0" />
			<state id="S_1" />
			<parents>time_zero_upcr_mean</parents>
			<probabilities>0.999809603262835 0.0001903967371651762 0.9923489303850409 0.00765106961495899 0.9957480613351329 0.004251938664867091</probabilities>
		</cpt>
		<cpt id="study_entry_sglt2_flag">
			<state id="S_0" />
			<state id="S_1" />
			<parents>time_zero_upcr_mean</parents>
			<probabilities>0.9999353283610031 6.467163899694991e-05 0.9947676470818972 0.005232352918102725 0.9976969877586707 0.002303012241329224</probabilities>
		</cpt>
		<cpt id="time_zero_glp1_coverage">
			<state id="S_le_84_5" />
			<state id="S_s_84_5" />
			<parents>time_zero_upcr_mean</parents>
			<probabilities>1.62203760373805e-05 0.9999837796239627 0.002076478685269427 0.9979235213147305 0.001318139358205062 0.9986818606417949</probabilities>
		</cpt>
		<cpt id="time_zero_sglt2_coverage">
			<state id="S_le_14_5" />
			<state id="S_s_14_5" />
			<parents>time_zero_upcr_mean</parents>
			<probabilities>4.897088359916339e-05 0.9999510291164008 0.002689786089869973 0.99731021391013 0.001115040330408171 0.9988849596695919</probabilities>
		</cpt>
	</nodes>
	<extensions>
		<genie version="1.0" app="SMILE_ACADEMIC 1.6.2@b061b4f1f63d" name="Unnamed">
			<node id="time_zero_mean">
				<name>time_zero_mean</name>
				<interior color="e5f6f7" />
				<outline color="0000bb" />
				<font color="000000" name="MS Sans Serif" size="8" />
				<position>960 40 1045 95</position>
			</node>
			<node id="year1_reduction_40_ge">
				<name>year1_reduction_40_ge</name>
				<interior color="e5f6f7" />
				<outline color="0000bb" />
				<font color="000000" name="MS Sans Serif" size="8" />
				<position>942 206 1027 261</position>
			</node>
			<node id="study_entry_period_egfrckd_flag">
				<name>study_entry_period_egfrckd_flag</name>
				<interior color="e5f6f7" />
				<outline color="0000bb" />
				<font color="000000" name="MS Sans Serif" size="8" />
				<position>890 365 975 420</position>
			</node>
			<node id="study_entry_age">
				<name>study_entry_age</name>
				<interior color="e5f6f7" />
				<outline color="0000bb" />
				<font color="000000" name="MS Sans Serif" size="8" />
				<position>807 510 892 565</position>
			</node>
			<node id="study_entry_period_dxckd_flag">
				<name>study_entry_period_dxckd_flag</name>
				<interior color="e5f6f7" />
				<outline color="0000bb" />
				<font color="000000" name="MS Sans Serif" size="8" />
				<position>695 634 780 689</position>
			</node>
			<node id="study_entry_DM_flag">
				<name>study_entry_DM_flag</name>
				<interior color="e5f6f7" />
				<outline color="0000bb" />
				<font color="000000" name="MS Sans Serif" size="8" />
				<position>560 732 645 787</position>
			</node>
			<node id="time_zero_uacr_mean">
				<name>time_zero_uacr_mean</name>
				<interior color="e5f6f7" />
				<outline color="0000bb" />
				<font color="000000" name="MS Sans Serif" size="8" />
				<position>407 800 492 855</position>
			</node>
			<node id="time_zero_pp_mean">
				<name>time_zero_pp_mean</name>
				<interior color="e5f6f7" />
				<outline color="0000bb" />
				<font color="000000" name="MS Sans Serif" size="8" />
				<position>243 835 328 890</position>
			</node>
			<node id="time_zero_aceiarb_coverage">
				<name>time_zero_aceiarb_coverage</name>
				<interior color="e5f6f7" />
				<outline color="0000bb" />
				<font color="000000" name="MS Sans Serif" size="8" />
				<position>76 835 161 890</position>
			</node>
			<node id="time_zero_ppi_coverage">
				<name>time_zero_ppi_coverage</name>
				<interior color="e5f6f7" />
				<outline color="0000bb" />
				<font color="000000" name="MS Sans Serif" size="8" />
				<position>-87 800 -2 855</position>
			</node>
			<node id="time_zero_sbp_mean">
				<name>time_zero_sbp_mean</name>
				<interior color="e5f6f7" />
				<outline color="0000bb" />
				<font color="000000" name="MS Sans Serif" size="8" />
				<position>-239 732 -154 787</position>
			</node>
			<node id="time_zero_hba1c_mean">
				<name>time_zero_hba1c_mean</name>
				<interior color="e5f6f7" />
				<outline color="0000bb" />
				<font color="000000" name="MS Sans Serif" size="8" />
				<position>-375 634 -290 689</position>
			</node>
			<node id="study_entry_aceiarb_flag">
				<name>study_entry_aceiarb_flag</name>
				<interior color="e5f6f7" />
				<outline color="0000bb" />
				<font color="000000" name="MS Sans Serif" size="8" />
				<position>-487 510 -402 565</position>
			</node>
			<node id="time_zero_dbp_mean">
				<name>time_zero_dbp_mean</name>
				<interior color="e5f6f7" />
				<outline color="0000bb" />
				<font color="000000" name="MS Sans Serif" size="8" />
				<position>-570 365 -485 420</position>
			</node>
			<node id="study_entry_period_albprockd_flag">
				<name>study_entry_period_albprockd_flag</name>
				<interior color="e5f6f7" />
				<outline color="0000bb" />
				<font color="000000" name="MS Sans Serif" size="8" />
				<position>-622 206 -537 261</position>
			</node>
			<node id="demo_race_ethnicity_cat">
				<name>demo_race_ethnicity_cat</name>
				<interior color="e5f6f7" />
				<outline color="0000bb" />
				<font color="000000" name="MS Sans Serif" size="8" />
				<position>-640 40 -555 95</position>
			</node>
			<node id="time_zero_mra_coverage">
				<name>time_zero_mra_coverage</name>
				<interior color="e5f6f7" />
				<outline color="0000bb" />
				<font color="000000" name="MS Sans Serif" size="8" />
				<position>-622 -126 -537 -71</position>
			</node>
			<node id="time_zero_map_mean">
				<name>time_zero_map_mean</name>
				<interior color="e5f6f7" />
				<outline color="0000bb" />
				<font color="000000" name="MS Sans Serif" size="8" />
				<position>-570 -285 -485 -230</position>
			</node>
			<node id="study_entry_ppi_flag">
				<name>study_entry_ppi_flag</name>
				<interior color="e5f6f7" />
				<outline color="0000bb" />
				<font color="000000" name="MS Sans Serif" size="8" />
				<position>-487 -430 -402 -375</position>
			</node>
			<node id="time_zero_upcr_mean">
				<name>time_zero_upcr_mean</name>
				<interior color="e5f6f7" />
				<outline color="0000bb" />
				<font color="000000" name="MS Sans Serif" size="8" />
				<position>-375 -554 -290 -499</position>
			</node>
			<node id="study_entry_nsaid_flag">
				<name>study_entry_nsaid_flag</name>
				<interior color="e5f6f7" />
				<outline color="0000bb" />
				<font color="000000" name="MS Sans Serif" size="8" />
				<position>-240 -652 -155 -597</position>
			</node>
			<node id="time_zero_nsaid_coverage">
				<name>time_zero_nsaid_coverage</name>
				<interior color="e5f6f7" />
				<outline color="0000bb" />
				<font color="000000" name="MS Sans Serif" size="8" />
				<position>-87 -720 -2 -665</position>
			</node>
			<node id="study_entry_mra_flag">
				<name>study_entry_mra_flag</name>
				<interior color="e5f6f7" />
				<outline color="0000bb" />
				<font color="000000" name="MS Sans Serif" size="8" />
				<position>76 -755 161 -700</position>
			</node>
			<node id="ruca_4_class">
				<name>ruca_4_class</name>
				<interior color="e5f6f7" />
				<outline color="0000bb" />
				<font color="000000" name="MS Sans Serif" size="8" />
				<position>243 -755 328 -700</position>
			</node>
			<node id="demo_sex">
				<name>demo_sex</name>
				<interior color="e5f6f7" />
				<outline color="0000bb" />
				<font color="000000" name="MS Sans Serif" size="8" />
				<position>407 -720 492 -665</position>
			</node>
			<node id="study_entry_HTN_flag">
				<name>study_entry_HTN_flag</name>
				<interior color="e5f6f7" />
				<outline color="0000bb" />
				<font color="000000" name="MS Sans Serif" size="8" />
				<position>559 -652 644 -597</position>
			</node>
			<node id="study_entry_PDM_flag">
				<name>study_entry_PDM_flag</name>
				<interior color="e5f6f7" />
				<outline color="0000bb" />
				<font color="000000" name="MS Sans Serif" size="8" />
				<position>695 -554 780 -499</position>
			</node>
			<node id="study_entry_glp1_flag">
				<name>study_entry_glp1_flag</name>
				<interior color="e5f6f7" />
				<outline color="0000bb" />
				<font color="000000" name="MS Sans Serif" size="8" />
				<position>807 -430 892 -375</position>
			</node>
			<node id="study_entry_sglt2_flag">
				<name>study_entry_sglt2_flag</name>
				<interior color="e5f6f7" />
				<outline color="0000bb" />
				<font color="000000" name="MS Sans Serif" size="8" />
				<position>890 -285 975 -230</position>
			</node>
			<node id="time_zero_glp1_coverage">
				<name>time_zero_glp1_coverage</name>
				<interior color="e5f6f7" />
				<outline color="0000bb" />
				<font color="000000" name="MS Sans Serif" size="8" />
				<position>942 -126 1027 -71</position>
			</node>
			<node id="time_zero_sglt2_coverage">
				<name>time_zero_sglt2_coverage</name>
				<interior color="e5f6f7" />
				<outline color="0000bb" />
				<font color="000000" name="MS Sans Serif" size="8" />
				<position>960 39 1045 94</position>
			</node>
		</genie>
	</extensions>
</smile>
