<?xml version="1.0" encoding="UTF-8"?>
<!-- This file was created by ACADEMIC version of SMILE -->
<smile version="1.0" id="Unnamed" numsamples="10000" discsamples="10000">
	<nodes>
		<cpt id="time_zero_mean">
			<state id="S_10_095___29_065" />
			<state id="S_29_065___37_055" />
			<state id="S_37_055___55_665" />
			<state id="S_55_665___63_415" />
			<state id="S_63_415___78_285" />
			<state id="S_78_285___101_835" />
			<state id="S_le_101_835" />
			<state id="S_s_10_095" />
			<probabilities>0.06197959633201337 0.03304401783946315 0.1101390656362374 0.06647150634285552 0.16725629197562 0.3601725641445951 0.193243926284814 0.007693031444401461</probabilities>
		</cpt>
		<cpt id="year1_reduction_40_ge">
			<state id="S_0" />
			<state id="S_1" />
			<parents>time_zero_mean</parents>
			<probabilities>0.6654249052027628 0.3345750947972373 0.7382483235336101 0.2617516764663899 0.7582601538251688 0.2417398461748312 0.8241977115424318 0.1758022884575682 0.8406387333745473 0.1593612666254526 0.8564572579832128 0.1435427420167872 0.8842818667244516 0.1157181332755484 0.6825962326463761 0.317403767353624</probabilities>
		</cpt>
		<cpt id="study_entry_period_dxckd_flag">
			<state id="S_0" />
			<state id="S_1" />
			<parents>time_zero_mean</parents>
			<probabilities>0.4005933714472709 0.5994066285527291 0.5632353165751333 0.4367646834248668 0.6872757460468067 0.3127242539531931 0.8824352849953112 0.1175647150046888 0.913274864874193 0.08672513512580703 0.9559336760771106 0.0440663239228895 0.9612466021399985 0.03875339786000152 0.4119106732444328 0.5880893267555671</probabilities>
		</cpt>
		<cpt id="study_entry_period_egfrckd_flag">
			<state id="S_0" />
			<state id="S_1" />
			<parents>time_zero_mean</parents>
			<probabilities>0.0008441008415196753 0.9991558991584804 0.001581207351927799 0.9984187926480722 0.0004753158482375384 0.9995246841517624 0.4683471439502579 0.5316528560497422 0.9996857897560758 0.0003142102439242375 0.9998540490482456 0.0001459509517544273 0.9997280281574262 0.0002719718425738673 0.006730417262078187 0.9932695827379219</probabilities>
		</cpt>
		<cpt id="study_entry_DM_flag">
			<state id="S_0" />
			<state id="S_1" />
			<parents>study_entry_period_dxckd_flag</parents>
			<probabilities>0.8151000606428138 0.1848999393571862 0.5946882217090069 0.405311778290993</probabilities>
		</cpt>
		<cpt id="time_zero_hba1c_mean">
			<state id="S_4_75835___5_15835" />
			<state id="S_5_15835___6_01665" />
			<state id="S_6_01665___6_64165" />
			<state id="S_le_6_64165" />
			<state id="S_s_4_75835" />
			<parents>study_entry_DM_flag</parents>
			<probabilities>0.06518799349088839 0.7029097330245676 0.1748907036098768 0.02712977880441611 0.02988179107025112 0.02382624436913324 0.1400390283414872 0.1467131078813194 0.6751937843710837 0.01422783503697641</probabilities>
		</cpt>
		<cpt id="study_entry_age">
			<state id="S_44_5___53_5" />
			<state id="S_53_5___77_5" />
			<state id="S_le_77_5" />
			<state id="S_s_44_5" />
			<parents>time_zero_hba1c_mean</parents>
			<probabilities>0.1263305074431279 0.4969267319759066 0.1100513659395517 0.2666913946414139 0.1684276807467354 0.4272864364907797 0.1223754137924438 0.2819104689700409 0.09866964425564496 0.5547109652958745 0.2764750302814217 0.07014436016705886 0.1370427594873079 0.625053081869137 0.1433070126306322 0.09459714601292295 0.1535462373100228 0.3637768237497097 0.04710114983616779 0.4355757891040998</probabilities>
		</cpt>
		<cpt id="demo_race_ethnicity_cat">
			<state id="S_1A" />
			<state id="S_1B" />
			<state id="S_2" />
			<state id="S_3" />
			<state id="S_4" />
			<state id="S_5" />
			<state id="S_8" />
			<state id="S_minus_9" />
			<parents>time_zero_hba1c_mean</parents>
			<probabilities>0.6508936828330802 0.103136817569889 0.03959967864410153 0.04623443127103698 0.007230551934289509 0.0005111504067255655 0.1078851970327734 0.04450849030810369 0.5549934840013473 0.07935432092425804 0.07703514391573571 0.1008471045301251 0.007819915493324303 0.002120680602520241 0.1140666102346138 0.06376274029807551 0.5759298130409434 0.05133773112151557 0.09905258608135051 0.08019266007127 0.004981519231038747 0.005679048955037984 0.1128656048847098 0.06996103661413408 0.3868242768215493 0.1420397818321387 0.1146115428264315 0.1040653732932132 0.003705435759236606 0.002379484624376677 0.1938502087749984 0.05252389606805557 0.3931326268538459 0.2244519766783034 0.09327032079609615 0.1181770727409184 0.001502608539589693 0.01433081798056596 0.1540353484760389 0.001099227934641605</probabilities>
		</cpt>
		<cpt id="time_zero_ppi_coverage">
			<state id="S_le_80_5" />
			<state id="S_s_80_5" />
			<parents>time_zero_hba1c_mean</parents>
			<probabilities>0.08253284068145007 0.9174671593185499 0.04643601256492898 0.9535639874350711 0.05161169321492533 0.9483883067850746 0.1357263927392961 0.8642736072607039 0.1826635988420368 0.8173364011579632</probabilities>
		</cpt>
		<cpt id="time_zero_uacr_mean">
			<state id="S_19_5718___63_0498" />
			<state id="S_63_0498___457_471" />
			<state id="S_le_457_471" />
			<state id="S_s_19_5718" />
			<parents>time_zero_hba1c_mean</parents>
			<probabilities>0.3441383502830056 0.04087384083341414 0.07600791892965911 0.5389798899539212 0.2853067364448486 0.03184468720848169 0.1046084941613732 0.5782400821852964 0.2137110077182825 0.1439297128717059 0.3027036847816211 0.3396555946283906 0.1951985315503166 0.2387972911861832 0.3621097216184243 0.203894455645076 0.6318499187620833 0.07118716541159437 0.04111059692721264 0.2558523188991098</probabilities>
		</cpt>
		<cpt id="time_zero_dbp_mean">
			<state id="S_62_5___71_5" />
			<state id="S_le_71_5" />
			<state id="S_s_62_5" />
			<parents>time_zero_uacr_mean</parents>
			<probabilities>0.5399863958113948 0.09391942168194715 0.366094182506658 0.5240562775849988 0.1815020558038604 0.2944416666111407 0.1947592354654809 0.7697293434835424 0.03551142105097655 0.1424458994476659 0.85354644742929 0.004007653123043884</probabilities>
		</cpt>
		<cpt id="time_zero_map_mean">
			<state id="S_74_9945___84_4729" />
			<state id="S_84_4729___109_327" />
			<state id="S_le_109_327" />
			<state id="S_s_74_9945" />
			<parents>time_zero_uacr_mean</parents>
			<probabilities>0.6462881053186875 0.1647560029510786 0.003273080275331594 0.1856828114549023 0.3004515907574892 0.6389386205009591 0.02112011871000377 0.03948967003154794 0.01510087440348039 0.6713758479390087 0.3101906813628409 0.00333259629466997 0.01953250299042965 0.9583830972583229 0.01837158512947029 0.00371281462177725</probabilities>
		</cpt>
		<cpt id="study_entry_period_albprockd_flag">
			<state id="S_0" />
			<state id="S_1" />
			<parents>time_zero_uacr_mean</parents>
			<probabilities>0.9641094469418425 0.03589055305815754 0.849652989294167 0.150347010705833 0.8963831142905013 0.1036168857094988 0.9993079756902228 0.0006920243097772212</probabilities>
		</cpt>
		<cpt id="time_zero_sbp_mean">
			<state id="S_101_5___139_5" />
			<state id="S_139_5___161_5" />
			<state id="S_le_161_5" />
			<state id="S_s_101_5" />
			<parents>time_zero_uacr_mean</parents>
			<probabilities>0.7956140403703076 0.02290149607890795 0.0002512820313695606 0.1812331815194147 0.8436553011356084 0.1236971353155123 0.01293714388224878 0.01971041966663057 0.095403235023496 0.6482755493699438 0.2529729576393948 0.003348257967165411 0.9002012507368404 0.0928175447496815 0.001357726887260948 0.005623477626217137</probabilities>
		</cpt>
		<cpt id="ruca_4_class">
			<state id="S_isolated" />
			<state id="S_large_rural" />
			<state id="S_small_rural" />
			<state id="S_urban" />
			<parents>time_zero_uacr_mean</parents>
			<probabilities>0.004935474235600796 0.01897976993409998 0.006087136007972957 0.9699976198223262 0.0005555242947443313 0.02172264581312313 0.0009051598397197761 0.9768166700524127 0.002374758015355789 0.01900399577045278 0.002509760562149326 0.9761114856520421 0.00109426991289434 0.01157455755484867 0.002571526617710907 0.9847596459145461</probabilities>
		</cpt>
		<cpt id="time_zero_pp_mean">
			<state id="S_56_5___63_5" />
			<state id="S_63_5___85_5" />
			<state id="S_le_85_5" />
			<state id="S_s_56_5" />
			<parents>time_zero_uacr_mean</parents>
			<probabilities>0.09226987965991815 0.05309995625562543 0.0002638566656424979 0.854366307418814 0.2400163055123072 0.4610419357354165 0.005718573640998239 0.2932231851112782 0.163826005924818 0.5601560973656967 0.1845201448315272 0.09149775187795811 0.1373816029516659 0.03784321963140824 0.001362611570732671 0.823412565846193</probabilities>
		</cpt>
		<cpt id="study_entry_nsaid_flag">
			<state id="S_0" />
			<state id="S_1" />
			<parents>time_zero_uacr_mean</parents>
			<probabilities>0.9420426058202082 0.05795739417979189 0.8949083449609553 0.1050916550390447 0.9309530600073084 0.06904693999269172 0.919305453953201 0.08069454604679901</probabilities>
		</cpt>
		<cpt id="study_entry_HTN_flag">
			<state id="S_0" />
			<state id="S_1" />
			<parents>time_zero_uacr_mean</parents>
			<probabilities>0.7536383104389592 0.2463616895610408 0.1920596968424941 0.8079403031575058 0.1530414250615835 0.8469585749384165 0.6312925024285585 0.3687074975714416</probabilities>
		</cpt>
		<cpt id="study_entry_PDM_flag">
			<state id="S_0" />
			<state id="S_1" />
			<parents>time_zero_uacr_mean</parents>
			<probabilities>0.8651631655982753 0.1348368344017245 0.8814319115579952 0.1185680884420049 0.9106167559758276 0.08938324402417237 0.862824281692802 0.137175718307198</probabilities>
		</cpt>
		<cpt id="time_zero_aceiarb_coverage">
			<state id="S_le_0_5" />
			<state id="S_s_0_5" />
			<parents>time_zero_uacr_mean</parents>
			<probabilities>0.05739133590996038 0.9426086640900396 0.2600941770599063 0.7399058229400937 0.2239060741032234 0.7760939258967766 0.05896536043779951 0.9410346395622005</probabilities>
		</cpt>
		<cpt id="study_entry_ppi_flag">
			<state id="S_0" />
			<state id="S_1" />
			<parents>time_zero_uacr_mean</parents>
			<probabilities>0.8798786726081371 0.1201213273918628 0.6988202414765756 0.3011797585234244 0.8770654728227638 0.1229345271772363 0.9243531288820089 0.07564687111799101</probabilities>
		</cpt>
		<cpt id="time_zero_upcr_mean">
			<state id="S_le_0_45655" />
			<state id="S_s_0_45655" />
			<parents>time_zero_dbp_mean</parents>
			<probabilities>0.8150894699609181 0.1849105300390817 0.8129311606730745 0.1870688393269256 0.835111793499494 0.164888206500506</probabilities>
		</cpt>
		<cpt id="demo_sex">
			<state id="S_0" />
			<state id="S_1" />
			<parents>time_zero_upcr_mean</parents>
			<probabilities>0.4968392613641497 0.5031607386358503 0.5734649152489459 0.426535084751054</probabilities>
		</cpt>
		<cpt id="time_zero_nsaid_coverage">
			<state id="S_le_4_5" />
			<state id="S_s_4_5" />
			<parents>time_zero_upcr_mean</parents>
			<probabilities>0.03818844390226005 0.9618115560977398 0.07332949577033616 0.9266705042296638</probabilities>
		</cpt>
		<cpt id="study_entry_glp1_flag">
			<state id="S_0" />
			<state id="S_1" />
			<parents>time_zero_upcr_mean</parents>
			<probabilities>0.999841693776821 0.0001583062231789293 0.9704349493773932 0.0295650506226069</probabilities>
		</cpt>
		<cpt id="time_zero_glp1_coverage">
			<state id="S_le_84_5" />
			<state id="S_s_84_5" />
			<parents>time_zero_upcr_mean</parents>
			<probabilities>6.50654150402009e-05 0.9999349345849597 0.006563909645677417 0.9934360903543226</probabilities>
		</cpt>
		<cpt id="time_zero_sglt2_coverage">
			<state id="S_le_0_5" />
			<state id="S_s_0_5" />
			<parents>time_zero_upcr_mean</parents>
			<probabilities>9.736499163794603e-05 0.9999026350083621 0.02126940894892051 0.9787305910510795</probabilities>
		</cpt>
		<cpt id="time_zero_mra_coverage">
			<state id="S_le_8_5" />
			<state id="S_s_8_5" />
			<parents>time_zero_upcr_mean</parents>
			<probabilities>9.480019947616203e-05 0.9999051998005239 0.006431565464327636 0.9935684345356723</probabilities>
		</cpt>
		<cpt id="study_entry_aceiarb_flag">
			<state id="S_0" />
			<state id="S_1" />
			<parents>time_zero_upcr_mean</parents>
			<probabilities>0.9672794369057557 0.03272056309424433 0.2975122114293713 0.7024877885706287</probabilities>
		</cpt>
		<cpt id="study_entry_sglt2_flag">
			<state id="S_0" />
			<state id="S_1" />
			<parents>time_zero_upcr_mean</parents>
			<probabilities>0.9998345244610723 0.0001654755389277321 0.9733224854274062 0.02667751457259377</probabilities>
		</cpt>
		<cpt id="study_entry_mra_flag">
			<state id="S_0" />
			<state id="S_1" />
			<parents>time_zero_upcr_mean</parents>
			<probabilities>0.9998980694942712 0.0001019305057287944 0.9947424209329438 0.005257579067056256</probabilities>
		</cpt>
		<cpt id="year1_mean">
			<state id="S_29_765___39_905" />
			<state id="S_39_905___53_065" />
			<state id="S_53_065___66_185" />
			<state id="S_66_185___76_735" />
			<state id="S_76_735___95_885" />
			<state id="S_le_95_885" />
			<state id="S_s_29_765" />
			<parents>year1_reduction_40_ge</parents>
			<probabilities>0.05012934029483526 0.08758204415042654 0.1285648669755833 0.1293863482652584 0.2892833780023888 0.251467569927512 0.0635864523839956 0.1801564138325065 0.2378790673636764 0.1081371553648476 0.01729834065483497 0.002017953791945505 9.150788699302462e-05 0.4544195611051959</probabilities>
		</cpt>
		<cpt id="year2_reduction_40_ge">
			<state id="S_0" />
			<state id="S_1" />
			<parents>year1_mean</parents>
			<probabilities>0.6725874872949092 0.3274125127050909 0.7049176150838115 0.2950823849161886 0.7755126283058311 0.2244873716941689 0.8248409542429572 0.1751590457570428 0.9103194011176859 0.08968059888231407 0.9509735971513097 0.04902640284869027 0.5706201528499597 0.4293798471500402</probabilities>
		</cpt>
		<cpt id="year1_ppi_coverage">
			<state id="S_le_363_5" />
			<state id="S_s_363_5" />
			<parents>year1_mean</parents>
			<probabilities>0.0898619664731848 0.9101380335268152 0.07074655096411728 0.9292534490358827 0.07031648912628433 0.9296835108737157 0.07894725281561719 0.9210527471843827 0.05297146832123378 0.9470285316787662 0.04684356891544977 0.9531564310845502 0.08439192727083267 0.9156080727291673</probabilities>
		</cpt>
		<cpt id="year1_uacr_mean">
			<state id="S_117_752___1378_19" />
			<state id="S_26_7176___117_752" />
			<state id="S_le_1378_19" />
			<state id="S_s_26_7176" />
			<parents>year1_mean</parents>
			<probabilities>0.2565824122411951 0.3033396289217775 0.1963089710794166 0.2437689877576109 0.177971752639991 0.2931009372519362 0.2738409488706887 0.2550863612373843 0.1828374509821718 0.2142137813116033 0.2191688615508627 0.3837799061553621 0.1394556661062814 0.1970176799684038 0.1655294618434907 0.4979971920818241 0.09361046127700966 0.1941976454696704 0.160207818091084 0.5519840751622359 0.1007173828314636 0.2059132069627617 0.05348887621964253 0.6398805339861322 0.2836189641723699 0.1606822967008104 0.3977282060822436 0.157970533044576</probabilities>
		</cpt>
		<cpt id="year1_dbp_mean">
			<state id="S_58_9312___69_6547" />
			<state id="S_69_6547___75_9703" />
			<state id="S_le_75_9703" />
			<state id="S_s_58_9312" />
			<parents>year1_uacr_mean time_zero_uacr_mean</parents>
			<probabilities>0.400722922890823 0.0239223444367583 0.001434262826899711 0.5739204698455188 0.4154064308614483 0.2086060758233971 0.3260814237269165 0.04990606958823808 0.2800134289801259 0.267947081146364 0.4264188515575966 0.02562063831591349 0.5026885793058845 0.3196391664853756 0.1689202765473874 0.008751977661352224 0.9100776681547001 0.02097307153629977 0.01879265465880163 0.05015660565019849 0.5051838939397243 0.3213500205940913 0.1696236242525859 0.003842461213598421 0.6232571189986764 0.1532538380640787 0.05766186881907798 0.1658271741181668 0.1132143109888531 0.5272797681309467 0.35891251053452 0.000593410345680291 0.6422419080269458 0.1444090857930329 0.1946441540579415 0.01870485212207974 0.5875115127938099 0.3398089973018146 0.07062751041526105 0.002051979489114475 0.1102937568272973 0.2203762800801881 0.6665346064687377 0.002795356623776854 0.04273710714586144 0.1171826231190087 0.8391802818252195 0.0008999879099103532 0.2297209340428452 0.4298657876976796 0.3399821060601655 0.0004311721993096754 0.3570825541228872 0.03178457065608931 0.02941528874004217 0.5817175864809813 0.03318826391574144 0.2005638492897345 0.7655685040876934 0.0006793827068305767 0.05247696146840449 0.2283412335426402 0.7171618993112222 0.002019905677732838</probabilities>
		</cpt>
		<cpt id="year1_hba1c_mean">
			<state id="S_5_1875___6_34645" />
			<state id="S_le_6_34645" />
			<state id="S_s_5_1875" />
			<parents>year1_uacr_mean time_zero_uacr_mean</parents>
			<probabilities>0.5133832058121541 0.270959572041767 0.2156572221460788 0.2713963135857688 0.6120888423861305 0.1165148440281008 0.1465157945917712 0.845324043067841 0.00816016234038768 0.7698121205410877 0.1464679485963238 0.08371993086258851 0.5949739919063102 0.2432631136499808 0.161762894443709 0.09915082833537407 0.8931739158572043 0.007675255807421653 0.3525721489670894 0.5399229707691142 0.1075048802637963 0.7440444092721051 0.1992709595791089 0.05668463114878602 0.4982583434447035 0.3410004207416066 0.16074123581369 0.6458842566494414 0.3377614218868761 0.01635432146368259 0.4324084924673698 0.5244704178998452 0.0431210896327848 0.7175143631751415 0.1256515965408765 0.1568340402839819 0.6740790074916841 0.2890871809351067 0.03683381157320924 0.2963786572906261 0.5359163732489985 0.1677049694603754 0.5462372084417586 0.4227586160137215 0.03100417554451997 0.753997943110812 0.2128712390388889 0.03313081785029919</probabilities>
		</cpt>
		<cpt id="year1_pp_mean">
			<state id="S_57_5___69_5" />
			<state id="S_le_69_5" />
			<state id="S_s_57_5" />
			<parents>year1_uacr_mean time_zero_uacr_mean</parents>
			<probabilities>0.02533550128954507 0.007704645190839706 0.9669598535196152 0.1721754349433912 0.7379782893090783 0.08984627574753053 0.4668434874436878 0.1031312261514866 0.4300252864048257 0.09784491546687316 0.004080772125573465 0.8980743124075533 0.03697677800964756 0.004618668602536562 0.9584045533878158 0.4051052767496158 0.2533206290782531 0.3415740941721309 0.2694812983208081 0.4883535695418917 0.2421651321373002 0.1976547901392289 0.01107059827936682 0.7912746115814042 0.515930698534671 0.1953364261525524 0.2887328753127765 0.7874496452344453 0.08318446758551559 0.1293658871800391 0.1322864077284929 0.7883458692309115 0.07936772304059561 0.3881788757543155 0.1060709629153485 0.505750161330336 0.06359439461614878 0.003488786496991182 0.93291681888686 0.3303969539362279 0.08007978838754157 0.5895232576762306 0.5083717462873768 0.1282803887216589 0.3633478649909644 0.0677038577878976 0.006361158539190935 0.9259349836729115</probabilities>
		</cpt>
		<cpt id="year1_sbp_mean">
			<state id="S_104_5___144_5" />
			<state id="S_le_144_5" />
			<state id="S_s_104_5" />
			<parents>year1_uacr_mean time_zero_uacr_mean</parents>
			<probabilities>0.1546169123855327 0.007549414282640045 0.8378336733318272 0.319540866317675 0.6777659261598943 0.00269320752243064 0.8267345836741888 0.1462128993190682 0.02705251700674293 0.8731079800698589 0.001327328799355336 0.1255646911307857 0.5774860376817497 0.004457792094496912 0.4180561702237535 0.8876821003036163 0.1099518057770677 0.002366093919316161 0.782152433272464 0.1676994879529534 0.05014807877458279 0.9753344334762054 0.01395010926639015 0.01071545725740449 0.8583116931474959 0.1386443969811773 0.00304390987132677 0.9767181629969579 0.02080438893659216 0.002477448066449892 0.1174892341706282 0.8814612860077859 0.001049479821585801 0.5409907473835918 0.4545939607169739 0.004415291899434408 0.973765235986109 0.005981980279971792 0.02025278373391934 0.7397244212781396 0.01623778644959605 0.2440377922722642 0.5993973756902284 0.399702407258452 0.0009002170513194159 0.9720052115015212 0.02728249879113551 0.0007122897073432168</probabilities>
		</cpt>
		<cpt id="year1_map_mean">
			<state id="S_73_6599___80_9885" />
			<state id="S_le_80_9885" />
			<state id="S_s_73_6599" />
			<parents>year1_uacr_mean time_zero_uacr_mean</parents>
			<probabilities>0.2455622982752775 0.02240147015178521 0.7320362315729372 0.003268709349413485 0.9940316825604711 0.002699608090115467 0.05134395794709567 0.9463715317367566 0.002284510316147726 0.1862096077218068 0.7970373147476755 0.01675307753051778 0.8849204109735673 0.09522431640491702 0.01985527262151569 0.02695113270181617 0.9707251017966281 0.002323765501555684 0.07854745596495027 0.8446814970267602 0.07677104700828948 0.003733044065821421 0.995486555673136 0.0007804002610425055 0.02971565578153222 0.9684484465525582 0.001835897665909635 0.003966435277292708 0.99369359602711 0.002339968695597189 0.001017980699136952 0.9979678289381235 0.001014190362739619 0.003853380371846227 0.9950079463728666 0.001138673255287128 0.01042120769330999 0.9890126251783724 0.0005661671283175996 0.541503375214785 0.1822244048114047 0.2762722199738104 0.001558229277992744 0.9975865942905559 0.00085517643145145 0.004236321819396599 0.995457146834029 0.0003065313465744946</probabilities>
		</cpt>
		<cpt id="year1_upcr_mean">
			<state id="S_le_0_75285" />
			<state id="S_s_0_75285" />
			<parents>year1_pp_mean time_zero_sbp_mean</parents>
			<probabilities>0.6026011741094832 0.3973988258905167 0.8238813019347773 0.1761186980652228 0.5256925373970387 0.4743074626029613 0.3080932437752287 0.6919067562247714 0.6512365087610136 0.3487634912389864 0.7420870011953514 0.2579129988046485 0.9168637336944452 0.08313626630555482 0.3320651338230272 0.6679348661769727 0.4185451251306972 0.5814548748693028 0.6770997526283485 0.3229002473716515 0.7491425689896789 0.2508574310103212 0.3437561025900486 0.6562438974099514</probabilities>
		</cpt>
		<cpt id="year1_glp1_coverage">
			<state id="S_le_159" />
			<state id="S_s_159" />
			<parents>year1_upcr_mean time_zero_upcr_mean</parents>
			<probabilities>0.0006127938302426759 0.9993872061697573 0.05921352881342833 0.9407864711865717 0.000559606252816857 0.9994403937471832 0.004657537035947139 0.9953424629640528</probabilities>
		</cpt>
		<cpt id="year1_nsaid_coverage">
			<state id="S_le_27_5" />
			<state id="S_s_27_5" />
			<parents>year1_upcr_mean</parents>
			<probabilities>0.08935512082913676 0.9106448791708632 0.05557091899691143 0.9444290810030885</probabilities>
		</cpt>
		<cpt id="year1_aceiarb_coverage">
			<state id="S_le_364_5" />
			<state id="S_s_364_5" />
			<parents>year1_upcr_mean time_zero_upcr_mean</parents>
			<probabilities>0.01040716763899134 0.9895928323610086 0.609348002326803 0.3906519976731969 0.0003818024317327702 0.9996181975682672 0.1295735507583451 0.8704264492416548</probabilities>
		</cpt>
		<cpt id="year1_mra_coverage">
			<state id="S_le_143_5" />
			<state id="S_s_143_5" />
			<parents>year1_upcr_mean time_zero_upcr_mean</parents>
			<probabilities>0.0001279274920713534 0.9998720725079286 0.003163911289977425 0.9968360887100225 0.00013288494725042 0.9998671150527496 0.00638758129872951 0.9936124187012705</probabilities>
		</cpt>
		<cpt id="year1_sglt2_coverage">
			<state id="S_le_55_5" />
			<state id="S_s_55_5" />
			<parents>year1_upcr_mean time_zero_upcr_mean</parents>
			<probabilities>0.0002823458207277918 0.9997176541792723 0.0444286414265431 0.9555713585734568 0.000274292655263167 0.9997257073447368 0.004802279423096949 0.995197720576903</probabilities>
		</cpt>
		<cpt id="year2_mean">
			<state id="S_23_64___33_405" />
			<state id="S_33_405___42_375" />
			<state id="S_42_375___54_645" />
			<state id="S_54_645___64_975" />
			<state id="S_64_975___75_785" />
			<state id="S_75_785___84_745" />
			<state id="S_le_84_745" />
			<state id="S_s_23_64" />
			<parents>year1_mean</parents>
			<probabilities>0.3278636657998443 0.2385612352675207 0.1241349706330819 0.0357762829087355 0.0004952247492881957 0.006104129500690701 0.01819587914449067 0.2488686119963478 0.1431243815456277 0.2365972609474443 0.3456975882880649 0.1004366960076764 0.03815943954313705 0.02411745559986953 0.01643340668309899 0.09543377138508093 0.07877595503568029 0.09734675669029316 0.2499759430022191 0.2859484845119262 0.1438297059780502 0.05493406219450114 0.05061177063657115 0.03857732195075858 0.04118265219028626 0.08584154337688393 0.1743416477126678 0.1400259356334777 0.2996012750143198 0.1775312404588819 0.06532484598840665 0.01615085962507587 0.01584642146704096 0.02383862615417658 0.07821480533893954 0.0529296317105862 0.1199046786489361 0.2387870113807891 0.4528527337277964 0.01762609157173512 0.007741612293431923 0.01150755285060698 0.02567425960025089 0.04715673410217763 0.04368683845321638 0.042922688133042 0.8181853902119537 0.003124924355320402 0.1232872037277709 0.03588041974704962 0.02533167342832396 0.004044709563220393 0.01088645176882831 0.0003262943874806415 0.007416026617980701 0.7928272207593454</probabilities>
		</cpt>
		<cpt id="year3_reduction_40_ge">
			<state id="S_0" />
			<state id="S_1" />
			<parents>year2_mean year1_hba1c_mean</parents>
			<probabilities>0.6982181630816116 0.3017818369183885 0.5541089601192176 0.4458910398807823 0.6171926101286805 0.3828073898713195 0.7045042575867337 0.2954957424132664 0.6300812340498704 0.3699187659501296 0.8150960526444059 0.1849039473555941 0.7600036794640754 0.2399963205359246 0.6225666152269442 0.3774333847730558 0.8874602777797749 0.1125397222202252 0.79681075179635 0.2031892482036501 0.7276013124087383 0.2723986875912617 0.5206627403971995 0.4793372596028004 0.8417036200782025 0.1582963799217976 0.8289140071763302 0.1710859928236698 0.8114561802502409 0.1885438197497591 0.9674701598549093 0.03252984014509074 0.8355620439484983 0.1644379560515016 0.7326876889082528 0.2673123110917472 0.9755347258735264 0.02446527412647368 0.9259038959200672 0.07409610407993285 0.9568832585407241 0.04311674145927592 0.7261979608986968 0.2738020391013033 0.5956304878667301 0.4043695121332698 0.6043744945988236 0.3956255054011763</probabilities>
		</cpt>
		<cpt id="year2_ppi_coverage">
			<state id="S_le_5_5" />
			<state id="S_s_5_5" />
			<parents>year2_mean year1_ppi_coverage</parents>
			<probabilities>0.7836492724766401 0.2163507275233599 0.08834447827630869 0.9116555217236915 0.8943841740388092 0.1056158259611908 0.08973778643043556 0.9102622135695644 0.8428014038320591 0.1571985961679408 0.08368443830132404 0.916315561698676 0.8727253306829752 0.1272746693170247 0.07507646978099342 0.9249235302190065 0.8514993329389798 0.1485006670610202 0.0992552282286113 0.9007447717713887 0.8108595433333337 0.1891404566666664 0.06254281983263267 0.9374571801673672 0.758703491460945 0.241296508539055 0.0519856624809222 0.9480143375190779 0.9621287155383639 0.03787128446163603 0.08518072175069519 0.9148192782493048</probabilities>
		</cpt>
		<cpt id="year2_uacr_mean">
			<state id="S_28_9901___380_126" />
			<state id="S_380_126___2282_72" />
			<state id="S_le_2282_72" />
			<state id="S_s_28_9901" />
			<parents>year2_mean</parents>
			<probabilities>0.4744643115206974 0.2001564639990001 0.1699486720178761 0.1554305524624265 0.4297247806023509 0.1342699222737207 0.1336019254296819 0.3024033716942464 0.3304593332405926 0.1177616270827752 0.1278947444485625 0.4238842952280698 0.3128546381910928 0.0929440006145985 0.1128835522470618 0.4813178089472469 0.2495278576436241 0.0555136846317423 0.1057011632786341 0.5892572944459994 0.1571172911403345 0.04126602064112555 0.1258378937894488 0.6757787944290911 0.09114914702908312 0.04175677628878743 0.04531885028501664 0.8217752263971129 0.4357108197957021 0.1545908216804671 0.3095068431373547 0.1001915153864762</probabilities>
		</cpt>
		<cpt id="year2_dbp_mean">
			<state id="S_58_5___68_5" />
			<state id="S_le_68_5" />
			<state id="S_s_58_5" />
			<parents>year2_uacr_mean</parents>
			<probabilities>0.4348198139186322 0.5412229852175472 0.02395720086382067 0.3430836759317053 0.1802452397797697 0.476671084288525 0.1253356204355312 0.8682208530869373 0.006443526477531407 0.1407185596983851 0.8585098510700612 0.0007715892315536157</probabilities>
		</cpt>
		<cpt id="year2_hba1c_mean">
			<state id="S_4_85835___6_12915" />
			<state id="S_le_6_12915" />
			<state id="S_s_4_85835" />
			<parents>year2_uacr_mean year1_hba1c_mean</parents>
			<probabilities>0.7325637038733073 0.229843018841929 0.03759327728476367 0.1435536609444409 0.8463421501952535 0.01010418886030545 0.6576427005773741 0.08434123849081161 0.2580160609318142 0.7406663516552006 0.1854560593375482 0.07387758900725112 0.06972579015884312 0.9195315045808273 0.0107427052603296 0.5732423850443095 0.0939656197295943 0.3327919952260963 0.7868933906366593 0.1949856053806941 0.01812100398264653 0.1241652331784551 0.8687859912583398 0.007048775563205085 0.3326956703661008 0.3682284342168149 0.2990758954170843 0.9008349959549317 0.09419749070765902 0.004967513337409376 0.1998967999219474 0.7831692441201163 0.01693395595793622 0.9076995124697628 0.01504002937727676 0.07726045815296059</probabilities>
		</cpt>
		<cpt id="year2_pp_mean">
			<state id="S_60_059___74_0173" />
			<state id="S_le_74_0173" />
			<state id="S_s_60_059" />
			<parents>year2_uacr_mean</parents>
			<probabilities>0.3255145800547979 0.09506565468549265 0.5794197652597094 0.1431677528592631 0.07892930936871537 0.7779029377720216 0.3020616584822055 0.6523669880800133 0.04557135343778117 0.09356562312296747 0.006765957747749297 0.8996684191292832</probabilities>
		</cpt>
		<cpt id="year2_sbp_mean">
			<state id="S_96_5___148_5" />
			<state id="S_le_148_5" />
			<state id="S_s_96_5" />
			<parents>year2_uacr_mean</parents>
			<probabilities>0.9683262332425352 0.02458067496739911 0.007093091790065735 0.7076696077637474 0.05107194824839494 0.2412584439878576 0.1061306136757306 0.8932243937425479 0.0006449925817214796 0.9761748072587381 0.02366683364515586 0.0001583590961061607</probabilities>
		</cpt>
		<cpt id="year2_map_mean">
			<state id="S_69_8471___75_7852" />
			<state id="S_le_75_7852" />
			<state id="S_s_69_8471" />
			<parents>year2_uacr_mean</parents>
			<probabilities>0.01439192452483906 0.9843536094371967 0.001254466037964296 0.4323966685529148 0.3794199842654113 0.1881833471816739 0.0006344124963567993 0.9987318941798963 0.0006336933237467989 0.001992335143203207 0.9978683879963383 0.0001392768604584596</probabilities>
		</cpt>
		<cpt id="year2_upcr_mean">
			<state id="S_le_0_92575" />
			<state id="S_s_0_92575" />
			<parents>year2_pp_mean</parents>
			<probabilities>0.4914268813897911 0.5085731186102089 0.6169225673420993 0.3830774326579008 0.5167462326624056 0.4832537673375943</probabilities>
		</cpt>
		<cpt id="year2_glp1_coverage">
			<state id="S_le_119_5" />
			<state id="S_s_119_5" />
			<parents>year2_upcr_mean year1_glp1_coverage</parents>
			<probabilities>0.4562908072935714 0.5437091927064285 0.0002355761114058173 0.9997644238885942 0.6910455908016349 0.3089544091983652 0.008186145404294543 0.9918138545957055</probabilities>
		</cpt>
		<cpt id="year2_nsaid_coverage">
			<state id="S_le_13_5" />
			<state id="S_s_13_5" />
			<parents>year2_upcr_mean</parents>
			<probabilities>0.01579261832787925 0.9842073816721209 0.1164676639737148 0.8835323360262852</probabilities>
		</cpt>
		<cpt id="year2_aceiarb_coverage">
			<state id="S_le_320_5" />
			<state id="S_s_320_5" />
			<parents>year2_upcr_mean</parents>
			<probabilities>0.02273440689850896 0.9772655931014911 0.1301789267215834 0.8698210732784165</probabilities>
		</cpt>
		<cpt id="year2_mra_coverage">
			<state id="S_le_113" />
			<state id="S_s_113" />
			<parents>year2_upcr_mean</parents>
			<probabilities>0.0004611888202372447 0.9995388111797627 0.0008131002610377934 0.9991868997389621</probabilities>
		</cpt>
		<cpt id="year2_sglt2_coverage">
			<state id="S_le_77_5" />
			<state id="S_s_77_5" />
			<parents>year2_upcr_mean</parents>
			<probabilities>0.0002079876851911835 0.9997920123148087 0.007696821166878161 0.9923031788331219</probabilities>
		</cpt>
		<cpt id="year3_mean">
			<state id="S_24_28___30_945" />
			<state id="S_30_945___43_275" />
			<state id="S_43_275___54_005" />
			<state id="S_54_005___62_345" />
			<state id="S_62_345___68_375" />
			<state id="S_68_375___87_005" />
			<state id="S_le_87_005" />
			<state id="S_s_24_28" />
			<parents>year2_mean</parents>
			<probabilities>0.2885933051212762 0.1964645716557618 0.04601244059961423 0.01536697047711432 0.01578583621739158 0.004624771123179012 0.00514321760558092 0.428008887200082 0.1779619684248651 0.4171574388437204 0.1431966224506079 0.06856680082235937 0.01007915841436615 0.02307494884479006 0.008458744201654076 0.1515043179976368 0.06594847006075326 0.2562088704326347 0.3160114359762716 0.134598250734966 0.06635113845045473 0.06296233987183361 0.02460602057488714 0.07331347389819898 0.04763248429667797 0.1519712598145689 0.2352043115506854 0.2551651597756758 0.1157309218177918 0.1532390296479958 0.02458674032025685 0.01647009277634747 0.01412879463435313 0.09548342026171865 0.1363240733338362 0.1369281001337388 0.1820107844088115 0.3508461567323117 0.05921238153177972 0.0250662889634502 0.008056390582498569 0.06438809954922378 0.05629351623252826 0.06631625076061655 0.0603917450547297 0.5508662506861735 0.1887106450120708 0.004977102122158702 0.00476688388897695 0.01587524790922502 0.02447206421913955 0.02838712507410192 0.01778341128984717 0.15515206326756 0.7498167694452291 0.003746434905920366 0.04667190288854658 0.01826993822707932 0.006416943198762921 0.003937032850388704 0.0003010075211062958 0.006270483589628004 0.0005166094848448916 0.9176160822396432</probabilities>
		</cpt>
		<cpt id="year4_reduction_40_ge">
			<state id="S_0" />
			<state id="S_1" />
			<parents>year3_mean year2_hba1c_mean</parents>
			<probabilities>0.8108538194447796 0.1891461805552204 0.6086655647414664 0.3913344352585337 0.8883856432864378 0.1116143567135623 0.7938729484085922 0.2061270515914077 0.6184028415959599 0.3815971584040401 0.9735362572901121 0.02646374270988804 0.8980668996150447 0.1019331003849552 0.5914102359024405 0.4085897640975595 0.95653533058083 0.04346466941917 0.8927429978605705 0.1072570021394294 0.7417545177203267 0.2582454822796734 0.6380341266173843 0.3619658733826157 0.9205161778992261 0.07948382210077395 0.7970665957172138 0.2029334042827861 0.9304564895027277 0.06954351049727231 0.9511546338678527 0.04884536613214735 0.8956407956514039 0.1043592043485961 0.8022274682854974 0.1977725317145027 0.9888893235694283 0.01111067643057169 0.9838810363522615 0.01611896364773857 0.8066687815024784 0.1933312184975216 0.7958711369627146 0.2041288630372854 0.7929093962416676 0.2070906037583323 0.732632110173418 0.267367889826582</probabilities>
		</cpt>
		<cpt id="year3_ppi_coverage">
			<state id="S_le_0_5" />
			<state id="S_s_0_5" />
			<parents>year3_mean year2_ppi_coverage</parents>
			<probabilities>0.5680648589158516 0.4319351410841484 0.06224210222310983 0.9377578977768901 0.5132296199140842 0.4867703800859157 0.03502152230923927 0.9649784776907607 0.5411159929254573 0.4588840070745427 0.05293655407708479 0.9470634459229154 0.5183485928798771 0.4816514071201228 0.04844383248588442 0.9515561675141155 0.5156763691615659 0.4843236308384343 0.04022791239111436 0.9597720876088858 0.6132713016434281 0.3867286983565718 0.03287291605387782 0.9671270839461221 0.4260095017618281 0.5739904982381719 0.03506718394120946 0.9649328160587904 0.4786126698942184 0.5213873301057815 0.04595744755663568 0.9540425524433643</probabilities>
		</cpt>
		<cpt id="year3_uacr_mean">
			<state id="S_316_305___1574_23" />
			<state id="S_86_2718___316_305" />
			<state id="S_le_1574_23" />
			<state id="S_s_86_2718" />
			<parents>year3_mean</parents>
			<probabilities>0.4147613858522713 0.130249352670965 0.189151803488973 0.2658374579877906 0.2395551853709462 0.157097503989145 0.1832405243025338 0.4201067863373751 0.2255957096955365 0.1186424682823777 0.1117004242753834 0.5440613977467025 0.1038980628066908 0.08032280130503829 0.100537276402943 0.7152418594853278 0.08260283495282345 0.09253253366661662 0.08753730203987545 0.7373273293406846 0.07094203447907581 0.07713426061195618 0.142436197796917 0.7094875071120509 0.01509764795967815 0.04845383051041392 0.04115097203015621 0.8952975494997517 0.3429991883954508 0.117660877946871 0.3548495220465757 0.1844904116111024</probabilities>
		</cpt>
		<cpt id="year3_dbp_mean">
			<state id="S_53_9127___59_9652" />
			<state id="S_59_9652___71_4253" />
			<state id="S_le_71_4253" />
			<state id="S_s_53_9127" />
			<parents>year3_uacr_mean</parents>
			<probabilities>0.09812266208887005 0.4982931502659407 0.3922599281037887 0.01132425954140065 0.2590422092779452 0.481683919332721 0.110521523188409 0.1487523482009246 0.01744150121917275 0.1908826537014332 0.777787457791795 0.01388838728759914 0.008983578619098074 0.2508364644896651 0.7396053186994016 0.0005746381918352656</probabilities>
		</cpt>
		<cpt id="year3_hba1c_mean">
			<state id="S_4_51665___6_29" />
			<state id="S_le_6_29" />
			<state id="S_s_4_51665" />
			<parents>year3_uacr_mean year2_hba1c_mean</parents>
			<probabilities>0.7963141965667254 0.1610085036586367 0.04267729977463793 0.2194403283060738 0.7709036038865631 0.009656067807363189 0.6539039152530555 0.139691029105484 0.2064050556414606 0.885150052884665 0.09454986286843027 0.0203000842469048 0.09580081985303343 0.893558667372512 0.01064051277445444 0.502376998234324 0.09294754379453429 0.4046754579711417 0.9041679196339293 0.07324398849091304 0.02258809187515767 0.1869942673107748 0.8075693676375317 0.005436365051693547 0.8560402947718051 0.08357241591623378 0.06038728931196117 0.9697418770711108 0.02592146508855012 0.004336657840338888 0.3051106963154903 0.6924974631927615 0.002391840491748206 0.7520137314543665 0.07613462377500206 0.1718516447706315</probabilities>
		</cpt>
		<cpt id="year3_pp_mean">
			<state id="S_51_5___60_5" />
			<state id="S_60_5___70_5" />
			<state id="S_le_70_5" />
			<state id="S_s_51_5" />
			<parents>year3_uacr_mean</parents>
			<probabilities>0.3381265127169225 0.374511932580617 0.2169369272808624 0.07042462742159827 0.1161508402073523 0.07740187994946655 0.04340460693210316 0.7630426729110779 0.09162683334608741 0.2505685473030865 0.6320657992283936 0.02573882012243256 0.2442612489032374 0.07849207073203018 0.0140287430686994 0.6632179372960331</probabilities>
		</cpt>
		<cpt id="year3_sbp_mean">
			<state id="S_103_5___145_5" />
			<state id="S_le_145_5" />
			<state id="S_s_103_5" />
			<parents>year3_uacr_mean</parents>
			<probabilities>0.8897340345366154 0.1076533606247076 0.002612604838677066 0.3710159113294776 0.03382289771923788 0.5951611909512845 0.1096683697301513 0.8896824539777897 0.000649176292059014 0.9537016179882243 0.03299129143982231 0.01330709057195342</probabilities>
		</cpt>
		<cpt id="year3_map_mean">
			<state id="S_le_74_9579" />
			<state id="S_s_74_9579" />
			<parents>year3_uacr_mean</parents>
			<probabilities>0.9987844369624235 0.001215563037576616 0.4713393749541712 0.5286606250458287 0.9990349204261479 0.0009650795738520713 0.9961954326931364 0.003804567306863599</probabilities>
		</cpt>
		<cpt id="year3_upcr_mean">
			<state id="S_le_0_968" />
			<state id="S_s_0_968" />
			<parents>year3_pp_mean</parents>
			<probabilities>0.50798388238281 0.4920161176171898 0.5696585257128833 0.4303414742871166 0.5614827065709659 0.4385172934290342 0.515388426537954 0.4846115734620461</probabilities>
		</cpt>
		<cpt id="year3_glp1_coverage">
			<state id="S_le_5_5" />
			<state id="S_s_5_5" />
			<parents>year3_upcr_mean year2_glp1_coverage</parents>
			<probabilities>0.2917270050631189 0.7082729949368809 0.0002640342007498637 0.9997359657992501 0.8782917255220688 0.1217082744779312 0.00554569657613073 0.9944543034238694</probabilities>
		</cpt>
		<cpt id="year3_nsaid_coverage">
			<state id="S_le_21_5" />
			<state id="S_s_21_5" />
			<parents>year3_upcr_mean</parents>
			<probabilities>0.01988963445760515 0.9801103655423948 0.08798737227203121 0.9120126277279686</probabilities>
		</cpt>
		<cpt id="year3_aceiarb_coverage">
			<state id="S_le_363_5" />
			<state id="S_s_363_5" />
			<parents>year3_upcr_mean</parents>
			<probabilities>0.01161233158488414 0.9883876684151159 0.09505643263621801 0.9049435673637821</probabilities>
		</cpt>
		<cpt id="year3_mra_coverage">
			<state id="S_le_5" />
			<state id="S_s_5" />
			<parents>year3_upcr_mean</parents>
			<probabilities>0.0002789690659068582 0.9997210309340931 0.0007988699098406439 0.9992011300901593</probabilities>
		</cpt>
		<cpt id="year3_sglt2_coverage">
			<state id="S_le_107" />
			<state id="S_s_107" />
			<parents>year3_upcr_mean</parents>
			<probabilities>0.00019892513429116 0.9998010748657089 0.007561207318560503 0.9924387926814394</probabilities>
		</cpt>
		<cpt id="year4_mean">
			<state id="S_21_23___32_445" />
			<state id="S_32_445___48_305" />
			<state id="S_48_305___53_965" />
			<state id="S_53_965___59_405" />
			<state id="S_59_405___71_815" />
			<state id="S_le_71_815" />
			<state id="S_s_21_23" />
			<parents>year3_mean</parents>
			<probabilities>0.3984742956467186 0.1451195343045417 0.02259856077426772 0.01567213944619083 0.01393203557741339 0.001075565341923467 0.4031278689089443 0.2571796712002147 0.519113695311633 0.02933711301227811 0.05886291924799422 0.03001936128150959 0.02325942578962925 0.08222781415674105 0.1115323009969025 0.354319762599059 0.215361533402276 0.1185325675404352 0.1209638706800027 0.05396039590049882 0.02532956888082565 0.1017770775380125 0.2712111522480766 0.1770280778870827 0.1323405740468366 0.2106278392619362 0.1012262319140138 0.005789047104041576 0.05112292971027917 0.1088426703629754 0.08490059100952375 0.1398647842754598 0.3896335084308373 0.1891507855195969 0.03648473069132764 0.02098974206120938 0.07976452770315191 0.02905276238205513 0.04749085944272236 0.1652823957224437 0.6445916553274431 0.01282805736097428 0.003239184655459679 0.01369235365182473 0.006435868126054639 0.01474840760006819 0.02297468826309598 0.9358292867330001 0.003080210970496551 0.1153860654057773 0.03355851793905768 0.002928933067987549 0.005819876379896535 0.01055554438486747 0.003591054433801855 0.8281600083886115</probabilities>
		</cpt>
		<cpt id="year5_reduction_40_ge">
			<state id="S_0" />
			<state id="S_1" />
			<parents>year4_mean year3_hba1c_mean</parents>
			<probabilities>0.9298434091389551 0.07015659086104493 0.8633620094113515 0.1366379905886485 0.918275988226948 0.081724011773052 0.9439264734456103 0.05607352655438971 0.835909967262252 0.1640900327377479 0.9027301983882633 0.09726980161173665 0.980826615482931 0.0191733845170689 0.7652748103136242 0.2347251896863758 0.8394047793781244 0.1605952206218755 0.8784002440668393 0.1215997559331609 0.9059897147557403 0.09401028524425965 0.8695597450743153 0.1304402549256846 0.9410049476898354 0.05899505231016436 0.8701237869513889 0.129876213048611 0.7643496602390825 0.2356503397609175 0.9824780797115321 0.01752192028846783 0.9320875171089618 0.06791248289103839 0.8888865418312142 0.1111134581687857 0.91436525175609 0.08563474824391015 0.9521793879952565 0.04782061200474357 0.7028418323625472 0.2971581676374529</probabilities>
		</cpt>
		<cpt id="year4_ppi_coverage">
			<state id="S_le_0_5" />
			<state id="S_s_0_5" />
			<parents>year4_mean year3_ppi_coverage</parents>
			<probabilities>0.5456275875353522 0.4543724124646479 0.03220800177265214 0.967791998227348 0.5598603156373326 0.4401396843626675 0.0447338535767947 0.9552661464232054 0.3840280728387802 0.6159719271612198 0.0280534129923203 0.9719465870076797 0.5109424153653057 0.4890575846346943 0.01829257531646708 0.981707424683533 0.5204667342739251 0.4795332657260749 0.03490161481802354 0.9650983851819765 0.4314058329004625 0.5685941670995374 0.01934668558751553 0.9806533144124845 0.2664617067241916 0.7335382932758084 0.02823152760144015 0.9717684723985598</probabilities>
		</cpt>
		<cpt id="year4_uacr_mean">
			<state id="S_122_847___2888_41" />
			<state id="S_le_2888_41" />
			<state id="S_s_122_847" />
			<parents>year4_mean</parents>
			<probabilities>0.2104578814182559 0.3621887510693847 0.4273533675123594 0.2657464631164898 0.2826517565203611 0.4516017803631492 0.2173740259540791 0.1788907459225458 0.6037352281233751 0.1969722821308873 0.1963983509996265 0.6066293668694862 0.1915153213055986 0.1455071780686585 0.6629775006257428 0.05011105330793168 0.1085594217879482 0.8413295249041201 0.5113640494558902 0.2701941459366295 0.2184418046074803</probabilities>
		</cpt>
		<cpt id="year4_dbp_mean">
			<state id="S_59_9162___69_9344" />
			<state id="S_le_69_9344" />
			<state id="S_s_59_9162" />
			<parents>year4_uacr_mean</parents>
			<probabilities>0.2739388153419217 0.6965828243826627 0.02947836027541548 0.6486851642456516 0.08496144356766697 0.2663533921866813 0.09387557200866378 0.8990100345891718 0.007114393402164342</probabilities>
		</cpt>
		<cpt id="year4_hba1c_mean">
			<state id="S_5_26335___6_45835" />
			<state id="S_le_6_45835" />
			<state id="S_s_5_26335" />
			<parents>year4_uacr_mean year3_hba1c_mean</parents>
			<probabilities>0.649246790157381 0.1286204500284114 0.2221327598142076 0.2510637636456044 0.7113158949304398 0.03762034142395576 0.331958501563436 0.3567122696928764 0.3113292287436875 0.6843624267674757 0.08099366961000569 0.2346439036225185 0.306792418282656 0.6278301992725553 0.06537738244478861 0.4374842534156489 0.2145784711321241 0.347937275452227 0.8579651793183132 0.02096246015118929 0.1210723605304976 0.3272642582539859 0.6337111802274585 0.03902456151855564 0.4905691076130604 0.1489103270813548 0.3605205653055847</probabilities>
		</cpt>
		<cpt id="year4_pp_mean">
			<state id="S_58_5___76_5" />
			<state id="S_le_76_5" />
			<state id="S_s_58_5" />
			<parents>year4_uacr_mean</parents>
			<probabilities>0.4217515626005544 0.3874081410519102 0.1908402963475355 0.1911231906001407 0.0522847611660243 0.756592048233835 0.1863766424535379 0.003998218701614237 0.8096251388448478</probabilities>
		</cpt>
		<cpt id="year4_sbp_mean">
			<state id="S_le_154_5" />
			<state id="S_s_154_5" />
			<parents>year4_uacr_mean</parents>
			<probabilities>0.401147835412879 0.598852164587121 0.01252215584782556 0.9874778441521744 0.008459441451732819 0.9915405585482672</probabilities>
		</cpt>
		<cpt id="year4_map_mean">
			<state id="S_72_9014___83_8254" />
			<state id="S_le_83_8254" />
			<state id="S_s_72_9014" />
			<parents>year4_uacr_mean</parents>
			<probabilities>0.0167459791451149 0.981915406269859 0.001338614585026102 0.6632247257595896 0.2018906338451904 0.1348846403952202 0.04578676323479934 0.9509207263969977 0.003292510368202967</probabilities>
		</cpt>
		<cpt id="year4_upcr_mean">
			<state id="S_le_2_3801" />
			<state id="S_s_2_3801" />
			<parents>year4_pp_mean</parents>
			<probabilities>0.4046796148500524 0.5953203851499476 0.4522470131088163 0.5477529868911838 0.4611244903884018 0.5388755096115982</probabilities>
		</cpt>
		<cpt id="year4_glp1_coverage">
			<state id="S_le_245_5" />
			<state id="S_s_245_5" />
			<parents>year4_upcr_mean year3_glp1_coverage</parents>
			<probabilities>0.07685901690640093 0.9231409830935989 0.0002139580070986769 0.9997860419929013 0.4033826406053068 0.5966173593946933 0.001355175902613307 0.9986448240973866</probabilities>
		</cpt>
		<cpt id="year4_nsaid_coverage">
			<state id="S_le_74_5" />
			<state id="S_s_74_5" />
			<parents>year4_upcr_mean</parents>
			<probabilities>0.02367551195448676 0.9763244880455133 0.03258481759752566 0.9674151824024744</probabilities>
		</cpt>
		<cpt id="year4_aceiarb_coverage">
			<state id="S_le_0_5" />
			<state id="S_s_0_5" />
			<parents>year4_upcr_mean</parents>
			<probabilities>0.05233875435746454 0.9476612456425354 0.09902058779643182 0.9009794122035681</probabilities>
		</cpt>
		<cpt id="year4_mra_coverage">
			<state id="S_le_29" />
			<state id="S_s_29" />
			<parents>year4_upcr_mean</parents>
			<probabilities>0.0002688975404959572 0.999731102459504 0.0005404218918116932 0.9994595781081882</probabilities>
		</cpt>
		<cpt id="year4_sglt2_coverage">
			<state id="S_le_341" />
			<state id="S_s_341" />
			<parents>year4_upcr_mean</parents>
			<probabilities>0.0002028425756623845 0.9997971574243376 0.001351346137002263 0.9986486538629978</probabilities>
		</cpt>
	</nodes>
	<extensions>
		<genie version="1.0" app="SMILE_ACADEMIC 1.6.2@b061b4f1f63d" name="Unnamed">
			<node id="time_zero_mean">
				<name>time_zero_mean</name>
				<interior color="e5f6f7" />
				<outline color="0000bb" />
				<font color="000000" name="MS Sans Serif" size="8" />
				<position>960 40 1045 95</position>
			</node>
			<node id="year1_reduction_40_ge">
				<name>year1_reduction_40_ge</name>
				<interior color="e5f6f7" />
				<outline color="0000bb" />
				<font color="000000" name="MS Sans Serif" size="8" />
				<position>942 206 1027 261</position>
			</node>
			<node id="study_entry_period_dxckd_flag">
				<name>study_entry_period_dxckd_flag</name>
				<interior color="e5f6f7" />
				<outline color="0000bb" />
				<font color="000000" name="MS Sans Serif" size="8" />
				<position>890 365 975 420</position>
			</node>
			<node id="study_entry_period_egfrckd_flag">
				<name>study_entry_period_egfrckd_flag</name>
				<interior color="e5f6f7" />
				<outline color="0000bb" />
				<font color="000000" name="MS Sans Serif" size="8" />
				<position>807 510 892 565</position>
			</node>
			<node id="study_entry_DM_flag">
				<name>study_entry_DM_flag</name>
				<interior color="e5f6f7" />
				<outline color="0000bb" />
				<font color="000000" name="MS Sans Serif" size="8" />
				<position>695 634 780 689</position>
			</node>
			<node id="time_zero_hba1c_mean">
				<name>time_zero_hba1c_mean</name>
				<interior color="e5f6f7" />
				<outline color="0000bb" />
				<font color="000000" name="MS Sans Serif" size="8" />
				<position>560 732 645 787</position>
			</node>
			<node id="study_entry_age">
				<name>study_entry_age</name>
				<interior color="e5f6f7" />
				<outline color="0000bb" />
				<font color="000000" name="MS Sans Serif" size="8" />
				<position>407 800 492 855</position>
			</node>
			<node id="demo_race_ethnicity_cat">
				<name>demo_race_ethnicity_cat</name>
				<interior color="e5f6f7" />
				<outline color="0000bb" />
				<font color="000000" name="MS Sans Serif" size="8" />
				<position>243 835 328 890</position>
			</node>
			<node id="time_zero_ppi_coverage">
				<name>time_zero_ppi_coverage</name>
				<interior color="e5f6f7" />
				<outline color="0000bb" />
				<font color="000000" name="MS Sans Serif" size="8" />
				<position>76 835 161 890</position>
			</node>
			<node id="time_zero_uacr_mean">
				<name>time_zero_uacr_mean</name>
				<interior color="e5f6f7" />
				<outline color="0000bb" />
				<font color="000000" name="MS Sans Serif" size="8" />
				<position>-87 800 -2 855</position>
			</node>
			<node id="time_zero_dbp_mean">
				<name>time_zero_dbp_mean</name>
				<interior color="e5f6f7" />
				<outline color="0000bb" />
				<font color="000000" name="MS Sans Serif" size="8" />
				<position>-239 732 -154 787</position>
			</node>
			<node id="time_zero_map_mean">
				<name>time_zero_map_mean</name>
				<interior color="e5f6f7" />
				<outline color="0000bb" />
				<font color="000000" name="MS Sans Serif" size="8" />
				<position>-375 634 -290 689</position>
			</node>
			<node id="study_entry_period_albprockd_flag">
				<name>study_entry_period_albprockd_flag</name>
				<interior color="e5f6f7" />
				<outline color="0000bb" />
				<font color="000000" name="MS Sans Serif" size="8" />
				<position>-487 510 -402 565</position>
			</node>
			<node id="time_zero_sbp_mean">
				<name>time_zero_sbp_mean</name>
				<interior color="e5f6f7" />
				<outline color="0000bb" />
				<font color="000000" name="MS Sans Serif" size="8" />
				<position>-570 365 -485 420</position>
			</node>
			<node id="ruca_4_class">
				<name>ruca_4_class</name>
				<interior color="e5f6f7" />
				<outline color="0000bb" />
				<font color="000000" name="MS Sans Serif" size="8" />
				<position>-622 206 -537 261</position>
			</node>
			<node id="time_zero_pp_mean">
				<name>time_zero_pp_mean</name>
				<interior color="e5f6f7" />
				<outline color="0000bb" />
				<font color="000000" name="MS Sans Serif" size="8" />
				<position>-640 40 -555 95</position>
			</node>
			<node id="study_entry_nsaid_flag">
				<name>study_entry_nsaid_flag</name>
				<interior color="e5f6f7" />
				<outline color="0000bb" />
				<font color="000000" name="MS Sans Serif" size="8" />
				<position>-622 -126 -537 -71</position>
			</node>
			<node id="study_entry_HTN_flag">
				<name>study_entry_HTN_flag</name>
				<interior color="e5f6f7" />
				<outline color="0000bb" />
				<font color="000000" name="MS Sans Serif" size="8" />
				<position>-570 -285 -485 -230</position>
			</node>
			<node id="study_entry_PDM_flag">
				<name>study_entry_PDM_flag</name>
				<interior color="e5f6f7" />
				<outline color="0000bb" />
				<font color="000000" name="MS Sans Serif" size="8" />
				<position>-487 -430 -402 -375</position>
			</node>
			<node id="time_zero_aceiarb_coverage">
				<name>time_zero_aceiarb_coverage</name>
				<interior color="e5f6f7" />
				<outline color="0000bb" />
				<font color="000000" name="MS Sans Serif" size="8" />
				<position>-375 -554 -290 -499</position>
			</node>
			<node id="study_entry_ppi_flag">
				<name>study_entry_ppi_flag</name>
				<interior color="e5f6f7" />
				<outline color="0000bb" />
				<font color="000000" name="MS Sans Serif" size="8" />
				<position>-240 -652 -155 -597</position>
			</node>
			<node id="time_zero_upcr_mean">
				<name>time_zero_upcr_mean</name>
				<interior color="e5f6f7" />
				<outline color="0000bb" />
				<font color="000000" name="MS Sans Serif" size="8" />
				<position>-87 -720 -2 -665</position>
			</node>
			<node id="demo_sex">
				<name>demo_sex</name>
				<interior color="e5f6f7" />
				<outline color="0000bb" />
				<font color="000000" name="MS Sans Serif" size="8" />
				<position>76 -755 161 -700</position>
			</node>
			<node id="time_zero_nsaid_coverage">
				<name>time_zero_nsaid_coverage</name>
				<interior color="e5f6f7" />
				<outline color="0000bb" />
				<font color="000000" name="MS Sans Serif" size="8" />
				<position>243 -755 328 -700</position>
			</node>
			<node id="study_entry_glp1_flag">
				<name>study_entry_glp1_flag</name>
				<interior color="e5f6f7" />
				<outline color="0000bb" />
				<font color="000000" name="MS Sans Serif" size="8" />
				<position>407 -720 492 -665</position>
			</node>
			<node id="time_zero_glp1_coverage">
				<name>time_zero_glp1_coverage</name>
				<interior color="e5f6f7" />
				<outline color="0000bb" />
				<font color="000000" name="MS Sans Serif" size="8" />
				<position>559 -652 644 -597</position>
			</node>
			<node id="time_zero_sglt2_coverage">
				<name>time_zero_sglt2_coverage</name>
				<interior color="e5f6f7" />
				<outline color="0000bb" />
				<font color="000000" name="MS Sans Serif" size="8" />
				<position>695 -554 780 -499</position>
			</node>
			<node id="time_zero_mra_coverage">
				<name>time_zero_mra_coverage</name>
				<interior color="e5f6f7" />
				<outline color="0000bb" />
				<font color="000000" name="MS Sans Serif" size="8" />
				<position>807 -430 892 -375</position>
			</node>
			<node id="study_entry_aceiarb_flag">
				<name>study_entry_aceiarb_flag</name>
				<interior color="e5f6f7" />
				<outline color="0000bb" />
				<font color="000000" name="MS Sans Serif" size="8" />
				<position>890 -285 975 -230</position>
			</node>
			<node id="study_entry_sglt2_flag">
				<name>study_entry_sglt2_flag</name>
				<interior color="e5f6f7" />
				<outline color="0000bb" />
				<font color="000000" name="MS Sans Serif" size="8" />
				<position>942 -126 1027 -71</position>
			</node>
			<node id="study_entry_mra_flag">
				<name>study_entry_mra_flag</name>
				<interior color="e5f6f7" />
				<outline color="0000bb" />
				<font color="000000" name="MS Sans Serif" size="8" />
				<position>960 39 1045 94</position>
			</node>
			<node id="year1_mean">
				<name>year1_mean</name>
				<interior color="e5f6f7" />
				<outline color="0000bb" />
				<font color="000000" name="MS Sans Serif" size="8" />
				<position>2000 40 2085 95</position>
			</node>
			<node id="year2_reduction_40_ge">
				<name>year2_reduction_40_ge</name>
				<interior color="e5f6f7" />
				<outline color="0000bb" />
				<font color="000000" name="MS Sans Serif" size="8" />
				<position>1960 213 2045 268</position>
			</node>
			<node id="year1_ppi_coverage">
				<name>year1_ppi_coverage</name>
				<interior color="e5f6f7" />
				<outline color="0000bb" />
				<font color="000000" name="MS Sans Serif" size="8" />
				<position>1849 352 1934 407</position>
			</node>
			<node id="year1_uacr_mean">
				<name>year1_uacr_mean</name>
				<interior color="e5f6f7" />
				<outline color="0000bb" />
				<font color="000000" name="MS Sans Serif" size="8" />
				<position>1689 429 1774 484</position>
			</node>
			<node id="year1_dbp_mean">
				<name>year1_dbp_mean</name>
				<interior color="e5f6f7" />
				<outline color="0000bb" />
				<font color="000000" name="MS Sans Serif" size="8" />
				<position>1510 429 1595 484</position>
			</node>
			<node id="year1_hba1c_mean">
				<name>year1_hba1c_mean</name>
				<interior color="e5f6f7" />
				<outline color="0000bb" />
				<font color="000000" name="MS Sans Serif" size="8" />
				<position>1350 352 1435 407</position>
			</node>
			<node id="year1_pp_mean">
				<name>year1_pp_mean</name>
				<interior color="e5f6f7" />
				<outline color="0000bb" />
				<font color="000000" name="MS Sans Serif" size="8" />
				<position>1239 213 1324 268</position>
			</node>
			<node id="year1_sbp_mean">
				<name>year1_sbp_mean</name>
				<interior color="e5f6f7" />
				<outline color="0000bb" />
				<font color="000000" name="MS Sans Serif" size="8" />
				<position>1200 40 1285 95</position>
			</node>
			<node id="year1_map_mean">
				<name>year1_map_mean</name>
				<interior color="e5f6f7" />
				<outline color="0000bb" />
				<font color="000000" name="MS Sans Serif" size="8" />
				<position>1239 -133 1324 -78</position>
			</node>
			<node id="year1_upcr_mean">
				<name>year1_upcr_mean</name>
				<interior color="e5f6f7" />
				<outline color="0000bb" />
				<font color="000000" name="MS Sans Serif" size="8" />
				<position>1350 -272 1435 -217</position>
			</node>
			<node id="year1_glp1_coverage">
				<name>year1_glp1_coverage</name>
				<interior color="e5f6f7" />
				<outline color="0000bb" />
				<font color="000000" name="MS Sans Serif" size="8" />
				<position>1510 -349 1595 -294</position>
			</node>
			<node id="year1_nsaid_coverage">
				<name>year1_nsaid_coverage</name>
				<interior color="e5f6f7" />
				<outline color="0000bb" />
				<font color="000000" name="MS Sans Serif" size="8" />
				<position>1689 -349 1774 -294</position>
			</node>
			<node id="year1_aceiarb_coverage">
				<name>year1_aceiarb_coverage</name>
				<interior color="e5f6f7" />
				<outline color="0000bb" />
				<font color="000000" name="MS Sans Serif" size="8" />
				<position>1849 -272 1934 -217</position>
			</node>
			<node id="year1_mra_coverage">
				<name>year1_mra_coverage</name>
				<interior color="e5f6f7" />
				<outline color="0000bb" />
				<font color="000000" name="MS Sans Serif" size="8" />
				<position>1960 -133 2045 -78</position>
			</node>
			<node id="year1_sglt2_coverage">
				<name>year1_sglt2_coverage</name>
				<interior color="e5f6f7" />
				<outline color="0000bb" />
				<font color="000000" name="MS Sans Serif" size="8" />
				<position>2000 39 2085 94</position>
			</node>
			<node id="year2_mean">
				<name>year2_mean</name>
				<interior color="e5f6f7" />
				<outline color="0000bb" />
				<font color="000000" name="MS Sans Serif" size="8" />
				<position>3600 40 3685 95</position>
			</node>
			<node id="year3_reduction_40_ge">
				<name>year3_reduction_40_ge</name>
				<interior color="e5f6f7" />
				<outline color="0000bb" />
				<font color="000000" name="MS Sans Serif" size="8" />
				<position>3560 213 3645 268</position>
			</node>
			<node id="year2_ppi_coverage">
				<name>year2_ppi_coverage</name>
				<interior color="e5f6f7" />
				<outline color="0000bb" />
				<font color="000000" name="MS Sans Serif" size="8" />
				<position>3449 352 3534 407</position>
			</node>
			<node id="year2_uacr_mean">
				<name>year2_uacr_mean</name>
				<interior color="e5f6f7" />
				<outline color="0000bb" />
				<font color="000000" name="MS Sans Serif" size="8" />
				<position>3289 429 3374 484</position>
			</node>
			<node id="year2_dbp_mean">
				<name>year2_dbp_mean</name>
				<interior color="e5f6f7" />
				<outline color="0000bb" />
				<font color="000000" name="MS Sans Serif" size="8" />
				<position>3110 429 3195 484</position>
			</node>
			<node id="year2_hba1c_mean">
				<name>year2_hba1c_mean</name>
				<interior color="e5f6f7" />
				<outline color="0000bb" />
				<font color="000000" name="MS Sans Serif" size="8" />
				<position>2950 352 3035 407</position>
			</node>
			<node id="year2_pp_mean">
				<name>year2_pp_mean</name>
				<interior color="e5f6f7" />
				<outline color="0000bb" />
				<font color="000000" name="MS Sans Serif" size="8" />
				<position>2839 213 2924 268</position>
			</node>
			<node id="year2_sbp_mean">
				<name>year2_sbp_mean</name>
				<interior color="e5f6f7" />
				<outline color="0000bb" />
				<font color="000000" name="MS Sans Serif" size="8" />
				<position>2800 40 2885 95</position>
			</node>
			<node id="year2_map_mean">
				<name>year2_map_mean</name>
				<interior color="e5f6f7" />
				<outline color="0000bb" />
				<font color="000000" name="MS Sans Serif" size="8" />
				<position>2839 -133 2924 -78</position>
			</node>
			<node id="year2_upcr_mean">
				<name>year2_upcr_mean</name>
				<interior color="e5f6f7" />
				<outline color="0000bb" />
				<font color="000000" name="MS Sans Serif" size="8" />
				<position>2950 -272 3035 -217</position>
			</node>
			<node id="year2_glp1_coverage">
				<name>year2_glp1_coverage</name>
				<interior color="e5f6f7" />
				<outline color="0000bb" />
				<font color="000000" name="MS Sans Serif" size="8" />
				<position>3110 -349 3195 -294</position>
			</node>
			<node id="year2_nsaid_coverage">
				<name>year2_nsaid_coverage</name>
				<interior color="e5f6f7" />
				<outline color="0000bb" />
				<font color="000000" name="MS Sans Serif" size="8" />
				<position>3289 -349 3374 -294</position>
			</node>
			<node id="year2_aceiarb_coverage">
				<name>year2_aceiarb_coverage</name>
				<interior color="e5f6f7" />
				<outline color="0000bb" />
				<font color="000000" name="MS Sans Serif" size="8" />
				<position>3449 -272 3534 -217</position>
			</node>
			<node id="year2_mra_coverage">
				<name>year2_mra_coverage</name>
				<interior color="e5f6f7" />
				<outline color="0000bb" />
				<font color="000000" name="MS Sans Serif" size="8" />
				<position>3560 -133 3645 -78</position>
			</node>
			<node id="year2_sglt2_coverage">
				<name>year2_sglt2_coverage</name>
				<interior color="e5f6f7" />
				<outline color="0000bb" />
				<font color="000000" name="MS Sans Serif" size="8" />
				<position>3600 39 3685 94</position>
			</node>
			<node id="year3_mean">
				<name>year3_mean</name>
				<interior color="e5f6f7" />
				<outline color="0000bb" />
				<font color="000000" name="MS Sans Serif" size="8" />
				<position>5200 40 5285 95</position>
			</node>
			<node id="year4_reduction_40_ge">
				<name>year4_reduction_40_ge</name>
				<interior color="e5f6f7" />
				<outline color="0000bb" />
				<font color="000000" name="MS Sans Serif" size="8" />
				<position>5160 213 5245 268</position>
			</node>
			<node id="year3_ppi_coverage">
				<name>year3_ppi_coverage</name>
				<interior color="e5f6f7" />
				<outline color="0000bb" />
				<font color="000000" name="MS Sans Serif" size="8" />
				<position>5049 352 5134 407</position>
			</node>
			<node id="year3_uacr_mean">
				<name>year3_uacr_mean</name>
				<interior color="e5f6f7" />
				<outline color="0000bb" />
				<font color="000000" name="MS Sans Serif" size="8" />
				<position>4889 429 4974 484</position>
			</node>
			<node id="year3_dbp_mean">
				<name>year3_dbp_mean</name>
				<interior color="e5f6f7" />
				<outline color="0000bb" />
				<font color="000000" name="MS Sans Serif" size="8" />
				<position>4710 429 4795 484</position>
			</node>
			<node id="year3_hba1c_mean">
				<name>year3_hba1c_mean</name>
				<interior color="e5f6f7" />
				<outline color="0000bb" />
				<font color="000000" name="MS Sans Serif" size="8" />
				<position>4550 352 4635 407</position>
			</node>
			<node id="year3_pp_mean">
				<name>year3_pp_mean</name>
				<interior color="e5f6f7" />
				<outline color="0000bb" />
				<font color="000000" name="MS Sans Serif" size="8" />
				<position>4439 213 4524 268</position>
			</node>
			<node id="year3_sbp_mean">
				<name>year3_sbp_mean</name>
				<interior color="e5f6f7" />
				<outline color="0000bb" />
				<font color="000000" name="MS Sans Serif" size="8" />
				<position>4400 40 4485 95</position>
			</node>
			<node id="year3_map_mean">
				<name>year3_map_mean</name>
				<interior color="e5f6f7" />
				<outline color="0000bb" />
				<font color="000000" name="MS Sans Serif" size="8" />
				<position>4439 -133 4524 -78</position>
			</node>
			<node id="year3_upcr_mean">
				<name>year3_upcr_mean</name>
				<interior color="e5f6f7" />
				<outline color="0000bb" />
				<font color="000000" name="MS Sans Serif" size="8" />
				<position>4550 -272 4635 -217</position>
			</node>
			<node id="year3_glp1_coverage">
				<name>year3_glp1_coverage</name>
				<interior color="e5f6f7" />
				<outline color="0000bb" />
				<font color="000000" name="MS Sans Serif" size="8" />
				<position>4710 -349 4795 -294</position>
			</node>
			<node id="year3_nsaid_coverage">
				<name>year3_nsaid_coverage</name>
				<interior color="e5f6f7" />
				<outline color="0000bb" />
				<font color="000000" name="MS Sans Serif" size="8" />
				<position>4889 -349 4974 -294</position>
			</node>
			<node id="year3_aceiarb_coverage">
				<name>year3_aceiarb_coverage</name>
				<interior color="e5f6f7" />
				<outline color="0000bb" />
				<font color="000000" name="MS Sans Serif" size="8" />
				<position>5049 -272 5134 -217</position>
			</node>
			<node id="year3_mra_coverage">
				<name>year3_mra_coverage</name>
				<interior color="e5f6f7" />
				<outline color="0000bb" />
				<font color="000000" name="MS Sans Serif" size="8" />
				<position>5160 -133 5245 -78</position>
			</node>
			<node id="year3_sglt2_coverage">
				<name>year3_sglt2_coverage</name>
				<interior color="e5f6f7" />
				<outline color="0000bb" />
				<font color="000000" name="MS Sans Serif" size="8" />
				<position>5200 39 5285 94</position>
			</node>
			<node id="year4_mean">
				<name>year4_mean</name>
				<interior color="e5f6f7" />
				<outline color="0000bb" />
				<font color="000000" name="MS Sans Serif" size="8" />
				<position>6800 40 6885 95</position>
			</node>
			<node id="year5_reduction_40_ge">
				<name>year5_reduction_40_ge</name>
				<interior color="e5f6f7" />
				<outline color="0000bb" />
				<font color="000000" name="MS Sans Serif" size="8" />
				<position>6760 213 6845 268</position>
			</node>
			<node id="year4_ppi_coverage">
				<name>year4_ppi_coverage</name>
				<interior color="e5f6f7" />
				<outline color="0000bb" />
				<font color="000000" name="MS Sans Serif" size="8" />
				<position>6649 352 6734 407</position>
			</node>
			<node id="year4_uacr_mean">
				<name>year4_uacr_mean</name>
				<interior color="e5f6f7" />
				<outline color="0000bb" />
				<font color="000000" name="MS Sans Serif" size="8" />
				<position>6489 429 6574 484</position>
			</node>
			<node id="year4_dbp_mean">
				<name>year4_dbp_mean</name>
				<interior color="e5f6f7" />
				<outline color="0000bb" />
				<font color="000000" name="MS Sans Serif" size="8" />
				<position>6310 429 6395 484</position>
			</node>
			<node id="year4_hba1c_mean">
				<name>year4_hba1c_mean</name>
				<interior color="e5f6f7" />
				<outline color="0000bb" />
				<font color="000000" name="MS Sans Serif" size="8" />
				<position>6150 352 6235 407</position>
			</node>
			<node id="year4_pp_mean">
				<name>year4_pp_mean</name>
				<interior color="e5f6f7" />
				<outline color="0000bb" />
				<font color="000000" name="MS Sans Serif" size="8" />
				<position>6039 213 6124 268</position>
			</node>
			<node id="year4_sbp_mean">
				<name>year4_sbp_mean</name>
				<interior color="e5f6f7" />
				<outline color="0000bb" />
				<font color="000000" name="MS Sans Serif" size="8" />
				<position>6000 40 6085 95</position>
			</node>
			<node id="year4_map_mean">
				<name>year4_map_mean</name>
				<interior color="e5f6f7" />
				<outline color="0000bb" />
				<font color="000000" name="MS Sans Serif" size="8" />
				<position>6039 -133 6124 -78</position>
			</node>
			<node id="year4_upcr_mean">
				<name>year4_upcr_mean</name>
				<interior color="e5f6f7" />
				<outline color="0000bb" />
				<font color="000000" name="MS Sans Serif" size="8" />
				<position>6150 -272 6235 -217</position>
			</node>
			<node id="year4_glp1_coverage">
				<name>year4_glp1_coverage</name>
				<interior color="e5f6f7" />
				<outline color="0000bb" />
				<font color="000000" name="MS Sans Serif" size="8" />
				<position>6310 -349 6395 -294</position>
			</node>
			<node id="year4_nsaid_coverage">
				<name>year4_nsaid_coverage</name>
				<interior color="e5f6f7" />
				<outline color="0000bb" />
				<font color="000000" name="MS Sans Serif" size="8" />
				<position>6489 -349 6574 -294</position>
			</node>
			<node id="year4_aceiarb_coverage">
				<name>year4_aceiarb_coverage</name>
				<interior color="e5f6f7" />
				<outline color="0000bb" />
				<font color="000000" name="MS Sans Serif" size="8" />
				<position>6649 -272 6734 -217</position>
			</node>
			<node id="year4_mra_coverage">
				<name>year4_mra_coverage</name>
				<interior color="e5f6f7" />
				<outline color="0000bb" />
				<font color="000000" name="MS Sans Serif" size="8" />
				<position>6760 -133 6845 -78</position>
			</node>
			<node id="year4_sglt2_coverage">
				<name>year4_sglt2_coverage</name>
				<interior color="e5f6f7" />
				<outline color="0000bb" />
				<font color="000000" name="MS Sans Serif" size="8" />
				<position>6800 39 6885 94</position>
			</node>
		</genie>
	</extensions>
</smile>
