<?xml version="1.0" encoding="UTF-8"?>
<!-- This file was created by ACADEMIC version of SMILE -->
<smile version="1.0" id="Unnamed" numsamples="10000" discsamples="10000">
	<nodes>
		<cpt id="time_zero_scr_count">
			<state id="S_1_5___2_5" />
			<state id="S_2_5___8_5" />
			<state id="S_8_5___85_5" />
			<state id="S_le_85_5" />
			<state id="S_s_1_5" />
			<probabilities>0.1302734988997171 0.1665304411610605 0.1490307031331866 0.01731111809703447 0.5368542387090014</probabilities>
		</cpt>
		<cpt id="year1_reduction_40_ge">
			<state id="S_0" />
			<state id="S_1" />
			<parents>time_zero_scr_count</parents>
			<probabilities>0.8356109324758842 0.1643890675241158 0.7776729559748428 0.2223270440251572 0.6813070976809558 0.3186929023190443 0.3102409638554217 0.6897590361445783 0.9015417642466823 0.09845823575331772</probabilities>
		</cpt>
		<cpt id="time_zero_bp_count">
			<state id="S_0_5___2_5" />
			<state id="S_2_5___9_5" />
			<state id="S_377_5___2370_5" />
			<state id="S_9_5___377_5" />
			<state id="S_le_2370_5" />
			<state id="S_s_0_5" />
			<parents>time_zero_scr_count</parents>
			<probabilities>0.2002947481243301 0.1866291532690247 0.0001339764201500536 0.1408092175777063 0.0001339764201500536 0.4719989281886388 0.02211740041928721 0.1284067085953878 0.001991614255765199 0.35104821802935 0.0001048218029350105 0.4963312368972746 0.0001171234481143125 0.002225345514171937 0.1505036308268915 0.3072148044038417 0.03876786132583743 0.5011712344811431 0.001004016064257028 0.001004016064257028 0.1034136546184739 0.007028112449799197 0.5973895582329318 0.2901606425702811 0.2314923237054385 0.09605126203486859 3.252667187093417e-05 0.04823705438459536 3.252667187093417e-05 0.6241543065313557</probabilities>
		</cpt>
		<cpt id="time_zero_av_count">
			<state id="S_0_5___24_5" />
			<state id="S_24_5___59_5" />
			<state id="S_le_59_5" />
			<state id="S_s_0_5" />
			<parents>time_zero_scr_count time_zero_bp_count</parents>
			<probabilities>0.985 0.013 0.001 0.001 0.9109442060085837 0.07832618025751073 0.001072961373390558 0.009656652360515022 0.25 0.25 0.25 0.25 0.8423295454545455 0.1377840909090909 0.001420454545454545 0.01846590909090909 0.25 0.25 0.25 0.25 0.9187925170068026 0.002125850340136054 0.0004251700680272109 0.078656462585034 0.9513888888888888 0.03472222222222222 0.006944444444444444 0.006944444444444444 0.8646341463414634 0.1329268292682927 0.001219512195121951 0.001219512195121951 0.3125 0.5625 0.0625 0.0625 0.7321109123434705 0.2616279069767442 0.0004472271914132379 0.005813953488372093 0.25 0.25 0.25 0.25 0.8787974683544304 0.01170886075949367 0.0003164556962025317 0.1091772151898734 0.25 0.25 0.25 0.25 0.8125 0.0625 0.0625 0.0625 0.3174418604651163 0.6244186046511628 0.05697674418604651 0.001162790697674419 0.4868721461187214 0.4960045662100456 0.01655251141552511 0.0005707762557077625 0.1830357142857143 0.6651785714285714 0.1473214285714286 0.004464285714285714 0.9457282913165266 0.01715686274509804 0.000350140056022409 0.03676470588235294 0.25 0.25 0.25 0.25 0.25 0.25 0.25 0.25 0.01388888888888889 0.736111111111111 0.2361111111111111 0.01388888888888889 0.125 0.625 0.125 0.125 0.0025 0.1625 0.8325 0.0025 0.9642857142857142 0.02551020408163265 0.00510204081632653 0.00510204081632653 0.9471356360572872 0.003580454928390901 0.0002106149957877001 0.04907329401853412 0.8706896551724138 0.03498985801217039 0.0005070993914807302 0.09381338742393509 0.25 0.25 0.25 0.25 0.8800403225806451 0.06955645161290322 0.001008064516129032 0.04939516129032258 0.25 0.25 0.25 0.25 0.7237417943107221 0.0007033447952485151 7.814942169427946e-05 0.2754767114723351</probabilities>
		</cpt>
		<cpt id="time_zero_mean">
			<state id="S_10_095___29_065" />
			<state id="S_29_065___37_055" />
			<state id="S_37_055___55_665" />
			<state id="S_55_665___63_415" />
			<state id="S_63_415___78_285" />
			<state id="S_78_285___101_835" />
			<state id="S_le_101_835" />
			<state id="S_s_10_095" />
			<parents>year1_reduction_40_ge</parents>
			<probabilities>0.04986671234838754 0.0294380803047476 0.1006120961430045 0.06606359728447163 0.1695674461574327 0.3719680878521278 0.2060810764915442 0.006402903418284038 0.1214536403265267 0.05063431371497139 0.1558187574708561 0.06827117768281873 0.1560006785729541 0.3027165692577811 0.1308322550854473 0.01427260788864452</probabilities>
		</cpt>
		<cpt id="study_entry_period_dxckd_flag">
			<state id="S_0" />
			<state id="S_1" />
			<parents>time_zero_scr_count time_zero_mean</parents>
			<probabilities>0.5073529411764706 0.4926470588235294 0.5909090909090908 0.4090909090909091 0.7849162011173184 0.2150837988826816 0.8523809523809525 0.1476190476190476 0.9278606965174129 0.07213930348258707 0.965962441314554 0.03403755868544601 0.9641148325358851 0.03588516746411483 0.4375 0.5625 0.2806064883544234 0.7193935116455765 0.471730317652625 0.5282696823473751 0.6422434587088809 0.3577565412911192 0.8291920893849398 0.1708079106150601 0.8424118254181799 0.15758817458182 0.9438501504694823 0.05614984953051769 0.9418102395205824 0.05818976047941754 0.2633900131878371 0.7366099868121629 0.1287425149700599 0.8712574850299402 0.176056338028169 0.823943661971831 0.2899543378995434 0.7100456621004566 0.6875 0.3125 0.7034313725490196 0.2965686274509804 0.8392018779342724 0.1607981220657277 0.8755274261603375 0.1244725738396624 0.1944444444444444 0.8055555555555555 0.3611111111111111 0.6388888888888888 0.75 0.25 0.3625 0.6375000000000001 0.7222222222222222 0.2777777777777778 0.6625000000000001 0.3375 0.75 0.25 0.6176470588235294 0.3823529411764706 0.5 0.5 0.6783660147996304 0.3216339852003696 0.8460473889671303 0.1539526110328698 0.9078930831636624 0.09210691683633759 0.9617498864966244 0.03825011350337567 0.9872080045418139 0.01279199545818598 0.9851833166425752 0.01481668335742471 0.985701875593222 0.01429812440677809 0.6021925844642031 0.397807415535797</probabilities>
		</cpt>
		<cpt id="time_zero_ipv_count">
			<state id="S_le_0_5" />
			<state id="S_s_0_5" />
			<parents>time_zero_scr_count study_entry_period_dxckd_flag</parents>
			<probabilities>0.1061987237921604 0.8938012762078396 0.0641891891891892 0.9358108108108109 0.2466349960411718 0.7533650039588281 0.3460365853658537 0.6539634146341463 0.5173010380622838 0.4826989619377163 0.7818671454219031 0.2181328545780969 0.08673469387755102 0.9132653061224489 0.7898550724637681 0.2101449275362319 0.0179731925264013 0.9820268074735986 0.06716417910447761 0.9328358208955224</probabilities>
		</cpt>
		<cpt id="study_entry_period_egfrckd_flag">
			<state id="S_0" />
			<state id="S_1" />
			<parents>time_zero_mean</parents>
			<probabilities>0.0008427539057099377 0.99915724609429 0.001581099147895489 0.9984189008521045 0.0004757720247751093 0.9995242279752249 0.4686093771050855 0.5313906228949145 0.9996860104704234 0.0003139895295765422 0.999853779443064 0.0001462205569360095 0.9997249528933203 0.0002750471066796866 0.0066953173753401 0.9933046826246599</probabilities>
		</cpt>
		<cpt id="study_entry_DM_flag">
			<state id="S_0" />
			<state id="S_1" />
			<parents>time_zero_scr_count study_entry_period_egfrckd_flag</parents>
			<probabilities>0.8058086560364465 0.1941913439635535 0.7506811989100817 0.2493188010899182 0.8120471014492754 0.1879528985507246 0.6314168377823409 0.3685831622176591 0.6952954048140043 0.3047045951859956 0.55 0.45 0.4175257731958763 0.5824742268041238 0.2357142857142857 0.7642857142857142 0.8675346392737696 0.1324653607262303 0.7513312034078808 0.2486687965921193</probabilities>
		</cpt>
		<cpt id="time_zero_hba1c_mean">
			<state id="S_4_75835___5_15835" />
			<state id="S_5_15835___6_01665" />
			<state id="S_6_01665___6_64165" />
			<state id="S_le_6_64165" />
			<state id="S_s_4_75835" />
			<parents>time_zero_scr_count study_entry_DM_flag</parents>
			<probabilities>0.3884146458399314 0.2340755839648221 0.2390809883249974 0.01042417104842027 0.1280046108218287 0.05501888682305198 0.04402664708579388 0.2527856450922496 0.571254524028747 0.07691429697015745 0.2972087577639698 0.1154177874824401 0.2199480631587799 0.02968618710701697 0.3377392044877932 0.08607682059508338 0.0563915380295392 0.2670875452769436 0.5302623500817891 0.06018174601664485 0.1286621882604378 0.1809349743326145 0.172318257105164 0.03248987730481979 0.4855947029969639 0.06130110364213714 0.1544670517685693 0.2290994578465751 0.4433540326308523 0.111778354111866 0.2057814820766336 0.2334035705569652 0.1481986112195477 0.03372858759145909 0.3788877485553943 0.203437987159266 0.3540026412430821 0.1543278990719094 0.1982339172900916 0.08999755523565077 0.4935882258625012 0.2850042839938898 0.1555123489395903 0.002066835240366273 0.06382830596365238 0.0944294767675822 0.05366037091199666 0.2907040266452967 0.5199528040817147 0.0412533215934098</probabilities>
		</cpt>
		<cpt id="study_entry_age">
			<state id="S_44_5___53_5" />
			<state id="S_53_5___77_5" />
			<state id="S_le_77_5" />
			<state id="S_s_44_5" />
			<parents>time_zero_mean time_zero_hba1c_mean</parents>
			<probabilities>0.1992794822288922 0.4935704935884673 0.1659624239124954 0.1411876002701452 0.127938431159604 0.4521415928214242 0.2183564698212731 0.2015635061976986 0.066239494142127 0.6609910022185792 0.1777546115315286 0.09501489210776522 0.1787056244602331 0.6393170039259968 0.1149294957992395 0.06704787581453071 0.1400902919453723 0.4560721686375492 0.2884189530715729 0.1154185863455055 0.1675955568511618 0.5953147096119613 0.2326413595650195 0.004448373971857158 0.0803652037463221 0.2695306382160408 0.5407737618475564 0.1093303961900808 0.01893019119040646 0.4131290901014366 0.4899309936677483 0.07800972504040861 0.1475395764575133 0.4996795698904339 0.3316890935655467 0.02109176008650625 0.1059646283193025 0.1894995594522431 0.3991785027619156 0.3053573094665389 0.03767284653079552 0.3691300547227048 0.5827877057841488 0.01040939296235063 0.08790168636182012 0.4737153540638083 0.3898208120853415 0.04856214748903001 0.01595716687794359 0.4718613029601029 0.4768450304208052 0.03533649974114844 0.08937871448964609 0.7086487450074168 0.1662305245443692 0.03574201595856801 0.1621325260971734 0.4991312436811742 0.1573086424805376 0.1814275877411149 0.09023209957474018 0.5446888717594102 0.3379373358749752 0.02714169279087441 0.09016538970100248 0.559257538436896 0.3018764382479886 0.04870063361411307 0.05070807463303696 0.6660760958237349 0.2536568234217367 0.02955900612149147 0.05961009128198603 0.7468915696772296 0.1890176369068519 0.004480702133932512 0.08975502779520829 0.4369699152885483 0.3297074329771749 0.1435676239390686 0.1618344932731013 0.6786502891935207 0.115101211460891 0.04441400607248702 0.1392938825194545 0.5582095586642546 0.1624339833212615 0.1400625754950292 0.07635799071529123 0.5818205970365123 0.3274391010194441 0.01438231122875242 0.116696222268626 0.6838128158323459 0.1348131516054163 0.06467781029361169 0.06093787902982128 0.4982480971586227 0.3843272414998917 0.05648678231166428 0.201644887786474 0.4746210190306805 0.03788843818529799 0.2858456549975476 0.2029322163911836 0.5193771361273489 0.04034399731090466 0.2373466501705627 0.09934695520984427 0.7430919666044267 0.1335288716377976 0.02403220654793143 0.1589155045394195 0.6454075394892559 0.08975550924620666 0.1059214467251179 0.08046690116158292 0.677653669398019 0.1320293859625279 0.1098500434778703 0.2308536736686946 0.08168833261358398 0.0003555920219908718 0.6871024016957307 0.1688647061894657 0.08961374279146923 0.000576633969735978 0.7409449170493291 0.3308927081152267 0.20660619602786 0.01187413584076012 0.4506269600161532 0.2906054333158267 0.2629467024015894 0.0156314887511824 0.4308163755314014 0.2208497674357962 0.2476542588335237 0.003621252815355397 0.5278747209153247 0.326639112131856 0.2258577999163518 0.1182789658229712 0.329224122128821 0.04941020019463155 0.6472113112351416 0.03977095939354074 0.2636075291766859 0.1179319683204139 0.5146828825295575 0.1299965982333226 0.2373885509167061 0.3151512428471357 0.6215475243059563 0.02335632614020993 0.03994490670669812 0.2440839680453127 0.2669841105537221 0.09605718768631288 0.3928747337146521</probabilities>
		</cpt>
		<cpt id="demo_race_ethnicity_cat">
			<state id="S_1A" />
			<state id="S_1B" />
			<state id="S_2" />
			<state id="S_3" />
			<state id="S_4" />
			<state id="S_5" />
			<state id="S_8" />
			<state id="S_minus_9" />
			<parents>time_zero_hba1c_mean</parents>
			<probabilities>0.5978546435503717 0.08581010007438417 0.06854313591200782 0.0731728132040626 0.00642478031747828 0.0009323284394898802 0.09975245608830198 0.06750974241390371 0.5124886770696774 0.06890993529648436 0.07273141810899418 0.1167478097493048 0.008270961092727217 0.002691252162236132 0.136604969833053 0.0815549766875229 0.519626436910688 0.06274853186691569 0.09611948671710326 0.08881330578306566 0.005318514381241922 0.005076622700057827 0.1485902643396975 0.07370683730123004 0.3671563696557679 0.1393935505442532 0.1240772829528645 0.1122999618569063 0.003487272325868992 0.002310595732847495 0.1966956811618205 0.05457928576967121 0.5528112060406737 0.1282570758437749 0.0963552133866022 0.110372979066822 0.007788549783860984 0.0058565545419361 0.09811681411607864 0.0004416072202515128</probabilities>
		</cpt>
		<cpt id="time_zero_ppi_coverage">
			<state id="S_le_80_5" />
			<state id="S_s_80_5" />
			<parents>time_zero_bp_count time_zero_hba1c_mean</parents>
			<probabilities>0.02988890133961657 0.9701110986603835 0.03710129963242157 0.9628987003675783 0.02528375105578113 0.9747162489442188 0.05893675339754263 0.9410632466024573 0.02203246430376972 0.9779675356962303 0.01294786542491397 0.987052134575086 0.08212987724944351 0.9178701227505566 0.04495579160155139 0.9550442083984485 0.0525677337987682 0.9474322662012318 0.2931266629156482 0.7068733370843518 0.4290428910392275 0.5709571089607725 0.6873093019872137 0.3126906980127863 0.4005844398593951 0.5994155601406048 0.5463995537679102 0.4536004462320898 0.5609727318289024 0.4390272681710976 0.09032542522255037 0.9096745747774496 0.1870535799780073 0.8129464200219927 0.1486653596142773 0.8513346403857228 0.3466771255668064 0.6533228744331937 0.3138733359588187 0.6861266640411813 0.8634425114820838 0.1365574885179162 0.7991992287989371 0.2008007712010629 0.7162616914080072 0.2837383085919929 0.7654316843681894 0.2345683156318105 0.5310389028857757 0.4689610971142242 0.001424334267288334 0.9985756657327117 0.0043721334348333 0.9956278665651668 0.003083829598913241 0.9969161704010868 0.004624495578045266 0.9953755044219548 0.0006910260654498387 0.9993089739345501</probabilities>
		</cpt>
		<cpt id="time_zero_uacr_mean">
			<state id="S_19_5718___63_0498" />
			<state id="S_63_0498___457_471" />
			<state id="S_le_457_471" />
			<state id="S_s_19_5718" />
			<parents>study_entry_period_dxckd_flag time_zero_hba1c_mean</parents>
			<probabilities>0.04514208495738246 0.8695942783756085 0.04389256972845084 0.04137106693855817 0.08658632217880952 0.239697862803336 0.05458786227152815 0.6191279527463261 0.2464154346361723 0.08882086270479618 0.4884310338016931 0.1763326688573385 0.2560276012476974 0.1392575641316164 0.2207890873655985 0.3839257472550877 0.0008970567596267025 0.9175870368442004 0.007842274338726531 0.07367363205744633 0.005314542950221221 0.6002273298312734 0.207695944071186 0.1867621831473197 0.4242892113589035 0.1581017614720595 0.1872416653354981 0.2303673618335391 0.2975679514596715 0.1217631412781074 0.4600711658425871 0.1205977414196341 0.1635950380714911 0.224239649622679 0.5500043856486277 0.06216092665720215 0.05235569559658017 0.7838676037149174 0.1589673677437464 0.004809332944755933</probabilities>
		</cpt>
		<cpt id="time_zero_dbp_mean">
			<state id="S_62_5___71_5" />
			<state id="S_le_71_5" />
			<state id="S_s_62_5" />
			<parents>time_zero_hba1c_mean time_zero_uacr_mean</parents>
			<probabilities>0.13494117928372 0.8218447245905964 0.04321409612568361 0.267014364792134 0.6604029359439094 0.07258269926395652 0.2000660678246291 0.6730018062686339 0.126932125906737 0.2389727011216894 0.22129449705233 0.5397328018259806 0.1387384314671993 0.5453295424913163 0.3159320260414846 0.3824553285804347 0.518492120538663 0.09905255088090235 0.3120661589455673 0.4967157661816428 0.1912180748727899 0.3007570669220373 0.6122988948070751 0.08694403827088763 0.2059866836386648 0.5798640535220866 0.2141492628392485 0.3757076905434166 0.5094812202047528 0.1148110892518307 0.330405950987583 0.5660712752915448 0.1035227737208725 0.3187493649561444 0.626649260675652 0.05460137436820372 0.4582317960348827 0.4177610429906673 0.1240071609744499 0.2378815302506412 0.6274935818762865 0.1346248878730724 0.2075424721252353 0.6473823864709063 0.1450751414038584 0.2512611237272964 0.4640442095388749 0.2846946667338288 0.3707825388558519 0.5013696701424054 0.1278477910017426 0.4291316762875487 0.352848021237689 0.2180203024747623 0.3574081286848492 0.5664252653890022 0.07616660592614855 0.6245812308480221 0.160898876810421 0.2145198923415571</probabilities>
		</cpt>
		<cpt id="time_zero_map_mean">
			<state id="S_74_9945___84_4729" />
			<state id="S_84_4729___109_327" />
			<state id="S_le_109_327" />
			<state id="S_s_74_9945" />
			<parents>time_zero_uacr_mean time_zero_dbp_mean</parents>
			<probabilities>0.3346540881500597 0.6414058408394941 0.001351566097751896 0.0225885049126942 0.008390069923588423 0.8444338481836159 0.146632465618476 0.0005436162743197861 0.5538167205726643 0.01218776235064919 0.001804825755048776 0.4321906913216376 0.6024594142272396 0.3913841779110388 0.000528042667002628 0.005628365194719041 0.01190270217218412 0.9418459972265266 0.04595100292254456 0.0003002976787448939 0.5761986895873844 0.002005503979452084 0.001462232705690914 0.4203335737274727 0.01781817781627348 0.9805477957221858 0.000827849310859982 0.0008061771506806016 0.002047354191347204 0.651074398268092 0.3464762934380443 0.0004019541025165659 0.5368919573618858 0.4125485267608976 0.00209668014662946 0.04846283573058712 0.6104335770714018 0.3758975832866238 0.0008656399452795705 0.01280319969669473 0.0227802243812812 0.9159331025718912 0.06080647744325208 0.0004801956035756686 0.3978447161900805 0.01409839095983883 0.001621193389175323 0.5864356994609052</probabilities>
		</cpt>
		<cpt id="study_entry_period_albprockd_flag">
			<state id="S_0" />
			<state id="S_1" />
			<parents>time_zero_uacr_mean time_zero_dbp_mean</parents>
			<probabilities>0.9007432632345713 0.0992567367654287 0.9456430088513473 0.05435699114865272 0.8323687714533994 0.1676312285466007 0.9823525915747163 0.01764740842528372 0.9656241043129945 0.03437589568700544 0.9801761956973726 0.01982380430262745 0.9538408451524419 0.04615915484755807 0.8660361598734054 0.1339638401265945 0.9010474188519821 0.09895258114801794 0.9991766485890382 0.0008233514109619186 0.9994281018848263 0.0005718981151736798 0.9939875431940328 0.006012456805967155</probabilities>
		</cpt>
		<cpt id="time_zero_upcr_count">
			<state id="S_le_0_5" />
			<state id="S_s_0_5" />
			<parents>time_zero_hba1c_mean time_zero_dbp_mean</parents>
			<probabilities>0.00375134606120596 0.996248653938794 0.001316204461615503 0.9986837955383844 0.04478679410593295 0.9552132058940671 0.001756747912436536 0.9982432520875634 0.009433120801207952 0.990566879198792 0.1140384221392543 0.8859615778607457 0.001628970173045136 0.998371029826955 0.02785340492914915 0.9721465950708508 0.05768049677400044 0.9423195032259997 0.003379393886073295 0.9966206061139268 0.05308189212990614 0.9469181078700938 0.03904497704195101 0.960955022958049 0.002819791081247335 0.9971802089187526 0.1491266108875599 0.8508733891124401 0.007367635320824911 0.992632364679175</probabilities>
		</cpt>
		<cpt id="time_zero_hba1c_count">
			<state id="S_0_5___1_5" />
			<state id="S_le_1_5" />
			<state id="S_s_0_5" />
			<parents>time_zero_hba1c_mean time_zero_uacr_mean</parents>
			<probabilities>0.08881993934359773 0.002565431386771394 0.908614629269631 0.03067489716560782 0.001319809874560508 0.9680052929598316 0.1337549741393036 0.008343600096734027 0.8579014257639624 0.1654641770163804 0.02447323461987565 0.8100625883637439 0.6674785594664687 0.1499403596318074 0.182581080901724 0.1394232986097504 0.03459629594786725 0.8259804054423825 0.8927207409958064 0.08891932794238384 0.01835993106180973 0.9263047709359163 0.03528406760460009 0.03841116145948354 0.1185457599110646 0.04688107124264479 0.8345731688462906 0.0778369807961264 0.003736346105979024 0.9184266730978946 0.058525689267296 0.004785774501557526 0.9366885362311465 0.844902043789171 0.08256025920863938 0.07253769700218969 0.502573040362519 0.1023627897731818 0.3950641698642993 0.800361913541115 0.18479840459205 0.01483968186683504 0.5180624572687695 0.1310082784567689 0.3509292642744615 0.4500415437773611 0.1206878706371771 0.4292705855854619 0.3435004525829909 0.1259342610182968 0.5305652863987124 0.03079408717160152 0.001761888348847701 0.9674440244795508 0.1011834740129013 0.1128443270971801 0.7859721988899188 0.117155733935973 0.007130331774633182 0.8757139342893939</probabilities>
		</cpt>
		<cpt id="time_zero_sbp_mean">
			<state id="S_101_5___139_5" />
			<state id="S_139_5___161_5" />
			<state id="S_le_161_5" />
			<state id="S_s_101_5" />
			<parents>time_zero_uacr_mean time_zero_map_mean</parents>
			<probabilities>0.9356148321867496 0.001766408625412936 0.001734682195503629 0.06088407699233391 0.8685922223679715 0.1303806020416235 0.0005202911197767454 0.000506884470628255 0.04431083963901795 0.9473109106436233 0.004568769582307237 0.003809480135051517 0.4367065658292211 0.003962594529081808 0.003915056785729609 0.5554157828559675 0.9129040904331772 0.0006215333881579045 0.0006173330262016834 0.08585704315246316 0.9184408687624139 0.07995687965564389 0.001345499907062868 0.0002567516748794098 0.1167351305641444 0.7229130851444826 0.1539593729102283 0.006392411381144682 0.4892734702891894 0.003298602317467022 0.00327178709142084 0.5041561403019226 0.8974249813386076 0.0561339239263068 0.003291910397085194 0.04314918433800045 0.2404281231967714 0.6454909090321558 0.1137504620921313 0.0003305056789414595 0.001208798593171684 0.2460255697810613 0.7515852677654382 0.001180363860328918 0.8888494886894349 0.03647177333077831 0.03633221785868559 0.03834652012110121 0.8979933307518433 0.001051597225492552 0.001037808076945935 0.09991726394571832 0.8601320346182544 0.1338067043896803 0.005629647121624126 0.0004316138704411256 0.07142717971002889 0.91162137354942 0.009094359680774889 0.007857087059776257 0.1775948471485434 0.003374452459418239 0.003360432544563379 0.815670267847475</probabilities>
		</cpt>
		<cpt id="ruca_7_class">
			<state id="S_isolated_rural" />
			<state id="S_large_rural_core" />
			<state id="S_other_large_rural" />
			<state id="S_other_small_rural" />
			<state id="S_other_urban" />
			<state id="S_small_rural_core" />
			<state id="S_urban_core" />
			<parents>time_zero_uacr_mean time_zero_dbp_mean</parents>
			<probabilities>0.0008611123388825239 0.02241777022420998 0.009071732564226439 0.0005693928402244702 0.08254482350613156 0.00836540268135116 0.8761697658449739 0.0004512684620743627 0.006479203841129632 0.0002583155386205499 0.003735001430868396 0.1032426229552677 0.0008871460332020359 0.8849464417388372 0.01071927258756243 0.03103622121716835 0.0007226205938855972 0.0007151426660557766 0.1018850606662812 0.01050257498227576 0.8444191072867709 0.005535300743843299 0.01178359272487474 0.003304370458791226 0.0007252510231493016 0.03876188847419071 0.0003107155812794689 0.9395788809938712 0.00211256134898434 0.01113185366126734 0.0001254188992722511 0.001019924468949934 0.05826431647124943 0.004530740519115469 0.9228151846311612 0.0006302101376731294 0.03067137750207435 0.001255106349419296 0.007108778603031201 0.01827406776524605 0.003484882630013892 0.938575577012542 0.0005278679149612716 0.009968382822100304 0.0004245780781916775 0.000379292556875169 0.04616437729182579 0.0005550376314896856 0.941980463704556 0.003539118503408263 0.02177256767776142 0.002872990841481313 0.000185141921114667 0.03947517732809645 0.0003187421697850356 0.9318362615583529 0.001034963748539746 0.02097837484593922 0.0009351622435954662 0.0009014680683301816 0.1022479435496644 0.003678543938497121 0.8702235436054339 0.0006929270227815398 0.01951887516243881 0.000270678724698031 0.0002581176161261903 0.05364947663603014 0.0006697299082282572 0.9249401949296971 0.0008119561277903053 0.0117971269881028 0.0001402695394339301 0.0001384776431758205 0.07201121452805208 0.0009805792234347569 0.9141203759500103 0.0007459476583588885 0.008244416913499241 0.004420241999544035 0.001299675202364981 0.01447793129571363 0.001137452991419189 0.9696743339391001</probabilities>
		</cpt>
		<cpt id="ruca_4_class">
			<state id="S_isolated" />
			<state id="S_large_rural" />
			<state id="S_small_rural" />
			<state id="S_urban" />
			<parents>ruca_7_class</parents>
			<probabilities>0.9659090909090912 0.01136363636363637 0.01136363636363637 0.01136363636363637 0.00181159420289855 0.9945652173913042 0.00181159420289855 0.00181159420289855 0.01923076923076922 0.9423076923076925 0.01923076923076922 0.01923076923076922 0.02272727272727272 0.02272727272727272 0.9318181818181819 0.02272727272727272 0.0004725897920604914 0.0004725897920604914 0.0004725897920604914 0.9985822306238185 0.01136363636363636 0.01136363636363636 0.9659090909090909 0.01136363636363636 2.849977200182399e-05 2.849977200182399e-05 2.849977200182399e-05 0.9999145006839946</probabilities>
		</cpt>
		<cpt id="time_zero_pp_mean">
			<state id="S_56_5___63_5" />
			<state id="S_63_5___85_5" />
			<state id="S_le_85_5" />
			<state id="S_s_56_5" />
			<parents>time_zero_hba1c_mean time_zero_uacr_mean</parents>
			<probabilities>0.2268028645200748 0.01167705137050877 0.003305978326890434 0.758214105782526 0.08296227693521373 0.01706417106098777 0.0002771623570611404 0.8996963896467374 0.02274650619264827 0.8645307069388374 0.07809148573506211 0.0346313011334524 0.039872101147226 0.009449338257711834 0.003243073194061746 0.9474354874010004 0.2505242373407757 0.02396236285113483 0.001606541440082388 0.7239068583680072 0.1095995450211804 0.04063778095256876 0.006619470547466722 0.843143203478784 0.07741434450307229 0.6952581282183029 0.1685965222990697 0.05873100497955513 0.1063332467218317 0.07315675238036087 0.0006374028167011956 0.8198725980811062 0.1927277706863899 0.08888604952432513 0.0007920311179970072 0.717594148671288 0.2841529246015184 0.03641546606586853 0.002078408893621766 0.6773532004389914 0.1137231928168654 0.6823985516067854 0.1927696873266122 0.0111085682497369 0.1274035785632362 0.1430811629329725 0.002898624448719526 0.7266166340550719 0.2581383841729429 0.195917775299799 0.001815467302683102 0.5441283732245749 0.1715324677539438 0.1586527613344854 0.003420620376683533 0.6663941505348872 0.1545074114614574 0.539633869099151 0.1727764709104136 0.1330822485289779 0.130939681031165 0.1070000178907303 0.01484552866503313 0.7472147724130718 0.1092351658779431 0.05037895212046561 0.0195419983981857 0.8208438836034054 0.2028144005428274 0.05419038115287941 0.0006266116444459213 0.7423686066598472 0.116576142211067 0.6754497220255588 0.06216177247687837 0.1458123632864957 0.1400425119233659 0.01154178931658174 0.0063147379734708 0.8421009607865817</probabilities>
		</cpt>
		<cpt id="study_entry_nsaid_flag">
			<state id="S_0" />
			<state id="S_1" />
			<parents>time_zero_hba1c_mean time_zero_uacr_mean</parents>
			<probabilities>0.2677713222522744 0.7322286777477256 0.9645383693482075 0.03546163065179256 0.9477717692341296 0.05222823076587033 0.9438799924374598 0.05612000756254013 0.9064914141716908 0.0935085858283092 0.8996526534541177 0.1003473465458822 0.9422331249024759 0.05776687509752405 0.883083300208708 0.1169166997912921 0.7952890731227182 0.2047109268772817 0.9060379770774599 0.09396202292254008 0.9162074884123618 0.0837925115876382 0.9750171523043266 0.02498284769567335 0.9155111320491689 0.08448886795083106 0.925780013399052 0.07421998660094788 0.9285841120471345 0.07141588795286541 0.9525519262828845 0.04744807371711561 0.9523209832887776 0.04767901671122247 0.9948155910346643 0.005184408965335713 0.9895638449749955 0.01043615502500442 0.8233791428436749 0.1766208571563251</probabilities>
		</cpt>
		<cpt id="study_entry_HTN_flag">
			<state id="S_0" />
			<state id="S_1" />
			<parents>time_zero_uacr_mean time_zero_pp_mean</parents>
			<probabilities>0.08344003592830773 0.9165599640716924 0.06188940961419643 0.9381105903858037 0.5610059056863103 0.4389940943136897 0.2200525803253575 0.7799474196746424 0.5470861006089703 0.4529138993910298 0.5989921368087932 0.4010078631912068 0.3478857884265025 0.6521142115734976 0.7575088458848889 0.2424911541151112 0.1447941126462027 0.8552058873537972 0.122549673104643 0.8774503268953571 0.09626538383298984 0.9037346161670101 0.464395035466376 0.5356049645336241 0.4384688862851342 0.5615311137148656 0.2694201645989172 0.7305798354010827 0.197001798560339 0.8029982014396611 0.6982608431107855 0.3017391568892144</probabilities>
		</cpt>
		<cpt id="study_entry_PDM_flag">
			<state id="S_0" />
			<state id="S_1" />
			<parents>time_zero_uacr_mean time_zero_map_mean</parents>
			<probabilities>0.7665107777768717 0.2334892222231282 0.8880372750627744 0.1119627249372256 0.8762622337014261 0.1237377662985739 0.5681069888860718 0.4318930111139282 0.9874937441258778 0.0125062558741223 0.9945448376834901 0.00545516231650988 0.9914215243838677 0.008578475616132309 0.9947135744129244 0.005286425587075531 0.8406906964084747 0.1593093035915253 0.9581879779325062 0.04181202206749379 0.9380630447887158 0.06193695521128414 0.9260012158038748 0.07399878419612525 0.6113848696577283 0.3886151303422716 0.494555896060818 0.5054441039391819 0.4790338818417945 0.5209661181582056 0.8031258048909958 0.1968741951090043</probabilities>
		</cpt>
		<cpt id="time_zero_aceiarb_coverage">
			<state id="S_le_0_5" />
			<state id="S_s_0_5" />
			<parents>time_zero_hba1c_mean time_zero_uacr_mean</parents>
			<probabilities>0.03200040154055692 0.9679995984594431 0.0006439621449961984 0.9993560378550039 0.03732390815657725 0.9626760918434228 0.03916568402878644 0.9608343159712135 0.3670183056710106 0.6329816943289894 0.01204907224249806 0.9879509277575019 0.341449198728324 0.6585508012716759 0.03432763450841538 0.9656723654915845 0.348772705563001 0.651227294436999 0.4878105062757795 0.5121894937242205 0.2435736425182664 0.7564263574817336 0.09642420170655445 0.9035757982934456 0.3204633847921282 0.6795366152078717 0.2015031347076622 0.7984968652923379 0.3676807438375967 0.6323192561624033 0.1429148560362876 0.8570851439637124 0.2309679483575902 0.7690320516424097 0.00851963704578384 0.9914803629542162 0.08671926729767764 0.9132807327023225 0.01207641631639715 0.987923583683603</probabilities>
		</cpt>
		<cpt id="study_entry_ppi_flag">
			<state id="S_0" />
			<state id="S_1" />
			<parents>time_zero_ppi_coverage time_zero_uacr_mean</parents>
			<probabilities>0.3070660334292527 0.6929339665707474 0.2730365804204158 0.7269634195795842 0.3508965998707658 0.6491034001292341 0.1853147689797251 0.8146852310202749 0.7807634390021088 0.2192365609978912 0.9670946538066673 0.03290534619333273 0.8881040956888294 0.1118959043111706 0.9425715267405727 0.05742847325942727</probabilities>
		</cpt>
		<cpt id="time_zero_upcr_mean">
			<state id="S_le_0_45655" />
			<state id="S_s_0_45655" />
			<parents>time_zero_hba1c_mean time_zero_dbp_mean</parents>
			<probabilities>0.9174760232752797 0.08252397672472031 0.8046963785044455 0.1953036214955544 0.5976595362335565 0.4023404637664434 0.9269200858522665 0.07307991414773356 0.7826061010115397 0.2173938989884604 0.719180609832323 0.280819390167677 0.6924673629175743 0.3075326370824257 0.7022425516823572 0.2977574483176428 0.8494761101280396 0.1505238898719605 0.3364760239136393 0.6635239760863606 0.3784641311182878 0.6215358688817122 0.4672509806726478 0.5327490193273524 0.9191533943280501 0.08084660567194989 0.6649995939562122 0.3350004060437877 0.7692872695560935 0.2307127304439066</probabilities>
		</cpt>
		<cpt id="time_zero_uacr_count">
			<state id="S_le_2_5" />
			<state id="S_s_2_5" />
			<parents>time_zero_dbp_mean time_zero_upcr_mean</parents>
			<probabilities>0.0002642810103833009 0.9997357189896167 0.01042657664330936 0.9895734233566905 0.0002949290316765322 0.9997050709683235 0.002946560406911465 0.9970534395930885 0.001272845352638402 0.9987271546473617 0.002644472637083665 0.9973555273629163</probabilities>
		</cpt>
		<cpt id="demo_sex">
			<state id="S_0" />
			<state id="S_1" />
			<parents>time_zero_sbp_mean time_zero_upcr_mean</parents>
			<probabilities>0.4549889535814932 0.5450110464185068 0.6704722708108983 0.3295277291891017 0.4919443129728527 0.5080556870271474 0.6158924364814266 0.3841075635185734 0.4201536077702507 0.5798463922297493 0.6869182790460985 0.3130817209539015 0.4497871212182843 0.5502128787817158 0.6847414391527136 0.3152585608472865</probabilities>
		</cpt>
		<cpt id="time_zero_nsaid_coverage">
			<state id="S_le_4_5" />
			<state id="S_s_4_5" />
			<parents>time_zero_dbp_mean time_zero_upcr_mean</parents>
			<probabilities>0.03267553949231072 0.9673244605076893 0.07385607562603937 0.9261439243739605 0.03903842155234321 0.9609615784476568 0.06590998032562533 0.9340900196743745 0.03405008676156879 0.9659499132384312 0.07768931904287865 0.9223106809571213</probabilities>
		</cpt>
		<cpt id="study_entry_glp1_flag">
			<state id="S_0" />
			<state id="S_1" />
			<parents>time_zero_dbp_mean time_zero_upcr_mean</parents>
			<probabilities>0.9997708459078857 0.0002291540921141452 0.9639230535274813 0.0360769464725187 0.9998016075641933 0.0001983924358066501 0.9810958174312625 0.01890418256873743 0.9993855822855362 0.0006144177144639743 0.9868655827602093 0.01313441723979066</probabilities>
		</cpt>
		<cpt id="time_zero_glp1_coverage">
			<state id="S_le_84_5" />
			<state id="S_s_84_5" />
			<parents>time_zero_dbp_mean time_zero_upcr_mean</parents>
			<probabilities>0.0002589811585862954 0.9997410188414136 0.006282814634992297 0.9937171853650077 0.0001300209049590469 0.9998699790950409 0.005653647765840912 0.9943463522341591 0.0005666397864326047 0.9994333602135674 0.001243291700688469 0.9987567082993115</probabilities>
		</cpt>
		<cpt id="time_zero_sglt2_coverage">
			<state id="S_le_0_5" />
			<state id="S_s_0_5" />
			<parents>time_zero_dbp_mean time_zero_upcr_mean</parents>
			<probabilities>0.0002376419491197633 0.9997623580508802 0.02598227293826567 0.9740177270617343 0.0001850523614746686 0.9998149476385254 0.01510067782673274 0.9848993221732673 0.0006507537587202208 0.9993492462412799 0.003584884784044195 0.9964151152159557</probabilities>
		</cpt>
		<cpt id="time_zero_mra_coverage">
			<state id="S_le_8_5" />
			<state id="S_s_8_5" />
			<parents>time_zero_dbp_mean time_zero_upcr_mean</parents>
			<probabilities>0.0002736642028197122 0.9997263357971803 0.01734650096603234 0.9826534990339676 0.0001337202096498792 0.9998662797903501 0.0009874533397524038 0.9990125466602475 0.001368093259125815 0.9986319067408742 0.001971367360558736 0.9980286326394412</probabilities>
		</cpt>
		<cpt id="study_entry_aceiarb_flag">
			<state id="S_0" />
			<state id="S_1" />
			<parents>time_zero_hba1c_mean time_zero_upcr_mean</parents>
			<probabilities>0.9852114957022604 0.01478850429773968 0.9795210406262048 0.02047895937379514 0.901119556490754 0.09888044350924602 0.736007800490909 0.2639921995090911 0.6494094749252154 0.3505905250747846 0.3577139621013053 0.6422860378986947 0.9257916739852319 0.07420832601476815 0.5155429547982362 0.4844570452017639 0.9895299024526337 0.01047009754736627 0.9953426457723501 0.004657354227649829</probabilities>
		</cpt>
		<cpt id="study_entry_sglt2_flag">
			<state id="S_0" />
			<state id="S_1" />
			<parents>time_zero_dbp_mean time_zero_upcr_mean</parents>
			<probabilities>0.9997672447397242 0.0002327552602757434 0.9589575174336391 0.04104248256636089 0.9998472083531074 0.0001527916468925085 0.9856780448439159 0.01432195515608428 0.9994102587745025 0.0005897412254975279 0.9883579058127928 0.01164209418720705</probabilities>
		</cpt>
		<cpt id="study_entry_mra_flag">
			<state id="S_0" />
			<state id="S_1" />
			<parents>time_zero_dbp_mean time_zero_upcr_mean</parents>
			<probabilities>0.9997331928722255 0.0002668071277744333 0.9863327858145109 0.01366721418548926 0.9998387253582458 0.0001612746417542215 0.998417988787991 0.001582011212009057 0.9994333602135674 0.0005666397864326047 0.9987567082993115 0.001243291700688469</probabilities>
		</cpt>
	</nodes>
	<extensions>
		<genie version="1.0" app="SMILE_ACADEMIC 1.6.2@b061b4f1f63d" name="Unnamed">
			<node id="time_zero_scr_count">
				<name>time_zero_scr_count</name>
				<interior color="e5f6f7" />
				<outline color="0000bb" />
				<font color="000000" name="MS Sans Serif" size="8" />
				<position>960 40 1045 95</position>
			</node>
			<node id="year1_reduction_40_ge">
				<name>year1_reduction_40_ge</name>
				<interior color="e5f6f7" />
				<outline color="0000bb" />
				<font color="000000" name="MS Sans Serif" size="8" />
				<position>949 171 1034 226</position>
			</node>
			<node id="time_zero_bp_count">
				<name>time_zero_bp_count</name>
				<interior color="e5f6f7" />
				<outline color="0000bb" />
				<font color="000000" name="MS Sans Serif" size="8" />
				<position>916 299 1001 354</position>
			</node>
			<node id="time_zero_av_count">
				<name>time_zero_av_count</name>
				<interior color="e5f6f7" />
				<outline color="0000bb" />
				<font color="000000" name="MS Sans Serif" size="8" />
				<position>863 420 948 475</position>
			</node>
			<node id="time_zero_mean">
				<name>time_zero_mean</name>
				<interior color="e5f6f7" />
				<outline color="0000bb" />
				<font color="000000" name="MS Sans Serif" size="8" />
				<position>791 531 876 586</position>
			</node>
			<node id="study_entry_period_dxckd_flag">
				<name>study_entry_period_dxckd_flag</name>
				<interior color="e5f6f7" />
				<outline color="0000bb" />
				<font color="000000" name="MS Sans Serif" size="8" />
				<position>701 628 786 683</position>
			</node>
			<node id="time_zero_ipv_count">
				<name>time_zero_ipv_count</name>
				<interior color="e5f6f7" />
				<outline color="0000bb" />
				<font color="000000" name="MS Sans Serif" size="8" />
				<position>597 709 682 764</position>
			</node>
			<node id="study_entry_period_egfrckd_flag">
				<name>study_entry_period_egfrckd_flag</name>
				<interior color="e5f6f7" />
				<outline color="0000bb" />
				<font color="000000" name="MS Sans Serif" size="8" />
				<position>481 772 566 827</position>
			</node>
			<node id="study_entry_DM_flag">
				<name>study_entry_DM_flag</name>
				<interior color="e5f6f7" />
				<outline color="0000bb" />
				<font color="000000" name="MS Sans Serif" size="8" />
				<position>356 815 441 870</position>
			</node>
			<node id="time_zero_hba1c_mean">
				<name>time_zero_hba1c_mean</name>
				<interior color="e5f6f7" />
				<outline color="0000bb" />
				<font color="000000" name="MS Sans Serif" size="8" />
				<position>226 837 311 892</position>
			</node>
			<node id="study_entry_age">
				<name>study_entry_age</name>
				<interior color="e5f6f7" />
				<outline color="0000bb" />
				<font color="000000" name="MS Sans Serif" size="8" />
				<position>93 837 178 892</position>
			</node>
			<node id="demo_race_ethnicity_cat">
				<name>demo_race_ethnicity_cat</name>
				<interior color="e5f6f7" />
				<outline color="0000bb" />
				<font color="000000" name="MS Sans Serif" size="8" />
				<position>-36 815 49 870</position>
			</node>
			<node id="time_zero_ppi_coverage">
				<name>time_zero_ppi_coverage</name>
				<interior color="e5f6f7" />
				<outline color="0000bb" />
				<font color="000000" name="MS Sans Serif" size="8" />
				<position>-161 772 -76 827</position>
			</node>
			<node id="time_zero_uacr_mean">
				<name>time_zero_uacr_mean</name>
				<interior color="e5f6f7" />
				<outline color="0000bb" />
				<font color="000000" name="MS Sans Serif" size="8" />
				<position>-277 709 -192 764</position>
			</node>
			<node id="time_zero_dbp_mean">
				<name>time_zero_dbp_mean</name>
				<interior color="e5f6f7" />
				<outline color="0000bb" />
				<font color="000000" name="MS Sans Serif" size="8" />
				<position>-381 628 -296 683</position>
			</node>
			<node id="time_zero_map_mean">
				<name>time_zero_map_mean</name>
				<interior color="e5f6f7" />
				<outline color="0000bb" />
				<font color="000000" name="MS Sans Serif" size="8" />
				<position>-471 531 -386 586</position>
			</node>
			<node id="study_entry_period_albprockd_flag">
				<name>study_entry_period_albprockd_flag</name>
				<interior color="e5f6f7" />
				<outline color="0000bb" />
				<font color="000000" name="MS Sans Serif" size="8" />
				<position>-543 420 -458 475</position>
			</node>
			<node id="time_zero_upcr_count">
				<name>time_zero_upcr_count</name>
				<interior color="e5f6f7" />
				<outline color="0000bb" />
				<font color="000000" name="MS Sans Serif" size="8" />
				<position>-596 299 -511 354</position>
			</node>
			<node id="time_zero_hba1c_count">
				<name>time_zero_hba1c_count</name>
				<interior color="e5f6f7" />
				<outline color="0000bb" />
				<font color="000000" name="MS Sans Serif" size="8" />
				<position>-629 171 -544 226</position>
			</node>
			<node id="time_zero_sbp_mean">
				<name>time_zero_sbp_mean</name>
				<interior color="e5f6f7" />
				<outline color="0000bb" />
				<font color="000000" name="MS Sans Serif" size="8" />
				<position>-640 40 -555 95</position>
			</node>
			<node id="ruca_7_class">
				<name>ruca_7_class</name>
				<interior color="e5f6f7" />
				<outline color="0000bb" />
				<font color="000000" name="MS Sans Serif" size="8" />
				<position>-629 -91 -544 -36</position>
			</node>
			<node id="ruca_4_class">
				<name>ruca_4_class</name>
				<interior color="e5f6f7" />
				<outline color="0000bb" />
				<font color="000000" name="MS Sans Serif" size="8" />
				<position>-596 -219 -511 -164</position>
			</node>
			<node id="time_zero_pp_mean">
				<name>time_zero_pp_mean</name>
				<interior color="e5f6f7" />
				<outline color="0000bb" />
				<font color="000000" name="MS Sans Serif" size="8" />
				<position>-543 -340 -458 -285</position>
			</node>
			<node id="study_entry_nsaid_flag">
				<name>study_entry_nsaid_flag</name>
				<interior color="e5f6f7" />
				<outline color="0000bb" />
				<font color="000000" name="MS Sans Serif" size="8" />
				<position>-471 -451 -386 -396</position>
			</node>
			<node id="study_entry_HTN_flag">
				<name>study_entry_HTN_flag</name>
				<interior color="e5f6f7" />
				<outline color="0000bb" />
				<font color="000000" name="MS Sans Serif" size="8" />
				<position>-381 -548 -296 -493</position>
			</node>
			<node id="study_entry_PDM_flag">
				<name>study_entry_PDM_flag</name>
				<interior color="e5f6f7" />
				<outline color="0000bb" />
				<font color="000000" name="MS Sans Serif" size="8" />
				<position>-277 -629 -192 -574</position>
			</node>
			<node id="time_zero_aceiarb_coverage">
				<name>time_zero_aceiarb_coverage</name>
				<interior color="e5f6f7" />
				<outline color="0000bb" />
				<font color="000000" name="MS Sans Serif" size="8" />
				<position>-161 -692 -76 -637</position>
			</node>
			<node id="study_entry_ppi_flag">
				<name>study_entry_ppi_flag</name>
				<interior color="e5f6f7" />
				<outline color="0000bb" />
				<font color="000000" name="MS Sans Serif" size="8" />
				<position>-36 -735 49 -680</position>
			</node>
			<node id="time_zero_upcr_mean">
				<name>time_zero_upcr_mean</name>
				<interior color="e5f6f7" />
				<outline color="0000bb" />
				<font color="000000" name="MS Sans Serif" size="8" />
				<position>93 -757 178 -702</position>
			</node>
			<node id="time_zero_uacr_count">
				<name>time_zero_uacr_count</name>
				<interior color="e5f6f7" />
				<outline color="0000bb" />
				<font color="000000" name="MS Sans Serif" size="8" />
				<position>226 -757 311 -702</position>
			</node>
			<node id="demo_sex">
				<name>demo_sex</name>
				<interior color="e5f6f7" />
				<outline color="0000bb" />
				<font color="000000" name="MS Sans Serif" size="8" />
				<position>356 -735 441 -680</position>
			</node>
			<node id="time_zero_nsaid_coverage">
				<name>time_zero_nsaid_coverage</name>
				<interior color="e5f6f7" />
				<outline color="0000bb" />
				<font color="000000" name="MS Sans Serif" size="8" />
				<position>481 -692 566 -637</position>
			</node>
			<node id="study_entry_glp1_flag">
				<name>study_entry_glp1_flag</name>
				<interior color="e5f6f7" />
				<outline color="0000bb" />
				<font color="000000" name="MS Sans Serif" size="8" />
				<position>597 -629 682 -574</position>
			</node>
			<node id="time_zero_glp1_coverage">
				<name>time_zero_glp1_coverage</name>
				<interior color="e5f6f7" />
				<outline color="0000bb" />
				<font color="000000" name="MS Sans Serif" size="8" />
				<position>701 -548 786 -493</position>
			</node>
			<node id="time_zero_sglt2_coverage">
				<name>time_zero_sglt2_coverage</name>
				<interior color="e5f6f7" />
				<outline color="0000bb" />
				<font color="000000" name="MS Sans Serif" size="8" />
				<position>791 -451 876 -396</position>
			</node>
			<node id="time_zero_mra_coverage">
				<name>time_zero_mra_coverage</name>
				<interior color="e5f6f7" />
				<outline color="0000bb" />
				<font color="000000" name="MS Sans Serif" size="8" />
				<position>863 -340 948 -285</position>
			</node>
			<node id="study_entry_aceiarb_flag">
				<name>study_entry_aceiarb_flag</name>
				<interior color="e5f6f7" />
				<outline color="0000bb" />
				<font color="000000" name="MS Sans Serif" size="8" />
				<position>916 -219 1001 -164</position>
			</node>
			<node id="study_entry_sglt2_flag">
				<name>study_entry_sglt2_flag</name>
				<interior color="e5f6f7" />
				<outline color="0000bb" />
				<font color="000000" name="MS Sans Serif" size="8" />
				<position>949 -91 1034 -36</position>
			</node>
			<node id="study_entry_mra_flag">
				<name>study_entry_mra_flag</name>
				<interior color="e5f6f7" />
				<outline color="0000bb" />
				<font color="000000" name="MS Sans Serif" size="8" />
				<position>960 39 1045 94</position>
			</node>
		</genie>
	</extensions>
</smile>
