<?xml version="1.0" encoding="UTF-8"?>
<!-- This file was created by ACADEMIC version of SMILE -->
<smile version="1.0" id="Unnamed" numsamples="10000" discsamples="10000">
	<nodes>
		<cpt id="time_zero_scr_count">
			<state id="S_1_5___2_5" />
			<state id="S_2_5___8_5" />
			<state id="S_8_5___85_5" />
			<state id="S_le_85_5" />
			<state id="S_s_1_5" />
			<probabilities>0.1302734988997171 0.1665304411610605 0.1490307031331866 0.01731111809703447 0.5368542387090014</probabilities>
		</cpt>
		<cpt id="year1_reduction_40_ge">
			<state id="S_0" />
			<state id="S_1" />
			<parents>time_zero_scr_count</parents>
			<probabilities>0.8356109324758842 0.1643890675241158 0.7776729559748428 0.2223270440251572 0.6813070976809558 0.3186929023190443 0.3102409638554217 0.6897590361445783 0.9015417642466823 0.09845823575331772</probabilities>
		</cpt>
		<cpt id="time_zero_bp_count">
			<state id="S_0_5___2_5" />
			<state id="S_2_5___9_5" />
			<state id="S_377_5___2370_5" />
			<state id="S_9_5___377_5" />
			<state id="S_le_2370_5" />
			<state id="S_s_0_5" />
			<parents>time_zero_scr_count</parents>
			<probabilities>0.2002947481243301 0.1866291532690247 0.0001339764201500536 0.1408092175777063 0.0001339764201500536 0.4719989281886388 0.02211740041928721 0.1284067085953878 0.001991614255765199 0.35104821802935 0.0001048218029350105 0.4963312368972746 0.0001171234481143125 0.002225345514171937 0.1505036308268915 0.3072148044038417 0.03876786132583743 0.5011712344811431 0.001004016064257028 0.001004016064257028 0.1034136546184739 0.007028112449799197 0.5973895582329318 0.2901606425702811 0.2314923237054385 0.09605126203486859 3.252667187093417e-05 0.04823705438459536 3.252667187093417e-05 0.6241543065313557</probabilities>
		</cpt>
		<cpt id="time_zero_av_count">
			<state id="S_0_5___24_5" />
			<state id="S_24_5___59_5" />
			<state id="S_le_59_5" />
			<state id="S_s_0_5" />
			<parents>time_zero_scr_count time_zero_bp_count</parents>
			<probabilities>0.985 0.013 0.001 0.001 0.9109442060085837 0.07832618025751073 0.001072961373390558 0.009656652360515022 0.25 0.25 0.25 0.25 0.8423295454545455 0.1377840909090909 0.001420454545454545 0.01846590909090909 0.25 0.25 0.25 0.25 0.9187925170068026 0.002125850340136054 0.0004251700680272109 0.078656462585034 0.9513888888888888 0.03472222222222222 0.006944444444444444 0.006944444444444444 0.8646341463414634 0.1329268292682927 0.001219512195121951 0.001219512195121951 0.3125 0.5625 0.0625 0.0625 0.7321109123434705 0.2616279069767442 0.0004472271914132379 0.005813953488372093 0.25 0.25 0.25 0.25 0.8787974683544304 0.01170886075949367 0.0003164556962025317 0.1091772151898734 0.25 0.25 0.25 0.25 0.8125 0.0625 0.0625 0.0625 0.3174418604651163 0.6244186046511628 0.05697674418604651 0.001162790697674419 0.4868721461187214 0.4960045662100456 0.01655251141552511 0.0005707762557077625 0.1830357142857143 0.6651785714285714 0.1473214285714286 0.004464285714285714 0.9457282913165266 0.01715686274509804 0.000350140056022409 0.03676470588235294 0.25 0.25 0.25 0.25 0.25 0.25 0.25 0.25 0.01388888888888889 0.736111111111111 0.2361111111111111 0.01388888888888889 0.125 0.625 0.125 0.125 0.0025 0.1625 0.8325 0.0025 0.9642857142857142 0.02551020408163265 0.00510204081632653 0.00510204081632653 0.9471356360572872 0.003580454928390901 0.0002106149957877001 0.04907329401853412 0.8706896551724138 0.03498985801217039 0.0005070993914807302 0.09381338742393509 0.25 0.25 0.25 0.25 0.8800403225806451 0.06955645161290322 0.001008064516129032 0.04939516129032258 0.25 0.25 0.25 0.25 0.7237417943107221 0.0007033447952485151 7.814942169427946e-05 0.2754767114723351</probabilities>
		</cpt>
		<cpt id="time_zero_mean">
			<state id="S_10_095___29_065" />
			<state id="S_29_065___37_055" />
			<state id="S_37_055___55_665" />
			<state id="S_55_665___63_415" />
			<state id="S_63_415___78_285" />
			<state id="S_78_285___101_835" />
			<state id="S_le_101_835" />
			<state id="S_s_10_095" />
			<parents>year1_reduction_40_ge</parents>
			<probabilities>0.04988869446885909 0.0294262316754145 0.1005924239922946 0.06606716371911148 0.169567462623844 0.3719681718735187 0.2060812037844172 0.006408647862540666 0.1214088081576733 0.05065228158442572 0.1558369050390796 0.0682752810091253 0.1560006764663353 0.3027165604861768 0.1308322370110686 0.01427725024611519</probabilities>
		</cpt>
		<cpt id="study_entry_period_dxckd_flag">
			<state id="S_0" />
			<state id="S_1" />
			<parents>time_zero_scr_count time_zero_mean</parents>
			<probabilities>0.5073529411764706 0.4926470588235294 0.5909090909090908 0.4090909090909091 0.7849162011173184 0.2150837988826816 0.8523809523809525 0.1476190476190476 0.9278606965174129 0.07213930348258707 0.965962441314554 0.03403755868544601 0.9641148325358851 0.03588516746411483 0.4375 0.5625 0.2806351899500789 0.7193648100499214 0.4716569365952112 0.5283430634047889 0.6422436197992151 0.3577563802007849 0.829159762932882 0.170840237067118 0.8424118055009918 0.1575881944990082 0.943850150238028 0.05614984976197201 0.9418102465235479 0.05818975347645205 0.2634134454923966 0.7365865545076035 0.1287425149700599 0.8712574850299402 0.176056338028169 0.823943661971831 0.2899543378995434 0.7100456621004566 0.6875 0.3125 0.7034313725490196 0.2965686274509804 0.8392018779342724 0.1607981220657277 0.8755274261603375 0.1244725738396624 0.1944444444444444 0.8055555555555555 0.3611111111111111 0.6388888888888888 0.75 0.25 0.3625 0.6375000000000001 0.7222222222222222 0.2777777777777778 0.6625000000000001 0.3375 0.75 0.25 0.6176470588235294 0.3823529411764706 0.5 0.5 0.6786589882297827 0.3213410117702172 0.8458962835301318 0.1541037164698681 0.9078548608227315 0.09214513917726846 0.9617525224240338 0.03824747757596627 0.9872080054315433 0.01279199456845674 0.9851833222752758 0.01481667772472402 0.9857018894936047 0.01429811050639528 0.6024322267391473 0.3975677732608528</probabilities>
		</cpt>
		<cpt id="time_zero_ipv_count">
			<state id="S_le_0_5" />
			<state id="S_s_0_5" />
			<parents>time_zero_scr_count study_entry_period_dxckd_flag</parents>
			<probabilities>0.1061987237921604 0.8938012762078396 0.0641891891891892 0.9358108108108109 0.2466349960411718 0.7533650039588281 0.3460365853658537 0.6539634146341463 0.5173010380622838 0.4826989619377163 0.7818671454219031 0.2181328545780969 0.08673469387755102 0.9132653061224489 0.7898550724637681 0.2101449275362319 0.0179731925264013 0.9820268074735986 0.06716417910447761 0.9328358208955224</probabilities>
		</cpt>
		<cpt id="study_entry_period_egfrckd_flag">
			<state id="S_0" />
			<state id="S_1" />
			<parents>time_zero_mean</parents>
			<probabilities>0.0008426105240607926 0.9991573894759392 0.001581421758726836 0.9984185782412732 0.0004758291386991668 0.9995241708613009 0.468583608322824 0.5314163916771759 0.9996859310339847 0.0003140689660152378 0.9998535901921687 0.0001464098078313193 0.999724422916933 0.0002755770830669979 0.006690566397247163 0.9933094336027528</probabilities>
		</cpt>
		<cpt id="study_entry_DM_flag">
			<state id="S_0" />
			<state id="S_1" />
			<parents>time_zero_scr_count study_entry_period_egfrckd_flag</parents>
			<probabilities>0.8058086560364465 0.1941913439635535 0.7506811989100817 0.2493188010899182 0.8120471014492754 0.1879528985507246 0.6314168377823409 0.3685831622176591 0.6952954048140043 0.3047045951859956 0.55 0.45 0.4175257731958763 0.5824742268041238 0.2357142857142857 0.7642857142857142 0.8675346392737696 0.1324653607262303 0.7513312034078808 0.2486687965921193</probabilities>
		</cpt>
		<cpt id="time_zero_hba1c_mean">
			<state id="S_4_75835___5_15835" />
			<state id="S_5_15835___6_01665" />
			<state id="S_6_01665___6_64165" />
			<state id="S_le_6_64165" />
			<state id="S_s_4_75835" />
			<parents>time_zero_scr_count study_entry_DM_flag</parents>
			<probabilities>0.4383486535350253 0.2256231442292698 0.2168123967634979 0.00991971255730854 0.1092960929148985 0.07083041445616911 0.04217147024493695 0.259852558163879 0.5495474658273578 0.07759809130765696 0.3781029448760534 0.1142444698035186 0.197734172297059 0.02876660449226219 0.2811518085311067 0.1157658783676338 0.05412239125214829 0.2691871675902484 0.5233951460958083 0.03752941669416116 0.1427709152119289 0.1799733097696432 0.1671199436596432 0.03281937845109738 0.4773164529076873 0.06644250843806751 0.1542746303266073 0.2185079642436695 0.4305311017200025 0.1302437952716532 0.186401577662669 0.2424628860145674 0.1742474859525194 0.03192415558424567 0.3649638947859987 0.1423831587642009 0.3998413815476613 0.1354127785192363 0.2195190411603169 0.1028436400085846 0.5299760012275758 0.2798167257988171 0.1372799282224898 0.002273722667635042 0.05065362208348246 0.09008905283682385 0.05382307278676139 0.2968276381114558 0.5237377937387675 0.03552244252619142</probabilities>
		</cpt>
		<cpt id="study_entry_age">
			<state id="S_44_5___53_5" />
			<state id="S_53_5___77_5" />
			<state id="S_le_77_5" />
			<state id="S_s_44_5" />
			<parents>time_zero_mean time_zero_hba1c_mean</parents>
			<probabilities>0.1765630159213689 0.4659419714644763 0.2045878701397837 0.1529071424743712 0.1215646187875548 0.478870989924897 0.2198481223315225 0.1797162689560258 0.07214452992008721 0.669196505221026 0.1410624234893618 0.1175965413695249 0.1869094160588038 0.6132872854848398 0.1458915172714614 0.05391178118489491 0.1476385711840344 0.5100575471726287 0.2569974517231254 0.08530642992021138 0.1548323811132631 0.5413424972673464 0.2983051573015165 0.005519964317874157 0.09150773569980382 0.2842884061779712 0.5049700182753848 0.11923383984684 0.01050639569198311 0.420465002423021 0.5013219462900262 0.06770665559496948 0.158162719663286 0.4890910923270727 0.3304729068702077 0.02227328113943365 0.1076841439208262 0.2457903206467512 0.3109990309958799 0.3355265044365427 0.04103441542196302 0.3731363825614434 0.5725108570779054 0.0133183449386881 0.08815423250370459 0.4870194765358911 0.3793278252777065 0.04549846568269782 0.01907780848723583 0.4860643919564558 0.4602360408264561 0.0346217587298523 0.08904072017639632 0.7023740280779577 0.1738308642330772 0.03475438751256901 0.1614108689629543 0.4943163420017789 0.1447819428889248 0.199490846146342 0.08751074598319969 0.5375958594647188 0.34755154991992 0.02734184463216145 0.08878192057614695 0.5765308550773552 0.2878926773427556 0.04679454700374222 0.06351945292611151 0.6502242621013878 0.2588898837319536 0.02736640124054704 0.0407351864221149 0.7702620357432938 0.1846765706011789 0.00432620723341239 0.0876809783451809 0.450203514299063 0.2987233150406166 0.1633921923151397 0.1491607043306765 0.6641824626419819 0.1394728311885172 0.04718400183882427 0.1442123315650029 0.5651851974913218 0.1616797078849052 0.1289227630587703 0.06737065562462462 0.583853194955371 0.3281344323574459 0.0206417170625584 0.1230125518855281 0.676855400804679 0.134781197593027 0.06535084971676595 0.07345179310617707 0.491423600236989 0.378707532916132 0.05641707374070196 0.1934103013639304 0.5005368835081421 0.04441590298508445 0.261636912142843 0.2012840147738854 0.5191905497635977 0.0384376586674064 0.2410877767951105 0.1050186746784499 0.7347085352242414 0.13794417119697 0.0223286189003387 0.1479390532509922 0.6527948278984037 0.08390765376296629 0.1153584650876378 0.08100333668063722 0.6627451780409237 0.1368663842626835 0.1193851010157556 0.2381741861533585 0.08878292548424324 0.0003292470518141981 0.6727136413105841 0.1677334894456142 0.09088007056005108 0.000582833295333293 0.7408036066990016 0.3131991401000714 0.2203789775556217 0.01310953958399255 0.4533123427603143 0.3053184018368339 0.2431505705065226 0.01544207170695065 0.4360889559496929 0.20803527547032 0.2556597329774999 0.004149300487451408 0.5321556910647286 0.2951337111006987 0.2173746001060038 0.1361810878068897 0.3513106009864077 0.04011929829862616 0.6857754788577161 0.03451079363515168 0.2395944292085061 0.1115943290984786 0.5377358283100934 0.1330242261076701 0.2176456164837579 0.325332144973043 0.6256706015163802 0.02151445917591185 0.02748279433466504 0.2846771070668324 0.2339155228161158 0.06270705997957211 0.4187003101374798</probabilities>
		</cpt>
		<cpt id="demo_race_ethnicity_cat">
			<state id="S_1A" />
			<state id="S_1B" />
			<state id="S_2" />
			<state id="S_3" />
			<state id="S_4" />
			<state id="S_5" />
			<state id="S_8" />
			<state id="S_minus_9" />
			<parents>time_zero_hba1c_mean</parents>
			<probabilities>0.6006124935485079 0.08419271173267014 0.07242800027173532 0.07282183692649538 0.006518391355702432 0.001114510756841048 0.09827154498914829 0.06404051041889951 0.5152639112634853 0.06830167640584249 0.07009173608022835 0.1151869893252421 0.008110016502953557 0.00257607735589904 0.1385415537670946 0.08192803929925475 0.4992696770358885 0.06490587630284952 0.09841142628678472 0.09181662648274749 0.005367158974646641 0.005204931680269113 0.1580353495012171 0.07698895373559693 0.3802161617765937 0.1412961843200181 0.1182538024333868 0.1146266751323041 0.003198300853101357 0.002239448140291831 0.1895547702928784 0.05061465705142557 0.5402816032294897 0.1319129803425837 0.09828220893705725 0.1150877891118622 0.008029160717000881 0.006495086641607399 0.09885247877294651 0.001058692247452242</probabilities>
		</cpt>
		<cpt id="time_zero_ppi_coverage">
			<state id="S_le_80_5" />
			<state id="S_s_80_5" />
			<parents>time_zero_bp_count time_zero_hba1c_mean</parents>
			<probabilities>0.02773504519522305 0.9722649548047769 0.03549622804184795 0.9645037719581521 0.03701096087788609 0.9629890391221139 0.04235372769788979 0.9576462723021103 0.02091419779533744 0.9790858022046626 0.0250818243334577 0.9749181756665423 0.08200320894481196 0.9179967910551879 0.04371084349738968 0.9562891565026104 0.05332234214098045 0.9466776578590195 0.3001583368091367 0.6998416631908632 0.3873840152082577 0.6126159847917424 0.6772580774318959 0.3227419225681041 0.4562758634833035 0.5437241365166965 0.5301851708085585 0.4698148291914414 0.5296931609798641 0.470306839020136 0.0909999903886248 0.9090000096113752 0.1849663494986311 0.815033650501369 0.1588483022124715 0.8411516977875284 0.3416405618297642 0.6583594381702358 0.3420602035621081 0.6579397964378919 0.8077137362293308 0.1922862637706691 0.8163992553231449 0.1836007446768549 0.7231048233919627 0.2768951766080373 0.7676295048562999 0.2323704951437002 0.5731919887921086 0.4268080112078912 0.001357446271288643 0.9986425537287114 0.004306231697347316 0.9956937683026527 0.004293241773991843 0.9957067582260082 0.003768427976580206 0.9962315720234198 0.0007506474151298399 0.9992493525848701</probabilities>
		</cpt>
		<cpt id="time_zero_uacr_mean">
			<state id="S_19_5718___63_0498" />
			<state id="S_63_0498___457_471" />
			<state id="S_le_457_471" />
			<state id="S_s_19_5718" />
			<parents>study_entry_period_dxckd_flag time_zero_hba1c_mean</parents>
			<probabilities>0.004107454901026177 0.9284277957524553 0.03755631402955571 0.02990843531696293 0.08643436572013688 0.2320065662512413 0.06692091801463529 0.6146381500139865 0.06015429283262564 0.1712548470967969 0.5237916394873172 0.2447992205832602 0.5037077988670055 0.08665287120312869 0.1727258910785481 0.2369134388513177 0.07754620927956768 0.8991928714672079 0.01405564158882182 0.009205277664402481 0.07455806376775906 0.6893421195082202 0.2145038793977666 0.02159593732625403 0.3239648203783733 0.1462461169841379 0.227457102208999 0.3023319604284897 0.1848971818241451 0.2197603106787329 0.5137056110683683 0.08163689642875362 0.2758962292257008 0.1451438624954624 0.5300672439363866 0.04889266434245022 0.1076624740546105 0.7001658634789883 0.1742285854059929 0.01794307706040831</probabilities>
		</cpt>
		<cpt id="time_zero_dbp_mean">
			<state id="S_62_5___71_5" />
			<state id="S_le_71_5" />
			<state id="S_s_62_5" />
			<parents>time_zero_hba1c_mean time_zero_uacr_mean</parents>
			<probabilities>0.4083686367966107 0.04505956593414533 0.5465717972692441 0.2386745611969348 0.6922641577221644 0.06906128108090077 0.2350716300351371 0.6453928914846214 0.1195354784802414 0.1961949131267234 0.7785306387972323 0.02527444807604443 0.2039654092396427 0.1528287853360499 0.6432058054243074 0.3742651425402957 0.532500346045128 0.09323451141457641 0.3255391081737894 0.4757510591238632 0.1987098327023473 0.2710888109084134 0.693909552377947 0.03500163671363953 0.2812659157903817 0.2315562227720049 0.4871778614376133 0.2205758103568703 0.6695707579341782 0.1098534317089515 0.3518287909684166 0.5203677048162586 0.1278035042153248 0.2970131317497118 0.6889881755181767 0.01399869273211139 0.3757799144928985 0.3503404159580886 0.2738796695490127 0.3065570984994592 0.628871831880542 0.06457106961999888 0.2254944183985064 0.6324032510051191 0.1421023305963744 0.2256359613612697 0.6816562444131662 0.09270779422556411 0.5529525016888971 0.1618794260837036 0.2851680722273993 0.4906052680313702 0.2873333196490424 0.2220614123195874 0.258354437109486 0.6840708215404709 0.05757474135004315 0.4887606530485289 0.4573654331824676 0.0538739137690035</probabilities>
		</cpt>
		<cpt id="time_zero_map_mean">
			<state id="S_74_9945___84_4729" />
			<state id="S_84_4729___109_327" />
			<state id="S_le_109_327" />
			<state id="S_s_74_9945" />
			<parents>time_zero_uacr_mean time_zero_dbp_mean</parents>
			<probabilities>0.5537452818569645 0.4202667201545754 0.001310610937505164 0.02467738705095515 0.03143583496818997 0.935806009224343 0.03103297662891883 0.00172517917854819 0.4736458493932974 0.009384033398118904 0.001222564370811387 0.5157475528377722 0.571092681662039 0.4241643470276705 0.0005016211905983681 0.004241350119692267 0.01138177353703714 0.9328234048419262 0.05555186277415206 0.0002429588468846369 0.5702209886660576 0.005981966458960189 0.001414316062031888 0.4223827288129503 0.02027431780692929 0.9782340172202266 0.0007481976936163722 0.0007434672792276096 0.002138930046869449 0.6175053609145358 0.3799407406919277 0.0004149683466669043 0.560580545744617 0.3602550062114647 0.001764573618869119 0.07739987442504913 0.5759839791691448 0.4068836436542942 0.001066336090819525 0.01606604108574151 0.01521085901333349 0.8924179876290892 0.09196859904225782 0.0004025543153195078 0.5035030006166159 0.04045384877797408 0.008154939992586003 0.447888210612824</probabilities>
		</cpt>
		<cpt id="study_entry_period_albprockd_flag">
			<state id="S_0" />
			<state id="S_1" />
			<parents>time_zero_uacr_mean time_zero_dbp_mean</parents>
			<probabilities>0.9309528091593391 0.06904719084066091 0.8356736834266607 0.1643263165733393 0.9056124859049298 0.09438751409507018 0.9811279774574851 0.01887202254251477 0.9714086874796471 0.02859131252035297 0.9834652814657254 0.01653471853427469 0.9561688752281451 0.0438311247718549 0.853572939004278 0.1464270609957221 0.9160259523460126 0.08397404765398739 0.9989741333306338 0.001025866669366184 0.9995167138942769 0.0004832861057231184 0.9709204750205864 0.02907952497941375</probabilities>
		</cpt>
		<cpt id="time_zero_upcr_count">
			<state id="S_le_0_5" />
			<state id="S_s_0_5" />
			<parents>time_zero_hba1c_mean time_zero_dbp_mean</parents>
			<probabilities>0.004021438180548046 0.9959785618194521 0.0005845424407248073 0.9994154575592752 0.02030724019361284 0.9796927598063873 0.002156381297840571 0.9978436187021594 0.01186890601027555 0.9881310939897244 0.1059315841495459 0.894068415850454 0.001490209299189848 0.9985097907008101 0.03058183439716414 0.9694181656028359 0.06377172235214236 0.9362282776478575 0.00359397260550411 0.996406027394496 0.05982905817446747 0.9401709418255326 0.03133292532167262 0.9686670746783274 0.001833152550946017 0.998166847449054 0.2191790051866382 0.7808209948133619 0.003806751692914848 0.996193248307085</probabilities>
		</cpt>
		<cpt id="time_zero_hba1c_count">
			<state id="S_0_5___1_5" />
			<state id="S_le_1_5" />
			<state id="S_s_0_5" />
			<parents>time_zero_hba1c_mean time_zero_uacr_mean</parents>
			<probabilities>0.5523578276125174 0.1181175580877604 0.3295246142997223 0.02826302071921529 0.001370695978689706 0.9703662833020951 0.1117261930718077 0.005242381622420254 0.8830314253057721 0.1797741130270461 0.004078510252548525 0.8161473767204055 0.516982445656995 0.1973203787515187 0.2856971755914864 0.2491225304824916 0.02125075982247829 0.7296267096950302 0.9166703188637638 0.07455191564590166 0.008777765490334715 0.9129261604839973 0.03531089535234129 0.05176294416366143 0.619029181080472 0.1763304747194065 0.2046403442001214 0.03734895123243093 0.001733092755867677 0.9609179560117014 0.05140479430657895 0.003632665967797986 0.9449625397256232 0.640407896275636 0.06497696063175695 0.2946151430926071 0.4243799106486223 0.1162850414283254 0.4593350479230525 0.8006265648159648 0.1846087910419345 0.01476464414210071 0.6180645409410237 0.1324598991357592 0.2494755599232172 0.5843798681604568 0.1361795580723531 0.27944057376719 0.09430465489402384 0.02522903485268542 0.8804663102532907 0.03306282085323231 0.001525959123897244 0.9654112200228703 0.1121384785532751 0.08466759142305683 0.8031939300236681 0.5035733933392299 0.1084206252637551 0.3880059813970149</probabilities>
		</cpt>
		<cpt id="time_zero_sbp_mean">
			<state id="S_101_5___139_5" />
			<state id="S_139_5___161_5" />
			<state id="S_le_161_5" />
			<state id="S_s_101_5" />
			<parents>time_zero_uacr_mean time_zero_map_mean</parents>
			<probabilities>0.8854165746231961 0.001272841618486334 0.001241926092558573 0.1120686576657588 0.7779228638820214 0.2195305568605763 0.00127700200586603 0.001269577251536184 0.05163055648558786 0.8465507185934193 0.05322674468080481 0.04859198024018803 0.2821815230056006 0.002250516892926273 0.002180859680494986 0.7133871004209782 0.926164523913797 0.0006128525861949625 0.0006125909658068701 0.07261003253420116 0.8839711306345338 0.1147133735631707 0.001102804766194999 0.0002126910361004205 0.102285333137223 0.7563522068416363 0.1370479199666071 0.004314540054533673 0.473735179141323 0.003203539637997938 0.00319560662300594 0.519865674597673 0.9137378102786374 0.04735052017778778 0.002760971984665732 0.03615069755890913 0.3019362701012764 0.5838698911613457 0.1138622192959924 0.0003316194413855403 0.001321295021577906 0.30614375246654 0.6914285454539959 0.001106407057886262 0.9309252230523923 0.02114266268999494 0.02093022679473587 0.02700188746287684 0.9001766083779238 0.001552787595956919 0.001558619601725741 0.09671198442439358 0.8579935434728737 0.1367953249170732 0.004829202584151355 0.0003819290259015496 0.06014619239926138 0.9270241510969597 0.008506264817017366 0.004323391686761574 0.2060435835022616 0.01413134585132328 0.01384927873271128 0.7659757919137039</probabilities>
		</cpt>
		<cpt id="ruca_7_class">
			<state id="S_isolated_rural" />
			<state id="S_large_rural_core" />
			<state id="S_other_large_rural" />
			<state id="S_other_small_rural" />
			<state id="S_other_urban" />
			<state id="S_small_rural_core" />
			<state id="S_urban_core" />
			<parents>time_zero_uacr_mean time_zero_dbp_mean</parents>
			<probabilities>0.0006829078439198712 0.03931669526570032 0.001939996075440153 0.0004988125093173894 0.03603551602907573 0.002840647102897178 0.9186854251736494 0.00116260078778016 0.001724899707201308 0.0007765045109020509 0.009716396990797686 0.07166430280023539 0.01890095195062285 0.8960543432524605 0.005739636692407521 0.0321244866792354 0.0004539089313895507 0.0004308616156537968 0.04982131722398987 0.002301827000908916 0.909127961856415 0.00545640940514074 0.00670784415425341 0.004578243256297606 0.0005368307972554434 0.04157128400615977 0.0003840605613854546 0.9407653278195076 0.001808073452769261 0.01456015169965307 8.831849275217792e-05 0.001032826438197805 0.06332941944010889 0.003296872809033401 0.9158843376674854 0.0006576571254611193 0.008585712280838733 0.0007900139830586125 0.007277645143926563 0.02758576178260955 0.003319584256366406 0.9517836254277391 0.0004944889857327978 0.01249029296310239 0.0004665164454753264 0.0004359394358804122 0.04928357718690517 0.0003721951533967867 0.9364569898295072 0.004252556066245301 0.02244525728338733 0.003180441375235963 0.0002224549600095231 0.04213711892145092 0.0002592646268599177 0.927502906766811 0.0009854419595789999 0.02998872337326884 0.0009420122735804715 0.0009359827266023978 0.09495977980539938 0.008194890318276341 0.8639931695432935 0.001412515087286491 0.01551002068424487 0.000663889124175997 0.0003049776564097186 0.06618253887766608 0.001275471659615624 0.9146505869106012 0.0003595393363060878 0.01044661900767441 0.0001161178533468897 0.0001195883887915265 0.07214828190245939 0.0003849661733557994 0.9164248873380659 0.004470732306016419 0.003332072030136623 0.01752918221290529 0.002276829675733279 0.05062033890053815 0.007790551805897931 0.9139802930687722</probabilities>
		</cpt>
		<cpt id="ruca_4_class">
			<state id="S_isolated" />
			<state id="S_large_rural" />
			<state id="S_small_rural" />
			<state id="S_urban" />
			<parents>ruca_7_class</parents>
			<probabilities>0.9659090909090908 0.01136363636363636 0.01136363636363636 0.01136363636363636 0.001811594202898551 0.9945652173913047 0.001811594202898551 0.001811594202898551 0.01923076923076923 0.9423076923076923 0.01923076923076923 0.01923076923076923 0.02272727272727273 0.02272727272727273 0.9318181818181818 0.02272727272727273 0.0004725897920604915 0.0004725897920604915 0.0004725897920604915 0.9985822306238186 0.01136363636363636 0.01136363636363636 0.9659090909090909 0.01136363636363636 2.849977200182399e-05 2.849977200182399e-05 2.849977200182399e-05 0.9999145006839945</probabilities>
		</cpt>
		<cpt id="time_zero_pp_mean">
			<state id="S_56_5___63_5" />
			<state id="S_63_5___85_5" />
			<state id="S_le_85_5" />
			<state id="S_s_56_5" />
			<parents>time_zero_hba1c_mean time_zero_uacr_mean</parents>
			<probabilities>0.0217726204496618 0.02350469567191878 0.01821192461605895 0.9365107592623606 0.0972512381033635 0.04671383570129942 0.0002225619305078769 0.8558123642648292 0.05046330226835816 0.7671695024879759 0.1535197679136766 0.02884742732998945 0.1989415272305307 0.01252645954488229 0.004738944829025861 0.7837930683955611 0.1389839991393973 0.02021282934990564 0.001838220295412371 0.8389649512152847 0.1755610182324821 0.03673546360697834 0.006155004455628139 0.7815485137049114 0.1895184843611016 0.6309515813309611 0.12974942381196 0.04978051049597748 0.0999372966153298 0.05881595726357337 0.001790727725408502 0.8394560183956883 0.08392471191032481 0.2508514278369749 0.004352125959601223 0.660871734293099 0.2225872499741238 0.02286472889567728 0.001056662130093287 0.7534913590001057 0.1392368677358189 0.6464710860667831 0.1794279590151843 0.03486408718221357 0.162371782609886 0.1295238197713562 0.007588794932984561 0.7005156026857734 0.1780342530853896 0.1598359278751001 0.0011063183056348 0.6610235007338755 0.1865709762138728 0.2117667527682339 0.004414624906022814 0.5972476461118705 0.1631584095536543 0.5100333317978811 0.1637656809143513 0.1630425777341133 0.1658646449954568 0.1339238042670498 0.01883436229824951 0.6813771884392439 0.008492226713441933 0.03243845412433469 0.00473645037512227 0.9543328687871011 0.202700465756333 0.04623708691758766 0.000677914240702669 0.7503845330853767 0.1078361160440103 0.5638904611149003 0.07313470120205344 0.2551387216390359 0.2072182466528286 0.04758751082244927 0.02630686015585117 0.7188873823688708</probabilities>
		</cpt>
		<cpt id="study_entry_nsaid_flag">
			<state id="S_0" />
			<state id="S_1" />
			<parents>time_zero_hba1c_mean time_zero_uacr_mean</parents>
			<probabilities>0.8781811398670823 0.1218188601329176 0.9452734449685084 0.0547265550314916 0.9701943884735031 0.02980561152649691 0.7778227928108028 0.2221772071891973 0.9082513746842463 0.09174862531575366 0.7973132018202124 0.2026867981797877 0.9461379928019878 0.05386200719801209 0.8862557241177986 0.1137442758822014 0.9556258033638273 0.04437419663617274 0.8705257057835414 0.1294742942164587 0.8882232642118988 0.1117767357881011 0.9313940336950371 0.0686059663049628 0.9547832686045603 0.04521673139543968 0.9098925350901232 0.09010746490987682 0.9246247527032475 0.0753752472967525 0.902069434177027 0.09793056582297296 0.9402022104096606 0.05979778959033952 0.9913633569839878 0.008636643016012122 0.9889482707121803 0.0110517292878198 0.8770340031752243 0.1229659968247757</probabilities>
		</cpt>
		<cpt id="study_entry_HTN_flag">
			<state id="S_0" />
			<state id="S_1" />
			<parents>time_zero_uacr_mean time_zero_pp_mean</parents>
			<probabilities>0.08615674822177155 0.9138432517782284 0.06490457246291727 0.9350954275370827 0.4982181518318203 0.5017818481681796 0.5770519371326203 0.4229480628673798 0.5616477848303459 0.4383522151696539 0.5443118266625431 0.455688173337457 0.3282002428515572 0.6717997571484429 0.7079401383253688 0.2920598616746311 0.07087706695035081 0.9291229330496492 0.1229605214047363 0.8770394785952638 0.09732442788386568 0.9026755721161344 0.3245138828041323 0.6754861171958677 0.3495135464330453 0.6504864535669548 0.2942607058414762 0.7057392941585238 0.3046833851624073 0.6953166148375927 0.6298137696388298 0.3701862303611702</probabilities>
		</cpt>
		<cpt id="study_entry_PDM_flag">
			<state id="S_0" />
			<state id="S_1" />
			<parents>time_zero_uacr_mean time_zero_map_mean</parents>
			<probabilities>0.8247099598163744 0.1752900401836257 0.8748899989788702 0.12511000102113 0.6821247936017421 0.3178752063982578 0.6355254830783998 0.3644745169216001 0.9742086959834459 0.02579130401655403 0.9944631095749791 0.005536890425020735 0.9924896160810066 0.00751038391899343 0.9951198758269972 0.004880124173002899 0.876829551493177 0.1231704485068232 0.9495372695028814 0.05046273049711857 0.9321795477230902 0.06782045227690997 0.9538491440812021 0.04615085591879772 0.4392653972894516 0.5607346027105482 0.530073567500345 0.4699264324996552 0.6465892755337158 0.3534107244662842 0.7140897540473571 0.285910245952643</probabilities>
		</cpt>
		<cpt id="time_zero_aceiarb_coverage">
			<state id="S_le_0_5" />
			<state id="S_s_0_5" />
			<parents>time_zero_hba1c_mean time_zero_uacr_mean</parents>
			<probabilities>0.1607836313782727 0.8392163686217273 0.0003963917278387156 0.9996036082721613 0.02650285443050041 0.9734971455694996 0.03321748103868127 0.9667825189613186 0.1701613158262605 0.8298386841737393 0.01032643211917897 0.9896735678808209 0.3423166452534857 0.6576833547465144 0.06669699057090277 0.9333030094290972 0.1680157013154087 0.8319842986845912 0.6454805681624369 0.3545194318375631 0.2850730630700799 0.7149269369299202 0.1299154551350384 0.8700845448649617 0.1906609482618732 0.8093390517381269 0.2954999138354839 0.7045000861645161 0.3897593848315481 0.6102406151684517 0.197865648052439 0.802134351947561 0.03836627708040956 0.9616337229195905 0.001793835185754227 0.9982061648142458 0.03921840180222524 0.9607815981977748 0.1461326004139443 0.8538673995860557</probabilities>
		</cpt>
		<cpt id="study_entry_ppi_flag">
			<state id="S_0" />
			<state id="S_1" />
			<parents>time_zero_ppi_coverage time_zero_uacr_mean</parents>
			<probabilities>0.2720876718688967 0.7279123281311035 0.2499414472379042 0.7500585527620959 0.3672027426142612 0.6327972573857388 0.2103983423687416 0.7896016576312584 0.8779486887426849 0.1220513112573151 0.9537356737385017 0.04626432626149837 0.8645743849464488 0.1354256150535512 0.9337139665189136 0.06628603348108653</probabilities>
		</cpt>
		<cpt id="time_zero_upcr_mean">
			<state id="S_le_0_45655" />
			<state id="S_s_0_45655" />
			<parents>time_zero_hba1c_mean time_zero_dbp_mean</parents>
			<probabilities>0.9872739784603594 0.01272602153964058 0.9902960317666558 0.009703968233344171 0.9660025099122822 0.03399749008771788 0.8803044394556357 0.1196955605443643 0.837906513131578 0.162093486868422 0.7724541347429167 0.2275458652570833 0.6563088840294138 0.3436911159705862 0.5751174645609212 0.4248825354390789 0.6944065896776138 0.3055934103223861 0.6276925090232841 0.3723074909767159 0.5551261989764724 0.4448738010235276 0.7144262908698793 0.2855737091301208 0.992677976885712 0.007322023114287982 0.8413934922476335 0.1586065077523664 0.9957553174731679 0.004244682526831974</probabilities>
		</cpt>
		<cpt id="time_zero_uacr_count">
			<state id="S_le_2_5" />
			<state id="S_s_2_5" />
			<parents>time_zero_dbp_mean time_zero_upcr_mean</parents>
			<probabilities>0.0005717633410135149 0.9994282366589865 0.01222647049013223 0.9877735295098679 0.0002315943723197285 0.9997684056276803 0.004340698670325884 0.9956593013296742 0.002100302390076605 0.9978996976099235 0.003094889318543651 0.9969051106814563</probabilities>
		</cpt>
		<cpt id="demo_sex">
			<state id="S_0" />
			<state id="S_1" />
			<parents>time_zero_sbp_mean time_zero_upcr_mean</parents>
			<probabilities>0.4896496486541842 0.5103503513458157 0.5949482622929149 0.4050517377070851 0.5413832628913543 0.4586167371086457 0.5279547836888682 0.4720452163111318 0.463964521049384 0.5360354789506161 0.6140245179863901 0.3859754820136099 0.5117550755042847 0.4882449244957153 0.6105169058818106 0.3894830941181892</probabilities>
		</cpt>
		<cpt id="time_zero_nsaid_coverage">
			<state id="S_le_4_5" />
			<state id="S_s_4_5" />
			<parents>time_zero_dbp_mean time_zero_upcr_mean</parents>
			<probabilities>0.03352946398751542 0.9664705360124846 0.08754001575783225 0.9124599842421678 0.03801653654736076 0.9619834634526392 0.08266612593876274 0.9173338740612373 0.035515890334518 0.9644841096654819 0.1316978756269188 0.8683021243730812</probabilities>
		</cpt>
		<cpt id="study_entry_glp1_flag">
			<state id="S_0" />
			<state id="S_1" />
			<parents>time_zero_dbp_mean time_zero_upcr_mean</parents>
			<probabilities>0.9997625412902811 0.0002374587097189436 0.9537697617528276 0.04623023824717246 0.9998338118442939 0.0001661881557061239 0.9676849836247796 0.03231501637522047 0.9994997419672929 0.0005002580327071469 0.9734858901029586 0.02651410989704139</probabilities>
		</cpt>
		<cpt id="time_zero_glp1_coverage">
			<state id="S_le_84_5" />
			<state id="S_s_84_5" />
			<parents>time_zero_dbp_mean time_zero_upcr_mean</parents>
			<probabilities>0.0002076425304239829 0.999792357469576 0.008947485775340427 0.9910525142246596 0.0001104730775841014 0.9998895269224159 0.009128965048345214 0.9908710349516547 0.0004919978594076185 0.9995080021405923 0.002616378668730042 0.99738362133127</probabilities>
		</cpt>
		<cpt id="time_zero_sglt2_coverage">
			<state id="S_le_0_5" />
			<state id="S_s_0_5" />
			<parents>time_zero_dbp_mean time_zero_upcr_mean</parents>
			<probabilities>0.0002249877787953913 0.9997750122212047 0.03466732261719561 0.9653326773828044 0.0001287640288051778 0.9998712359711949 0.02504972992023834 0.9749502700797616 0.0004920037623700385 0.99950799623763 0.008061386008345729 0.9919386139916543</probabilities>
		</cpt>
		<cpt id="time_zero_mra_coverage">
			<state id="S_le_8_5" />
			<state id="S_s_8_5" />
			<parents>time_zero_dbp_mean time_zero_upcr_mean</parents>
			<probabilities>0.0005963834988727551 0.9994036165011272 0.02187352877677743 0.9781264712232227 0.0001104666156513301 0.9998895333843487 0.001610972549285952 0.998389027450714 0.0004920604484590836 0.9995079395515408 0.007848803166003898 0.9921511968339962</probabilities>
		</cpt>
		<cpt id="study_entry_aceiarb_flag">
			<state id="S_0" />
			<state id="S_1" />
			<parents>time_zero_hba1c_mean time_zero_upcr_mean</parents>
			<probabilities>0.981985057179088 0.01801494282091205 0.1364287878133598 0.8635712121866402 0.9736530639894997 0.02634693601050026 0.2834493716572825 0.7165506283427177 0.7443750511615725 0.2556249488384273 0.2618939810546485 0.7381060189453517 0.9205120497041381 0.07948795029586182 0.3211135224208721 0.678886477579128 0.991991273695917 0.008008726304082923 0.925421365792254 0.07457863420774612</probabilities>
		</cpt>
		<cpt id="study_entry_sglt2_flag">
			<state id="S_0" />
			<state id="S_1" />
			<parents>time_zero_dbp_mean time_zero_upcr_mean</parents>
			<probabilities>0.9996369200573573 0.0003630799426427823 0.9458838971179079 0.05411610288209207 0.9998557506975032 0.000144249302496735 0.9761882572000711 0.02381174279992897 0.9994777254814002 0.0005222745185998678 0.9755161901029212 0.02448380989707876</probabilities>
		</cpt>
		<cpt id="study_entry_mra_flag">
			<state id="S_0" />
			<state id="S_1" />
			<parents>time_zero_dbp_mean time_zero_upcr_mean</parents>
			<probabilities>0.9994561992354287 0.0005438007645712255 0.9829285463324716 0.01707145366752837 0.9998895332584045 0.0001104667415955305 0.9973150246467364 0.002684975353263567 0.9995080021405923 0.0004919978594076185 0.99738362133127 0.002616378668730042</probabilities>
		</cpt>
		<cpt id="year1_mean">
			<state id="S_29_765___39_905" />
			<state id="S_39_905___53_065" />
			<state id="S_53_065___66_185" />
			<state id="S_66_185___76_735" />
			<state id="S_76_735___95_885" />
			<state id="S_le_95_885" />
			<state id="S_s_29_765" />
			<parents>year1_reduction_40_ge</parents>
			<probabilities>0.03428322481663241 0.05975879641411487 0.09105946293703482 0.3869310304195533 0.1862925016543582 0.200344313178547 0.04133067057975947 0.1799654312666432 0.2375976599286028 0.1074100541307689 0.01675117926325898 0.001963584297023455 8.885402844901844e-05 0.4562232370852536</probabilities>
		</cpt>
		<cpt id="year2_reduction_40_ge">
			<state id="S_0" />
			<state id="S_1" />
			<parents>year1_mean</parents>
			<probabilities>0.6866872235478576 0.3133127764521424 0.7157131655373625 0.2842868344626375 0.7502025283755573 0.2497974716244427 0.8520772625683964 0.1479227374316036 0.8702583944478187 0.1297416055521813 0.9354096496348846 0.06459035036511537 0.5907435802176821 0.4092564197823178</probabilities>
		</cpt>
		<cpt id="year1_scr_count">
			<state id="S_0_5___2_5" />
			<state id="S_2_5___6_5" />
			<state id="S_6_5___27_5" />
			<state id="S_le_27_5" />
			<state id="S_s_0_5" />
			<parents>year1_mean year2_reduction_40_ge</parents>
			<probabilities>0.2840412985770755 0.18964194368419 0.3140721459415872 0.2115089634323827 0.0007356483647646014 0.1265816550639546 0.2448079543775342 0.3840226618998845 0.2432518914087245 0.001335837249902163 0.4096115929318851 0.1797434532538436 0.2474342804282094 0.154407250570735 0.00880342281532695 0.1798766883962679 0.1523123650835737 0.3597057907405459 0.3066879304273135 0.001417225352298821 0.4741543914536434 0.2133029154941984 0.1835557654461532 0.1102530531945558 0.01873387441144916 0.2430175345478172 0.1436254245399055 0.2415074941394726 0.3172570771721485 0.05459246960065632 0.1219942575668229 0.04449926007972541 0.03241208119819446 0.01716088490233436 0.7839335162529228 0.07911599908065102 0.05725492591521778 0.1184274273033213 0.07472726962681897 0.670474378073991 0.6163030280878777 0.1811853232274745 0.1190518147977271 0.05143322427405927 0.03202660961286145 0.2454380033811924 0.1622391235496043 0.3130324347392475 0.2558338170958634 0.0234566212340924 0.4878071422747952 0.1247470276536321 0.08905525368646816 0.0304457835114137 0.2679447928736908 0.2932668034695822 0.1573151282453034 0.2350015738488349 0.2252907650121062 0.08912572942417323 0.2867802611006328 0.1701081808806205 0.3354946982566722 0.207199364332669 0.0004174954294053405 0.1974939822008496 0.2318439634997592 0.2875844500948622 0.2739116553201461 0.009165948884383122</probabilities>
		</cpt>
		<cpt id="year1_ipv_count">
			<state id="S_0_5___1_5" />
			<state id="S_le_1_5" />
			<state id="S_s_0_5" />
			<parents>year1_mean year1_scr_count</parents>
			<probabilities>0.1282309194473379 0.03413911799822833 0.8376299625544337 0.2788095014826564 0.02957782719455074 0.691612671322793 0.4435685766932298 0.2503476834478865 0.3060837398588838 0.2407407407407408 0.6772486772486773 0.08201058201058203 0.3407513788613484 0.3140975852562687 0.3451510358823829 0.1162938601688817 0.01041485402139444 0.8732912858097239 0.2269934301807838 0.03756695436231587 0.7354396154569004 0.4296185760296609 0.2728702757430663 0.2975111482272729 0.2300194931773879 0.6744639376218323 0.09551656920077972 0.7881474238525534 0.08568148965056338 0.1261710864968832 0.1251046140034909 0.01214896536229606 0.862746420634213 0.1728137672233186 0.07111450954941867 0.7560717232272627 0.3723957376075652 0.2605010786173938 0.3671031837750411 0.1940639269406393 0.7420091324200913 0.0639269406392694 0.8745223046084591 0.08903668157209381 0.03644101381944716 0.08755248426773579 0.0204964701327285 0.8919510455995358 0.182902050627204 0.03010753103823805 0.7869904183345579 0.3733859060628085 0.1736112817210484 0.4530028122161432 0.1416666666666667 0.8041666666666668 0.05416666666666668 0.006066486466939204 0.0007128432943599828 0.9932206702387008 0.07531034358437237 0.00396358317802938 0.9207260732375983 0.2163602965903843 0.03145161976409955 0.7521880836455161 0.2351705947376016 0.3286195233458369 0.4362098819165615 0.2442528735632184 0.7011494252873565 0.0545977011494253 0.01346431704622419 0.0101242666251675 0.9764114163286083 0.08918345234173747 0.01766003347006161 0.893156514188201 0.2739277204674621 0.06600697700135107 0.6600653025311868 0.3396771226258712 0.3587840310117004 0.3015388463624284 0.1497584541062802 0.7439613526570049 0.106280193236715 0.01299669304775237 0.001649764465311377 0.9853535424869363 0.08853021727780462 0.01906970000328072 0.8924000827189147 0.3724520075438557 0.03672093256147385 0.5908270598946704 0.4526849019619631 0.2866242407191834 0.2606908573188537 0.1441798941798942 0.791005291005291 0.06481481481481481 0.0713715438201739 0.0685435904799898 0.8600848656998362</probabilities>
		</cpt>
		<cpt id="year1_bp_count">
			<state id="S_0_5___6_5" />
			<state id="S_203_5___740_5" />
			<state id="S_36_5___203_5" />
			<state id="S_6_5___36_5" />
			<state id="S_le_740_5" />
			<state id="S_s_0_5" />
			<parents>year1_mean year1_scr_count</parents>
			<probabilities>0.2845379373093807 0.001248731474765916 0.06061340165656036 0.1353202132423348 0.001248731474765916 0.5170309848421923 0.1287733029981839 0.009905638692167993 0.06310044289495027 0.3428172240923034 0.001415091241738284 0.4539883000806563 0.006561877320065995 0.111563115895781 0.2322038768553361 0.1370989283340944 0.00611269107222077 0.5064595105225017 0.001322751322751323 0.2632275132275132 0.09656084656084656 0.001322751322751323 0.1759259259259259 0.4616402116402116 0.1609091931116894 0.1483940591948736 0.1795487460884071 0.1660677709856728 0.1483940591948736 0.1966861714244835 0.3683377545462734 0.0005606907013959029 0.06022970780313802 0.1802402762900588 0.0005606907013959029 0.3900708799577378 0.1422795856102138 0.001120311697718219 0.07680168973432311 0.3250021894097641 0.001120311697718219 0.4536759118502624 0.02750881788679017 0.08397113888308083 0.3083089106374576 0.1291315492932743 0.008977059576537787 0.4421025237228595 0.0009746588693957114 0.158869395711501 0.03021442495126705 0.0009746588693957114 0.1998050682261208 0.6091617933723197 0.02841823967094606 0.02614269798706139 0.6609135080651692 0.0383233185727239 0.02614269798706139 0.2200595377170379 0.3754622760540552 0.0004453428691169397 0.05744873184091947 0.1945381185516134 0.0004453428691169397 0.3716601878151781 0.1710271809525579 0.02362253880560192 0.0809081084145665 0.3301350286733626 0.000944901552224077 0.3933622416016867 0.007288464079160941 0.08516916681753922 0.2647436271597031 0.1803746516917009 0.01775709006291357 0.4446670001889822 0.001141552511415525 0.1655251141552511 0.05593607305936072 0.001141552511415525 0.3367579908675798 0.4394977168949772 0.007004763561801373 0.006546296384079095 0.3990152125068981 0.2117592814618876 0.006546296384079095 0.3691281497012547 0.5031724415676515 0.000465381849215862 0.06470717766625082 0.156910030115983 0.000465381849215862 0.274279586951683 0.2303080931820849 0.008101289709922584 0.09145355682095432 0.2858708934361039 0.001157327101417512 0.3831088397495168 0.01662817465193753 0.1153386757437346 0.2508913642422654 0.2580198810665739 0.02972579274960529 0.3293961115458833 0.01458333333333334 0.3395833333333333 0.06458333333333334 0.002083333333333333 0.2645833333333333 0.3145833333333334 0.168370893324697 7.025672510180337e-05 0.000866287308147835 0.03188014990103533 7.025672510180337e-05 0.7987421560159162 0.5566581682957594 0.0001981654767276372 0.04657222996457221 0.1666684648057852 0.0001981654767276372 0.2297048059804279 0.2232660074648986 0.004402428316209268 0.1327112070059627 0.3138345091886093 0.0006289183308870382 0.3251569296934331 0.005589475653221944 0.09422290162283663 0.2764420684576662 0.2297161299234813 0.005450891218523287 0.3885785331242708 0.01867816091954023 0.1738505747126437 0.08764367816091953 0.001436781609195402 0.2772988505747126 0.4410919540229885 0.9156774028746201 0.00359717675856865 0.03267556009836943 0.02688899048023081 0.00359717675856865 0.01756369302964243 0.5485642660454471 0.00286975123270983 0.04922746580598987 0.1432671304993996 0.0002207500948238331 0.25585063632163 0.1938941806561285 0.02062704049533282 0.1295383048476171 0.283003128318729 0.0008250816198133128 0.3721122640623793 0.01387503059605264 0.09659565284829322 0.281295005217494 0.1475471232159639 0.02016831180649867 0.4405188763156975 0.002415458937198068 0.1618357487922705 0.1328502415458937 0.002415458937198068 0.2632850241545894 0.4371980676328502 0.7865557637283723 0.0004089272058479597 0.01502521911527988 0.1061004175077482 0.0004089272058479597 0.09150074523690359 0.3259818249571117 0.004339358223465516 0.04896146634401208 0.1717905156677608 0.0006199083176379308 0.4483069264900119 0.1055288448876048 0.0007934499615609386 0.2310463913327462 0.2937669221237775 0.0007934499615609386 0.3680709417327495 0.009637599797067515 0.1265129912840272 0.2114213297769386 0.1066116573037722 0.01228244899813044 0.533533972840064 0.0006613756613756613 0.1554232804232804 0.05621693121693121 0.0006613756613756613 0.3101851851851852 0.4768518518518519 0.0420630516371749 0.0341066512257345 0.7980697677975404 0.04655788115914249 0.0341066512257345 0.04509599695467317</probabilities>
		</cpt>
		<cpt id="year1_av_count">
			<state id="S_0_5___1_5" />
			<state id="S_1_5___34_5" />
			<state id="S_34_5___76_5" />
			<state id="S_76_5___146_5" />
			<state id="S_le_146_5" />
			<state id="S_s_0_5" />
			<parents>year1_mean year1_bp_count</parents>
			<probabilities>0.003035952504577894 0.9280177127117053 0.05984052605167389 0.003035266933535188 0.003035266933535188 0.003035274864972507 0.002969496313135463 0.2368394475241861 0.4305769654046422 0.3236750981317655 0.002969496313135463 0.002969496313135463 0.00230281437143187 0.3351787498272647 0.4169211437037064 0.2271747771261418 0.01611970060002309 0.00230281437143187 0.001957930810108015 0.4765854697363383 0.4098521156659328 0.1076886221674047 0.001957930810108015 0.001957930810108015 0.006944444444444444 0.04861111111111111 0.5069444444444444 0.09027777777777776 0.3402777777777777 0.006944444444444444 0.05399629983155926 0.8319677477359847 0.09062761240493623 0.0006001803289077438 0.0006001803289077438 0.02220797936970432 0.008466732564239325 0.8895241709722995 0.08386815972280506 0.0157221433490754 0.001209395642236569 0.001209397749344202 0.003464984258217395 0.2342384789339557 0.3984731896950005 0.315313567497783 0.04504479535682614 0.003464984258217395 0.001471175538808792 0.4247156127814126 0.3193984937855769 0.2249912071180258 0.02795233523736705 0.001471175538808792 0.03117102560370958 0.473196248403205 0.4694484381199215 0.02369060582486742 0.001246841024148383 0.001246841024148383 0.004504504504504504 0.1396396396396397 0.08558558558558559 0.436936936936937 0.3288288288288289 0.004504504504504504 0.07403850461072022 0.8257592025256036 0.07620324686062747 0.01305101486555049 0.0004210004795338868 0.01052703065796414 0.01256137368683499 0.9074795313795082 0.07126305881518714 0.0009662260362986942 0.00676358225409086 0.0009662278280800567 0.003786005944712099 0.2087247575551714 0.2990944696322558 0.3899586123053462 0.09465014861780249 0.003786005944712099 0.001642435112878119 0.438921691338427 0.32714028128089 0.2290107220420485 0.001642435112878119 0.001642435112878119 0.0009866201231032079 0.597210567087303 0.3573994061222485 0.04243016642113882 0.0009866201231032079 0.0009866201231032079 0.003144654088050314 0.09748427672955973 0.1729559748427673 0.380503144654088 0.3427672955974842 0.003144654088050314 0.04569031437487685 0.8584055154721679 0.08345239091195863 0.005993470851772689 0.0004610362193671299 0.005997272169856706 0.05165070692425073 0.9005864687493328 0.0436124606439574 0.003514750973408878 0.0002703654594929906 0.0003652472495573789 0.003703673710142738 0.2481542368410241 0.2481461385795635 0.4037004344055585 0.09259184275356847 0.003703673710142738 0.002112389774577113 0.3283203065868666 0.5111134088791135 0.1162060992679003 0.04013540571696514 0.002112389774577113 0.005569079728649181 0.632766373158291 0.3384295437633162 0.02164383771298681 0.0007955828183784544 0.0007955828183784544 0.00641025641025641 0.08333333333333333 0.2756410256410257 0.3525641025641026 0.2756410256410257 0.00641025641025641 0.1530935351813593 0.4596689929134864 0.009775756309370989 7.86266798526251e-05 7.86266798526251e-05 0.3773044622360779 0.008137288175159279 0.9375033427482879 0.04648389541512501 0.007267886216668277 0.000290715448666731 0.000316871996092727 0.003968246821381766 0.07539849061804849 0.3611104607457408 0.5039673463154845 0.05158720867796297 0.003968246821381766 0.001146630276281195 0.3566619754137215 0.4529882797959502 0.1800300723037978 0.008026411933968367 0.001146630276281195 0.000608073210305108 0.5399457811675222 0.4210809292620636 0.03714906993949883 0.000608073210305108 0.000608073210305108 0.004901960784313725 0.1225490196078431 0.1519607843137255 0.4754901960784314 0.2401960784313725 0.004901960784313725 0.06805983067520494 0.8362373655882803 0.09208058979294914 0.0004019197235349616 0.0004019197235349616 0.002818374496495513 0.01544844170200792 0.9479834840429908 0.03473078352370926 0.0002146597997976591 0.0002146597997976591 0.001407971131696685 0.005050503748173027 0.2171719190331811 0.3383837511275928 0.3383837511275928 0.0959595712152875 0.005050503748173027 0.001355482614269039 0.4881615746741267 0.343758404148771 0.131481990591838 0.03388706535672598 0.001355482614269039 0.005027067135403281 0.6319640085905666 0.3108032948983658 0.0464604097923466 0.0007181524479147544 0.005027067135403281 0.007575757575757576 0.143939393939394 0.09848484848484848 0.3712121212121212 0.3712121212121212 0.007575757575757576 0.1153352221520461 0.8242588801646112 0.04342268563049449 0.00534811097318571 0.0004113931517835161 0.01122370792787877 0.0102691719175205 0.9102461626746947 0.07508393321534117 0.001466910633492446 0.001466910633492446 0.001466910925458643 0.001990019389538396 0.3214033881674067 0.3243731604947586 0.3124330441575283 0.03781036840122953 0.001990019389538396 0.0076931077563921 0.4713695066683816 0.2517195868998243 0.2670197678878615 0.0010990153937703 0.0010990153937703 0.001152435482832094 0.5617712657909143 0.3783018242065054 0.05646960355408411 0.001152435482832094 0.001152435482832094 0.002008032128514056 0.08634538152610442 0.3032128514056225 0.4116465863453815 0.1947791164658635 0.002008032128514056 0.07585296964400053 0.8407097502741703 0.0564018296225668 0.004338597744735027 0.0003337382880565405 0.02236311442647078</probabilities>
		</cpt>
		<cpt id="year1_upcr_count">
			<state id="S_le_0_5" />
			<state id="S_s_0_5" />
			<parents>year1_mean year1_bp_count</parents>
			<probabilities>0.009105800800605563 0.9908941991993945 0.06235942257584472 0.9376405774241553 0.04835910180006932 0.9516408981999307 0.005873792430324046 0.994126207569676 0.02083333333333333 0.9791666666666666 0.1865271985571 0.8134728014428999 0.01814093463354851 0.9818590653664515 0.01039495277465219 0.9896050472253478 0.0397217395478374 0.9602782604521627 0.003740523072445148 0.9962594769275549 0.01351351351351351 0.9864864864864865 0.1433959618037693 0.8566040381962307 0.002898678108896083 0.9971013218911039 0.01135801783413629 0.9886419821658637 0.02463652669317178 0.9753634733068282 0.002959860369309623 0.9970401396306904 0.0660377358490566 0.9339622641509434 0.08461648109588815 0.9153835189041118 0.0008110963784789718 0.999188903621521 0.01111102113042822 0.9888889788695718 0.01901150797119402 0.980988492028806 0.002386748455135362 0.9976132515448646 0.01923076923076923 0.9807692307692308 0.006368787563007811 0.9936312124369923 0.0008721463460001927 0.9991278536539997 0.03571422139243589 0.964285778607564 0.003439890828843585 0.9965601091711564 0.005472658892745973 0.994527341107254 0.01470588235294118 0.9852941176470588 0.02773286827744251 0.9722671317225576 0.001931938198178933 0.9980680618018211 0.01515151124451908 0.9848484887554809 0.004066447842807118 0.9959335521571928 0.002154457343744262 0.9978455426562557 0.02272727272727273 0.9772727272727273 0.0506013757891814 0.9493986242108187 0.03080512330334136 0.9691948766966586 0.00597005816861519 0.9940299418313848 0.03626750799441991 0.9637324920055801 0.03803037093345906 0.9619696290665409 0.04216867469879518 0.9578313253012049 0.2159521405535092 0.7840478594464907</probabilities>
		</cpt>
		<cpt id="year1_ppi_coverage">
			<state id="S_le_363_5" />
			<state id="S_s_363_5" />
			<parents>year1_mean year1_bp_count</parents>
			<probabilities>0.06374462921391533 0.9362553707860848 0.4008820022732875 0.5991179977267125 0.2300749577467551 0.769925042253245 0.06462738997679121 0.9353726100232087 0.5625 0.4375 0.001800698100340085 0.99819930189966 0.05442599722231552 0.9455740027776844 0.1559242916197828 0.8440757083802173 0.2096078464670754 0.7903921535329245 0.0935237173914555 0.9064762826085444 0.6351351351351352 0.3648648648648649 0.001263310447237461 0.9987366895527627 0.02608856333104681 0.9739114366689531 0.2385183745168622 0.7614816254831378 0.1532048440129915 0.8467951559870084 0.1216004315517482 0.8783995684482518 0.5377358490566038 0.4622641509433962 0.001384942004954509 0.9986150579950455 0.04968547562610414 0.9503145243738959 0.4333298240867004 0.5666701759132996 0.1471526496810115 0.8528473503189884 0.1132730975554263 0.8867269024445736 0.5961538461538461 0.4038461538461539 0.005396788754440167 0.9946032112455598 0.03790146892879596 0.9620985310712041 0.321427992531923 0.6785720074680769 0.176201427191485 0.823798572808515 0.1189445292863779 0.881055470713622 0.5147058823529411 0.4852941176470588 0.001207966611012166 0.9987920333889877 0.03753340843002578 0.9624665915699742 0.2878787136458624 0.7121212863541375 0.1730560415276214 0.8269439584723787 0.09531919628630209 0.9046808037136979 0.5681818181818182 0.4318181818181818 0.001378654698105511 0.9986213453018945 0.04840845702141034 0.9515915429785897 0.3641735482855266 0.6358264517144734 0.1784057792202173 0.8215942207797826 0.05188172911515251 0.9481182708848473 0.427710843373494 0.572289156626506 0.001001286269965923 0.998998713730034</probabilities>
		</cpt>
		<cpt id="year1_uacr_mean">
			<state id="S_117_752___1378_19" />
			<state id="S_26_7176___117_752" />
			<state id="S_le_1378_19" />
			<state id="S_s_26_7176" />
			<parents>year1_mean</parents>
			<probabilities>0.333275516949167 0.317129286729706 0.0970503844831221 0.2525448118380049 0.2099315009717987 0.2889868139691567 0.1740628120839912 0.3270188729750534 0.2015022707486818 0.2241556296613983 0.06094153833987315 0.5134005612500468 0.1132939706840551 0.08814091623382787 0.5394579911414582 0.2591071219406589 0.1092737716389291 0.1852768499886667 0.04236894329007299 0.6630804350823313 0.1256911003286973 0.1106903729338602 0.04739334370430277 0.7162251830331399 0.3515399067113437 0.2353259559094556 0.328543235335058 0.08459090204414269</probabilities>
		</cpt>
		<cpt id="year1_dbp_mean">
			<state id="S_58_9312___69_6547" />
			<state id="S_69_6547___75_9703" />
			<state id="S_le_75_9703" />
			<state id="S_s_58_9312" />
			<parents>year1_upcr_count year1_uacr_mean time_zero_uacr_mean</parents>
			<probabilities>0.1310412915843029 0.04685677014980834 0.7845157238101725 0.03758621445571631 0.6154114529452054 0.03788563684442828 0.2738863568982234 0.07281655331214282 0.6064657930716253 0.2889911846899965 0.07498618518123362 0.02955683705714465 0.2421673908956068 0.1264245122520996 0.4471118587579606 0.1842962380943329 0.06923020482047998 0.06349683833085019 0.08098382176658102 0.7862891350820888 0.6950286598309651 0.1221697706494738 0.06074225592931973 0.1220593135902414 0.8962448524063433 0.03166807546414904 0.03801682327370447 0.03407024885580309 0.7956080840895746 0.08536285742058979 0.04431702371009582 0.07471203477973973 0.04707894092202521 0.06448980452832501 0.8466785506152041 0.04175270393444563 0.1257499354689121 0.07028213275589305 0.7102127996724426 0.09375513210275251 0.06647481046543995 0.04672371536850601 0.833147619678638 0.05365385448741587 0.127257308476147 0.1424202972604833 0.6216450418632866 0.1086773524000831 0.3806009146356891 0.06486114599576311 0.5296308373624264 0.02490710200612152 0.04427058039677983 0.2028060369702513 0.2480236785346659 0.504899704098303 0.2414611183302222 0.4345878221668193 0.1626200672843035 0.161330992218655 0.1153033042983712 0.07934295025584913 0.4168238379574174 0.3885299074883622 0.4169848190288326 0.06854949726500367 0.001878935344851893 0.5125867483613117 0.2542207058740304 0.2435335804548912 0.4997709187035406 0.002474794967537785 0.4956321104286024 0.1059776224873653 0.1632464976874525 0.2351437693965798 0.3932620281077635 0.2517894840893925 0.3530574519824477 0.001891035820396391 0.5918424452706001 0.1197176815736275 0.2305865445755547 0.05785332858021772 0.504107516393019 0.3030784545545454 0.1498540188243151 0.04296001022812058 0.4906562225279703 0.3471493621022344 0.07516705712480092 0.08702735824499429 0.3732529457788358 0.4037912165189528 0.2173029641079625 0.005652873594248915 0.4023781303012597 0.3050286917648932 0.08690407127047198 0.2056891066633751 0.2266516353342897 0.2457126017959937 0.4793641986590598 0.04827156421065688 0.06930259833630539 0.2450303667648124 0.6814621116585944 0.004204923240287869 0.06006527457197862 0.189370891511721 0.748721206906991 0.001842627009309472 0.2789708039607557 0.3456715356175711 0.3586570801509278 0.01670058027074544 0.1949957927116447 0.2567660493152516 0.5288244474248582 0.01941371054824551 0.1720306128016656 0.2250455968950279 0.5769467933069445 0.02597699699636187 0.1094540283672543 0.256099709416818 0.624458200356603 0.009988061859324595</probabilities>
		</cpt>
		<cpt id="year1_hba1c_mean">
			<state id="S_5_1875___6_34645" />
			<state id="S_le_6_34645" />
			<state id="S_s_5_1875" />
			<parents>year1_uacr_mean year1_dbp_mean time_zero_uacr_mean</parents>
			<probabilities>0.3974290351394292 0.4034992812944677 0.1990716835661032 0.7241713443233289 0.1799071188034424 0.09592153687322894 0.167738383852651 0.3372298393386289 0.4950317768087202 0.2082112749420763 0.2073100351240484 0.5844786899338752 0.1364581175030762 0.2643806820617929 0.5991612004351309 0.8197095089719798 0.1013550218736346 0.07893546915438543 0.2894336048464007 0.6234872640802318 0.08707913107336746 0.07624413379228488 0.09451931418984336 0.8292365520178717 0.2771982008608232 0.6818779957233146 0.04092380341586225 0.2263342885376314 0.3208190864190794 0.4528466250432893 0.1642008178452075 0.8171309681763068 0.01866821397848558 0.1380608174362312 0.5889305746551413 0.2730086079086275 0.2486246248470347 0.0632884924991917 0.6880868826537736 0.3845754418055562 0.351708944647539 0.2637156135469048 0.8340257484299917 0.1451201726802558 0.0208540788897526 0.5101086597155684 0.2423082048857802 0.2475831353986514 0.4834173821738412 0.3182868765475587 0.1982957412785999 0.5475353084699363 0.2615601627522597 0.190904528777804 0.321256642642963 0.4371887122587708 0.2415546450982662 0.9686648319535689 0.02052310937935941 0.01081205866707174 0.4458579165791185 0.3814689777650079 0.1726731056558737 0.4815995196265757 0.2111898859017457 0.3072105944716786 0.04334280911986124 0.8649292895541253 0.09172790132601329 0.5201721869107363 0.06420619187461274 0.415621621214651 0.5672649652243201 0.4113384629781405 0.02139657179753942 0.5086541118369474 0.2241008361139516 0.2672450520491009 0.0484385866339349 0.9267086547432772 0.02485275862278789 0.1865087310731422 0.7624741726503929 0.0510170962764648 0.1332078393798098 0.7216405786107448 0.1451515820094454 0.5510634270744779 0.0421234311292918 0.4068131417962303 0.03196838742962336 0.1337539495439627 0.834277663026414 0.6338735981557621 0.1958550823966602 0.1702713194475777 0.8335636308431258 0.01144987233880527 0.154986496818069 0.6300315275560154 0.01158581560920657 0.3583826568347779 0.2312736724213677 0.2853865267521072 0.4833398008265251 0.709352361549813 0.2387387705209234 0.05190886792926359 0.279412329221569 0.3668553681805375 0.3537323025978936 0.6467581914463997 0.01536875841873041 0.33787305013487 0.09425923899877338 0.1906026821877222 0.7151380788135044 0.8019007193471425 0.1507661288802207 0.04733315177263667 0.03231846324977837 0.933743352431025 0.03393818431919675 0.3091201239619074 0.3879006422151544 0.3029792338229382 0.2023595302241274 0.3930947632129188 0.4045457065629537 0.4782777865102502 0.2184907817442859 0.3032314317454639 0.6138259855041033 0.01520415420684845 0.3709698602890483 0.4791985582171737 0.02077102364098256 0.5000304181418437 0.5291831475355137 0.2409657435785831 0.2298511088859031 0.3389685996412133 0.3292845784751346 0.3317468218836522 0.3102897058491262 0.6573102788865481 0.03240001526432566 0.3885295740109371 0.02793943865707195 0.5835309873319909 0.6808683947944982 0.05918494103099695 0.2599466641745048 0.6903406926466894 0.2285655435854236 0.08109376376788698 0.1432785286773834 0.7073641389799771 0.1493573323426396 0.6383021505609281 0.3221567521266328 0.03954109731243927 0.7889733560018977 0.08149076876270743 0.1295358752353949 0.8042308813708984 0.1688547894023689 0.02691432922673287 0.2353358031280104 0.7251596161585296 0.03950458071345998 0.52270566047006 0.4756948390782899 0.00159950045165018 0.2462597934476282 0.7254724238990475 0.02826778265332442 0.6488742639030211 0.09631258052591443 0.2548131555710644 0.09964238153493397 0.2095135990986211 0.6908440193664449 0.03158274727471906 0.03351389835837636 0.9349033543669046 0.4743512053980861 0.02844912167826384 0.4971996729236499 0.217843577503466 0.7290353405722027 0.05312108192433131</probabilities>
		</cpt>
		<cpt id="year1_pp_mean">
			<state id="S_57_5___69_5" />
			<state id="S_le_69_5" />
			<state id="S_s_57_5" />
			<parents>year1_uacr_mean year1_hba1c_mean time_zero_uacr_mean</parents>
			<probabilities>0.008868515251530226 0.006822466931826554 0.9843090178166433 0.4063185435524881 0.03479701061879633 0.5588844458287155 0.3601995686627247 0.008012683465415362 0.63178774787186 0.08178278240386455 0.6247236421744635 0.2934935754216719 0.0458731317612792 0.04741331204845469 0.9067135561902661 0.3828879803473563 0.4861663490868569 0.1309456705657867 0.4552121067229049 0.2658460592701996 0.2789418340068955 0.08558412481563779 0.01008480532176731 0.9043310698625949 0.01434316768231607 0.004820679162549658 0.9808361531551343 0.1062474973887754 0.00451321887891091 0.8892392837323138 0.333446620233916 0.4872300816392184 0.1793232981268656 0.06806585332356274 0.01356779069089121 0.9183663559855461 0.07743257218801568 0.01243587301098492 0.9101315548009994 0.2917196521589557 0.008330234745240223 0.6999501130958041 0.3629196962516488 0.5649950948813888 0.07208520886696236 0.04140644324080819 0.003860528281133654 0.9547330284780581 0.3228007040417682 0.04537053330834676 0.6318287626498851 0.3452307580652381 0.06351051234009106 0.5912587295946709 0.01107952073955141 0.9690759128833119 0.01984456637713678 0.411376240723617 0.3395194848973244 0.2491042743790587 0.02448480854874305 0.02681718436979745 0.9486980070814596 0.3993735916855061 0.01376137786345923 0.5868650304510348 0.04591206931062747 0.9445312928364286 0.009556637852943944 0.3479314425301943 0.01536031429947344 0.6367082431703323 0.6540855329234605 0.1230405468401692 0.2228739202363703 0.1436555120892884 0.01060185072571324 0.8457426371849983 0.05828893374561736 0.6561489684846986 0.2855620977696841 0.04720428750109694 0.004378879267021821 0.9484168332318811 0.022371085021019 0.9615238233214066 0.01610509165757433 0.5844769074143983 0.228071900697967 0.1874511918876348 0.3180572077696601 0.6121052231185296 0.06983756911181038 0.1089229232880304 0.01231326566800038 0.8787638110439693 0.7526066277483099 0.04569831482582388 0.2016950574258662 0.1391474530317164 0.009061283419399562 0.851791263548884 0.5211956291722276 0.004512573328689602 0.4742917974990828 0.6778208255217575 0.03207310250941735 0.290106071968825 0.1038189835861156 0.0784251140662305 0.8177559023476538 0.01682911500784687 0.001098339608887505 0.9820725453832656 0.7290311937099723 0.06681469330953067 0.204154112980497 0.1495987553719433 0.01292049788786264 0.837480746740194 0.2369448991514977 0.03052625575858625 0.7325288450899161 0.06704139162813512 0.008236885648380939 0.924721722723484 0.3878811426155993 0.5783679637924244 0.03375089359197643 0.2512800735107703 0.05697910148479182 0.691740825004438 0.03262966172450758 0.02559114085983598 0.9417791974156564 0.002785489576203214 0.002189462827830263 0.9950250475959664 0.7145016910671897 0.2115307230359898 0.07396758589682033 0.1140103572135638 0.004118947964380467 0.8818706948220557</probabilities>
		</cpt>
		<cpt id="year1_hba1c_count">
			<state id="S_0_5___2_5" />
			<state id="S_le_2_5" />
			<state id="S_s_0_5" />
			<parents>year1_uacr_mean year1_hba1c_mean time_zero_uacr_mean</parents>
			<probabilities>0.2981775516791614 0.101286039231765 0.6005364090890736 0.1114572221668883 0.03054343345852996 0.8579993443745817 0.08920564536574413 0.006732574018747239 0.9040617806155087 0.6127795857372228 0.05695591649064346 0.3302644977721338 0.5285677841055737 0.3762353034448637 0.09519691244956258 0.2238207239880797 0.02744551348776963 0.7487337625241507 0.5864852101149874 0.3226828222825402 0.09083196760247236 0.2572524883979795 0.0243951051614213 0.7183524064405993 0.007524985428884795 0.005738149993610484 0.9867368645775046 0.2354585286943901 0.001612334180446057 0.7629291371251639 0.04504108136933939 0.006121975014978174 0.9488369436156825 0.04784826632595734 0.003744804420068967 0.9484069292539736 0.3621304576128498 0.01507805941336508 0.6227914829737852 0.2358213985176194 0.007272239226258972 0.7569063622561216 0.6319398727155718 0.04190065045010902 0.3261594768343192 0.6030863443757121 0.1232107426767145 0.2737029129475734 0.326062124278433 0.5209194280191187 0.1530184477024483 0.3107845881319519 0.1283304930262301 0.5608849188418181 0.1140525089072713 0.04561952484570295 0.8403279662470258 0.4174739864886452 0.02866449325791116 0.5538615202534436 0.3029721949228618 0.336180244120566 0.3608475609565722 0.05968371378716577 0.001814740451961388 0.9385015457608729 0.137539173451336 0.008543659432098033 0.8539171671165661 0.09899247394524151 0.008645360841091984 0.8923621652136665 0.08667322307525741 0.01845256997980915 0.8948742069449336 0.001323306155503358 0.0009204658496851626 0.9977562279948115 0.8493716263813704 0.07441149624724211 0.07621687737138741 0.009577882071042661 0.005346299344125402 0.985075818584832 0.01445347155139817 0.07298819767361663 0.9125583307749852 0.01157382803814338 0.008459712474842816 0.9799664594870138 0.2831280750659179 0.1603244258329112 0.556547499101171 0.007260023386817423 0.007624274813298305 0.9851157017998843 0.0161242799289921 0.008900351040854741 0.9749753690301532 0.002263086166876042 0.0007547242748226947 0.9969821895583012 0.01898385379456762 0.001843977157002474 0.97917216904843 0.02888403921607921 0.00398188355702905 0.9671340772268918 0.4638249447325787 0.2318099268823852 0.3043651283850359 0.2314709149311105 0.002467047501210329 0.7660620375676791 0.1984153374460432 0.02964451978219621 0.7719401427717605 0.6568543605538993 0.05590018512662633 0.2872454543194743 0.6246779070333485 0.231370603957002 0.1439514890096495 0.03044542447276835 0.004029314494845672 0.965525261032386 0.06675362812494023 0.0314087411428005 0.9018376307322592 0.457836428192288 0.3340037856453949 0.208159786162317 0.064201351334466 0.01858281209759764 0.9172158365679364 0.09591347414703248 0.009743495873262962 0.8943430299797046 0.08847345257663147 0.02364239852971482 0.8878841488936537 0.002979515402840598 0.003174288029120733 0.9938461965680385</probabilities>
		</cpt>
		<cpt id="year1_sbp_mean">
			<state id="S_104_5___144_5" />
			<state id="S_le_144_5" />
			<state id="S_s_104_5" />
			<parents>year1_uacr_mean year1_hba1c_mean time_zero_uacr_mean</parents>
			<probabilities>0.01487025342363151 0.006974379196580741 0.9781553673797877 0.972063444961933 0.02531756360886784 0.002618991429199069 0.7764477111710972 0.005644871992422627 0.2179074168364801 0.5419050921193292 0.4425579550055608 0.01553695287511006 0.1904075553546325 0.04544762527365075 0.7641448193717167 0.1694782309525784 0.8261788260288901 0.004342943018531361 0.6868841853347025 0.2602021816650755 0.05291363300022193 0.975010569886387 0.01560574477497575 0.00938368533863731 0.01018860060135123 0.004818757196060228 0.9849926422025885 0.8484747699376033 0.1475007965045281 0.004024433557868633 0.9806233218781791 0.01274064266459121 0.006636035457229694 0.9701730546941876 0.004832642237536061 0.0249943030682764 0.9060971960820318 0.007256178605214141 0.08664662531275399 0.9934801864621908 0.003224967871091309 0.003294845666717944 0.8214338476362445 0.171372965092475 0.007193187271280544 0.5099307160709757 0.003135570776681556 0.4869337131523429 0.9140607228344905 0.04037748994381046 0.04556178722169906 0.979659937966762 0.00425566831193645 0.01608439372130166 0.1117768069834345 0.885834816856374 0.002388376160191635 0.2242706039032708 0.7657179543832344 0.0100114417134949 0.234846556629337 0.02414214760068463 0.7410112957699785 0.9901585137182812 0.0048592553898028 0.004982230891915995 0.7587626994775221 0.2350624242083022 0.006174876314175549 0.970378787373873 0.01117346123955857 0.01844775138656853 0.9692378817926108 0.006278683339794956 0.02448343486759417 0.9647590226869187 0.003702609211549805 0.03153836810153147 0.2673175769373635 0.727441920376063 0.005240502686573376 0.9826167358239016 0.009178460807042833 0.008204803369055465 0.03543656937993412 0.949240464036698 0.0153229665833678 0.05284868545789344 0.9417412954900222 0.005410019052084445 0.1397868717097096 0.8564892736104688 0.003723854679821593 0.9348018737306962 0.05135895251677487 0.01383917375252891 0.9693070175230956 0.014429581968064 0.01626340050884052 0.9768404818511567 0.006584295212064239 0.01657522293677911 0.9843820511891301 0.0122868903785067 0.003331058432363223 0.3383941139712223 0.6522487612801926 0.009357124748585133 0.8590700582130637 0.1041069115987637 0.03682303018817259 0.9657303933638351 0.01901715396789886 0.01525245266826598 0.9541496432591283 0.04415064025361468 0.001699716487256951 0.9399382041008277 0.05916838917021603 0.0008934067289563978 0.9580485236356536 0.02610341349508103 0.01584806286926527 0.969211991961261 0.02917396424949002 0.001614043789249099 0.003324899148704286 0.9949090822183093 0.001766018632986513 0.8935141568295881 0.08761630740046573 0.01886953576994624 0.7974700288399287 0.01662843939813157 0.1859015317619398 0.258797023780872 0.00211861598776325 0.7390843602313648 0.9133691327432601 0.0789988857593477 0.007631981497392156 0.8489631936370765 0.1478523802212917 0.003184426141631705</probabilities>
		</cpt>
		<cpt id="year1_uacr_count">
			<state id="S_le_1_5" />
			<state id="S_s_1_5" />
			<parents>year1_uacr_mean year1_hba1c_mean time_zero_uacr_mean</parents>
			<probabilities>0.05680683922698963 0.9431931607730104 0.01334531138790289 0.9866546886120972 0.01929007600398149 0.9807099239960185 0.1163158192247889 0.8836841807752113 0.1083605806276317 0.8916394193723683 0.03896473170085309 0.9610352682991469 0.08901099403915563 0.9109890059608443 0.03990407225019886 0.960095927749801 0.006628138214866917 0.993371861785133 0.004130247172856739 0.9958697528271433 0.03749235405361243 0.9625076459463876 0.005659679995516247 0.9943403200044837 0.02402520706977267 0.9759747929302273 0.002410102056806107 0.997589897943194 0.08661962250734004 0.9133803774926601 0.01428402466505023 0.9857159753349497 0.3485001157342385 0.6514998842657616 0.07172645180194885 0.9282735481980511 0.01890493159195959 0.9810950684080404 0.009482583541886601 0.9905174164581133 0.02217099959200793 0.9778290004079921 0.009785485924194048 0.9902145140758061 0.009029923582621847 0.9909700764173781 0.01202176728304178 0.9879782327169583 0.01201647288850945 0.9879835271114905 0.0007785577465437994 0.9992214422534563 0.1985296886768477 0.8014703113231523 0.002337681418146133 0.9976623185818539 0.009602272571318579 0.9903977274286814 0.005668918478444531 0.9943310815215555 0.1709367165509297 0.8290632834490702 0.005835744479238869 0.9941642555207612 0.009082572556094638 0.9909174274439053 0.001100587065964976 0.9988994129340349 0.04489397484103077 0.9551060251589691 0.005048692814803804 0.9949513071851963 0.1178166421399552 0.8821833578600448 0.004447496473289731 0.9955525035267103 0.002152673950234924 0.9978473260497651 0.001428173866300722 0.9985718261336993 0.03874382901711827 0.9612561709828817 0.006235462422358428 0.9937645375776416 0.005945477014260596 0.9940545229857395 0.1501760950733878 0.8498239049266121 0.2082298325834374 0.7917701674165626 0.001683714677881014 0.9983162853221188 0.008882793671371073 0.9911172063286288 0.01079907433042053 0.9892009256695794</probabilities>
		</cpt>
		<cpt id="year1_map_mean">
			<state id="S_73_6599___80_9885" />
			<state id="S_le_80_9885" />
			<state id="S_s_73_6599" />
			<parents>year1_uacr_mean year1_dbp_mean time_zero_uacr_mean</parents>
			<probabilities>0.6857528502298771 0.02337921296933813 0.2908679368007848 0.04596805550888257 0.9500605716373552 0.003971372853762254 0.09259500442086001 0.8953791503369883 0.01202584524215177 0.1820927389943647 0.8119537700967926 0.005953490908842681 0.6387295992548305 0.3294222303956708 0.03184817034949876 0.003971363441372156 0.9922223391201218 0.003806297438506096 0.01332589235866001 0.973386763305351 0.01328734433598894 0.008763709426760285 0.982836188560777 0.008400102012462796 0.2958317268114111 0.4083365463771779 0.2958317268114111 0.001844819456156538 0.9963103610876869 0.001844819456156538 0.009151596320776211 0.9816968073584478 0.009151596320776211 0.005791096377729777 0.9884178072445405 0.005791096377729777 0.004739916639800596 0.004454482677534318 0.9908056006826652 0.4543404761930988 0.2174932188400357 0.3281663049668655 0.3380682451481972 0.03329535862340961 0.6286363962283933 0.3316494815773157 0.314369595896964 0.3539809225257204 0.5673699620454595 0.4257554494205498 0.006874588533990526 0.08578238226994989 0.9120614182531221 0.002156199476927975 0.01115694291105005 0.9861248528104768 0.002718204278473175 0.7069958734056391 0.1379356050100464 0.1550685215843145 0.03020116725210751 0.9441234097455522 0.02567542300234028 0.00306161705221389 0.9940676447031029 0.002870738244683269 0.004155130804040879 0.9916897518389899 0.004155117356969274 0.02964535899128282 0.9657877037992025 0.004566937209514631 0.01335690352337834 0.9732861929532434 0.01335690352337834 0.005763333971184046 0.988473332057632 0.005763333971184046 0.01852004423559054 0.962959911528819 0.01852004423559054 0.008546566348678437 0.9829068673026433 0.008546566348678437 0.3617545228116575 0.04168120352683756 0.596564273661505 0.860582690410387 0.02259379501803591 0.116823514571577 0.03393321665485653 0.9496521874774917 0.01641459586765177 0.2244966607037232 0.1952833552920374 0.5802199840042395 0.05971231858263611 0.9320296845925182 0.008257996824845678 0.2295385888006979 0.7647312851700374 0.005730126029264731 0.02528298683176188 0.9571999629848259 0.01751705018341226 0.4127341589867998 0.5505009796512923 0.03676486136190801 0.01076786440645345 0.9785850171049723 0.01064711848857408 0.03107456902475202 0.9647047084741647 0.004220722501083295 0.005796994444111607 0.9884070136608851 0.005795991895003283 0.01192058374749237 0.9765663644148556 0.01151305183765223 0.03238146500165317 0.9352370699966934 0.03238146500165317 0.002089411383537155 0.9958211772329258 0.002089411383537155 0.001801111663996867 0.9963977766720064 0.001801111663996867 0.002915098013632636 0.9941698039727348 0.002915098013632636 0.8772102919947564 0.01606082743557662 0.106728880569667 0.454378773763799 0.02158342551038164 0.5240378007258194 0.1993615231635359 0.6235832703879535 0.1770552064485105 0.3369808610371349 0.3238858866510948 0.3391332523117702 0.3250471814218526 0.6694708990824423 0.005481919495704961 0.8277255554381299 0.1168128935806748 0.05546155098119526 0.01440162248390212 0.9811174803145817 0.00448089720151625 0.1126518170112618 0.8695456040450809 0.01780257894365747 0.004884805872639109 0.9907208727779997 0.004394321349361101 0.002501538895090969 0.9963545084864532 0.001143952618455831 0.003362876141783284 0.9932744465887419 0.00336267726947508 0.001952332742120318 0.996108331175198 0.001939336082681481 0.004196680110175103 0.9916066397796498 0.004196680110175103 0.0005601331937612501 0.9988797336124774 0.0005601331937612501 0.001349428190913134 0.9973011436181736 0.001349428190913134 0.0008050509094271952 0.9983898981811458 0.0008050509094271952 0.2369656112631463 0.07444711086205277 0.6885872778748009 0.05287337818566336 0.01353564902548761 0.9335909727888491 0.8845770158096761 0.03017607228240188 0.08524691190792202 0.6562419149450321 0.04667223799271727 0.2970858470622506</probabilities>
		</cpt>
		<cpt id="year1_upcr_mean">
			<state id="S_le_0_75285" />
			<state id="S_s_0_75285" />
			<parents>year1_hba1c_mean year1_pp_mean time_zero_uacr_mean time_zero_sbp_mean</parents>
			<probabilities>0.1503872413733863 0.8496127586266138 0.5344101221845753 0.4655898778154247 0.4984435002280046 0.5015564997719955 0.1421613422482978 0.8578386577517022 0.3944276839209615 0.6055723160790386 0.6674219677129122 0.3325780322870879 0.4994641004211109 0.500535899578889 0.6322322653676788 0.3677677346323211 0.3945611279730297 0.6054388720269703 0.7230730423650585 0.2769269576349413 0.5116992933352326 0.4883007066647675 0.4958855560528673 0.5041144439471327 0.4404074332820562 0.5595925667179437 0.4285206573404357 0.5714793426595643 0.499934166924725 0.5000658330752751 0.4979807275195092 0.5020192724804908 0.1762429883357633 0.8237570116642366 0.6180195868385833 0.3819804131614168 0.4995058021645151 0.5004941978354848 0.4600372463287505 0.5399627536712495 0.4813578397207727 0.5186421602792273 0.4991072224014994 0.5008927775985006 0.741917374388121 0.2580826256118791 0.5034263108536901 0.4965736891463101 0.4746811704368041 0.525318829563196 0.8914493727256809 0.108550627274319 0.9509556094360351 0.04904439056396498 0.4995542859799267 0.5004457140200733 0.7957570937834901 0.2042429062165098 0.4691436649660528 0.5308563350339471 0.4993878329222001 0.5006121670777998 0.4868699446180133 0.5131300553819869 0.301856141764393 0.698143858235607 0.725336650485491 0.2746633495145089 0.5036899623810278 0.4963100376189722 0.6734149625693686 0.3265850374306314 0.2918082949717724 0.7081917050282276 0.3897858330178485 0.6102141669821516 0.5456578567624784 0.4543421432375216 0.4305853278607519 0.5694146721392479 0.7322929492128217 0.2677070507871783 0.6364308849893469 0.3635691150106533 0.7789600819242543 0.2210399180757458 0.3469673230040492 0.6530326769959507 0.3430831824070048 0.6569168175929951 0.3749010826619388 0.6250989173380611 0.4997437838224857 0.5002562161775144 0.7033479304473229 0.296652069552677 0.6237382956484674 0.3762617043515325 0.7432866371479833 0.2567133628520168 0.4975776998913224 0.5024223001086776 0.3343757723613845 0.6656242276386154 0.7353669428274848 0.2646330571725152 0.843218910777082 0.156781089222918 0.8270242946255918 0.1729757053744082 0.4866862000769143 0.5133137999230858 0.9542794879751249 0.04572051202487523 0.8420121715351422 0.1579878284648578 0.4399815756520721 0.5600184243479279 0.5021622525843336 0.4978377474156664 0.4204088975412589 0.579591102458741 0.7970903307177374 0.2029096692822625 0.4983875015979441 0.5016124984020557 0.5238000502936412 0.4761999497063589 0.8355808022860588 0.1644191977139412 0.8348283062513553 0.1651716937486446 0.5027821518333127 0.4972178481666874 0.7947376271388309 0.2052623728611693 0.6355247425367915 0.3644752574632084 0.6490795783322224 0.3509204216677776 0.3286931392410636 0.6713068607589364 0.3493903471653727 0.6506096528346271 0.8108347022439294 0.1891652977560705 0.6663874089779933 0.3336125910220067 0.8003357901011059 0.1996642098988941 0.4788163706882616 0.5211836293117384 0.3784730553429182 0.6215269446570819 0.7110436719514855 0.2889563280485145 0.517978846485442 0.4820211535145581 0.5030200082851628 0.4969799917148373 0.6206902872574229 0.379309712742577 0.8446086186979543 0.1553913813020457 0.4962838831318995 0.5037161168681006 0.1667993468273357 0.8332006531726643 0.5138573482630171 0.4861426517369829 0.6414805368931072 0.3585194631068928 0.7524065225893708 0.2475934774106291 0.5151181613616136 0.4848818386383865 0.7766195209331147 0.2233804790668853 0.7611307657417462 0.2388692342582537 0.2086649870026641 0.791335012997336 0.7420907724605879 0.2579092275394122 0.5767843084158844 0.4232156915841156 0.7727886337830416 0.2272113662169583 0.5555078882597434 0.4444921117402567 0.4441339422414089 0.5558660577585912 0.1471809518396219 0.8528190481603781 0.5960053145308083 0.4039946854691917 0.499226052450819 0.500773947549181 0.31966166376213 0.68033833623787 0.4109436377959287 0.5890563622040713 0.4276178498073189 0.572382150192681 0.4983817647712705 0.5016182352287295 0.5384900498036355 0.4615099501963647 0.4289354132466275 0.5710645867533725 0.6890273053041807 0.3109726946958192 0.2653114465786689 0.7346885534213311 0.5060261015715881 0.4939738984284118 0.1849068232007567 0.8150931767992434 0.7444212438038721 0.2555787561961279 0.498940306557427 0.5010596934425731 0.4705466177688565 0.5294533822311434 0.4151279435670918 0.5848720564329082 0.564736063768514 0.4352639362314858 0.4999977694365408 0.5000022305634592 0.5021528138592177 0.4978471861407823 0.4744945671221407 0.5255054328778592 0.496594719941549 0.5034052800584512 0.4996680928959756 0.5003319071040244 0.4991956167931714 0.5008043832068287 0.5062489722872997 0.4937510277127003 0.6617120461485193 0.3382879538514808 0.788699589264811 0.2113004107351889 0.5017517570867108 0.4982482429132891 0.4724684455351685 0.5275315544648315 0.4604907450987357 0.5395092549012644 0.5051197320409673 0.4948802679590327 0.4976092262525673 0.5023907737474326 0.5036274564530578 0.4963725435469423 0.4592317112148103 0.5407682887851897 0.5014430148196524 0.4985569851803476 0.4786236464994136 0.5213763535005864 0.3683100637418795 0.6316899362581205 0.4184785720400507 0.5815214279599494 0.5398685784502935 0.4601314215497066 0.4261004361830963 0.5738995638169038 0.7544061595437207 0.2455938404562792 0.6655145739072714 0.3344854260927286 0.1782840892602941 0.8217159107397058 0.5017267233395248 0.4982732766604752 0.2429944342953078 0.7570055657046921 0.294962411683226 0.705037588316774 0.4975055915595586 0.5024944084404416 0.4254872070352377 0.5745127929647624</probabilities>
		</cpt>
		<cpt id="year1_glp1_coverage">
			<state id="S_le_159" />
			<state id="S_s_159" />
			<parents>year1_upcr_count year1_upcr_mean time_zero_dbp_mean time_zero_upcr_mean</parents>
			<probabilities>0.01231532983193119 0.9876846701680688 0.1196623212153358 0.8803376787846642 0.005319712430882618 0.9946802875691173 0.06174269894141117 0.9382573010585887 0.01494673021487128 0.9850532697851287 0.2253744383295525 0.7746255616704475 0.01182036490471958 0.9881796350952804 0.3874679326297484 0.6125320673702517 0.006866864803130595 0.9931331351968694 0.0433602373930245 0.9566397626069756 0.02188534558773138 0.9781146544122686 0.1068020220815385 0.8931979779184616 0.0005825055207952146 0.9994174944792047 0.07698107726502613 0.923018922734974 0.00035581020211356 0.9996441897978865 0.08436940505067358 0.9156305949493264 0.006108001248641149 0.9938919987513589 0.03740902048006062 0.9625909795199393 0.0003812384106012123 0.9996187615893989 0.009113696854326264 0.9908863031456737 0.0002885935195079003 0.9997114064804919 0.004505581316758702 0.9954944186832414 0.001738402481278852 0.9982615975187212 0.00800612737924501 0.9919938726207549</probabilities>
		</cpt>
		<cpt id="year1_nsaid_coverage">
			<state id="S_le_27_5" />
			<state id="S_s_27_5" />
			<parents>year1_uacr_mean year1_upcr_mean time_zero_upcr_mean</parents>
			<probabilities>0.01261211994698405 0.9873878800530159 0.1003729465557752 0.8996270534442249 0.06811223738918544 0.9318877626108146 0.1054643315927127 0.8945356684072872 0.05332483098659185 0.9466751690134081 0.02311045067645931 0.9768895493235408 0.04648095026439314 0.9535190497356067 0.2776182758511105 0.7223817241488895 0.02312514137596786 0.9768748586240321 0.09246626572917485 0.9075337342708252 0.00366947298249416 0.9963305270175059 0.07064064713621387 0.9293593528637862 0.0659169618576947 0.9340830381423052 0.1647646744691603 0.8352353255308396 0.1376944898571615 0.8623055101428385 0.2042648609890625 0.7957351390109375</probabilities>
		</cpt>
		<cpt id="year1_aceiarb_coverage">
			<state id="S_le_364_5" />
			<state id="S_s_364_5" />
			<parents>year1_uacr_mean year1_upcr_mean time_zero_upcr_mean</parents>
			<probabilities>0.01012092610452875 0.9898790738954713 0.6016037910444864 0.3983962089555137 0.001245915430509469 0.9987540845694906 0.02353869107104734 0.9764613089289527 0.01156358832217598 0.988436411677824 0.5912789667050539 0.4087210332949461 0.001122051632455508 0.9988779483675445 0.2591966098428879 0.7408033901571121 0.004904583902584427 0.9950954160974157 0.8619559744024778 0.138044025597522 0.001038942889141724 0.9989610571108584 0.03770135221897754 0.9622986477810226 0.0008400272713713716 0.9991599727286287 0.6523315588952706 0.3476684411047296 0.0004307475290284311 0.9995692524709717 0.5053619318170707 0.4946380681829295</probabilities>
		</cpt>
		<cpt id="year1_mra_coverage">
			<state id="S_le_143_5" />
			<state id="S_s_143_5" />
			<parents>year1_upcr_count year1_upcr_mean time_zero_dbp_mean time_zero_upcr_mean</parents>
			<probabilities>0.01231532983193119 0.9876846701680688 0.1196623212153358 0.8803376787846642 0.005319712430882618 0.9946802875691173 0.06174269894141117 0.9382573010585887 0.01494673021487128 0.9850532697851287 0.2253744383295525 0.7746255616704475 0.01182036490471958 0.9881796350952804 0.3874679326297484 0.6125320673702517 0.006866864803130595 0.9931331351968694 0.0433602373930245 0.9566397626069756 0.02188534558773138 0.9781146544122686 0.1068020220815385 0.8931979779184616 0.0004820053385329274 0.9995179946614671 0.004257288450141906 0.9957427115498581 0.0002576400872564022 0.9997423599127436 0.001458455755187451 0.9985415442448126 0.001153289175426718 0.9988467108245731 0.007706081468383782 0.9922939185316163 0.0003796503758086472 0.9996203496241914 0.02828429651550547 0.9717157034844944 0.0002064383012817588 0.9997935616987182 0.003035180191196634 0.9969648198088035 0.00094453603112746 0.9990554639688725 0.01309165154470282 0.9869083484552973</probabilities>
		</cpt>
		<cpt id="year1_sglt2_coverage">
			<state id="S_le_55_5" />
			<state id="S_s_55_5" />
			<parents>year1_upcr_count year1_upcr_mean time_zero_dbp_mean time_zero_upcr_mean</parents>
			<probabilities>0.01231532983193119 0.9876846701680688 0.1196623212153358 0.8803376787846642 0.005319712430882618 0.9946802875691173 0.06174269894141117 0.9382573010585887 0.01494673021487128 0.9850532697851287 0.2253744383295525 0.7746255616704475 0.01182036490471958 0.9881796350952804 0.3874679326297484 0.6125320673702517 0.006866864803130595 0.9931331351968694 0.0433602373930245 0.9566397626069756 0.02188534558773138 0.9781146544122686 0.1068020220815385 0.8931979779184616 0.0007756844753918589 0.9992243155246082 0.03148905044843946 0.9685109495515605 0.0004980108702704757 0.9995019891297297 0.06570980158347653 0.9342901984165234 0.00174905563897077 0.9982509443610291 0.04589588132244936 0.9541041186775507 0.0005025308589095876 0.9994974691410904 0.02393211422315464 0.9760678857768452 0.000303967659186655 0.9996960323408133 0.002022969873104795 0.9979770301268951 0.001272862134342726 0.9987271378656574 0.01475475654670547 0.9852452434532946</probabilities>
		</cpt>
		<cpt id="year2_mean">
			<state id="S_23_64___33_405" />
			<state id="S_33_405___42_375" />
			<state id="S_42_375___54_645" />
			<state id="S_54_645___64_975" />
			<state id="S_64_975___75_785" />
			<state id="S_75_785___84_745" />
			<state id="S_le_84_745" />
			<state id="S_s_23_64" />
			<parents>year1_mean year2_reduction_40_ge</parents>
			<probabilities>0.1383349224955579 0.1225861788566308 0.06490529256602244 0.02888798168525331 0.0003329830950856281 0.60520998201808 0.008229375562386457 0.03151328372098341 0.3535871601034614 0.1985669584459244 0.06852081587786645 0.0007059607151229611 0.0007053251106557322 0.0007040480207701925 0.0007042698509751788 0.3765054618752236 0.01879438084630321 0.1193817071639716 0.165606427373591 0.07246952343947306 0.03069967061177076 0.5812678977575807 0.009932788731395215 0.001847604075914545 0.2671521086643934 0.2418718240091337 0.2665453365672457 0.02910894418631348 0.00051163832822039 0.0005098568017807411 0.0005099624227538417 0.1937903290201588 0.003657763437495978 0.01642347691364762 0.1242437756341247 0.203671067886473 0.1302525651750473 0.4797488943566507 0.04181550945556398 0.0001869471409968943 0.2189557814365191 0.2193494876614503 0.2862857514730534 0.1432066065763866 0.0202567817923961 0.000557026397219133 0.0005570829035209553 0.1108314817594543 0.01375722006774466 0.01334650519890435 0.0389015400216421 0.0620494589022064 0.1560761827206176 0.5511143393487807 0.1582570332811968 0.006497720458907343 0.1358414256737209 0.2367065010443676 0.3077027892685378 0.03335004680711576 0.02493230080904534 0.0002775909942031545 0.0002788397017305851 0.2609105057012789 0.000106103443200248 0.0001094965523365646 0.01097273682343157 0.02212436129503777 0.1101008191193185 0.5097373722491836 0.3467488468193589 0.0001002636981327666 0.1064728294646334 0.1543390204428579 0.4146724100815877 0.1715015762744282 0.03326386422064269 0.000650065004568982 0.0006518872023428911 0.1184483473089384 0.0001762810954115075 0.0001633427423841229 0.0001698416605404566 0.006473437302132902 0.02027692505978438 0.3904407951938795 0.5821956488026974 0.00010372814316978 0.06346117485089781 0.1058116117706989 0.2337948423334994 0.3294290295192225 0.1834095555442359 0.04979544760383837 0.01103162298770174 0.02326671538990556 0.06640461245074057 0.01900285317127281 0.02090633028253515 0.003413163897740215 0.008573751085984084 0.7418795598601134 0.00356700404859502 0.1362527252030186 0.09453155436352406 0.02420333566380012 0.0003002384729915425 0.0002955161996063145 0.0002986677631238095 0.0002855664768038998 0.0002906826089456291 0.8797944384512046</probabilities>
		</cpt>
		<cpt id="year3_reduction_40_ge">
			<state id="S_0" />
			<state id="S_1" />
			<parents>year2_mean year2_reduction_40_ge year1_scr_count</parents>
			<probabilities>0.6003549983569191 0.399645001643081 0.5754709386559975 0.4245290613440024 0.4080441919203411 0.5919558080796588 0.6636655854744626 0.3363344145255373 0.2015755004703143 0.7984244995296856 0.6712470936157023 0.3287529063842977 0.5203217840033301 0.47967821599667 0.4560667428329349 0.543933257167065 0.5582020589764898 0.4417979410235103 0.8629544852229142 0.1370455147770858 0.4060811528706115 0.5939188471293886 0.3268841462600947 0.6731158537399055 0.5201836016600806 0.4798163983399195 0.9284970378921399 0.07150296210786024 0.4688887810425353 0.5311112189574646 0.772912647299532 0.227087352700468 0.7824255696215412 0.2175744303784587 0.66480759336039 0.3351924066396101 0.5536595869756693 0.4463404130243307 0.7364706264616033 0.2635293735383967 0.6906698468601328 0.3093301531398672 0.6875249556604359 0.312475044339564 0.5663869927008228 0.433613007299177 0.3667058714763107 0.6332941285236893 0.849347256032482 0.1506527439675182 0.7434475625976193 0.2565524374023807 0.6389150985026735 0.3610849014973266 0.5891116149331718 0.4108883850668281 0.5955890009190721 0.404410999080928 0.7685002784379624 0.2314997215620375 0.7592104074243571 0.240789592575643 0.7279118890871923 0.2720881109128077 0.6708499443600043 0.3291500556399957 0.6028515898518545 0.3971484101481454 0.7452788138629813 0.2547211861370186 0.5243745455571011 0.4756254544428989 0.700027853052687 0.2999721469473129 0.7500094380888138 0.2499905619111862 0.4090913890238252 0.5909086109761749 0.821300631541062 0.178699368458938 0.8771928392097026 0.1228071607902974 0.7445555294684769 0.2554444705315231 0.6700383339536284 0.3299616660463716 0.4181975602830748 0.5818024397169252 0.9165183911374993 0.08348160886250071 0.9166804652986803 0.08331953470131967 0.8334445073942663 0.1665554926057336 0.5416752060633121 0.458324793936688 0.7500046285876112 0.2499953714123888 0.5250266303552545 0.4749733696447456 0.9363031741369011 0.06369682586309883 0.8951502433139422 0.1048497566860578 0.9259256871424034 0.07407431285759665 0.9647634364914925 0.03523656350850748 0.8253296411614172 0.1746703588385828 0.5000023198674334 0.4999976801325667 0.500069401484545 0.4999305985154549 0.1250017045852925 0.8749982954147074 0.1666668015994735 0.8333331984005266 0.5003097670743366 0.4996902329256633 0.9656105508747416 0.03438944912525842 0.8807147005860204 0.1192852994139796 0.8279744994725766 0.1720255005274235 0.7881466460913269 0.2118533539086732 0.9476624040507046 0.05233759594929548 0.749612318792094 0.2503876812079061 0.5001393672027099 0.4998606327972901 0.5001276553683286 0.4998723446316714 0.5000346019365783 0.4999653980634217 0.4943977081264086 0.5056022918735913 0.5441499105927075 0.4558500894072925 0.4311753001669815 0.5688246998330186 0.4073943854658392 0.5926056145341608 0.4723652732660444 0.5276347267339556 0.5834058823873403 0.4165941176126598 0.6084143739435666 0.3915856260564333 0.4582450476768141 0.541754952323186 0.5606565314037234 0.4393434685962767 0.5320978123388815 0.4679021876611185 0.6597954777889727 0.3402045222110273</probabilities>
		</cpt>
		<cpt id="year2_scr_count">
			<state id="S_0_5___1_5" />
			<state id="S_1_5___3_5" />
			<state id="S_3_5___4_5" />
			<state id="S_4_5___8_5" />
			<state id="S_8_5___28_5" />
			<state id="S_le_28_5" />
			<state id="S_s_0_5" />
			<parents>year2_mean year3_reduction_40_ge year1_scr_count</parents>
