<?xml version="1.0" encoding="UTF-8"?>
<!-- This file was created by ACADEMIC version of SMILE -->
<smile version="1.0" id="Unnamed" numsamples="10000" discsamples="10000">
	<nodes>
		<cpt id="time_zero_norace_mean">
			<state id="S_109_555___120_405" />
			<state id="S_10_845___21_515" />
			<state id="S_21_515___23_725" />
			<state id="S_23_725___29_305" />
			<state id="S_29_305___34_755" />
			<state id="S_34_755___39_175" />
			<state id="S_39_175___50_185" />
			<state id="S_50_185___57_535" />
			<state id="S_57_535___71_065" />
			<state id="S_71_065___82_415" />
			<state id="S_82_415___90_225" />
			<state id="S_8_925___10_845" />
			<state id="S_90_225___95_105" />
			<state id="S_95_105___109_555" />
			<state id="S_le_120_405" />
			<state id="S_s_8_925" />
			<probabilities>0.06211226007474551 0.03236199717370921 0.007595240831900699 0.02143864987236943 0.02538896892469569 0.02494152064122369 0.07556198135061092 0.06454745760093547 0.1442805510584669 0.1496169445096382 0.114184811286164 0.004558834202523229 0.07056841771137577 0.158629577212561 0.03895648842061425 0.005256299128466159</probabilities>
		</cpt>
		<cpt id="year1_reduction_40_ge">
			<state id="S_0" />
			<state id="S_1" />
			<parents>time_zero_norace_mean</parents>
			<probabilities>0.9312437785370857 0.0687562214629143 0.6626063428107629 0.3373936571892371 0.6895489092172402 0.3104510907827598 0.7275876815374223 0.2724123184625779 0.7719711196468363 0.2280288803531638 0.8061597609919402 0.1938402390080598 0.8135267045239899 0.1864732954760101 0.8500164726022947 0.1499835273977054 0.8713670433253606 0.1286329566746394 0.8839543971306482 0.1160456028693518 0.8941756056824894 0.1058243943175106 0.633917207986972 0.366082792013028 0.9098791399778824 0.09012086002211765 0.9139261253828188 0.08607387461718126 0.9436865921495465 0.05631340785045338 0.7739555387388368 0.2260444612611631</probabilities>
		</cpt>
		<cpt id="time_zero_scr_count">
			<state id="S_1_5___2_5" />
			<state id="S_2_5___4_5" />
			<state id="S_4_5___10_5" />
			<state id="S_le_10_5" />
			<state id="S_s_1_5" />
			<parents>time_zero_norace_mean</parents>
			<probabilities>0.1329749357203488 0.07546252448469352 0.06730340990657246 0.03486568215151319 0.6893934477368722 0.1497902604608954 0.1676454741877518 0.1838823911217669 0.1590615080730006 0.3396203661565853 0.1860582241307621 0.1600983458804758 0.1731156536471127 0.137579976191149 0.3431478001505004 0.1525654574004955 0.1648027728723344 0.1879878451648378 0.1036772888067231 0.3909666357556092 0.1541872331663302 0.1801065630088194 0.1689381493702413 0.1153053025752378 0.3814627518793712 0.1668777299351743 0.1674353428998424 0.1481484052911969 0.09053126366863164 0.4270072582051548 0.1576636776506833 0.1495062420711186 0.1428473019127276 0.07723254235111668 0.472750236014354 0.1630954631312532 0.133389280294785 0.1294111797693704 0.06871611061957475 0.5053879661850167 0.1532646848314184 0.1296131484521161 0.1173693368971966 0.0588120513777446 0.5409407784415242 0.1459307369981291 0.1160208028797633 0.1106502403315594 0.05471369864696179 0.5726845211435864 0.1486629430779386 0.1066579732172702 0.1048175599792909 0.04538268952176332 0.5944788342037369 0.1036055485907213 0.1337937906565628 0.2619183582081338 0.1726551891372482 0.3280271134073338 0.1492729955190064 0.09724989669870548 0.09392184069015772 0.04207390191049498 0.6174813651816354 0.1420043018293858 0.09142763816001429 0.08262154606537994 0.03804549971753053 0.6459010142276893 0.1399744548922053 0.08953017832605224 0.05494917970033208 0.03813464816546458 0.6774115389159456 0.1252715909819521 0.1756924976029065 0.2065159239254291 0.1457774594008121 0.3467425280889002</probabilities>
		</cpt>
		<cpt id="study_entry_period_egfrckd_norace_flag">
			<state id="S_0" />
			<state id="S_1" />
			<parents>time_zero_norace_mean</parents>
			<probabilities>0.9998981334416519 0.0001018665583481647 0.0001909415521075372 0.9998090584478924 0.0008126199947992218 0.9991873800052008 0.000288176868667731 0.9997118231313323 0.0002433593287382302 0.9997566406712617 0.0002477231419082701 0.9997522768580918 8.179397768700391e-05 0.999918206022313 9.574898074078678e-05 0.9999042510192593 0.8390197298646228 0.1609802701353773 0.9999584160609541 4.158393904578669e-05 0.9999454010752942 5.459892470590662e-05 0.001352492115799586 0.9986475078842005 0.9999115251412635 8.847485873658761e-05 0.9999604027687652 3.959723123490606e-05 0.9998378879763906 0.0001621120236094092 0.001173423090838266 0.9988265769091617</probabilities>
		</cpt>
		<cpt id="study_entry_age">
			<state id="S_38_5___44_5" />
			<state id="S_44_5___48_5" />
			<state id="S_48_5___56_5" />
			<state id="S_56_5___65_5" />
			<state id="S_65_5___70_5" />
			<state id="S_70_5___76_5" />
			<state id="S_le_76_5" />
			<state id="S_s_38_5" />
			<parents>time_zero_norace_mean</parents>
			<probabilities>0.2008210321149159 0.09674143571764476 0.09435313942961959 0.03027357173501339 0.002412930759962955 2.487556583334843e-05 2.487556486873092e-05 0.5753481391121413 0.04422585339942758 0.03369097892743108 0.1065922308223691 0.1956557369621814 0.136827586286235 0.1451484166106096 0.2750878525153261 0.06277134447642027 0.01670622636233794 0.00350076501266017 0.1115334571375987 0.1829927959169096 0.1372188301094204 0.187498281697617 0.3302348743212761 0.03031476944218018 0.02119622992643192 0.0170805449240293 0.07270379140160339 0.16272704663737 0.1041677007373206 0.1449616901005059 0.4463523377122273 0.03081065856051161 0.02135491166156554 0.0174118069916174 0.069266728152451 0.1320235542220301 0.1104531182096223 0.1336220056743365 0.4918641921208218 0.02400368296755543 0.01319061992207284 0.02130593525828068 0.0620566715243913 0.1269224895803077 0.1035118205430249 0.1528638518167665 0.4957445122494587 0.02440409910569742 0.019085804322816 0.01794760366931348 0.06115392175084248 0.1215514336362749 0.1095443421949902 0.1518461522910829 0.5038087345111302 0.01506200762354974 0.01531646698220929 0.01635401198895498 0.06680003531463481 0.1336193601936042 0.1213336839625451 0.1566567389864472 0.474061186841213 0.0158585157303915 0.02461341077389784 0.02506146942927018 0.08739219712542126 0.1986501570219301 0.1413023628072955 0.155975669444347 0.3458487840128576 0.02115594938498058 0.03776959231453301 0.04462741140023033 0.1341919656529541 0.2312752763649839 0.1327873119875146 0.1329525436254692 0.2440819859548043 0.04231391269951069 0.05468501775470139 0.0580411073895225 0.1644608962821077 0.2043005844706603 0.1548256637542149 0.1561247603021858 0.1309001273843175 0.07666184266228999 0.06885999530053467 0.06603470754837476 0.1446445521148629 0.2395374719726438 0.1223870290206287 0.08989298636816165 0.1951511746663122 0.07349208300848122 0.08147236277271772 0.0541470763871779 0.141728003426863 0.3396608693441129 0.1701041344472485 0.08007087693478934 0.0278726339532681 0.1049440427338226 0.1120733887660162 0.1175285347799921 0.2984043433551484 0.2368394269785662 0.04427406019961653 0.01138754005278057 0.001490413686789385 0.1780022921810906 0.04731128685877874 0.009874707463374526 0.01907516503870044 3.965724570497597e-05 3.965725272924822e-05 3.965722920200471e-05 3.96572268070024e-05 0.9235802116847031 0.07157086371855526 0.05028521009014558 0.1775786309808507 0.240964362330011 0.08272952588494058 0.113223248912345 0.1223719939115192 0.1412761641716327</probabilities>
		</cpt>
		<cpt id="time_zero_bp_count">
			<state id="S_0_5___1_5" />
			<state id="S_15_5___169_5" />
			<state id="S_169_5___1083_5" />
			<state id="S_1_5___6_5" />
			<state id="S_6_5___15_5" />
			<state id="S_le_1083_5" />
			<state id="S_s_0_5" />
			<parents>time_zero_scr_count</parents>
			<probabilities>0.03447457707547394 0.2939829643865519 0.0227655586399981 0.1357036087977792 0.1411844259377892 9.490592450233706e-05 0.3717939592379054 0.02376965855408718 0.4202744722836812 0.06144232494169706 0.0428152843389344 0.07881360999820607 0.0002242420618310112 0.3726604078215631 0.0244731582177875 0.3672075418247061 0.1941327373738963 0.02050709013361872 0.01114276271266466 0.007837705975857347 0.3746990037614694 0.01674084116832208 0.1320699106958649 0.3588080992661145 0.01405876978396062 0.003949423796752041 0.1450676412508474 0.3293053140381385 0.06275524823431984 0.1141119014556824 0.004587777053557653 0.2562794608023729 0.0902850593388185 0.0001133561934990223 0.4718671969217496</probabilities>
		</cpt>
		<cpt id="time_zero_ipv_count">
			<state id="S_0_5___1_5" />
			<state id="S_le_1_5" />
			<state id="S_s_0_5" />
			<parents>time_zero_scr_count</parents>
			<probabilities>0.08008082821236782 0.006172839506172839 0.9137463322814594 0.2060834379796289 0.02002232454304451 0.7738942374773267 0.3521354338805038 0.08453600675700489 0.5633285593624913 0.363798913417234 0.3033491506773949 0.332851935905371 0.01878668988369445 0.001418002013122029 0.9797953081031835</probabilities>
		</cpt>
		<cpt id="study_entry_period_dxckd_flag">
			<state id="S_0" />
			<state id="S_1" />
			<parents>time_zero_norace_mean</parents>
			<probabilities>0.9859701510707016 0.01402984892929844 0.7145369127541227 0.2854630872458773 0.7507385428146803 0.2492614571853198 0.808057864377304 0.1919421356226962 0.8389670565899174 0.1610329434100826 0.8535425633127942 0.1464574366872058 0.9050824185071682 0.09491758149283168 0.9415093161930632 0.0584906838069368 0.9643784077072656 0.0356215922927344 0.9816987537552772 0.01830124624472281 0.9850059564278302 0.01499404357216981 0.6463618774242379 0.353638122575762 0.9871255939617349 0.01287440603826512 0.9869466993502403 0.01305330064975973 0.9827093504803758 0.0172906495196244 0.6609346937394041 0.3390653062605958</probabilities>
		</cpt>
		<cpt id="time_zero_pp_mean">
			<state id="S_44_5___49_5" />
			<state id="S_49_5___55_5" />
			<state id="S_55_5___58_5" />
			<state id="S_58_5___64_5" />
			<state id="S_64_5___70_5" />
			<state id="S_70_5___85_5" />
			<state id="S_le_85_5" />
			<state id="S_s_44_5" />
			<parents>study_entry_age</parents>
			<probabilities>0.1938506457736028 0.1937975129379184 0.07566690175481247 0.09389244824652898 0.04159911880770913 0.03378975176594572 0.01034048022136557 0.357063140492117 0.1943652374168083 0.2162534062555519 0.063541450164933 0.09545419511081145 0.04678404732482517 0.05827048560012899 0.008470136070269627 0.3168610420566714 0.1645174704444296 0.2007067861278573 0.08594065563552308 0.1075523631304727 0.07506917786381706 0.06922521145769217 0.02183267219254634 0.2751556631476619 0.1402924193246158 0.199659012267548 0.09215665896608845 0.137406765815951 0.08979941491129764 0.1011993868389445 0.03749229762395658 0.201994044251598 0.1208374044411516 0.179138894780435 0.1001167395536655 0.1556335810981813 0.119595972699363 0.1397846440807899 0.05218456253899355 0.1327082008074201 0.1031677488019768 0.1590116446608389 0.09573952483932045 0.1749847125104423 0.1267644137915409 0.1683487527786322 0.0655767805030715 0.1064064221141769 0.08587221885312808 0.1514068866837209 0.1019730611288029 0.1459470151794966 0.1496569477786018 0.1889279626629188 0.08194205464594417 0.0942738530673866 0.2122641859497066 0.2070177171581841 0.07721789162652974 0.08591589515628108 0.04378608226714652 0.02300451851085831 0.003627570971607523 0.3471661383596861</probabilities>
		</cpt>
		<cpt id="study_entry_DM_flag">
			<state id="S_0" />
			<state id="S_1" />
			<parents>time_zero_pp_mean</parents>
			<probabilities>0.8354476409865566 0.1645523590134436 0.8019621680652815 0.1980378319347186 0.7620571309177276 0.2379428690822723 0.721213078692637 0.278786921307363 0.6802368120093861 0.3197631879906139 0.6292994129537159 0.3707005870462839 0.6034607687464971 0.396539231253503 0.8635714177789033 0.1364285822210968</probabilities>
		</cpt>
		<cpt id="time_zero_uacr_mean">
			<state id="S_118_725___867_873" />
			<state id="S_12_1648___49_4391" />
			<state id="S_49_4391___118_725" />
			<state id="S_867_873___1974_72" />
			<state id="S_le_1974_72" />
			<state id="S_s_12_1648" />
			<parents>time_zero_pp_mean</parents>
			<probabilities>0.08477398607992816 0.03313833212612747 0.2225234745706313 0.0638547168800653 0.01653524315163259 0.5791742471916151 0.1085788549320875 0.08241942316524893 0.3038430275293801 0.0671732773250658 0.02311894296429171 0.414866474083926 0.1205024045050882 0.151535637674641 0.3585625806808292 0.06362373493182905 0.03313529061617638 0.272640351591436 0.1462109018946884 0.2119718456785868 0.2919427491169007 0.1088742469605978 0.05225541099714441 0.1887448453520817 0.1444388959343218 0.2294359739482862 0.3340620744982359 0.14954632993617 0.07347200814112374 0.06904471754186245 0.1428722121490549 0.1764862309735585 0.2239770168658646 0.2819249309963375 0.1654325761902432 0.009307032824941488 0.03816244528796382 0.009974439866758942 0.07258918618926714 0.579516943982975 0.2921213582498228 0.007635626423212115 0.0683101782824463 0.01029007908425427 0.2761824750573011 0.03069824838664182 0.0077751758636397 0.6067438433257167</probabilities>
		</cpt>
		<cpt id="time_zero_aceiarb_coverage">
			<state id="S_le_1_5" />
			<state id="S_s_1_5" />
			<parents>time_zero_uacr_mean</parents>
			<probabilities>0.7386137360851467 0.2613862639148534 0.1019566321823289 0.898043367817671 0.005569127983468899 0.994430872016531 0.02584038943029563 0.9741596105697043 0.6990686198930943 0.3009313801069057 0.03133591215790858 0.9686640878420916</probabilities>
		</cpt>
		<cpt id="time_zero_av_count">
			<state id="S_0_5___2_5" />
			<state id="S_10_5___17_5" />
			<state id="S_2_5___10_5" />
			<state id="S_le_17_5" />
			<state id="S_s_0_5" />
			<parents>time_zero_uacr_mean</parents>
			<probabilities>0.1418772796671262 0.1799338005579864 0.4481179541763275 0.1908084530260721 0.03926251257248772 0.2321303187393931 0.1130317204922766 0.4647452763425958 0.07761214229987158 0.112480542125863 0.3032332782706413 0.01447249926022938 0.1396289110212681 0.006293136862685584 0.5363721745851757 0.3365709540353649 0.04013918792584694 0.2645524475706043 0.01868243212917613 0.3400549783390079 0.2062567313897703 0.1641872067282585 0.5005181585663155 0.1039389393353828 0.025098963980273 0.2501675901251795 0.1047636849131027 0.4656675010887602 0.07119469010346931 0.1082065337694883</probabilities>
		</cpt>
		<cpt id="time_zero_sbp_mean">
			<state id="S_132_5___146_5" />
			<state id="S_146_5___160_5" />
			<state id="S_160_5___174_5" />
			<state id="S_le_174_5" />
			<state id="S_s_132_5" />
			<parents>time_zero_uacr_mean</parents>
			<probabilities>0.2423189897664725 0.04070264118897584 0.004274950332398056 0.003504830335551982 0.7091985883766015 0.8331518798847731 0.06149642262882021 0.005056911359364998 0.001919019329912473 0.09837576679712919 0.2680705927994152 0.01805595550032044 0.002776337853362412 0.0008075013132095138 0.7102896125336924 0.2533126162386605 0.4446269355784358 0.1838086060561938 0.1034730834500108 0.01477875867669892 0.1909796047466175 0.4862737902445584 0.2221947820257887 0.07993270091599862 0.02061912206703682 0.01692628939204279 0.002898189178306173 0.0008884564921490714 0.000482620860973448 0.9788044440765284</probabilities>
		</cpt>
		<cpt id="time_zero_ppi_coverage">
			<state id="S_le_63_5" />
			<state id="S_s_63_5" />
			<parents>time_zero_uacr_mean</parents>
			<probabilities>0.292011610908501 0.7079883890914989 0.08847860164169452 0.9115213983583056 0.001184851896830049 0.99881514810317 0.01878962865122844 0.9812103713487715 0.1734345248626946 0.8265654751373054 0.06532760580313345 0.9346723941968667</probabilities>
		</cpt>
		<cpt id="study_entry_aceiarb_flag">
			<state id="S_0" />
			<state id="S_1" />
			<parents>time_zero_uacr_mean</parents>
			<probabilities>0.2608448579349981 0.7391551420650021 0.8288809476543202 0.1711190523456798 0.9878807283772681 0.01211927162273196 0.8290770916557537 0.1709229083442463 0.3958373665540548 0.604162633445945 0.9305361007378445 0.06946389926215533</probabilities>
		</cpt>
		<cpt id="time_zero_dbp_mean">
			<state id="S_55_5___67_5" />
			<state id="S_67_5___77_5" />
			<state id="S_77_5___90_5" />
			<state id="S_le_90_5" />
			<state id="S_s_55_5" />
			<parents>time_zero_uacr_mean</parents>
			<probabilities>0.4339069868244537 0.3573373744372514 0.1271843566735494 0.008177890807246666 0.07339339125749873 0.1459067321282759 0.4349326551136654 0.4050014073664602 0.01046076875172134 0.003698436639876966 0.2869570200775034 0.2943053613984821 0.3061955770783348 0.03305682331705664 0.07948521812862304 0.07452524395242251 0.173299719133808 0.4338864169822315 0.3070747834324944 0.01121383649904368 0.08000969678754678 0.2397135393112716 0.4512765718546128 0.2218726095050743 0.007127582541494558 0.320485190449448 0.4248107702772314 0.2218680448243808 0.006708050751965679 0.02612794369697428</probabilities>
		</cpt>
		<cpt id="study_entry_period_albprockd_flag">
			<state id="S_0" />
			<state id="S_1" />
			<parents>time_zero_uacr_mean</parents>
			<probabilities>0.9268238739729306 0.07317612602706935 0.9693267269869645 0.0306732730130354 0.9842490178360355 0.01575098216396455 0.9678226039883115 0.03217739601168837 0.8659409678797436 0.1340590321202564 0.9999741097221139 2.589027788618027e-05</probabilities>
		</cpt>
		<cpt id="time_zero_mra_coverage">
			<state id="S_le_1_5" />
			<state id="S_s_1_5" />
			<parents>time_zero_uacr_mean</parents>
			<probabilities>0.02336888762546616 0.9766311123745337 0.002680195778820834 0.9973198042211792 0.0001208844348670535 0.9998791155651328 0.00100182922198935 0.9989981707780108 0.009557732254272946 0.9904422677457271 0.003575354690727671 0.9964246453092724</probabilities>
		</cpt>
		<cpt id="demo_race_ethnicity_cat">
			<state id="S_1A" />
			<state id="S_1B" />
			<state id="S_2" />
			<state id="S_3" />
			<state id="S_4" />
			<state id="S_5" />
			<state id="S_8" />
			<state id="S_minus_9" />
			<parents>time_zero_uacr_mean</parents>
			<probabilities>0.7466569975860575 0.02294955791148441 0.03840231901204189 0.05888686027037102 0.0156926786630617 0.0113474314927431 0.07927490971119197 0.02678924535304828 0.7204157085760059 0.02321739008642427 0.04793242827124003 0.05030266045584111 0.01100227167908374 0.01111690320155351 0.0925356516529323 0.04347698607691931 0.6365181454576694 0.04915080208225838 0.03783336004021308 0.03855352667090373 0.008699067366151505 0.004714394171582301 0.09201899057918088 0.1325117136320408 0.6788351032579562 0.03600891437960311 0.06537551669154101 0.05647536205049333 0.01496888772601505 0.01320830717552612 0.1003254304211711 0.03480247829769417 0.6062471433108017 0.03446086622116273 0.08017429303718542 0.07936182271481844 0.007932362171364742 0.02796378002792181 0.1412901377828321 0.02256959473391302 0.7355275611522949 0.02473955796489904 0.03951978768140565 0.05166087496162561 0.01414289268691971 0.007505046206273616 0.08860320527309908 0.0383010740734826</probabilities>
		</cpt>
		<cpt id="time_zero_hba1c_mean">
			<state id="S_4_85835___5_91335" />
			<state id="S_5_91335___6_24165" />
			<state id="S_6_24165___7_75835" />
			<state id="S_7_75835___12_275" />
			<state id="S_le_12_275" />
			<state id="S_s_4_85835" />
			<parents>time_zero_uacr_mean</parents>
			<probabilities>0.2779431092910962 0.1032613415446151 0.2868596879249257 0.2598758476061539 0.05735501441788692 0.01470499921532206 0.274384811381811 0.09696451544604363 0.3105284314120136 0.2592128517690512 0.04493648453140246 0.01397290545967814 0.3065103283062313 0.1230622410371257 0.295715895354451 0.2193866851557532 0.03997115889462793 0.0153536912518108 0.2645222117041323 0.1192192223915181 0.3077009185141126 0.255862124316342 0.0350066107925251 0.01768891228136987 0.2498137787683694 0.06794228290353062 0.2439614000308502 0.3521088064118419 0.07300183978466518 0.01317189210074279 0.5109733227626005 0.1097511551287525 0.2041571472451285 0.1276760708712209 0.0260312836349003 0.02141102035739719</probabilities>
		</cpt>
		<cpt id="time_zero_upcr_count">
			<state id="S_le_0_5" />
			<state id="S_s_0_5" />
			<parents>time_zero_uacr_mean</parents>
			<probabilities>0.017633072748577 0.9823669272514229 0.0184905301441388 0.9815094698558612 0.000889764068322941 0.999110235931677 0.008320699453040727 0.9916793005469592 0.06905396415864225 0.9309460358413578 0.006236237246555141 0.9937637627534448</probabilities>
		</cpt>
		<cpt id="time_zero_hba1c_count">
			<state id="S_0_5___1_5" />
			<state id="S_le_1_5" />
			<state id="S_s_0_5" />
			<parents>time_zero_uacr_mean</parents>
			<probabilities>0.2735681900550542 0.05545102030275049 0.6709807896421953 0.2445645431298584 0.03730654898283687 0.7181289078873047 0.1421690110385726 0.0176098435252122 0.8402211454362152 0.1033684894765226 0.01563126742859861 0.8810002430948787 0.3518897729085311 0.07281389312608263 0.5752963339653862 0.1751695746124972 0.01835463938687079 0.806475786000632</probabilities>
		</cpt>
		<cpt id="time_zero_upcr_mean">
			<state id="S_0_66025___1_93225" />
			<state id="S_le_1_93225" />
			<state id="S_s_0_66025" />
			<parents>time_zero_uacr_mean</parents>
			<probabilities>0.02442836753610107 0.0319563263548134 0.9436153061090855 0.2735066580220281 0.1099270134665709 0.6165663285114009 0.9825786041440836 0.003979400922814324 0.01344199493310199 0.2422942659161066 0.7573994749835589 0.000306259100334584 0.02204554080223495 0.9536155399622884 0.02433891923547673 0.4906639777583162 0.002059693343227025 0.5072763288984568</probabilities>
		</cpt>
		<cpt id="study_entry_nsaid_flag">
			<state id="S_0" />
			<state id="S_1" />
			<parents>time_zero_upcr_mean</parents>
			<probabilities>0.9889594688126525 0.0110405311873475 0.8249141722812522 0.1750858277187477 0.7171908249417368 0.2828091750582633</probabilities>
		</cpt>
		<cpt id="study_entry_ppi_flag">
			<state id="S_0" />
			<state id="S_1" />
			<parents>time_zero_upcr_mean</parents>
			<probabilities>0.9942359165233331 0.00576408347666695 0.8587536034623544 0.1412463965376455 0.7521499165676295 0.2478500834323705</probabilities>
		</cpt>
		<cpt id="time_zero_map_mean">
			<state id="S_103_01___103_307" />
			<state id="S_103_307___107_062" />
			<state id="S_107_062___122_997" />
			<state id="S_le_122_997" />
			<state id="S_s_103_01" />
			<parents>time_zero_upcr_mean</parents>
			<probabilities>0.0006405173920195598 0.03318842149445672 0.02092396174632499 0.001713085369058677 0.94353401399814 0.0131606922596227 0.2340960672588257 0.4406029095904415 0.07691274085163326 0.2352275900394769 0.0009651479067679622 0.00844878271327615 0.001292482104122223 0.0001617682871844497 0.9891318189886493</probabilities>
		</cpt>
		<cpt id="time_zero_nsaid_coverage">
			<state id="S_le_18_5" />
			<state id="S_s_18_5" />
			<parents>time_zero_upcr_mean</parents>
			<probabilities>0.0004762761302929406 0.9995237238697071 0.0661397612738783 0.9338602387261217 0.1754981097618902 0.8245018902381097</probabilities>
		</cpt>
		<cpt id="study_entry_mra_flag">
			<state id="S_0" />
			<state id="S_1" />
			<parents>time_zero_upcr_mean</parents>
			<probabilities>0.9998326842973669 0.0001673157026331717 0.996594083908912 0.00340591609108794 0.9908959868105046 0.009104013189495431</probabilities>
		</cpt>
		<cpt id="demo_sex">
			<state id="S_0" />
			<state id="S_1" />
			<parents>time_zero_upcr_mean</parents>
			<probabilities>0.4639932012339203 0.5360067987660796 0.5443671410991416 0.4556328589008584 0.4604112915787141 0.5395887084212858</probabilities>
		</cpt>
		<cpt id="study_entry_PDM_flag">
			<state id="S_0" />
			<state id="S_1" />
			<parents>time_zero_upcr_mean</parents>
			<probabilities>0.9380992419293841 0.06190075807061589 0.9151729375376531 0.08482706246234682 0.9185757413390672 0.08142425866093282</probabilities>
		</cpt>
		<cpt id="ruca_4_class">
			<state id="S_isolated" />
			<state id="S_large_rural" />
			<state id="S_small_rural" />
			<state id="S_urban" />
			<parents>time_zero_upcr_mean</parents>
			<probabilities>0.02599855617610033 0.05340874745351199 0.02797185558423076 0.8926208407861569 0.02767028993608639 0.07728045703711327 0.03215603613210778 0.8628932168946926 0.04259963038740504 0.08335145302268264 0.03730978458006926 0.8367391320098431</probabilities>
		</cpt>
		<cpt id="time_zero_uacr_count">
			<state id="S_le_1_5" />
			<state id="S_s_1_5" />
			<parents>time_zero_upcr_mean</parents>
			<probabilities>0.001375181472048357 0.9986248185279516 0.007138673466000734 0.9928613265339993 0.003322730439062855 0.9966772695609372</probabilities>
		</cpt>
		<cpt id="study_entry_glp1_flag">
			<state id="S_0" />
			<state id="S_1" />
			<parents>time_zero_upcr_mean</parents>
			<probabilities>0.999851534550987 0.0001484654490130139 0.9959063298922844 0.004093670107715552 0.9932386860123381 0.006761313987661786</probabilities>
		</cpt>
		<cpt id="study_entry_HTN_flag">
			<state id="S_0" />
			<state id="S_1" />
			<parents>time_zero_upcr_mean</parents>
			<probabilities>0.9390366392161225 0.06096336078387748 0.1854438777030024 0.8145561222969976 0.3603740637402144 0.6396259362597856</probabilities>
		</cpt>
		<cpt id="time_zero_glp1_coverage">
			<state id="S_le_60_5" />
			<state id="S_s_60_5" />
			<parents>time_zero_upcr_mean</parents>
			<probabilities>1.862445943093973e-05 0.999981375540569 0.0008099924772990961 0.9991900075227008 0.003215935854773761 0.9967840641452262</probabilities>
		</cpt>
		<cpt id="study_entry_sglt2_flag">
			<state id="S_0" />
			<state id="S_1" />
			<parents>time_zero_upcr_mean</parents>
			<probabilities>0.9999089135339546 9.10864660454908e-05 0.9988096371509462 0.001190362849053921 0.9965620796717279 0.003437920328272002</probabilities>
		</cpt>
		<cpt id="time_zero_sglt2_coverage">
			<state id="S_le_34_5" />
			<state id="S_s_34_5" />
			<parents>time_zero_upcr_mean</parents>
			<probabilities>1.503087310633065e-05 0.9999849691268936 0.0004376271128909282 0.9995623728871091 0.0016653833547992 0.9983346166452008</probabilities>
		</cpt>
	</nodes>
	<extensions>
		<genie version="1.0" app="SMILE_ACADEMIC 1.6.2@b061b4f1f63d" name="Unnamed">
			<node id="time_zero_norace_mean">
				<name>time_zero_norace_mean</name>
				<interior color="e5f6f7" />
				<outline color="0000bb" />
				<font color="000000" name="MS Sans Serif" size="8" />
				<position>960 40 1045 95</position>
			</node>
			<node id="year1_reduction_40_ge">
				<name>year1_reduction_40_ge</name>
				<interior color="e5f6f7" />
				<outline color="0000bb" />
				<font color="000000" name="MS Sans Serif" size="8" />
				<position>948 175 1033 230</position>
			</node>
			<node id="time_zero_scr_count">
				<name>time_zero_scr_count</name>
				<interior color="e5f6f7" />
				<outline color="0000bb" />
				<font color="000000" name="MS Sans Serif" size="8" />
				<position>914 306 999 361</position>
			</node>
			<node id="study_entry_period_egfrckd_norace_flag">
				<name>study_entry_period_egfrckd_norace_flag</name>
				<interior color="e5f6f7" />
				<outline color="0000bb" />
				<font color="000000" name="MS Sans Serif" size="8" />
				<position>858 430 943 485</position>
			</node>
			<node id="study_entry_age">
				<name>study_entry_age</name>
				<interior color="e5f6f7" />
				<outline color="0000bb" />
				<font color="000000" name="MS Sans Serif" size="8" />
				<position>782 542 867 597</position>
			</node>
			<node id="time_zero_bp_count">
				<name>time_zero_bp_count</name>
				<interior color="e5f6f7" />
				<outline color="0000bb" />
				<font color="000000" name="MS Sans Serif" size="8" />
				<position>688 640 773 695</position>
			</node>
			<node id="time_zero_ipv_count">
				<name>time_zero_ipv_count</name>
				<interior color="e5f6f7" />
				<outline color="0000bb" />
				<font color="000000" name="MS Sans Serif" size="8" />
				<position>579 721 664 776</position>
			</node>
			<node id="study_entry_period_dxckd_flag">
				<name>study_entry_period_dxckd_flag</name>
				<interior color="e5f6f7" />
				<outline color="0000bb" />
				<font color="000000" name="MS Sans Serif" size="8" />
				<position>458 782 543 837</position>
			</node>
			<node id="time_zero_pp_mean">
				<name>time_zero_pp_mean</name>
				<interior color="e5f6f7" />
				<outline color="0000bb" />
				<font color="000000" name="MS Sans Serif" size="8" />
				<position>328 822 413 877</position>
			</node>
			<node id="study_entry_DM_flag">
				<name>study_entry_DM_flag</name>
				<interior color="e5f6f7" />
				<outline color="0000bb" />
				<font color="000000" name="MS Sans Serif" size="8" />
				<position>193 839 278 894</position>
			</node>
			<node id="time_zero_uacr_mean">
				<name>time_zero_uacr_mean</name>
				<interior color="e5f6f7" />
				<outline color="0000bb" />
				<font color="000000" name="MS Sans Serif" size="8" />
				<position>58 833 143 888</position>
			</node>
			<node id="time_zero_aceiarb_coverage">
				<name>time_zero_aceiarb_coverage</name>
				<interior color="e5f6f7" />
				<outline color="0000bb" />
				<font color="000000" name="MS Sans Serif" size="8" />
				<position>-74 804 11 859</position>
			</node>
			<node id="time_zero_av_count">
				<name>time_zero_av_count</name>
				<interior color="e5f6f7" />
				<outline color="0000bb" />
				<font color="000000" name="MS Sans Serif" size="8" />
				<position>-200 754 -115 809</position>
			</node>
			<node id="time_zero_sbp_mean">
				<name>time_zero_sbp_mean</name>
				<interior color="e5f6f7" />
				<outline color="0000bb" />
				<font color="000000" name="MS Sans Serif" size="8" />
				<position>-315 683 -230 738</position>
			</node>
			<node id="time_zero_ppi_coverage">
				<name>time_zero_ppi_coverage</name>
				<interior color="e5f6f7" />
				<outline color="0000bb" />
				<font color="000000" name="MS Sans Serif" size="8" />
				<position>-417 593 -332 648</position>
			</node>
			<node id="study_entry_aceiarb_flag">
				<name>study_entry_aceiarb_flag</name>
				<interior color="e5f6f7" />
				<outline color="0000bb" />
				<font color="000000" name="MS Sans Serif" size="8" />
				<position>-502 487 -417 542</position>
			</node>
			<node id="time_zero_dbp_mean">
				<name>time_zero_dbp_mean</name>
				<interior color="e5f6f7" />
				<outline color="0000bb" />
				<font color="000000" name="MS Sans Serif" size="8" />
				<position>-568 369 -483 424</position>
			</node>
			<node id="study_entry_period_albprockd_flag">
				<name>study_entry_period_albprockd_flag</name>
				<interior color="e5f6f7" />
				<outline color="0000bb" />
				<font color="000000" name="MS Sans Serif" size="8" />
				<position>-614 241 -529 296</position>
			</node>
			<node id="time_zero_mra_coverage">
				<name>time_zero_mra_coverage</name>
				<interior color="e5f6f7" />
				<outline color="0000bb" />
				<font color="000000" name="MS Sans Serif" size="8" />
				<position>-637 107 -552 162</position>
			</node>
			<node id="demo_race_ethnicity_cat">
				<name>demo_race_ethnicity_cat</name>
				<interior color="e5f6f7" />
				<outline color="0000bb" />
				<font color="000000" name="MS Sans Serif" size="8" />
				<position>-637 -27 -552 28</position>
			</node>
			<node id="time_zero_hba1c_mean">
				<name>time_zero_hba1c_mean</name>
				<interior color="e5f6f7" />
				<outline color="0000bb" />
				<font color="000000" name="MS Sans Serif" size="8" />
				<position>-614 -161 -529 -106</position>
			</node>
			<node id="time_zero_upcr_count">
				<name>time_zero_upcr_count</name>
				<interior color="e5f6f7" />
				<outline color="0000bb" />
				<font color="000000" name="MS Sans Serif" size="8" />
				<position>-568 -289 -483 -234</position>
			</node>
			<node id="time_zero_hba1c_count">
				<name>time_zero_hba1c_count</name>
				<interior color="e5f6f7" />
				<outline color="0000bb" />
				<font color="000000" name="MS Sans Serif" size="8" />
				<position>-502 -407 -417 -352</position>
			</node>
			<node id="time_zero_upcr_mean">
				<name>time_zero_upcr_mean</name>
				<interior color="e5f6f7" />
				<outline color="0000bb" />
				<font color="000000" name="MS Sans Serif" size="8" />
				<position>-417 -513 -332 -458</position>
			</node>
			<node id="study_entry_nsaid_flag">
				<name>study_entry_nsaid_flag</name>
				<interior color="e5f6f7" />
				<outline color="0000bb" />
				<font color="000000" name="MS Sans Serif" size="8" />
				<position>-315 -603 -230 -548</position>
			</node>
			<node id="study_entry_ppi_flag">
				<name>study_entry_ppi_flag</name>
				<interior color="e5f6f7" />
				<outline color="0000bb" />
				<font color="000000" name="MS Sans Serif" size="8" />
				<position>-200 -674 -115 -619</position>
			</node>
			<node id="time_zero_map_mean">
				<name>time_zero_map_mean</name>
				<interior color="e5f6f7" />
				<outline color="0000bb" />
				<font color="000000" name="MS Sans Serif" size="8" />
				<position>-74 -724 11 -669</position>
			</node>
			<node id="time_zero_nsaid_coverage">
				<name>time_zero_nsaid_coverage</name>
				<interior color="e5f6f7" />
				<outline color="0000bb" />
				<font color="000000" name="MS Sans Serif" size="8" />
				<position>58 -753 143 -698</position>
			</node>
			<node id="study_entry_mra_flag">
				<name>study_entry_mra_flag</name>
				<interior color="e5f6f7" />
				<outline color="0000bb" />
				<font color="000000" name="MS Sans Serif" size="8" />
				<position>193 -759 278 -704</position>
			</node>
			<node id="demo_sex">
				<name>demo_sex</name>
				<interior color="e5f6f7" />
				<outline color="0000bb" />
				<font color="000000" name="MS Sans Serif" size="8" />
				<position>328 -742 413 -687</position>
			</node>
			<node id="study_entry_PDM_flag">
				<name>study_entry_PDM_flag</name>
				<interior color="e5f6f7" />
				<outline color="0000bb" />
				<font color="000000" name="MS Sans Serif" size="8" />
				<position>458 -702 543 -647</position>
			</node>
			<node id="ruca_4_class">
				<name>ruca_4_class</name>
				<interior color="e5f6f7" />
				<outline color="0000bb" />
				<font color="000000" name="MS Sans Serif" size="8" />
				<position>579 -641 664 -586</position>
			</node>
			<node id="time_zero_uacr_count">
				<name>time_zero_uacr_count</name>
				<interior color="e5f6f7" />
				<outline color="0000bb" />
				<font color="000000" name="MS Sans Serif" size="8" />
				<position>688 -560 773 -505</position>
			</node>
			<node id="study_entry_glp1_flag">
				<name>study_entry_glp1_flag</name>
				<interior color="e5f6f7" />
				<outline color="0000bb" />
				<font color="000000" name="MS Sans Serif" size="8" />
				<position>782 -462 867 -407</position>
			</node>
			<node id="study_entry_HTN_flag">
				<name>study_entry_HTN_flag</name>
				<interior color="e5f6f7" />
				<outline color="0000bb" />
				<font color="000000" name="MS Sans Serif" size="8" />
				<position>858 -350 943 -295</position>
			</node>
			<node id="time_zero_glp1_coverage">
				<name>time_zero_glp1_coverage</name>
				<interior color="e5f6f7" />
				<outline color="0000bb" />
				<font color="000000" name="MS Sans Serif" size="8" />
				<position>914 -226 999 -171</position>
			</node>
			<node id="study_entry_sglt2_flag">
				<name>study_entry_sglt2_flag</name>
				<interior color="e5f6f7" />
				<outline color="0000bb" />
				<font color="000000" name="MS Sans Serif" size="8" />
				<position>948 -95 1033 -40</position>
			</node>
			<node id="time_zero_sglt2_coverage">
				<name>time_zero_sglt2_coverage</name>
				<interior color="e5f6f7" />
				<outline color="0000bb" />
				<font color="000000" name="MS Sans Serif" size="8" />
				<position>960 39 1045 94</position>
			</node>
		</genie>
	</extensions>
</smile>
