<?xml version="1.0" encoding="UTF-8"?>
<!-- This file was created by ACADEMIC version of SMILE -->
<smile version="1.0" id="Unnamed" numsamples="10000" discsamples="10000">
	<nodes>
		<cpt id="time_zero_norace_mean">
			<state id="S_103_735___109_565" />
			<state id="S_109_565___118_375" />
			<state id="S_10_885___21_705" />
			<state id="S_21_705___23_775" />
			<state id="S_23_775___29_075" />
			<state id="S_29_075___34_045" />
			<state id="S_34_045___40_805" />
			<state id="S_40_805___46_885" />
			<state id="S_46_885___55_685" />
			<state id="S_55_685___67_685" />
			<state id="S_67_685___79_985" />
			<state id="S_79_985___90_665" />
			<state id="S_8_195___10_885" />
			<state id="S_90_665___103_735" />
			<state id="S_le_118_375" />
			<state id="S_s_8_195" />
			<probabilities>0.04906477944228019 0.04774188524370315 0.03251058386591817 0.007104600186303601 0.02014005421496521 0.02266607343774999 0.0369312870579113 0.03972809658331573 0.07254404057342492 0.1265681622827675 0.1665387719282976 0.1597452672491429 0.005835740861347479 0.1672547146184866 0.04193667617751961 0.003689266276866034</probabilities>
		</cpt>
		<cpt id="year1_reduction_40_ge">
			<state id="S_0" />
			<state id="S_1" />
			<parents>time_zero_norace_mean</parents>
			<probabilities>0.9374405711141119 0.06255942888588818 0.9361962799587252 0.06380372004127476 0.7010012339738875 0.2989987660261126 0.750659019675223 0.2493409803247771 0.7707764971871156 0.2292235028128846 0.78500740389544 0.21499259610456 0.829283677951279 0.170716322048721 0.8522717360094357 0.1477282639905643 0.8793675697640514 0.1206324302359485 0.8883965577879401 0.1116034422120598 0.90465844926766 0.09534155073234002 0.9091285576979306 0.09087144230206942 0.6919992165259602 0.3080007834740397 0.9206522846091193 0.07934771539088072 0.9459184589435001 0.05408154105649991 0.7707729433087952 0.2292270566912049</probabilities>
		</cpt>
		<cpt id="study_entry_period_egfrckd_norace_flag">
			<state id="S_0" />
			<state id="S_1" />
			<parents>time_zero_norace_mean</parents>
			<probabilities>0.9999196032875247 8.039671247522101e-05 0.9999171345272551 8.286547274505048e-05 0.0001196541493582429 0.9998803458506418 0.0005470973413351804 0.9994529026586648 0.0001931221353782603 0.9998068778646217 0.000171606575470617 0.9998283934245293 0.0001053342852949494 0.999894665714705 9.792024160509332e-05 0.999902079758395 5.362960078775037e-05 0.9999463703992122 0.6715715357944757 0.3284284642055242 0.999976526184942 2.347381505800158e-05 0.9999754947744204 2.45052255795975e-05 0.0006659036481743013 0.9993340963518257 0.9999765235907428 2.347640925717786e-05 0.9999053671170696 9.463288293030954e-05 0.001052572495485652 0.9989474275045143</probabilities>
		</cpt>
		<cpt id="study_entry_age">
			<state id="S_20_5___38_5" />
			<state id="S_38_5___44_5" />
			<state id="S_44_5___50_5" />
			<state id="S_50_5___56_5" />
			<state id="S_56_5___63_5" />
			<state id="S_63_5___69_5" />
			<state id="S_69_5___74_5" />
			<state id="S_74_5___90_5" />
			<state id="S_le_90_5" />
			<state id="S_s_20_5" />
			<parents>time_zero_norace_mean</parents>
			<probabilities>0.1945925387865434 0.2158420897494138 0.2734062489575246 0.1847605316642904 0.09674905102406378 0.01381222981748479 0.002394542348620045 0.0004915947872575906 1.585789554020339e-05 0.01793531496926122 0.5047426150879148 0.2239406617027939 0.1597294086757978 0.06276073638638779 0.02234352268080145 0.006535194436868309 0.0001792696448042181 1.629724045214378e-05 1.629723958157045e-05 0.01973599690459785 0.06346935334827421 0.04818224889677571 0.06273295686038097 0.1050920589694111 0.165131865128777 0.1444437775819246 0.1332905035130468 0.246906725307197 0.02539061049381913 0.005359899900393342 0.02249362011571733 0.0403285577485015 0.05419313110820202 0.08537612166375093 0.1528551417595521 0.1778164688395707 0.1173598806732513 0.308871343285044 0.04059462272707041 0.0001111120793398331 0.03796261079449615 0.03552790424368928 0.0487555299503896 0.07549048904510472 0.135421457383264 0.1382816430199814 0.1133725050998765 0.3645057491294554 0.05025037962542332 0.0004317317083196945 0.03334524553105132 0.02489150216525561 0.026365876375563 0.08202950706319136 0.1058433676222591 0.1294060219814117 0.1141264511708734 0.414557929606638 0.06730409889957598 0.002129999584180572 0.02154008947820282 0.01956586535149729 0.04003190933826936 0.05292279389495443 0.114050675949419 0.1134403887091595 0.1177138899883714 0.444612303946793 0.07459774084588314 0.001524342497450079 0.01741079930710454 0.02415700310369462 0.03307737313449439 0.05138579415027616 0.1069956599713806 0.1280314047288494 0.1262705721268423 0.4534879970115507 0.05916340997779736 1.998648801004405e-05 0.01631495524219496 0.01856737580896281 0.03060156270218101 0.05497919603798809 0.1093180521664516 0.1487242840924682 0.129908511997107 0.4321143834124507 0.058145213174079 0.001326465366116614 0.0189374733190127 0.01811822456990324 0.04351439253187139 0.07804156876144301 0.1416516461343988 0.1768410574280036 0.1413198999618507 0.3475601835013172 0.03332804774606905 0.0006875060461301701 0.03378657321299169 0.0358424541436177 0.06733483980931013 0.1056490245962234 0.1751284889580596 0.1837258101138209 0.1307868297573903 0.2461965933126517 0.02047004724536238 0.001079338850572118 0.06347607811531854 0.05275952365776821 0.08953676578750899 0.1276779398858229 0.1787763552541185 0.1711773435789158 0.1329874633075264 0.1783866486002659 0.002878853873452432 0.002343027939302298 0.1011228962654319 0.08180468341576484 0.1222418197132516 0.1038590157883222 0.2007767852798819 0.1456659988900221 0.08151326528262412 0.1560550033155888 0.004128602618680671 0.00283192943043193 0.1128268615466813 0.07639807656367002 0.1266446540415453 0.2093654223550481 0.2584953621008346 0.151023517899684 0.04206289288087218 0.01712570608831124 4.652460155818005e-06 0.006052854063197568 0.7760853374369332 0.06142854905878707 0.02191093105356183 0.01263450012055538 0.002615951562997897 1.855284552449802e-05 1.855284220322697e-05 1.855284217710037e-05 1.855284102638593e-05 0.1252505193962334 0.1274630990489069 0.07121704780023581 0.09151801729377004 0.125910399518023 0.2095699699047598 0.09941940015054014 0.08245152088467823 0.1771645607539402 0.006525949472011038 0.00876003517313481</probabilities>
		</cpt>
		<cpt id="study_entry_period_dxckd_flag">
			<state id="S_0" />
			<state id="S_1" />
			<parents>time_zero_norace_mean</parents>
			<probabilities>0.9875515283194554 0.01244847168054472 0.9875325747007125 0.0124674252992876 0.7204208705487725 0.2795791294512275 0.7725939327945592 0.2274060672054408 0.7843829073474601 0.2156170926525399 0.8278840466809329 0.1721159533190672 0.8601228240097368 0.1398771759902632 0.8983037319505085 0.1016962680494915 0.9330864732552867 0.06691352674471332 0.9633136382223881 0.03668636177761195 0.9807260987058903 0.01927390129410973 0.9845340719425033 0.01546592805749676 0.6827905223798192 0.3172094776201806 0.9880664353791143 0.01193356462088562 0.9820964406547783 0.01790355934522168 0.7280945383798394 0.2719054616201606</probabilities>
		</cpt>
		<cpt id="time_zero_uacr_mean">
			<state id="S_10_2286___40_2946" />
			<state id="S_117_299___294_336" />
			<state id="S_294_336___792_382" />
			<state id="S_40_2946___117_299" />
			<state id="S_5_77965___10_2286" />
			<state id="S_792_382___2006_18" />
			<state id="S_le_2006_18" />
			<state id="S_s_5_77965" />
			<parents>study_entry_period_egfrckd_norace_flag</parents>
			<probabilities>0.1002868378074048 0.05452671085328372 0.1253737047650933 0.05390913455831427 0.1259090711447209 0.05992220577024453 0.05900469000343902 0.4210676450974995 0.05285775401339899 0.1153870195493512 0.07407523334512604 0.0463461283308646 0.3075080158576185 0.1074115125381578 0.1164987498946531 0.1799155864708297</probabilities>
		</cpt>
		<cpt id="time_zero_pp_mean">
			<state id="S_44_5___49_5" />
			<state id="S_49_5___54_5" />
			<state id="S_54_5___58_5" />
			<state id="S_58_5___64_5" />
			<state id="S_64_5___70_5" />
			<state id="S_70_5___82_5" />
			<state id="S_82_5___95_5" />
			<state id="S_le_95_5" />
			<state id="S_s_44_5" />
			<parents>time_zero_uacr_mean</parents>
			<probabilities>0.08958979640273262 0.2399350482801428 0.2345410606087945 0.2909793956290491 0.07475637557800636 0.01941217310510232 0.003291594688902536 0.001854686432218783 0.04563986927505077 0.004802566669906936 0.01166506677627152 0.005751902982780757 0.07518960659677761 0.2753694391410355 0.4505968785614909 0.1388049180264853 0.02893849248468598 0.008881128760565573 0.1658822372178934 0.231749152751021 0.1646188298255412 0.1958061724123929 0.07608458753681427 0.008173961387880185 0.001672896001046453 0.001090045037453194 0.1549221178299575 0.2056507515009458 0.1877175220570995 0.134236204907815 0.1292587207072277 0.06571901919600229 0.02794098912196584 0.00644886398558558 0.002031948187221437 0.2409959803361369 0.1592717355942062 0.2157567238831403 0.1426839793782608 0.1506290299891728 0.07310465626077763 0.02209303547461116 0.004107444290055482 0.003060641552090101 0.2292927535776856 0.1115224224812849 0.1355653735454136 0.09811949886466249 0.16738431782062 0.139286810704555 0.144657371959085 0.0381682157565235 0.01149534104915091 0.1538006478187047 0.01032613715805998 0.02766776186434534 0.05047085864660415 0.1134778350010433 0.159885873556566 0.3101771907657189 0.2081499508830962 0.1099447467670246 0.0098996453575414 0.2504750470586105 0.1634340398690752 0.04700686226704146 0.02513189127527593 0.005660971064068662 0.002403155445030919 0.000472980027529679 0.0001449495877974051 0.5052701034055701</probabilities>
		</cpt>
		<cpt id="study_entry_DM_flag">
			<state id="S_0" />
			<state id="S_1" />
			<parents>time_zero_uacr_mean</parents>
			<probabilities>0.6603937879983542 0.3396062120016458 0.6372351857597157 0.3627648142402843 0.8206735141943903 0.1793264858056098 0.6657021498386515 0.3342978501613486 0.6647693019486756 0.3352306980513244 0.4865824626734581 0.5134175373265418 0.617234956937281 0.3827650430627189 0.9486267243461736 0.05137327565382647</probabilities>
		</cpt>
		<cpt id="time_zero_aceiarb_coverage">
			<state id="S_2_5___77_5" />
			<state id="S_77_5___89_5" />
			<state id="S_le_89_5" />
			<state id="S_s_2_5" />
			<parents>time_zero_uacr_mean</parents>
			<probabilities>0.0364781768886657 0.02853467625149454 0.03559129653601675 0.899395850323823 0.0516823010138632 0.05268635022265098 0.01607461507350897 0.8795567336899767 0.03879429629381589 0.02327830255494515 0.0758521483051169 0.8620752528461221 0.07182034055655878 0.0639487529902414 0.03952147411795865 0.8247094323352411 0.007874518023770422 0.003781746669972221 0.006049058921961318 0.982294676384296 0.06705449781023429 0.007117379251160045 0.7219564600842798 0.2038716628543258 0.05300423207428907 0.05812698956664319 0.2013324333108308 0.6875363450482369 0.006034655991439771 0.004026990471567126 0.00365908421148777 0.9862792693255055</probabilities>
		</cpt>
		<cpt id="time_zero_sbp_mean">
			<state id="S_122_5___131_5" />
			<state id="S_131_5___134_5" />
			<state id="S_134_5___142_5" />
			<state id="S_142_5___151_5" />
			<state id="S_151_5___160_5" />
			<state id="S_160_5___169_5" />
			<state id="S_le_169_5" />
			<state id="S_s_122_5" />
			<parents>time_zero_uacr_mean</parents>
			<probabilities>0.5373256838917732 0.183333918748779 0.1289524655457877 0.01923235339129146 0.007961425550882603 0.005335959225361256 0.002733710759549332 0.1151244828865756 0.04974382088520937 0.05762517531207981 0.3876281475103396 0.3494107130356373 0.118768409225998 0.01639665657101213 0.006550695689882639 0.01387638176984132 0.1266684043215498 0.1169420114822129 0.4247489666477358 0.3073879311203745 0.009477659290501275 0.002593900642141199 0.002593223088742919 0.00958790340674158 0.2395498324932849 0.03571270684739555 0.05897605888228241 0.01428172753436995 0.006025843189654219 0.003686752498971246 0.00484048938186722 0.6369265891721744 0.3499272886674509 0.06579912172049403 0.03577457763493065 0.0119918405877482 0.005002269867488814 0.003255077541094481 0.002283675161304287 0.5259661488194887 0.2601276883273768 0.07794099118099608 0.1657750486807874 0.1037234345961106 0.03247208506229975 0.005972610490009973 0.00505917259879313 0.3489289690636262 0.003451365546192085 0.002627458889873469 0.006870283012480098 0.09068231293216684 0.3896326656071148 0.2503084544382715 0.2500327212378507 0.006394738336050505 0.1860685337444851 0.01034494980198017 0.008526043901075288 0.003573604235883108 0.002180155077938312 0.0005338420455780534 0.0003370687298452069 0.7884358024632148</probabilities>
		</cpt>
		<cpt id="study_entry_aceiarb_flag">
			<state id="S_0" />
			<state id="S_1" />
			<parents>time_zero_uacr_mean</parents>
			<probabilities>0.8266208296064135 0.1733791703935865 0.8637428902318831 0.1362571097681169 0.8205488137836849 0.1794511862163151 0.7924533106800624 0.2075466893199376 0.9755744586076318 0.02442554139236807 0.06222860154610783 0.9377713984538921 0.5988163695918481 0.4011836304081518 0.9804897389241422 0.01951026107585776</probabilities>
		</cpt>
		<cpt id="time_zero_ppi_coverage">
			<state id="S_le_78_5" />
			<state id="S_s_78_5" />
			<parents>time_zero_uacr_mean</parents>
			<probabilities>0.02251839268756798 0.9774816073124322 0.06173544321992874 0.9382645567800713 0.04300759733730877 0.9569924026626913 0.4563551587804699 0.5436448412195299 0.00289607919485125 0.9971039208051488 0.2418210225502744 0.7581789774497257 0.07428342769309364 0.9257165723069063 0.005025601785907238 0.9949743982140928</probabilities>
		</cpt>
		<cpt id="study_entry_period_albprockd_flag">
			<state id="S_0" />
			<state id="S_1" />
			<parents>time_zero_uacr_mean</parents>
			<probabilities>0.9699710977738012 0.03002890222619881 0.9274976042517323 0.07250239574826775 0.9512711295213317 0.04872887047866828 0.8551591855534051 0.1448408144465949 0.9999314117702186 6.858822978141422e-05 0.9167059166360877 0.08329408336391232 0.9097333039329089 0.09026669606709113 0.9999884545441391 1.154545586085729e-05</probabilities>
		</cpt>
		<cpt id="time_zero_dbp_mean">
			<state id="S_48_5___56_5" />
			<state id="S_56_5___67_5" />
			<state id="S_67_5___77_5" />
			<state id="S_77_5___90_5" />
			<state id="S_le_90_5" />
			<state id="S_s_48_5" />
			<parents>time_zero_uacr_mean</parents>
			<probabilities>0.008231945768847377 0.1813057745039403 0.6360871233988948 0.162702495066471 0.0110544484839155 0.0006182127779312224 0.04240109455018413 0.3501392213577603 0.5652347641162755 0.02929035224770717 0.004129001677500447 0.008805566050572403 0.0005033065335162361 0.004911081564860332 0.01700928835067675 0.7946273957355194 0.1829327060899952 1.622172543212809e-05 0.07739149389102098 0.4116489139436285 0.3685814287314271 0.125913312823505 0.007142147200776923 0.009322703409641605 0.1107980454900733 0.3107922691999214 0.3406394662761108 0.2033980428422103 0.007012973194611898 0.02735920299707228 0.0637538696645351 0.3697732063099096 0.38566085429732 0.1556613193828871 0.01243461250040552 0.01271613784494242 0.001348452955361136 0.01960800871187745 0.196445930348089 0.4789836846113363 0.3035828327242791 3.109064905700332e-05 0.02461353550420129 0.3107355283709548 0.421767762149986 0.2386329254221018 0.004232812686939019 1.74358658169873e-05</probabilities>
		</cpt>
		<cpt id="demo_race_ethnicity_cat">
			<state id="S_1A" />
			<state id="S_1B" />
			<state id="S_2" />
			<state id="S_3" />
			<state id="S_4" />
			<state id="S_5" />
			<state id="S_8" />
			<state id="S_minus_9" />
			<parents>time_zero_uacr_mean</parents>
			<probabilities>0.694405293446045 0.03488874213609652 0.0483471976029173 0.05426271795516859 0.01169974591288968 0.009461384821600742 0.1103378485352812 0.03659706959000113 0.6686115552862162 0.03745320541907492 0.05563762700385178 0.06766030173354345 0.01032045316997555 0.007583839013490875 0.1257704560083966 0.02696256236545049 0.6903227056099759 0.02789488969021764 0.07315474879397868 0.05476169836804518 0.01222267974846797 0.01499626968797528 0.09022368804080418 0.0364233200605353 0.7299119888667169 0.02029869969130303 0.04109565256260713 0.06080052397235781 0.01631053893113769 0.009215747316393246 0.09128000712723437 0.03108684153224989 0.6239898540611776 0.04178609768509201 0.04962767811464338 0.05515220122010486 0.01013874589186426 0.007751691542329684 0.08355314905314089 0.1280005824316474 0.7252181482145588 0.02682942302707914 0.05166559045446736 0.07282550660144615 0.01518773225232859 0.01919773151345722 0.07150232195641711 0.01757354598024583 0.6094557686286746 0.03648914105099496 0.09719344913917399 0.07600081357422277 0.01067239082327118 0.02399650923224117 0.1234240139054342 0.02276791364598714 0.7502482838610436 0.02752022787861025 0.03510525601815983 0.04777915102381577 0.01153751327951675 0.005156126167450948 0.08189221067675942 0.04076123109464322</probabilities>
		</cpt>
		<cpt id="time_zero_map_mean">
			<state id="S_105_1___117_061" />
			<state id="S_117_061___138_971" />
			<state id="S_66_4061___98_0402" />
			<state id="S_98_0402___105_1" />
			<state id="S_le_138_971" />
			<state id="S_s_66_4061" />
			<parents>time_zero_uacr_mean</parents>
			<probabilities>0.01890900750362662 0.003745666967459964 0.9422041743843756 0.03450174428511842 0.0001780850608440927 0.0004613217985753038 0.008859930673418913 0.001572109115154525 0.7833466216009718 0.2048229704557059 0.0006622333128361409 0.0007361348419126807 0.3247814391821306 0.009992639864243617 0.03168250999818067 0.632657326194828 0.0008695049050585891 1.657985555867546e-05 0.01311151226637031 0.003396104155993521 0.9524046504165653 0.02465929319462463 0.0009656829205803168 0.005462757045865773 0.01354127562413517 0.002698496211256254 0.9106110938471913 0.04152748401282711 0.0005040086975601246 0.03111764160702992 0.02296805674395939 0.004156978712367186 0.8757976854166104 0.09293477645702398 0.0002824306068775873 0.003860072063161541 0.5170202405444959 0.2542004384162667 0.02379360477584953 0.1895107756877022 0.01510343008964848 0.0003715104860371361 0.005215936023951374 0.0008073838951210439 0.9667237043247235 0.0266387567447394 1.180500699584309e-05 0.0006024140044688028</probabilities>
		</cpt>
		<cpt id="time_zero_hba1c_mean">
			<state id="S_4_425___5_91335" />
			<state id="S_5_91335___6_31665" />
			<state id="S_6_31665___6_71665" />
			<state id="S_6_71665___7_71" />
			<state id="S_7_71___9_48335" />
			<state id="S_9_48335___12_625" />
			<state id="S_le_12_625" />
			<state id="S_s_4_425" />
			<parents>time_zero_uacr_mean</parents>
			<probabilities>0.1917970791301766 0.1059188851280322 0.1106871933040283 0.2105614995914407 0.1536216443237032 0.1669757853124344 0.05961012663002965 0.000827786580154988 0.1674998205981977 0.09603919805441594 0.1052042688010536 0.2274163931115996 0.1917350642528172 0.1504428712426426 0.05935874843237086 0.002303635506902493 0.3827311388543679 0.132570364678232 0.07822006597445445 0.1039354226499251 0.113639778062365 0.1411335158949429 0.04362894939306267 0.004140764492649948 0.3368215656609095 0.1238450506509751 0.09438347325167318 0.1307388304444513 0.1268633729401391 0.1260709845846965 0.05131864217737245 0.009958080289782895 0.1459189251239952 0.1184151525311333 0.1509121648741561 0.2559509568835625 0.1857121389212326 0.1132225657877675 0.02918750408579377 0.000680591792359022 0.2501722767450265 0.1106432947129695 0.1228433594849258 0.1804408429005984 0.1695486260751421 0.1180768175920429 0.04395999481734134 0.004314787671953266 0.2392910953346836 0.09854378351596559 0.08854403160819317 0.1603361210730909 0.1863789658683357 0.1729289069778754 0.05014983014889429 0.003827265472961569 0.6054511562938352 0.2027568749843979 0.06362682030983062 0.0599199595374982 0.0372838182991985 0.01889764374892601 0.006329107358803767 0.005734619467509843</probabilities>
		</cpt>
		<cpt id="time_zero_mra_coverage">
			<state id="S_le_1_5" />
			<state id="S_s_1_5" />
			<parents>time_zero_uacr_mean</parents>
			<probabilities>0.00376467741620125 0.9962353225837988 0.00200223904555787 0.997997760954442 0.002048973270955817 0.9979510267290442 0.01957244063457567 0.9804275593654244 0.0006597360246929433 0.9993402639753071 0.02111916907096561 0.9788808309290344 0.004669144054646762 0.9953308559453533 0.001142841199524044 0.998857158800476</probabilities>
		</cpt>
		<cpt id="study_entry_ppi_flag">
			<state id="S_0" />
			<state id="S_1" />
			<parents>time_zero_uacr_mean</parents>
			<probabilities>0.9253585356360583 0.07464146436394169 0.9016124955883253 0.09838750441167467 0.903034126407871 0.09696587359212895 0.4096352358299462 0.5903647641700539 0.9939035966082309 0.006096403391768971 0.6923262380085702 0.3076737619914298 0.8681395512892689 0.1318604487107311 0.9834298717604267 0.01657012823957321</probabilities>
		</cpt>
		<cpt id="time_zero_upcr_mean">
			<state id="S_0_5671___1_56075" />
			<state id="S_le_1_56075" />
			<state id="S_s_0_5671" />
			<parents>time_zero_uacr_mean</parents>
			<probabilities>0.3235204973749637 0.5135285813761321 0.1629509212489043 0.4067013100686573 0.511997948711956 0.0813007412193868 0.2831066945345446 0.5588208344830234 0.1580724709824318 0.2470680832849449 0.5115466675146282 0.2413852492004269 0.9602731556326775 0.0302393247801517 0.009487519587170789 0.03692794085993127 0.7857770848981203 0.1772949742419485 0.03564987362846759 0.8545147858151038 0.1098353405564285 0.8548950604593791 0.06026646654670421 0.08483847299391659</probabilities>
		</cpt>
		<cpt id="study_entry_HTN_flag">
			<state id="S_0" />
			<state id="S_1" />
			<parents>time_zero_upcr_mean</parents>
			<probabilities>0.9549781614405901 0.04502183855940982 0.2184346179541693 0.7815653820458307 0.3140557637766058 0.6859442362233941</probabilities>
		</cpt>
		<cpt id="study_entry_mra_flag">
			<state id="S_0" />
			<state id="S_1" />
			<parents>time_zero_upcr_mean</parents>
			<probabilities>0.9992215231246806 0.0007784768753194851 0.99127660835408 0.008723391645920054 0.9943495136896379 0.00565048631036206</probabilities>
		</cpt>
		<cpt id="ruca_4_class">
			<state id="S_isolated" />
			<state id="S_large_rural" />
			<state id="S_small_rural" />
			<state id="S_urban" />
			<parents>time_zero_upcr_mean</parents>
			<probabilities>0.02757174005266652 0.05460771780932198 0.0288666125602926 0.8889539295777188 0.02907601515637612 0.0735521214068405 0.0321091990966173 0.8652626643401661 0.03351763358345335 0.07585091741580352 0.03258362219378308 0.85804782680696</probabilities>
		</cpt>
		<cpt id="demo_sex">
			<state id="S_0" />
			<state id="S_1" />
			<parents>time_zero_upcr_mean</parents>
			<probabilities>0.4434282189282971 0.5565717810717027 0.5092241138969283 0.4907758861030717 0.4087187623634109 0.5912812376365891</probabilities>
		</cpt>
		<cpt id="time_zero_nsaid_coverage">
			<state id="S_0_5___89_5" />
			<state id="S_le_89_5" />
			<state id="S_s_0_5" />
			<parents>time_zero_upcr_mean</parents>
			<probabilities>0.0205688560934475 0.0001374513568666998 0.9792936925496857 0.06252526294550474 0.0002786414869512977 0.9371960955675439 0.1344726889201771 0.3184272806222487 0.5471000304575743</probabilities>
		</cpt>
		<cpt id="study_entry_nsaid_flag">
			<state id="S_0" />
			<state id="S_1" />
			<parents>time_zero_upcr_mean</parents>
			<probabilities>0.9911869355425775 0.008813064457422404 0.9714909982851749 0.02850900171482517 0.09074637298410601 0.9092536270158939</probabilities>
		</cpt>
		<cpt id="study_entry_PDM_flag">
			<state id="S_0" />
			<state id="S_1" />
			<parents>time_zero_upcr_mean</parents>
			<probabilities>0.9362369756380241 0.06376302436197583 0.9115677217181343 0.08843227828186584 0.9244960972853549 0.07550390271464522</probabilities>
		</cpt>
		<cpt id="study_entry_glp1_flag">
			<state id="S_0" />
			<state id="S_1" />
			<parents>time_zero_upcr_mean</parents>
			<probabilities>0.9999893561707733 1.064382922662811e-05 0.9940935996714853 0.005906400328514748 0.9943227690303538 0.005677230969646153</probabilities>
		</cpt>
		<cpt id="time_zero_glp1_coverage">
			<state id="S_le_63_5" />
			<state id="S_s_63_5" />
			<parents>time_zero_upcr_mean</parents>
			<probabilities>3.750661590279287e-05 0.9999624933840973 0.002841077541026527 0.9971589224589735 0.002306614307939458 0.9976933856920605</probabilities>
		</cpt>
		<cpt id="study_entry_sglt2_flag">
			<state id="S_0" />
			<state id="S_1" />
			<parents>time_zero_upcr_mean</parents>
			<probabilities>0.99989618194056 0.0001038180594399972 0.9981388478218787 0.001861152178121453 0.9979099463642378 0.002090053635762158</probabilities>
		</cpt>
		<cpt id="time_zero_sglt2_coverage">
			<state id="S_le_34_5" />
			<state id="S_s_34_5" />
			<parents>time_zero_upcr_mean</parents>
			<probabilities>4.058235426312219e-05 0.9999594176457368 0.0009388158450671078 0.9990611841549328 0.001064847166174188 0.9989351528338257</probabilities>
		</cpt>
	</nodes>
	<extensions>
		<genie version="1.0" app="SMILE_ACADEMIC 1.6.2@b061b4f1f63d" name="Unnamed">
			<node id="time_zero_norace_mean">
				<name>time_zero_norace_mean</name>
				<interior color="e5f6f7" />
				<outline color="0000bb" />
				<font color="000000" name="MS Sans Serif" size="8" />
				<position>960 40 1045 95</position>
			</node>
			<node id="year1_reduction_40_ge">
				<name>year1_reduction_40_ge</name>
				<interior color="e5f6f7" />
				<outline color="0000bb" />
				<font color="000000" name="MS Sans Serif" size="8" />
				<position>942 206 1027 261</position>
			</node>
			<node id="study_entry_period_egfrckd_norace_flag">
				<name>study_entry_period_egfrckd_norace_flag</name>
				<interior color="e5f6f7" />
				<outline color="0000bb" />
				<font color="000000" name="MS Sans Serif" size="8" />
				<position>890 365 975 420</position>
			</node>
			<node id="study_entry_age">
				<name>study_entry_age</name>
				<interior color="e5f6f7" />
				<outline color="0000bb" />
				<font color="000000" name="MS Sans Serif" size="8" />
				<position>807 510 892 565</position>
			</node>
			<node id="study_entry_period_dxckd_flag">
				<name>study_entry_period_dxckd_flag</name>
				<interior color="e5f6f7" />
				<outline color="0000bb" />
				<font color="000000" name="MS Sans Serif" size="8" />
				<position>695 634 780 689</position>
			</node>
			<node id="time_zero_uacr_mean">
				<name>time_zero_uacr_mean</name>
				<interior color="e5f6f7" />
				<outline color="0000bb" />
				<font color="000000" name="MS Sans Serif" size="8" />
				<position>560 732 645 787</position>
			</node>
			<node id="time_zero_pp_mean">
				<name>time_zero_pp_mean</name>
				<interior color="e5f6f7" />
				<outline color="0000bb" />
				<font color="000000" name="MS Sans Serif" size="8" />
				<position>407 800 492 855</position>
			</node>
			<node id="study_entry_DM_flag">
				<name>study_entry_DM_flag</name>
				<interior color="e5f6f7" />
				<outline color="0000bb" />
				<font color="000000" name="MS Sans Serif" size="8" />
				<position>243 835 328 890</position>
			</node>
			<node id="time_zero_aceiarb_coverage">
				<name>time_zero_aceiarb_coverage</name>
				<interior color="e5f6f7" />
				<outline color="0000bb" />
				<font color="000000" name="MS Sans Serif" size="8" />
				<position>76 835 161 890</position>
			</node>
			<node id="time_zero_sbp_mean">
				<name>time_zero_sbp_mean</name>
				<interior color="e5f6f7" />
				<outline color="0000bb" />
				<font color="000000" name="MS Sans Serif" size="8" />
				<position>-87 800 -2 855</position>
			</node>
			<node id="study_entry_aceiarb_flag">
				<name>study_entry_aceiarb_flag</name>
				<interior color="e5f6f7" />
				<outline color="0000bb" />
				<font color="000000" name="MS Sans Serif" size="8" />
				<position>-239 732 -154 787</position>
			</node>
			<node id="time_zero_ppi_coverage">
				<name>time_zero_ppi_coverage</name>
				<interior color="e5f6f7" />
				<outline color="0000bb" />
				<font color="000000" name="MS Sans Serif" size="8" />
				<position>-375 634 -290 689</position>
			</node>
			<node id="study_entry_period_albprockd_flag">
				<name>study_entry_period_albprockd_flag</name>
				<interior color="e5f6f7" />
				<outline color="0000bb" />
				<font color="000000" name="MS Sans Serif" size="8" />
				<position>-487 510 -402 565</position>
			</node>
			<node id="time_zero_dbp_mean">
				<name>time_zero_dbp_mean</name>
				<interior color="e5f6f7" />
				<outline color="0000bb" />
				<font color="000000" name="MS Sans Serif" size="8" />
				<position>-570 365 -485 420</position>
			</node>
			<node id="demo_race_ethnicity_cat">
				<name>demo_race_ethnicity_cat</name>
				<interior color="e5f6f7" />
				<outline color="0000bb" />
				<font color="000000" name="MS Sans Serif" size="8" />
				<position>-622 206 -537 261</position>
			</node>
			<node id="time_zero_map_mean">
				<name>time_zero_map_mean</name>
				<interior color="e5f6f7" />
				<outline color="0000bb" />
				<font color="000000" name="MS Sans Serif" size="8" />
				<position>-640 40 -555 95</position>
			</node>
			<node id="time_zero_hba1c_mean">
				<name>time_zero_hba1c_mean</name>
				<interior color="e5f6f7" />
				<outline color="0000bb" />
				<font color="000000" name="MS Sans Serif" size="8" />
				<position>-622 -126 -537 -71</position>
			</node>
			<node id="time_zero_mra_coverage">
				<name>time_zero_mra_coverage</name>
				<interior color="e5f6f7" />
				<outline color="0000bb" />
				<font color="000000" name="MS Sans Serif" size="8" />
				<position>-570 -285 -485 -230</position>
			</node>
			<node id="study_entry_ppi_flag">
				<name>study_entry_ppi_flag</name>
				<interior color="e5f6f7" />
				<outline color="0000bb" />
				<font color="000000" name="MS Sans Serif" size="8" />
				<position>-487 -430 -402 -375</position>
			</node>
			<node id="time_zero_upcr_mean">
				<name>time_zero_upcr_mean</name>
				<interior color="e5f6f7" />
				<outline color="0000bb" />
				<font color="000000" name="MS Sans Serif" size="8" />
				<position>-375 -554 -290 -499</position>
			</node>
			<node id="study_entry_HTN_flag">
				<name>study_entry_HTN_flag</name>
				<interior color="e5f6f7" />
				<outline color="0000bb" />
				<font color="000000" name="MS Sans Serif" size="8" />
				<position>-240 -652 -155 -597</position>
			</node>
			<node id="study_entry_mra_flag">
				<name>study_entry_mra_flag</name>
				<interior color="e5f6f7" />
				<outline color="0000bb" />
				<font color="000000" name="MS Sans Serif" size="8" />
				<position>-87 -720 -2 -665</position>
			</node>
			<node id="ruca_4_class">
				<name>ruca_4_class</name>
				<interior color="e5f6f7" />
				<outline color="0000bb" />
				<font color="000000" name="MS Sans Serif" size="8" />
				<position>76 -755 161 -700</position>
			</node>
			<node id="demo_sex">
				<name>demo_sex</name>
				<interior color="e5f6f7" />
				<outline color="0000bb" />
				<font color="000000" name="MS Sans Serif" size="8" />
				<position>243 -755 328 -700</position>
			</node>
			<node id="time_zero_nsaid_coverage">
				<name>time_zero_nsaid_coverage</name>
				<interior color="e5f6f7" />
				<outline color="0000bb" />
				<font color="000000" name="MS Sans Serif" size="8" />
				<position>407 -720 492 -665</position>
			</node>
			<node id="study_entry_nsaid_flag">
				<name>study_entry_nsaid_flag</name>
				<interior color="e5f6f7" />
				<outline color="0000bb" />
				<font color="000000" name="MS Sans Serif" size="8" />
				<position>559 -652 644 -597</position>
			</node>
			<node id="study_entry_PDM_flag">
				<name>study_entry_PDM_flag</name>
				<interior color="e5f6f7" />
				<outline color="0000bb" />
				<font color="000000" name="MS Sans Serif" size="8" />
				<position>695 -554 780 -499</position>
			</node>
			<node id="study_entry_glp1_flag">
				<name>study_entry_glp1_flag</name>
				<interior color="e5f6f7" />
				<outline color="0000bb" />
				<font color="000000" name="MS Sans Serif" size="8" />
				<position>807 -430 892 -375</position>
			</node>
			<node id="time_zero_glp1_coverage">
				<name>time_zero_glp1_coverage</name>
				<interior color="e5f6f7" />
				<outline color="0000bb" />
				<font color="000000" name="MS Sans Serif" size="8" />
				<position>890 -285 975 -230</position>
			</node>
			<node id="study_entry_sglt2_flag">
				<name>study_entry_sglt2_flag</name>
				<interior color="e5f6f7" />
				<outline color="0000bb" />
				<font color="000000" name="MS Sans Serif" size="8" />
				<position>942 -126 1027 -71</position>
			</node>
			<node id="time_zero_sglt2_coverage">
				<name>time_zero_sglt2_coverage</name>
				<interior color="e5f6f7" />
				<outline color="0000bb" />
				<font color="000000" name="MS Sans Serif" size="8" />
				<position>960 39 1045 94</position>
			</node>
		</genie>
	</extensions>
</smile>
