<?xml version="1.0" encoding="UTF-8"?>
<!-- This file was created by ACADEMIC version of SMILE -->
<smile version="1.0" id="Unnamed" numsamples="10000" discsamples="10000">
	<nodes>
		<cpt id="time_zero_upcr_mean">
			<state id="S_0_13195___1_08585" />
			<state id="S_le_1_08585" />
			<state id="S_s_0_13195" />
			<probabilities>0.3559633725763868 0.2406933811931062 0.403343246230507</probabilities>
		</cpt>
		<cpt id="year1_reduction_40_ge">
			<state id="S_0" />
			<state id="S_1" />
			<parents>time_zero_upcr_mean</parents>
			<probabilities>0.8680772318950665 0.1319227681049335 0.8031546116207828 0.1968453883792172 0.9204483520933384 0.07955164790666154</probabilities>
		</cpt>
		<cpt id="time_zero_uacr_mean">
			<state id="S_20_169___74_5744" />
			<state id="S_74_5744___525_334" />
			<state id="S_le_525_334" />
			<state id="S_s_20_169" />
			<parents>time_zero_upcr_mean</parents>
			<probabilities>0.2872830455295655 0.1965552053075851 0.1059971301954199 0.4101646189674295 0.184084377427629 0.1849074688049473 0.4342850318086265 0.1967231219587972 0.208837692082744 0.09992263609662579 0.09868607648426067 0.5925535953363694</probabilities>
		</cpt>
		<cpt id="time_zero_norace_mean">
			<state id="S_29_63___37_545" />
			<state id="S_37_545___52_685" />
			<state id="S_52_685___63_355" />
			<state id="S_63_355___71_965" />
			<state id="S_71_965___99_165" />
			<state id="S_9_955___29_63" />
			<state id="S_le_99_165" />
			<state id="S_s_9_955" />
			<parents>time_zero_upcr_mean</parents>
			<probabilities>0.002150815885541367 0.005212982146257429 0.09004398806241108 0.2135649943229932 0.5985475436642878 0.004975543708196922 0.08548421587589553 1.991633441671398e-05 0.1314738580162307 0.3257923210791863 0.2499019791985699 0.00220404386086061 0.00800768401496417 0.2485220889621708 0.001472138218193402 0.03262588664982444 0.000296483881530217 0.0001570081763059249 0.007906501016452945 0.04391260921274294 0.4905867077385875 0.0001569814155931446 0.456966255903371 1.745265541641631e-05</probabilities>
		</cpt>
		<cpt id="study_entry_period_dxckd_flag">
			<state id="S_0" />
			<state id="S_1" />
			<parents>time_zero_upcr_mean</parents>
			<probabilities>0.9102240515676434 0.08977594843235664 0.6251563175548772 0.3748436824451227 0.9701010113311602 0.0298989886688399</probabilities>
		</cpt>
		<cpt id="time_zero_hba1c_mean">
			<state id="S_4_775___6_02915" />
			<state id="S_6_02915___6_34165" />
			<state id="S_6_34165___6_94165" />
			<state id="S_le_6_94165" />
			<state id="S_s_4_775" />
			<parents>time_zero_upcr_mean</parents>
			<probabilities>0.3805147625295581 0.1193146857924172 0.1332009138917581 0.3434713134217366 0.02349832436453003 0.3784149081551926 0.116906072925136 0.1344826186668538 0.3472284602919553 0.02296793996086225 0.7872749474088899 0.08812357081687207 0.03151310637677025 0.06167462393098703 0.03141375146648077</probabilities>
		</cpt>
		<cpt id="study_entry_period_egfrckd_norace_flag">
			<state id="S_0" />
			<state id="S_1" />
			<parents>time_zero_upcr_mean</parents>
			<probabilities>0.98129810839621 0.01870189160378992 0.02113861255952576 0.9788613874404744 0.9993478147287566 0.0006521852712433709</probabilities>
		</cpt>
		<cpt id="time_zero_map_mean">
			<state id="S_74_9923___80_0313" />
			<state id="S_80_0313___80_3852" />
			<state id="S_80_3852___113_069" />
			<state id="S_le_113_069" />
			<state id="S_s_74_9923" />
			<parents>time_zero_upcr_mean</parents>
			<probabilities>0.06469193485039362 0.007872047261633389 0.8274849478416587 0.06374293421045019 0.03620813583586417 0.0851882381650062 0.01050308499442616 0.7550832602499274 0.09190477631445862 0.05732064027618175 0.1137503555621189 0.01023343389929804 0.8020263497572921 0.001098816451065087 0.07289104433022571</probabilities>
		</cpt>
		<cpt id="time_zero_dbp_mean">
			<state id="S_57_5___67_5" />
			<state id="S_le_67_5" />
			<state id="S_s_57_5" />
			<parents>time_zero_upcr_mean</parents>
			<probabilities>0.2174378956957292 0.7481723790478931 0.03438972525637764 0.27579587490515 0.6636509987834021 0.06055312631144789 0.2279914021720222 0.7381569195355002 0.03385167829247763</probabilities>
		</cpt>
		<cpt id="time_zero_ppi_coverage">
			<state id="S_le_86_5" />
			<state id="S_s_86_5" />
			<parents>time_zero_upcr_mean</parents>
			<probabilities>0.07263742249264275 0.9273625775073573 0.06718491863798418 0.9328150813620157 0.02328581664386043 0.9767141833561396</probabilities>
		</cpt>
		<cpt id="study_entry_DM_flag">
			<state id="S_0" />
			<state id="S_1" />
			<parents>time_zero_upcr_mean</parents>
			<probabilities>0.69705529418957 0.3029447058104299 0.6882440568532532 0.3117559431467469 0.9407488507411239 0.0592511492588761</probabilities>
		</cpt>
		<cpt id="demo_race_ethnicity_cat">
			<state id="S_1A" />
			<state id="S_1B" />
			<state id="S_2" />
			<state id="S_3" />
			<state id="S_4" />
			<state id="S_5" />
			<state id="S_8" />
			<state id="S_minus_9" />
			<parents>time_zero_upcr_mean</parents>
			<probabilities>0.572736820424679 0.07682847498946815 0.07510116117931227 0.09627406687256189 0.004596527772705739 0.003381485336849067 0.1268225012407481 0.04425896218367581 0.5083988341384332 0.1029479321770437 0.1388849355375309 0.1048689769696583 0.006098172000222865 0.002351328300808292 0.1034742070592858 0.03297561381701684 0.5085651687187568 0.1052902407129908 0.06975465471937306 0.1138874774218838 0.006018092642575731 0.003471443703888603 0.1387819469411578 0.0542309751393736</probabilities>
		</cpt>
		<cpt id="study_entry_age">
			<state id="S_44_5___53_5" />
			<state id="S_53_5___59_5" />
			<state id="S_59_5___69_5" />
			<state id="S_69_5___74_5" />
			<state id="S_le_74_5" />
			<state id="S_s_44_5" />
			<parents>time_zero_upcr_mean</parents>
			<probabilities>0.09645795333288971 0.1385858807479607 0.3212786376066483 0.1372058195338183 0.2527157324099897 0.05375597636869321 0.1034458249399954 0.1106549102905443 0.2109802315414697 0.103468988034439 0.3678893763109142 0.1035606688826373 0.2375475541835599 0.1435097208740531 0.1659443849829708 0.02689692974769673 0.004839126592288133 0.4212622836194314</probabilities>
		</cpt>
		<cpt id="study_entry_ppi_flag">
			<state id="S_0" />
			<state id="S_1" />
			<parents>time_zero_upcr_mean</parents>
			<probabilities>0.8588841328071822 0.1411158671928177 0.8892139717054053 0.1107860282945947 0.9540152868345719 0.04598471316542805</probabilities>
		</cpt>
		<cpt id="time_zero_sbp_mean">
			<state id="S_149_5___164_5" />
			<state id="S_98_5___149_5" />
			<state id="S_le_164_5" />
			<state id="S_s_98_5" />
			<parents>time_zero_upcr_mean</parents>
			<probabilities>0.1163567391036193 0.8090720811840476 0.05701746503628893 0.0175537146760442 0.1479870792862337 0.733585582538012 0.09162170712499329 0.02680563105076102 0.002320958756379954 0.9535140307699796 0.0001195250581485091 0.04404548541549192</probabilities>
		</cpt>
		<cpt id="time_zero_pp_mean">
			<state id="S_51_5___61_5" />
			<state id="S_61_5___76_5" />
			<state id="S_le_76_5" />
			<state id="S_s_51_5" />
			<parents>time_zero_upcr_mean</parents>
			<probabilities>0.3006393499446505 0.2661617647380621 0.1063341887388785 0.3268646965784089 0.2286930740471521 0.2790626678848955 0.203914620865609 0.2883296372023434 0.1996111911955587 0.03251724182218301 0.001026756477504113 0.7668448105047542</probabilities>
		</cpt>
		<cpt id="study_entry_period_albprockd_flag">
			<state id="S_0" />
			<state id="S_1" />
			<parents>time_zero_upcr_mean</parents>
			<probabilities>0.9488623913137268 0.05113760868627303 0.8796364500825501 0.1203635499174499 0.9970036846293414 0.002996315370658485</probabilities>
		</cpt>
		<cpt id="ruca_4_class">
			<state id="S_isolated" />
			<state id="S_large_rural" />
			<state id="S_small_rural" />
			<state id="S_urban" />
			<parents>time_zero_upcr_mean</parents>
			<probabilities>0.001769890488210506 0.01283632836470075 0.001860773564316901 0.983533007582772 0.0007655921331049426 0.01253318096450952 0.001244860394105479 0.9854563665082801 0.001863181323339954 0.01599546606523843 0.00219674683518426 0.9799446057762374</probabilities>
		</cpt>
		<cpt id="study_entry_HTN_flag">
			<state id="S_0" />
			<state id="S_1" />
			<parents>time_zero_upcr_mean</parents>
			<probabilities>0.3621795905449268 0.6378204094550733 0.4373157261349462 0.5626842738650537 0.8476569712228124 0.1523430287771876</probabilities>
		</cpt>
		<cpt id="study_entry_nsaid_flag">
			<state id="S_0" />
			<state id="S_1" />
			<parents>time_zero_upcr_mean</parents>
			<probabilities>0.9240338106062755 0.07596618939372446 0.9704263742853338 0.02957362571466631 0.9425685989607144 0.05743140103928548</probabilities>
		</cpt>
		<cpt id="study_entry_PDM_flag">
			<state id="S_0" />
			<state id="S_1" />
			<parents>time_zero_upcr_mean</parents>
			<probabilities>0.884215480004891 0.1157845199951089 0.9098292270953886 0.09017077290461134 0.87432847612062 0.12567152387938</probabilities>
		</cpt>
		<cpt id="time_zero_mra_coverage">
			<state id="S_le_6_5" />
			<state id="S_s_6_5" />
			<parents>time_zero_upcr_mean</parents>
			<probabilities>0.002287213873242415 0.9977127861267575 0.001051502585281444 0.9989484974147187 7.232285341042039e-05 0.9999276771465895</probabilities>
		</cpt>
		<cpt id="demo_sex">
			<state id="S_0" />
			<state id="S_1" />
			<parents>time_zero_upcr_mean</parents>
			<probabilities>0.4989653540002594 0.5010346459997406 0.5117064672977792 0.4882935327022208 0.4576814734331782 0.5423185265668218</probabilities>
		</cpt>
		<cpt id="study_entry_mra_flag">
			<state id="S_0" />
			<state id="S_1" />
			<parents>time_zero_upcr_mean</parents>
			<probabilities>0.9987914971313187 0.001208502868681395 0.9989462189808835 0.001053781019116424 0.9998134608116707 0.0001865391883294038</probabilities>
		</cpt>
		<cpt id="time_zero_glp1_coverage">
			<state id="S_le_43_5" />
			<state id="S_s_43_5" />
			<parents>time_zero_upcr_mean</parents>
			<probabilities>0.0048366416988349 0.9951633583011651 0.001718767308413401 0.9982812326915865 0.000351645537980349 0.9996483544620195</probabilities>
		</cpt>
		<cpt id="study_entry_aceiarb_flag">
			<state id="S_0" />
			<state id="S_1" />
			<parents>time_zero_upcr_mean</parents>
			<probabilities>0.765091841078939 0.234908158921061 0.8308770865558317 0.1691229134441684 0.9954901106817223 0.004509889318277649</probabilities>
		</cpt>
		<cpt id="study_entry_sglt2_flag">
			<state id="S_0" />
			<state id="S_1" />
			<parents>time_zero_upcr_mean</parents>
			<probabilities>0.9927739588323536 0.007226041167646467 0.9978491684637393 0.002150831536260709 0.9999238689725937 7.613102740635269e-05</probabilities>
		</cpt>
		<cpt id="study_entry_glp1_flag">
			<state id="S_0" />
			<state id="S_1" />
			<parents>time_zero_upcr_mean</parents>
			<probabilities>0.9913325746190351 0.008667425380964848 0.9950520008365259 0.004947999163473973 0.9995195240919654 0.0004804759080347288</probabilities>
		</cpt>
		<cpt id="time_zero_sglt2_coverage">
			<state id="S_le_34_5" />
			<state id="S_s_34_5" />
			<parents>time_zero_upcr_mean</parents>
			<probabilities>0.005634448385850936 0.9943655516141491 0.0005392262736413698 0.9994607737263588 7.266619853938305e-05 0.9999273338014606</probabilities>
		</cpt>
		<cpt id="time_zero_nsaid_coverage">
			<state id="S_le_3_5" />
			<state id="S_s_3_5" />
			<parents>time_zero_upcr_mean</parents>
			<probabilities>0.04965335351552147 0.9503466464844785 0.02008877538769371 0.9799112246123063 0.04198307138375659 0.9580169286162434</probabilities>
		</cpt>
		<cpt id="time_zero_aceiarb_coverage">
			<state id="S_le_89_5" />
			<state id="S_s_89_5" />
			<parents>time_zero_upcr_mean</parents>
			<probabilities>0.09492400461264935 0.9050759953873508 0.06283709600610092 0.9371629039938991 7.781567756473801e-05 0.9999221843224354</probabilities>
		</cpt>
	</nodes>
	<extensions>
		<genie version="1.0" app="SMILE_ACADEMIC 1.6.2@b061b4f1f63d" name="Unnamed">
			<node id="time_zero_upcr_mean">
				<name>time_zero_upcr_mean</name>
				<interior color="e5f6f7" />
				<outline color="0000bb" />
				<font color="000000" name="MS Sans Serif" size="8" />
				<position>960 40 1045 95</position>
			</node>
			<node id="year1_reduction_40_ge">
				<name>year1_reduction_40_ge</name>
				<interior color="e5f6f7" />
				<outline color="0000bb" />
				<font color="000000" name="MS Sans Serif" size="8" />
				<position>942 206 1027 261</position>
			</node>
			<node id="time_zero_uacr_mean">
				<name>time_zero_uacr_mean</name>
				<interior color="e5f6f7" />
				<outline color="0000bb" />
				<font color="000000" name="MS Sans Serif" size="8" />
				<position>890 365 975 420</position>
			</node>
			<node id="time_zero_norace_mean">
				<name>time_zero_norace_mean</name>
				<interior color="e5f6f7" />
				<outline color="0000bb" />
				<font color="000000" name="MS Sans Serif" size="8" />
				<position>807 510 892 565</position>
			</node>
			<node id="study_entry_period_dxckd_flag">
				<name>study_entry_period_dxckd_flag</name>
				<interior color="e5f6f7" />
				<outline color="0000bb" />
				<font color="000000" name="MS Sans Serif" size="8" />
				<position>695 634 780 689</position>
			</node>
			<node id="time_zero_hba1c_mean">
				<name>time_zero_hba1c_mean</name>
				<interior color="e5f6f7" />
				<outline color="0000bb" />
				<font color="000000" name="MS Sans Serif" size="8" />
				<position>560 732 645 787</position>
			</node>
			<node id="study_entry_period_egfrckd_norace_flag">
				<name>study_entry_period_egfrckd_norace_flag</name>
				<interior color="e5f6f7" />
				<outline color="0000bb" />
				<font color="000000" name="MS Sans Serif" size="8" />
				<position>407 800 492 855</position>
			</node>
			<node id="time_zero_map_mean">
				<name>time_zero_map_mean</name>
				<interior color="e5f6f7" />
				<outline color="0000bb" />
				<font color="000000" name="MS Sans Serif" size="8" />
				<position>243 835 328 890</position>
			</node>
			<node id="time_zero_dbp_mean">
				<name>time_zero_dbp_mean</name>
				<interior color="e5f6f7" />
				<outline color="0000bb" />
				<font color="000000" name="MS Sans Serif" size="8" />
				<position>76 835 161 890</position>
			</node>
			<node id="time_zero_ppi_coverage">
				<name>time_zero_ppi_coverage</name>
				<interior color="e5f6f7" />
				<outline color="0000bb" />
				<font color="000000" name="MS Sans Serif" size="8" />
				<position>-87 800 -2 855</position>
			</node>
			<node id="study_entry_DM_flag">
				<name>study_entry_DM_flag</name>
				<interior color="e5f6f7" />
				<outline color="0000bb" />
				<font color="000000" name="MS Sans Serif" size="8" />
				<position>-239 732 -154 787</position>
			</node>
			<node id="demo_race_ethnicity_cat">
				<name>demo_race_ethnicity_cat</name>
				<interior color="e5f6f7" />
				<outline color="0000bb" />
				<font color="000000" name="MS Sans Serif" size="8" />
				<position>-375 634 -290 689</position>
			</node>
			<node id="study_entry_age">
				<name>study_entry_age</name>
				<interior color="e5f6f7" />
				<outline color="0000bb" />
				<font color="000000" name="MS Sans Serif" size="8" />
				<position>-487 510 -402 565</position>
			</node>
			<node id="study_entry_ppi_flag">
				<name>study_entry_ppi_flag</name>
				<interior color="e5f6f7" />
				<outline color="0000bb" />
				<font color="000000" name="MS Sans Serif" size="8" />
				<position>-570 365 -485 420</position>
			</node>
			<node id="time_zero_sbp_mean">
				<name>time_zero_sbp_mean</name>
				<interior color="e5f6f7" />
				<outline color="0000bb" />
				<font color="000000" name="MS Sans Serif" size="8" />
				<position>-622 206 -537 261</position>
			</node>
			<node id="time_zero_pp_mean">
				<name>time_zero_pp_mean</name>
				<interior color="e5f6f7" />
				<outline color="0000bb" />
				<font color="000000" name="MS Sans Serif" size="8" />
				<position>-640 40 -555 95</position>
			</node>
			<node id="study_entry_period_albprockd_flag">
				<name>study_entry_period_albprockd_flag</name>
				<interior color="e5f6f7" />
				<outline color="0000bb" />
				<font color="000000" name="MS Sans Serif" size="8" />
				<position>-622 -126 -537 -71</position>
			</node>
			<node id="ruca_4_class">
				<name>ruca_4_class</name>
				<interior color="e5f6f7" />
				<outline color="0000bb" />
				<font color="000000" name="MS Sans Serif" size="8" />
				<position>-570 -285 -485 -230</position>
			</node>
			<node id="study_entry_HTN_flag">
				<name>study_entry_HTN_flag</name>
				<interior color="e5f6f7" />
				<outline color="0000bb" />
				<font color="000000" name="MS Sans Serif" size="8" />
				<position>-487 -430 -402 -375</position>
			</node>
			<node id="study_entry_nsaid_flag">
				<name>study_entry_nsaid_flag</name>
				<interior color="e5f6f7" />
				<outline color="0000bb" />
				<font color="000000" name="MS Sans Serif" size="8" />
				<position>-375 -554 -290 -499</position>
			</node>
			<node id="study_entry_PDM_flag">
				<name>study_entry_PDM_flag</name>
				<interior color="e5f6f7" />
				<outline color="0000bb" />
				<font color="000000" name="MS Sans Serif" size="8" />
				<position>-240 -652 -155 -597</position>
			</node>
			<node id="time_zero_mra_coverage">
				<name>time_zero_mra_coverage</name>
				<interior color="e5f6f7" />
				<outline color="0000bb" />
				<font color="000000" name="MS Sans Serif" size="8" />
				<position>-87 -720 -2 -665</position>
			</node>
			<node id="demo_sex">
				<name>demo_sex</name>
				<interior color="e5f6f7" />
				<outline color="0000bb" />
				<font color="000000" name="MS Sans Serif" size="8" />
				<position>76 -755 161 -700</position>
			</node>
			<node id="study_entry_mra_flag">
				<name>study_entry_mra_flag</name>
				<interior color="e5f6f7" />
				<outline color="0000bb" />
				<font color="000000" name="MS Sans Serif" size="8" />
				<position>243 -755 328 -700</position>
			</node>
			<node id="time_zero_glp1_coverage">
				<name>time_zero_glp1_coverage</name>
				<interior color="e5f6f7" />
				<outline color="0000bb" />
				<font color="000000" name="MS Sans Serif" size="8" />
				<position>407 -720 492 -665</position>
			</node>
			<node id="study_entry_aceiarb_flag">
				<name>study_entry_aceiarb_flag</name>
				<interior color="e5f6f7" />
				<outline color="0000bb" />
				<font color="000000" name="MS Sans Serif" size="8" />
				<position>559 -652 644 -597</position>
			</node>
			<node id="study_entry_sglt2_flag">
				<name>study_entry_sglt2_flag</name>
				<interior color="e5f6f7" />
				<outline color="0000bb" />
				<font color="000000" name="MS Sans Serif" size="8" />
				<position>695 -554 780 -499</position>
			</node>
			<node id="study_entry_glp1_flag">
				<name>study_entry_glp1_flag</name>
				<interior color="e5f6f7" />
				<outline color="0000bb" />
				<font color="000000" name="MS Sans Serif" size="8" />
				<position>807 -430 892 -375</position>
			</node>
			<node id="time_zero_sglt2_coverage">
				<name>time_zero_sglt2_coverage</name>
				<interior color="e5f6f7" />
				<outline color="0000bb" />
				<font color="000000" name="MS Sans Serif" size="8" />
				<position>890 -285 975 -230</position>
			</node>
			<node id="time_zero_nsaid_coverage">
				<name>time_zero_nsaid_coverage</name>
				<interior color="e5f6f7" />
				<outline color="0000bb" />
				<font color="000000" name="MS Sans Serif" size="8" />
				<position>942 -126 1027 -71</position>
			</node>
			<node id="time_zero_aceiarb_coverage">
				<name>time_zero_aceiarb_coverage</name>
				<interior color="e5f6f7" />
				<outline color="0000bb" />
				<font color="000000" name="MS Sans Serif" size="8" />
				<position>960 39 1045 94</position>
			</node>
		</genie>
	</extensions>
</smile>
