<?xml version="1.0" encoding="UTF-8"?>
<!-- This file was created by ACADEMIC version of SMILE -->
<smile version="1.0" id="Unnamed" numsamples="10000" discsamples="10000">
	<nodes>
		<cpt id="time_zero_norace_mean">
			<state id="S_102_725___109_475" />
			<state id="S_109_475___115_755" />
			<state id="S_10_865___20_925" />
			<state id="S_20_925___24_705" />
			<state id="S_24_705___30_025" />
			<state id="S_30_025___36_445" />
			<state id="S_36_445___42_015" />
			<state id="S_42_015___48_505" />
			<state id="S_48_505___56_105" />
			<state id="S_56_105___62_585" />
			<state id="S_62_585___71_015" />
			<state id="S_6_795___8_975" />
			<state id="S_71_015___82_355" />
			<state id="S_82_355___88_705" />
			<state id="S_88_705___102_725" />
			<state id="S_8_975___10_865" />
			<state id="S_le_115_755" />
			<state id="S_s_6_795" />
			<probabilities>0.06306426181242503 0.03909260799237313 0.03018997568124434 0.01229711670140752 0.02149328611162859 0.03150193624625817 0.03320372781264117 0.04303692484639057 0.06225814242722429 0.06043762266308488 0.09394481369406314 0.004175081032929148 0.1512693113404427 0.09439733273339164 0.1906812981706551 0.004570787634270481 0.06244619691822237 0.001939576181347742</probabilities>
		</cpt>
		<cpt id="study_entry_period_egfrckd_norace_flag">
			<state id="S_0" />
			<state id="S_1" />
			<parents>time_zero_norace_mean</parents>
			<probabilities>0.9999111087015888 8.889129841127665e-05 0.9998565126707789 0.0001434873292210891 0.0001827239897519319 0.9998172760102481 0.000448370456908132 0.999551629543092 0.0002566225794628809 0.9997433774205372 0.0001751166042509089 0.9998248833957492 0.0001661441648467827 0.9998338558351533 0.0001281922730182058 0.9998718077269818 8.862155970348181e-05 0.9999113784402965 0.4134550547121736 0.5865449452878263 0.9999410103730889 5.898962691101078e-05 0.001318440192156368 0.9986815598078436 0.9999633080207074 3.669197929249617e-05 0.9999411303239875 5.886967601261569e-05 0.9999707820551023 2.921794489763036e-05 0.001204558629131267 0.9987954413708687 0.9999104067881436 8.95932118564058e-05 0.002829917057807409 0.9971700829421926</probabilities>
		</cpt>
		<cpt id="time_zero_uacr_mean">
			<state id="S_111_02___440_058" />
			<state id="S_11_0034___51_8122" />
			<state id="S_440_058___867_873" />
			<state id="S_51_8122___111_02" />
			<state id="S_867_873___2725_15" />
			<state id="S_le_2725_15" />
			<state id="S_s_11_0034" />
			<parents>study_entry_period_egfrckd_norace_flag</parents>
			<probabilities>0.06814214623511169 0.1273338249289114 0.1228373325194591 0.1210851081059259 0.04521648648816034 0.0987612353585967 0.416623866363835 0.1075380946816636 0.08685649600272867 0.3666047289410128 0.0836865188402877 0.1320493486819575 0.1143234649147503 0.1089413479375995</probabilities>
		</cpt>
		<cpt id="time_zero_upcr_mean">
			<state id="S_0_59875___2_3791" />
			<state id="S_le_2_3791" />
			<state id="S_s_0_59875" />
			<parents>time_zero_uacr_mean</parents>
			<probabilities>0.04842244387146487 0.6544521868146704 0.2971253693138648 0.04834660746053739 0.4454376537706626 0.5062157387688 0.8357669805436824 0.06770063006109586 0.09653238939522174 0.5233782277115704 0.2662319353366071 0.2103898369518224 0.03867910248048546 0.5678926649526832 0.3934282325668313 0.03102516612653487 0.3126786375514451 0.6562961963220202 0.4332415828806199 0.1103725529855517 0.4563858641338284</probabilities>
		</cpt>
		<cpt id="year1_reduction_40_ge">
			<state id="S_0" />
			<state id="S_1" />
			<parents>time_zero_norace_mean time_zero_upcr_mean</parents>
			<probabilities>0.9313847065855371 0.06861529341446303 0.7288078987074996 0.2711921012925003 0.9810742175057566 0.01892578249424346 0.9387632521359005 0.06123674786409948 0.7612728743672685 0.2387271256327315 0.9749210992543291 0.02507890074567089 0.7152680157793913 0.2847319842206087 0.5790137416100632 0.4209862583899368 0.8929415044342442 0.1070584955657558 0.7431607861511268 0.2568392138488732 0.536284877043828 0.4637151229561721 0.8283801842814348 0.1716198157185653 0.7803278217288001 0.2196721782712 0.573931377472484 0.426068622527516 0.8912815015678024 0.1087184984321975 0.7999791626611017 0.2000208373388983 0.6340044018663855 0.3659955981336144 0.9377528772598737 0.06224712274012623 0.8351792830950383 0.1648207169049617 0.6673628182512222 0.3326371817487777 0.9256550459907034 0.07434495400929676 0.8422781347164817 0.1577218652835184 0.6890246602489692 0.3109753397510306 0.9552185691204798 0.04478143087952018 0.8380509951043688 0.1619490048956313 0.709758082690838 0.290241917309162 0.97525862488953 0.02474137511047017 0.8582387206520359 0.1417612793479641 0.7117914113054572 0.2882085886945429 0.9828129077332202 0.01718709226677983 0.8754250865818557 0.1245749134181443 0.6837453283918792 0.3162546716081207 0.9820968280130163 0.01790317198698367 0.7651364460765422 0.2348635539234578 0.6750336398387802 0.3249663601612199 0.6472768940811786 0.3527231059188213 0.8939161322401653 0.1060838677598347 0.7184343370685897 0.2815656629314102 0.9787569782600779 0.02124302173992196 0.8962512450584762 0.1037487549415238 0.7151932068293647 0.2848067931706353 0.9822613361377741 0.01773866386222586 0.9210210608701545 0.07897893912984554 0.7043322873315894 0.2956677126684106 0.9812584708067849 0.01874152919321517 0.6462576143092952 0.3537423856907048 0.5390095947354587 0.4609904052645413 0.8054862648267266 0.1945137351732733 0.9561600846018713 0.04383991539812873 0.8427364554360266 0.1572635445639733 0.9696065237070346 0.03039347629296542 0.7894613615841379 0.2105386384158621 0.5923205715616779 0.4076794284383221 0.7066857183665821 0.2933142816334179</probabilities>
		</cpt>
		<cpt id="time_zero_scr_count">
			<state id="S_10_5___114_5" />
			<state id="S_1_5___2_5" />
			<state id="S_2_5___4_5" />
			<state id="S_4_5___10_5" />
			<state id="S_le_114_5" />
			<state id="S_s_1_5" />
			<parents>time_zero_norace_mean</parents>
			<probabilities>0.0441236022805066 0.1312626985310221 0.09031783528034848 0.07999416522668602 0.0005540966274486012 0.6537476020539882 0.04972239231125951 0.1245178241048806 0.0816162360576012 0.06976205283366403 0.0008937790515523311 0.6734877156410425 0.1742163486545297 0.14456691448319 0.1758908243846374 0.1802030561374116 0.0004263559760878411 0.3246965003641435 0.1547661561664482 0.1692475583539704 0.1367788161023273 0.1732364077453775 0.0001494568189693774 0.3658216048129072 0.1255424729232898 0.1456732104792408 0.1671971647613747 0.1974192390081164 0.001112031177672484 0.3630558816503057 0.1175780767199325 0.1612060727590223 0.1569068652750213 0.1628827353164538 0.003210471077933327 0.3982157788516367 0.0902074183399685 0.1698677667161585 0.164832596815458 0.1547320925460427 0.001384534707056523 0.4189755908753158 0.09295052553464284 0.1567698429867084 0.1392693774758724 0.1469370645014194 0.003119345310109674 0.4609538441912474 0.07490857536276406 0.1634580280701602 0.140870233158514 0.1307659227452118 0.003042673549819543 0.4869545671135306 0.06050254236658562 0.1594697768103159 0.1311341668291952 0.1198822579325541 0.002586566545266414 0.5264246895160828 0.05957553956019207 0.1571909487391134 0.1218332677677742 0.1103214689378234 0.002956262213731502 0.5481225127813656 0.1407804696974698 0.1038153354206791 0.1776084214632443 0.234934434235232 0.0004394800640521229 0.3424218591193227 0.061002883672383 0.146944372503322 0.1124364621723086 0.1048491031350173 0.001471267406832593 0.5732959111101363 0.05122358344220994 0.1391356678466592 0.1093250591470624 0.1002065328487582 0.001188527288045113 0.5989206294272652 0.05244625979786738 0.138162197907631 0.0960276961582729 0.08653586624373598 0.0002411543872220862 0.6265868255052707 0.155368745400054 0.09484700671675964 0.140507542371035 0.231253999718107 0.0004015195430437557 0.3776211862510006 0.04526712518341016 0.1233728809458053 0.0830829080070654 0.06240808475906672 2.945157452764701e-05 0.6858395495301247 0.1432129267163929 0.1604052046435068 0.1883765694515819 0.1788259519251685 0.0009433056859358028 0.328236041577414</probabilities>
		</cpt>
		<cpt id="time_zero_bp_count">
			<state id="S_0_5___6_5" />
			<state id="S_1475_5___21039_5" />
			<state id="S_161_5___1475_5" />
			<state id="S_16_5___24_5" />
			<state id="S_24_5___161_5" />
			<state id="S_6_5___16_5" />
			<state id="S_le_21039_5" />
			<state id="S_s_0_5" />
			<parents>time_zero_scr_count</parents>
			<probabilities>0.02905317240254445 0.09886233893328984 0.3652136682433535 0.004424237481650628 0.1247961180884032 0.00263007665959876 0.003445604305985973 0.3715747838851737 0.1829113203249563 9.490547414774884e-06 0.02301457748082909 0.06492483486447498 0.1954388429124592 0.1502638372181307 9.490547414774884e-06 0.3834276061043201 0.0756389020350213 0.0001064836725035495 0.06323946994794132 0.07734264079507809 0.3004377662091813 0.09456933270231897 1.183151916706105e-05 0.3886535731187885 0.03943079237713139 0.00332246740220662 0.1868731193580742 0.03230942828485456 0.3240847542627883 0.02659227683049147 1.253761283851555e-05 0.3873746238716148 0.001 0.449 0.009000000000000001 0.001 0.001 0.001 0.345 0.193 0.3207724580454097 4.195459032576506e-05 0.004503948667324779 0.02778134254689043 0.06961747285291214 0.08426702862783811 2.46791707798618e-06 0.4930133267522211</probabilities>
		</cpt>
		<cpt id="study_entry_age">
			<state id="S_38_5___44_5" />
			<state id="S_44_5___50_5" />
			<state id="S_50_5___56_5" />
			<state id="S_56_5___66_5" />
			<state id="S_66_5___71_5" />
			<state id="S_71_5___76_5" />
			<state id="S_le_76_5" />
			<state id="S_s_38_5" />
			<parents>time_zero_norace_mean</parents>
			<probabilities>0.1928478470457939 0.2600395909128699 0.2070208868271182 0.1218065309299811 0.008420812090007114 0.00299649663813902 0.0001968501240800945 0.2066709854320106 0.2399450993457185 0.183495870120884 0.08188674627905056 0.02713091741912101 0.001446511251796385 3.528075977413803e-05 3.528075386627077e-05 0.4660242940697891 0.04424402420460873 0.05477137411495081 0.09545102642992609 0.2353044717857057 0.1358677758923677 0.100444155230468 0.2713476868192938 0.06256948552267919 0.04216916506541375 0.05187671339041307 0.07625021594519032 0.1963870369977328 0.1240827664632318 0.1088405838202867 0.3473412078447654 0.05305231047296632 0.01836494653769004 0.03337131304759971 0.05757881076936754 0.1814890857103036 0.1239818476624681 0.107025905547548 0.4493902562414457 0.02879783448357727 0.0178834877053701 0.03242725276079388 0.05973539393871501 0.1597579868106884 0.1109351062152129 0.1144099774669042 0.4706304554095477 0.03422033969276774 0.01461442305613568 0.02877847929826068 0.04834367940782074 0.1559233532623954 0.113908058428892 0.1218409297451243 0.5016954555614994 0.01489562123987194 0.0204237146617403 0.02720179432204597 0.05305610788195776 0.1414356950050914 0.1084442278283179 0.1199383736291544 0.5107208022830667 0.01877928438862549 0.01502086759090205 0.029504952689593 0.05238668718213549 0.1609997366041201 0.1252321467364274 0.1372177196283977 0.4583930683248562 0.02124482124356819 0.0162752594741783 0.03478893711082381 0.06093993843389538 0.2006848272042206 0.1405942268147461 0.1282964555365338 0.3981472484373499 0.02027310698825201 0.02198110755719431 0.05252266787643819 0.08705805150745978 0.2357717645669929 0.1367467215680511 0.1212410217602076 0.3208180859391208 0.02386057922453555 0.07843143497516074 0.08024566919068185 0.1233127905256637 0.2332977472854475 0.1059645716900148 0.08494084573149048 0.1480814204552121 0.1457255201463288 0.04035348963367642 0.07544507571534645 0.1076183831982043 0.2659316295906524 0.1310370429827813 0.1112661232512333 0.2266086218119788 0.041739633816127 0.04969900887382546 0.08991416398843805 0.1398322599514704 0.2271597768424868 0.1422871913734352 0.1192570329399165 0.1502366720413981 0.08161389398902957 0.07339538095528539 0.1161665629251577 0.1827830186246706 0.3462856902646133 0.09978727977991071 0.04254687036202894 0.01598130141416838 0.1230538956741648 0.07638314690637749 0.1098112146374193 0.08064864846299087 0.2591374526088714 0.125772296351028 0.0969766475046477 0.1328923212083706 0.1183782723202945 0.08696329627460041 0.0332435435872801 0.01698621180821452 0.006383631729345481 2.208868492768057e-05 2.208868396832313e-05 2.208868163173779e-05 0.8563570505500318 0.09311908733204589 0.09230281597664047 0.1268145541726067 0.2393433338895632 0.08574524814289942 0.06309587520046835 0.08565032076992521 0.2139287645158507</probabilities>
		</cpt>
		<cpt id="study_entry_period_dxckd_flag">
			<state id="S_0" />
			<state id="S_1" />
			<parents>time_zero_norace_mean</parents>
			<probabilities>0.9869641295450284 0.01303587045497167 0.9880045033135749 0.01199549668642507 0.6566829490407892 0.3433170509592106 0.7490166318845199 0.2509833681154801 0.7689719752653914 0.2310280247346086 0.8121081954636181 0.1878918045363818 0.8515058416084712 0.1484941583915289 0.8887428146041829 0.111257185395817 0.9164925533833586 0.08350744661664146 0.9468370595179704 0.05316294048202948 0.9659931862418032 0.03400681375819674 0.6529079110379166 0.3470920889620833 0.9750127668978976 0.02498723310210238 0.9808861347467309 0.01911386525326905 0.9854439167185903 0.0145560832814095 0.6054535695244857 0.3945464304755143 0.981533813769882 0.01846618623011794 0.7112761092245048 0.2887238907754953</probabilities>
		</cpt>
		<cpt id="time_zero_ipv_count">
			<state id="S_0_5___1_5" />
			<state id="S_le_1_5" />
			<state id="S_s_0_5" />
			<parents>time_zero_scr_count</parents>
			<probabilities>0.3579078997444681 0.3091393464905127 0.3329527537650193 0.08263103282463999 0.005491863437349732 0.9118771037380102 0.2074144186780249 0.02170689383183468 0.7708786874901403 0.3511868940153794 0.07826813774657305 0.5705449682380475 0.2346666666666667 0.1706666666666667 0.5946666666666667 0.01704508061862455 0.001289897992760776 0.9816650213886148</probabilities>
		</cpt>
		<cpt id="time_zero_av_count">
			<state id="S_0_5___2_5" />
			<state id="S_10_5___20_5" />
			<state id="S_20_5___67_5" />
			<state id="S_2_5___10_5" />
			<state id="S_le_67_5" />
			<state id="S_s_0_5" />
			<parents>time_zero_bp_count</parents>
			<probabilities>0.2587590086716267 0.08429453571012467 0.01493816680814234 0.4385163362793562 8.32209850035785e-06 0.2034836304322498 0.001669051025274202 0.2606103958035288 0.6340009537434431 0.04172627563185504 0.06175488793514545 0.0002384358607534573 0.03642592243384247 0.3109874913570934 0.2904330881890753 0.3585077629015023 0.001728581306178892 0.001917153812307498 0.2272285408768349 0.1802760766015359 0.05779138718771265 0.4619908622533295 4.860503548167591e-05 0.07266452804510548 0.1886192952050837 0.1935171928766986 0.1034712279908573 0.4794037123552609 0.0003139677994624872 0.03467460377263708 0.2393951470067304 0.1539806942968473 0.04691374424371236 0.4375885582713425 2.213956783563584e-05 0.1220997166135317 0.002564102564102564 0.002564102564102564 0.4487179487179487 0.002564102564102564 0.541025641025641 0.002564102564102564 0.3157491975247361 0.04028508554220855 0.008268804394586188 0.260874780767067 4.136470432509348e-06 0.3748179953009695</probabilities>
		</cpt>
		<cpt id="study_entry_DM_flag">
			<state id="S_0" />
			<state id="S_1" />
			<parents>time_zero_bp_count</parents>
			<probabilities>0.7967493883257601 0.2032506116742398 0.4871244635193133 0.5128755364806867 0.6018291533094474 0.3981708466905525 0.7020997375328084 0.2979002624671916 0.6794137593248437 0.3205862406751563 0.7383767268862912 0.2616232731137088 0.4076923076923077 0.5923076923076923 0.8200511267745457 0.1799488732254542</probabilities>
		</cpt>
		<cpt id="time_zero_pp_mean">
			<state id="S_45_5___52_5" />
			<state id="S_52_5___56_5" />
			<state id="S_56_5___63_5" />
			<state id="S_63_5___68_5" />
			<state id="S_68_5___74_5" />
			<state id="S_74_5___87_5" />
			<state id="S_le_87_5" />
			<state id="S_s_45_5" />
			<parents>time_zero_uacr_mean</parents>
			<probabilities>0.2184316590025914 0.1542202298966383 0.2615061415500108 0.1152206619717359 0.05165830997013277 0.01577942923672841 0.004551360381430469 0.1786322079907319 0.2826545189720806 0.1652879902149764 0.243471499296089 0.05694403651480488 0.01269416241716132 0.005687435221278287 0.001873599050129697 0.2313867583134797 0.02980669728847834 0.0615555710297128 0.216641984518634 0.2143878710054236 0.2150541420204581 0.1827993057433621 0.07104353286868284 0.008710895525248338 0.2645026197275597 0.09150121438249507 0.1113105159277756 0.04275905178702066 0.02068735381252753 0.01650083742004823 0.00137124156718454 0.4513671653753887 0.006772133608737277 0.004055157988288942 0.02823493594565518 0.1719937791402722 0.2578605913698407 0.3838667408003228 0.1430146418607832 0.00420201928609951 0.1337763029741129 0.08609395972109622 0.1738549341852481 0.1137776085055609 0.1133751155826987 0.1811639624463367 0.1261955458170609 0.07176257076788575 0.3244431637581369 0.1306630575699049 0.1130774432745272 0.01938317050786472 0.004718110261580456 0.002916179399732434 0.0006157880614770246 0.4041830871667763</probabilities>
		</cpt>
		<cpt id="time_zero_aceiarb_coverage">
			<state id="S_le_1_5" />
			<state id="S_s_1_5" />
			<parents>time_zero_uacr_mean</parents>
			<probabilities>0.444525219819098 0.5554747801809019 0.3186710748571017 0.6813289251428983 0.00630730187346634 0.9936926981265337 0.01997064523066846 0.9800293547693315 0.4779823714790563 0.5220176285209437 0.2444955716136901 0.7555044283863098 0.01272033584399495 0.9872796641560052</probabilities>
		</cpt>
		<cpt id="time_zero_ppi_coverage">
			<state id="S_4_5___78_5" />
			<state id="S_le_78_5" />
			<state id="S_s_4_5" />
			<parents>time_zero_uacr_mean</parents>
			<probabilities>0.112137730967699 0.3215671419927961 0.5662951270395049 0.07456537473392187 0.1729689168952926 0.7524657083707855 0.0005014510427587959 0.00111936361372946 0.9983791853435118 0.02667439985939369 0.01434531152912087 0.9589802886114853 0.06904792898383508 0.21542848625459 0.7155235847615748 0.02751097071717272 0.0566992567108081 0.9157897725720192 0.009040507499652913 0.004600368295480416 0.9863591242048666</probabilities>
		</cpt>
		<cpt id="time_zero_sbp_mean">
			<state id="S_132_5___144_5" />
			<state id="S_144_5___153_5" />
			<state id="S_153_5___169_5" />
			<state id="S_le_169_5" />
			<state id="S_s_132_5" />
			<parents>time_zero_uacr_mean</parents>
			<probabilities>0.01750328426115797 0.007040818683106446 0.003933881530498631 0.002976597117592908 0.968545418407644 0.3536069517425285 0.0132787604221849 0.005466510231659006 0.001280361496033009 0.6263674161075946 0.5532301476707334 0.2628339742696363 0.1055293220817459 0.0167947552667426 0.06161180071114154 0.01408116840234153 0.004839472100407833 0.003117938240556959 0.001064720908487818 0.976896700348206 0.4450313167893442 0.321524804503515 0.1926785438098047 0.02346415217749446 0.01730118271984169 0.1895267441207755 0.2534290046853286 0.3544296879164262 0.1917493338845577 0.01086522939291194 0.1235248497291614 0.004732507979086443 0.002350541042771287 0.0005359253922058271 0.8688561758567751</probabilities>
		</cpt>
		<cpt id="time_zero_hba1c_mean">
			<state id="S_4_425___4_85835" />
			<state id="S_4_85835___6_02915" />
			<state id="S_6_02915___6_32915" />
			<state id="S_6_32915___7_71" />
			<state id="S_7_71___12_3416" />
			<state id="S_le_12_3416" />
			<state id="S_s_4_425" />
			<parents>time_zero_uacr_mean</parents>
			<probabilities>0.01934732864422225 0.3528749970209162 0.09038884546604095 0.2436030640508191 0.245840141319794 0.03852083922679057 0.009424784271416884 0.0136600764323567 0.343816453639391 0.1049598693510747 0.2317986252733815 0.2454804481810635 0.05406702733866925 0.006217499784063311 0.009076783898312573 0.2741881694049531 0.1328431787686397 0.3192482132008705 0.240498707455935 0.02285711841070938 0.001287828860579728 0.009269703505882651 0.4814345834001499 0.07778308211302989 0.1808939598107255 0.1957309736777133 0.03471645585261209 0.02017124163988667 0.01141941637107959 0.2382608161816178 0.09555460093555634 0.2693138088930645 0.323908606534888 0.05561875405950241 0.005923997024291332 0.01119200366290646 0.3942558138357992 0.08288491870695895 0.1755118660480739 0.2831592549332094 0.04863319031336839 0.004362952499683859 0.01663744383232711 0.5892607136340886 0.08285666597363922 0.1605807833800258 0.1229003053213949 0.02610022435037716 0.001663863508147214</probabilities>
		</cpt>
		<cpt id="study_entry_aceiarb_flag">
			<state id="S_0" />
			<state id="S_1" />
			<parents>time_zero_uacr_mean</parents>
			<probabilities>0.4864591598754457 0.5135408401245543 0.5901131717396064 0.4098868282603935 0.9915767155947645 0.008423284405235416 0.9553399719955655 0.04466002800443439 0.4473060074904306 0.5526939925095694 0.6783524121705057 0.3216475878294943 0.9713844797968227 0.02861552020317727</probabilities>
		</cpt>
		<cpt id="time_zero_dbp_mean">
			<state id="S_47_5___56_5" />
			<state id="S_56_5___69_5" />
			<state id="S_69_5___77_5" />
			<state id="S_77_5___90_5" />
			<state id="S_le_90_5" />
			<state id="S_s_47_5" />
			<parents>time_zero_uacr_mean</parents>
			<probabilities>0.1169937114037459 0.7832997670299868 0.05702040183124794 0.02402159557506284 0.004488289466563326 0.01417623469339324 0.002000447003803921 0.08988118408773074 0.4945501286303084 0.4065617763003018 0.006871974118695725 0.0001344898591594478 0.01592493395377871 0.2697444728500257 0.3656329224787214 0.3344688481517677 0.0113620459904307 0.00286677657527573 0.1599221423613645 0.7733787282450435 0.02514176454684125 0.01730881827014923 0.006111849788205607 0.01813669678839578 0.03263061802788811 0.4637423282081868 0.3987859396360538 0.0928289027726565 0.007830060944108671 0.004182150411106199 0.0004398468561043812 0.005725887609255518 0.0449130749655889 0.5326431278668289 0.4162538136983647 2.424900385759258e-05 0.001822972049060626 0.1904869561122981 0.4209921039638112 0.3754010592464038 0.01128446822403878 1.244040438755505e-05</probabilities>
		</cpt>
		<cpt id="study_entry_period_albprockd_flag">
			<state id="S_0" />
			<state id="S_1" />
			<parents>time_zero_uacr_mean</parents>
			<probabilities>0.9303204173464457 0.0696795826535542 0.9621925338023933 0.03780746619760662 0.9864286802904089 0.01357131970959118 0.9600646036833407 0.03993539631665924 0.9116983990943077 0.08830160090569231 0.9558114968726344 0.04418850312736558 0.9999821936540632 1.780634593698319e-05</probabilities>
		</cpt>
		<cpt id="time_zero_upcr_count">
			<state id="S_le_0_5" />
			<state id="S_s_0_5" />
			<parents>time_zero_uacr_mean</parents>
			<probabilities>0.01765223141978263 0.9823477685802174 0.01781171414659475 0.9821882858534051 0.006400449244068615 0.9935995507559313 0.009461890859195589 0.9905381091408044 0.03418375818372259 0.9658162418162776 0.02899535539397665 0.9710046446060233 0.004428849982315001 0.9955711500176849</probabilities>
		</cpt>
		<cpt id="demo_race_ethnicity_cat">
			<state id="S_1A" />
			<state id="S_1B" />
			<state id="S_2" />
			<state id="S_3" />
			<state id="S_4" />
			<state id="S_5" />
			<state id="S_8" />
			<state id="S_minus_9" />
			<parents>time_zero_uacr_mean</parents>
			<probabilities>0.7414182453355452 0.02792848491121164 0.03392658235901837 0.05711488000534625 0.01382134078972805 0.01109605626530757 0.08845384873217819 0.02624056160166473 0.6997190035320594 0.02804268402831004 0.0531529413139275 0.05844796371251694 0.01528986209336697 0.01042813825523222 0.09629001014644671 0.03862939691814007 0.6220602905059127 0.04597995969938026 0.04975359810442901 0.04594630243522125 0.007694876392436449 0.008636426555690885 0.0629778815313838 0.1569506647755456 0.682907572589313 0.0470870400531123 0.03172846218678794 0.06533556662371411 0.01522748353477364 0.007202860196840946 0.1045548819019596 0.04595613291349841 0.6586517184381953 0.03856778498634324 0.05603395798669741 0.07296480103033733 0.008448888777311984 0.01409589067521054 0.1320825558901338 0.01915440221577044 0.633478877425509 0.03773226370961479 0.09104998892115489 0.0623456633156157 0.01324360300189459 0.01817613465579575 0.1130398489126279 0.03093362005778757 0.6822573353084253 0.04278119196128417 0.0447297084075757 0.05306611075966254 0.01125974506573792 0.006052873731636647 0.1084794680928275 0.05137356667285013</probabilities>
		</cpt>
		<cpt id="time_zero_mra_coverage">
			<state id="S_le_1_5" />
			<state id="S_s_1_5" />
			<parents>time_zero_uacr_mean</parents>
			<probabilities>0.02383520430114569 0.9761647956988544 0.009833938376877965 0.990166061623122 0.0001603301209685908 0.9998396698790314 0.001373701952033577 0.9986262980479663 0.005923835071091248 0.9940761649289087 0.003322279723143454 0.9966777202768566 0.0002412490847020059 0.999758750915298</probabilities>
		</cpt>
		<cpt id="time_zero_map_mean">
			<state id="S_104_039___109_699" />
			<state id="S_109_699___117_038" />
			<state id="S_80_9784___104_039" />
			<state id="S_le_117_038" />
			<state id="S_s_80_9784" />
			<parents>time_zero_uacr_mean</parents>
			<probabilities>0.00694674457470021 0.003098465493264048 0.5718025732023493 0.002639200648215446 0.4155130160814711 0.02209251635607871 0.003769106948502925 0.9634662618084612 0.002384489746516927 0.008287625140440128 0.1088732574746611 0.01378443061419704 0.859776469508487 0.009016341952281499 0.008549500450373409 0.005824281262887057 0.002904008113004878 0.1557952457509796 0.001889297971022503 0.8335871669021059 0.04826472670408351 0.007536534713155389 0.9301901469491135 0.007015607120449989 0.006992984513197747 0.3962162255469076 0.3544584894437719 0.02083953345812578 0.2278584953098111 0.0006272562413835643 0.01567407282320823 0.002727528284630702 0.9730284501324133 0.001079388909463435 0.007490559850284209</probabilities>
		</cpt>
		<cpt id="study_entry_ppi_flag">
			<state id="S_0" />
			<state id="S_1" />
			<parents>time_zero_uacr_mean</parents>
			<probabilities>0.5809218580652626 0.4190781419347373 0.7071652289320586 0.2928347710679415 0.9979121680522236 0.002087831947776456 0.9628775607608838 0.03712243923911617 0.7024686233460649 0.2975313766539352 0.8772830348349839 0.1227169651650161 0.9764236495837395 0.02357635041626038</probabilities>
		</cpt>
		<cpt id="time_zero_hba1c_count">
			<state id="S_le_1_5" />
			<state id="S_s_1_5" />
			<parents>time_zero_uacr_mean</parents>
			<probabilities>0.04691888475946867 0.9530811152405313 0.03523915086498623 0.9647608491350137 0.03295243380936611 0.9670475661906338 0.01690935331335537 0.9830906466866446 0.05010025449974088 0.9498997455002591 0.02501505305671047 0.9749849469432895 0.01298793282582039 0.9870120671741797</probabilities>
		</cpt>
		<cpt id="study_entry_nsaid_flag">
			<state id="S_0" />
			<state id="S_1" />
			<parents>time_zero_upcr_mean</parents>
			<probabilities>0.9911190143450137 0.008880985654986337 0.8254745149787347 0.1745254850212654 0.8015428909957591 0.1984571090042409</probabilities>
		</cpt>
		<cpt id="time_zero_nsaid_coverage">
			<state id="S_le_16_5" />
			<state id="S_s_16_5" />
			<parents>time_zero_upcr_mean</parents>
			<probabilities>0.002506685032283531 0.9974933149677165 0.1157732181044124 0.8842267818955876 0.09480501394973764 0.9051949860502623</probabilities>
		</cpt>
		<cpt id="study_entry_mra_flag">
			<state id="S_0" />
			<state id="S_1" />
			<parents>time_zero_upcr_mean</parents>
			<probabilities>0.9999285971458302 7.14028541698067e-05 0.9900479401531584 0.009952059846841495 0.997136506720256 0.00286349327974407</probabilities>
		</cpt>
		<cpt id="ruca_4_class">
			<state id="S_isolated" />
			<state id="S_large_rural" />
			<state id="S_small_rural" />
			<state id="S_urban" />
			<parents>time_zero_upcr_mean</parents>
			<probabilities>0.02384696609761968 0.04695963821160098 0.02577349542732456 0.9034199002634548 0.03281160188657615 0.07455782785807995 0.03312920861068827 0.8595013616446557 0.02940596608336803 0.06181017852721859 0.0277800568459612 0.881003798543452</probabilities>
		</cpt>
		<cpt id="demo_sex">
			<state id="S_0" />
			<state id="S_1" />
			<parents>time_zero_upcr_mean</parents>
			<probabilities>0.46113244603871 0.53886755396129 0.4631791262924052 0.5368208737075948 0.5040663131164368 0.4959336868835633</probabilities>
		</cpt>
		<cpt id="study_entry_HTN_flag">
			<state id="S_0" />
			<state id="S_1" />
			<parents>time_zero_upcr_mean</parents>
			<probabilities>0.926756698733232 0.07324330126676803 0.4125519960535322 0.5874480039464679 0.4264902797474974 0.5735097202525025</probabilities>
		</cpt>
		<cpt id="study_entry_PDM_flag">
			<state id="S_0" />
			<state id="S_1" />
			<parents>time_zero_upcr_mean</parents>
			<probabilities>0.9377006750070143 0.06229932499298571 0.9160172613493079 0.0839827386506921 0.9088889827053414 0.09111101729465867</probabilities>
		</cpt>
		<cpt id="time_zero_uacr_count">
			<state id="S_le_1_5" />
			<state id="S_s_1_5" />
			<parents>time_zero_upcr_mean</parents>
			<probabilities>0.001623645174183956 0.9983763548258159 0.006139972559442953 0.993860027440557 0.002441601963516004 0.9975583980364839</probabilities>
		</cpt>
		<cpt id="study_entry_glp1_flag">
			<state id="S_0" />
			<state id="S_1" />
			<parents>time_zero_upcr_mean</parents>
			<probabilities>0.9996744174138826 0.0003255825861173078 0.9924346000562314 0.007565399943768509 0.9973966361405133 0.002603363859486575</probabilities>
		</cpt>
		<cpt id="study_entry_sglt2_flag">
			<state id="S_0" />
			<state id="S_1" />
			<parents>time_zero_upcr_mean</parents>
			<probabilities>0.999822984360466 0.0001770156395338681 0.995125798506959 0.004874201493041085 0.9983211946573235 0.001678805342676451</probabilities>
		</cpt>
		<cpt id="time_zero_glp1_coverage">
			<state id="S_le_84_5" />
			<state id="S_s_84_5" />
			<parents>time_zero_upcr_mean</parents>
			<probabilities>5.047263382587889e-05 0.999949527366174 0.002535948670073676 0.9974640513299263 0.0004302591530386273 0.9995697408469614</probabilities>
		</cpt>
		<cpt id="time_zero_sglt2_coverage">
			<state id="S_le_14_5" />
			<state id="S_s_14_5" />
			<parents>time_zero_upcr_mean</parents>
			<probabilities>7.839144810776821e-05 0.9999216085518923 0.002877115972294721 0.9971228840277053 0.0006151070823079433 0.9993848929176921</probabilities>
		</cpt>
		<cpt id="year1_norace_mean">
			<state id="S_23_615___30_645" />
			<state id="S_30_645___35_355" />
			<state id="S_35_355___41_465" />
			<state id="S_41_465___47_335" />
			<state id="S_47_335___52_525" />
			<state id="S_52_525___55_435" />
			<state id="S_55_435___60_645" />
			<state id="S_60_645___65_955" />
			<state id="S_65_955___72_585" />
			<state id="S_72_585___82_515" />
			<state id="S_82_515___90_365" />
			<state id="S_90_365___111_575" />
			<state id="S_9_375___23_615" />
			<state id="S_le_111_575" />
			<state id="S_s_9_375" />
			<parents>time_zero_upcr_mean</parents>
			<probabilities>0.03804103308519716 0.09565291195309555 0.03564528403600034 0.03505834009172115 0.03117174648200626 0.3553534363404232 0.02934043866069205 0.02684129685944054 0.0329922929117383 0.04792597855937472 0.05201440648862703 0.0691430722609378 0.06335709009206318 0.07150158714858454 0.01596108503009823 0.06381823550585995 0.08140492746456904 0.06087740670543473 0.06453805899801469 0.05339892623448689 0.09647092237373077 0.0438291822093141 0.04107787070799081 0.04891612153025055 0.0742196130228325 0.0601206353822449 0.1052915761862853 0.1172566770496143 0.05407169738866818 0.03470814924070308 0.008277251900080499 0.07008820969827388 0.01038713295184713 0.04141998565422032 0.01672966884159846 0.2756085993884821 0.02295589673279863 0.02712335762549856 0.03598358079196638 0.05941607003649468 0.1765380171755002 0.1243647570726245 0.01453655982507574 0.1112443581365628 0.005326554168976392</probabilities>
		</cpt>
		<cpt id="year2_reduction_40_ge">
			<state id="S_0" />
			<state id="S_1" />
			<parents>year1_norace_mean</parents>
			<probabilities>0.6705705447753313 0.3294294552246687 0.3805843733518339 0.6194156266481661 0.7113826452564561 0.2886173547435439 0.6753667785361054 0.3246332214638946 0.7525238032173195 0.2474761967826806 0.973682190982759 0.02631780901724095 0.786685048803622 0.2133149511963779 0.8138325380310053 0.1861674619689947 0.8215843720158853 0.1784156279841147 0.8640817253715565 0.1359182746284436 0.940862882265536 0.05913711773446383 0.9192256980369415 0.08077430196305838 0.5901473708185611 0.4098526291814389 0.9782450792788374 0.0217549207211626 0.5674484779919554 0.4325515220080446</probabilities>
		</cpt>
		<cpt id="year1_scr_count">
			<state id="S_0_5___1_5" />
			<state id="S_11_5___29_5" />
			<state id="S_1_5___2_5" />
			<state id="S_2_5___3_5" />
			<state id="S_3_5___4_5" />
			<state id="S_4_5___6_5" />
			<state id="S_6_5___11_5" />
			<state id="S_le_29_5" />
			<state id="S_s_0_5" />
			<parents>year1_norace_mean time_zero_upcr_mean</parents>
			<probabilities>0.2289060964325803 0.1689557207130411 0.1094710081306665 0.0867241741998042 0.07838866101269033 0.1028285523759898 0.145804175436877 0.07864672980745656 0.000274881890894481 0.1267165642390974 0.225529469788383 0.08681888751415902 0.08410152403314403 0.06954664830000254 0.1186246998183143 0.1839712710514021 0.1045364512784587 0.0001544839770389299 0.4797154648261582 0.01810819423552515 0.1666150594822257 0.08201672995114624 0.0850008597991992 0.09139103864702752 0.06630398436798696 0.007764502536591882 0.00308416615413908 0.08081293101630664 0.04413362584691532 0.03512536364610993 0.02482596881297881 0.01946764893868101 0.02383480461310794 0.03349614874090263 0.0165388340281275 0.7217646743568702 0.1282638538510121 0.1206529852411965 0.07248079954125927 0.06711187123932393 0.05318045963737247 0.08886189979739388 0.1118995164249144 0.04286295397009973 0.3146856602974279 0.003617161987731111 0.00139062516998897 0.002928534545337149 0.000112381110341357 0.001325780615635457 0.002805264319698673 0.00149002508985679 0.0005935881707963439 0.9857366389906141 0.2837874704978613 0.1067285069120444 0.1476910131687825 0.08775007694721658 0.0877607319626288 0.1003771068759117 0.1352622267916461 0.05025920733246847 0.0003836595114404845 0.170833981134449 0.183935693561063 0.106918151754814 0.1163492991468393 0.08258356579979517 0.1044947735871891 0.1553546680860473 0.07931053801039042 0.0002193289194127449 0.5402944249125349 0.04180991358176568 0.1891429848527444 0.05710718807816217 0.04248655602246234 0.04761939521087646 0.06435870016048015 0.01503353136968182 0.002147305811291978 0.2869337735429461 0.1204954562950605 0.1486193570776572 0.1015907233975388 0.08263137053489576 0.08325418709767524 0.1103106625187733 0.06570788045367362 0.0004565890817792763 0.1965385774117646 0.1684640288736625 0.1315687633294294 0.09599340102032755 0.09279964605080428 0.108616793262823 0.1252856092834851 0.08042870959044299 0.0003044711772605857 0.1694939343819062 0.004127127712154652 0.06331029971296921 0.02829542564769846 0.01840583943816087 0.009158863092083953 0.01357449476753594 0.003213107431702555 0.6904209078157882 0.3394841268787999 0.07980819854251586 0.1723420318645678 0.09638075211508139 0.08021987603097483 0.09192807247327435 0.0902821818341781 0.04890769548892852 0.000647064771679407 0.1752292011039649 0.1815040165926812 0.1317623202812155 0.09024588074024281 0.08283037491210346 0.1168092993620953 0.1608027501883981 0.06040189977304294 0.0004142570462557826 0.4745436725731546 0.01035673442577721 0.2331040704257189 0.07460308559308756 0.06055096948979369 0.04313258609246057 0.03224750565250263 0.003798938709072467 0.06766243703843247 0.01453167657108574 0.004701677465816773 0.00775707470889722 0.005022265196948612 0.002923586827447892 0.003984761917092552 0.003776074165672639 0.0009265866784042919 0.9563762964686344 0.143574920512165 0.05376887068625374 0.08495975264528252 0.0383440350123745 0.03259971772014669 0.04201149536921981 0.04225783833866489 0.02152988240521163 0.540953487310681 2.071704417808832e-05 1.613657145825406e-05 0.0001617064619607647 0.0004437044311788632 0.0007338354193384835 0.0001058791164304034 0.0002935901067695194 0.000463002591492349 0.9977614282571934 0.3588353044766189 0.07198657068239379 0.1615936731227398 0.1048800461417673 0.08337694088798855 0.07153405878284549 0.1057993237564448 0.04086785633311501 0.001126225816086394 0.2044473412638175 0.1614605483522679 0.1366782386222586 0.1083876245822302 0.07847876340148018 0.108180604462175 0.133929801579275 0.06769115528069246 0.0007459224558030226 0.5357472996650492 0.007458365221985076 0.1875940397164337 0.06739269149834508 0.04059503162471302 0.02519388737299037 0.01076187296843723 0.0001858716599170963 0.1250709402721292 0.3801657924514484 0.08726362133658369 0.1566513969140345 0.1135637384938331 0.05105840619434429 0.07764482164154886 0.08989753802960568 0.04218621777964333 0.00156846715895819 0.1723147891825582 0.1466846181557664 0.1664914022375677 0.09762810561510275 0.08448658649757633 0.104081856896872 0.1510897020323629 0.07645506690712077 0.0007678724750729318 0.5668781790145636 0.004548098635278783 0.2321415441238699 0.09018816595380669 0.03944851798573252 0.02041057846843797 0.01664275089460588 0.001540361124226237 0.02820180379947846 0.3841293372491691 0.07939051501057708 0.1804365442107179 0.0784623234845347 0.07491130307737405 0.0918145086087533 0.07205699842887855 0.03725654357679951 0.001541926353195957 0.1845188445094077 0.1474158802028541 0.182160572907792 0.1060545750550965 0.0683816207786538 0.1037886801930576 0.1532571645420636 0.05349895766748505 0.0009237041435895439 0.6045464742858079 0.008794800282661516 0.2064983694800047 0.07096115896585722 0.03598991239397469 0.02737436833203542 0.01555301956907063 0.001787045612224933 0.02849485107836288 0.4315238422966641 0.06448887249071428 0.1773437367140907 0.08611627552724832 0.05567191628072483 0.06057785974420185 0.08795592602414262 0.03516991201568706 0.001151658906526141 0.1996765112973646 0.1512606909519883 0.1448455881161762 0.1062241082889413 0.08654119590700896 0.1037950963813617 0.1517219240184078 0.05537773002056988 0.0005571550181812969 0.6383753573758578 0.00319898002298219 0.2147427462381228 0.07427292698931472 0.03296302652341838 0.02320796627939939 0.01114446587075522 0.0001159212321088542 0.001978609468040736 0.3202878074493167 0.04035737942492501 0.1367083277456868 0.06746883496097904 0.0408618300441717 0.04104161357558812 0.04179253599248309 0.02534683354114936 0.2861348372657002 0.2160852115546677 0.1343715586026754 0.158347257857381 0.1256337230854524 0.09736248741229017 0.1068693976046844 0.1103036434969644 0.04345285681548693 0.007573863570397436 0.1967912190564798 0.0008904943333394345 0.06328983702548376 0.01983466185414051 0.008399501066297976 0.005298782759334868 0.002258248791268234 0.0007114734262641622 0.7025257816873912 0.5212330440932049 0.0519173520601028 0.1732259628572292 0.0730553350054913 0.0505435838795916 0.04766137334400649 0.05301185296255342 0.02896939760463471 0.0003820981931857171 0.226016145213462 0.1442377283602259 0.1788998013022899 0.1069933144303998 0.07654401076944778 0.09316238353377153 0.1306116602122753 0.04332426690105613 0.0002106892770718649 0.6507707983581477 0.004734744638205371 0.1974592395228059 0.07117634207416901 0.03513744833424128 0.02587082143894394 0.01272841291204715 0.001446394874960907 0.0006757978464787978 0.1737169571155575 0.2182670607648229 0.088179246993409 0.07847782811910796 0.0711186329438921 0.1070878593073858 0.1748078503938912 0.08817846140799704 0.0001661029539365002 0.1016718711488594 0.2643366973859385 0.07442500084505103 0.06148113784844163 0.07631434868390367 0.1002564221656057 0.2057526385535078 0.1156796491074147 8.223426127745589e-05 0.3298616427123092 0.05227860107192376 0.1626130497838449 0.05827798572940186 0.07697472321823071 0.05569370656030089 0.08577313125792389 0.0215333387779318 0.1569938208881328 0.1827683691478164 0.01969362110088319 0.04389168274564161 0.02613241678359602 0.01227831902247357 0.01361644790042413 0.01344600117782211 0.006979924404834539 0.6811932177165084 0.208660129018785 0.08356976536600229 0.1288444287551661 0.08927118422945289 0.041652635391677 0.07712148960872386 0.07504228113256092 0.04352079263836157 0.2523172938592702 0.2315598161830603 0.002499375949015675 0.0642571554430979 0.02234324395122567 0.01112816118341424 0.006005272650893389 0.005519297932931496 3.039518863906574e-05 0.6566572815177222 0.2789869337251173 0.1779691255994734 0.09804827383953459 0.0888383047061259 0.04366802661778243 0.1037733815247814 0.1636307074062212 0.04442125939200917 0.000663987188954548 0.1178580316520868 0.2066530445004797 0.1201044090345703 0.1080701269450145 0.08603422275345418 0.1244755270396965 0.196350214136137 0.04018999938860934 0.0002644245499515913 0.334026619059447 0.000685301631850124 0.2087651163017435 0.09621526068753142 0.001158075625749954 0.02748510048063415 0.03540918747162466 0.0006240292327084552 0.2956313095087106</probabilities>
		</cpt>
		<cpt id="year1_ipv_count">
			<state id="S_0_5___1_5" />
			<state id="S_1_5___3_5" />
			<state id="S_le_3_5" />
			<state id="S_s_0_5" />
			<parents>year1_scr_count time_zero_upcr_mean</parents>
			<probabilities>0.06749223834449757 0.01007426866248074 0.00223196786139169 0.92020152513163 0.1817454177679498 0.01716602434513782 0.0003225432266948966 0.8007660146602175 0.02972975790933303 0.002470678456804927 0.0001391506714417173 0.9676604129624202 0.2759218351312984 0.5000149394559246 0.1406137149692479 0.08344951044352908 0.3318275517267963 0.4369223897002131 0.1200248119014115 0.1112252466715791 0.2175391675640802 0.3444271093681596 0.03361783415467678 0.4044158889130834 0.2031542529558189 0.02037189590905215 0.001574533363946408 0.7748993177711825 0.3503757046824967 0.03087545060831797 0.0009950371953470988 0.6177538075138382 0.09731746948272596 0.006468732459561076 0.0005844909478250014 0.895629307109888 0.3547004243951033 0.04276586061269939 0.001434012981818694 0.6010997020103785 0.4808514558490659 0.03842709410959014 0.002260919362628138 0.4784605306787159 0.2008081560098821 0.01511320629754237 0.001757248279876434 0.782321389412699 0.4140263405183033 0.08265884083730617 0.004207242957054825 0.4991075756873357 0.5103132424074177 0.106940991830613 0.0002738339809184819 0.3824719317810509 0.2743354836818856 0.02028722403390137 0.002266810336659012 0.703110481947554 0.5231888895429355 0.1312629713033477 0.006999695349301007 0.3385484438044158 0.5758433985987734 0.1553475674766591 0.008635896096696198 0.260173137827871 0.3025023059076808 0.07065481993498354 0.003793687812016054 0.6230491863453196 0.4918570856651847 0.2856536987058822 0.02520754298834347 0.1972816726405897 0.4800618631966598 0.2965706805895055 0.01983326263154811 0.2035341935822866 0.2873965208719071 0.114483859413966 0.01581909593050531 0.5823005237836215 0.1384046504394661 0.3371621164317403 0.4639827259700861 0.06045050715870756 0.1733641464661371 0.3622277462163372 0.4097995952945815 0.05460851202294435 0.1589231924722723 0.4910022042270907 0.2939689221489766 0.05610568115166052 0.0209257607110225 0.00437835694832092 0.0004482970485460278 0.9742475852921106 0.1043743000178055 0.01013258434201655 0.001059232059763294 0.8844338835804146 0.005254614296789343 0.0002933330468810841 1.434746883439301e-05 0.9944377051874951</probabilities>
		</cpt>
		<cpt id="year1_bp_count">
			<state id="S_0_5___1_5" />
			<state id="S_143_5___311_5" />
			<state id="S_18_5___31_5" />
			<state id="S_1_5___6_5" />
			<state id="S_311_5___1260_5" />
			<state id="S_31_5___143_5" />
			<state id="S_6_5___18_5" />
			<state id="S_le_1260_5" />
			<state id="S_s_0_5" />
			<parents>year1_norace_mean time_zero_upcr_mean</parents>
			<probabilities>0.05333866485275812 0.001768283096902243 0.008941067432920157 0.05053368287279279 0.001460841590671324 0.007488918851524286 0.02806658391805775 0.000916920428728168 0.847485036955645 0.003350375640241173 0.1304517692546052 0.09475531396545986 0.07352462696595882 0.16802374169002 0.3501559291056959 0.09726660706032432 0.06705098081233947 0.01542065550535528 0.107363907126128 0.0004264586814822656 0.1010644422322735 0.2907440254399027 0.02059139770258712 0.1215310162749143 0.3337486868793851 0.000400802212289066 0.024129263451038 0.05128315369309621 0.0004872694013467168 0.001458333014632681 0.04873074097098535 3.894899552304363e-05 0.00212831663345714 0.01731137180299425 3.417639298262766e-05 0.878527689094982 0.01773797585809289 0.1035433561199503 0.1114173397219716 0.1450770033275689 0.08897737661189202 0.2942515936473029 0.1770778161390816 0.02478327442929065 0.03713426414484911 0.0001649956523020674 0.001833071548606145 0.002610232333282284 0.004886121031124602 4.766235995155555e-05 0.002154575056177622 0.00147025293517096 4.729257314109225e-05 0.9867857965102436 0.04780394159703698 0.0001203538098157205 0.006034535246961204 0.05907545537636131 0.002447419119537433 0.0120497088891108 0.02147143737881269 9.62606912443648e-05 0.8509008878911195 0.003524252584734007 0.1464866001739203 0.1080724706885714 0.05796028735120347 0.1339972758289302 0.3512175006283235 0.1354236482659225 0.04730780094786048 0.01601016353053416 0.03329532005616832 0.00791680051323119 0.08872046451600067 0.3877403075816541 0.008729185621493711 0.1051263451731462 0.2873379658976986 0.0003187202367532816 0.08081489040385396 0.06018308032605364 0.00574077117262636 0.004661975444727651 0.04648082561362978 0.001209661077789741 0.01137457024879801 0.02711728896070614 0.0002513332627629539 0.8429804938929059 0.006096759954126306 0.1315862705362408 0.1186342613628182 0.06403870416832946 0.1359293493833448 0.3329683428060332 0.157982201086549 0.04480981032636009 0.007954300376198323 0.1419822859198894 0.0001753323693867216 0.0378669302387438 0.529146385768829 0.0009433045857260661 0.03200745982177976 0.2264134912105494 0.0004920969962414376 0.03097271308885434 0.05871033516337562 0.0001511097010790845 0.001433128620852311 0.05004284904692612 0.0001917381523155929 0.000715851070854831 0.02422959028276145 0.0001057831661884732 0.8644196147956466 0.01402273253063344 0.1584612955529874 0.1125880162152279 0.05740988615260488 0.1121276770556077 0.3661191612632016 0.1344463128667338 0.04163358909925377 0.003191329263749473 0.06231044933254375 0.0002578479767868945 0.1165216757737971 0.3713686076932026 0.0002077743990752341 0.06998230712221624 0.319471051464683 0.0001981704302494816 0.05968211580744572 0.01906113578115222 9.506423966132135e-06 1.973156554407985e-05 5.608655441693343e-05 9.215753296341253e-05 0.0003720311970092543 0.0003365152809018709 9.183976762934153e-06 0.9800436516872832 0.03488370222858238 0.05838612866036737 0.1050925516734223 0.257953317537148 0.04106725454428979 0.2216701210350066 0.2296015516913621 0.009952279789414197 0.04139309284040751 0.0002198811590161793 1.37203298250772e-05 0.0002490303409272506 0.0005286989572621915 1.20902955455251e-05 0.0003667800041050611 1.406973824870502e-05 1.203021236504626e-05 0.9985836989627048 0.05967552014222307 0.000145474614016279 0.008736959138983239 0.056087223565434 0.001154506987736044 0.01283749736965793 0.03470324125864099 0.0001122838465511635 0.8265472930767572 0.007211005812784699 0.1384910923933573 0.111235256166836 0.05931090214250515 0.1275283906844083 0.3840056934192038 0.1253490749891519 0.03880029748191765 0.008068286909835388 0.05142385302019692 0.007546688609487761 0.09339378114240755 0.3976392760916469 0.0001609486776526768 0.06582776381288863 0.3496604874193874 0.0001443352570124819 0.03420286596931994 0.04445926329591837 0.000374027247373835 0.004082341210318276 0.07436051175902034 0.0001709962158817296 0.01031567993773627 0.02623370020291321 0.0001218578106776001 0.8398816223201604 0.007852230861455154 0.1621385187005276 0.08558091910017085 0.03714445196020828 0.1327780125704704 0.4137990774978861 0.1153995547108125 0.04033377442057185 0.004973460177897267 0.05423204377223324 0.0002509487036000145 0.1283307659291712 0.3364727575908524 0.0001617181460641296 0.09937619546034428 0.3303529668517502 0.0001223424228366014 0.05070026112314786 0.03609331972165259 0.003991112824214943 0.01152446936916896 0.07910650376865143 0.000107188455214473 0.01920634401677868 0.02325122269670994 0.0001068624060207767 0.8266129767415883 0.0004273509394833037 0.1548814501597389 0.09499741303811852 0.05185085648984509 0.1275559933148531 0.4126670685973051 0.1221712692401532 0.03384502632478722 0.001603571895715715 0.07360116505586761 0.0003782149284472014 0.08827514192216156 0.3933769976631087 0.0001054297086890571 0.1095513049755473 0.2803403129671905 0.0009211629055568257 0.05345026987343132 0.04643372932651039 0.002026962927956298 0.008373370339239999 0.08041611772145947 0.003131217055559852 0.01706174111306718 0.0498556444078674 0.0003984211414314578 0.7923027959669079 0.0001783875802043432 0.1796176712122681 0.1073000657921016 0.04132037238008497 0.1308731102446025 0.4102273400679516 0.1021746354373799 0.02726803735223683 0.001040379933170202 0.06391605807199956 0.0003714826919347286 0.1005473265887362 0.3688512097209609 0.001263858230909529 0.1258505302779152 0.2978761999398026 5.585412830701087e-05 0.0412674803494342 0.04187800981364304 0.0009050137321716995 0.02042902418729106 0.1003284597107765 0.0001794280972910974 0.02893769525627319 0.06938962651683996 6.495166987512742e-05 0.7378877910158382 0.001443553242630118 0.1476041019089255 0.117798447430744 0.03021648130108454 0.1386068337807602 0.4337217069218878 0.1109145131141517 0.01957999147955945 0.0001143708202568601 0.1408474262346209 0.002277153022204821 0.06764046284785397 0.4345236773251356 0.0007119139842720561 0.06266698161742373 0.2407899735490841 0.0001879743829238046 0.05035443703648102 0.04836633024193943 0.0007856678411010485 0.02003038393654687 0.09306154489226534 0.000757908229562132 0.02808876894804812 0.04694644848553138 7.13262393269479e-05 0.7618916211856785 0.002176884771053615 0.2003740368324597 0.06857382307408155 0.04187841477895828 0.1372600715840882 0.4326171501152345 0.0930801526501448 0.02395794654377459 8.151965020486903e-05 0.06748905895781958 0.003679077357926345 0.1074515297969373 0.361326757303323 0.002665632458055979 0.1223590344908058 0.3013784582823258 2.672316496191524e-05 0.03362372818784428 0.05392476725165548 0.005129809266222461 0.01296178079812459 0.05124819163430162 0.009167624588082486 0.03520852644005254 0.01599046384926253 0.002559763181019551 0.8138090729912788 0.004393035507226906 0.1832413756559157 0.06769140757574635 0.0313290828970476 0.2046183810447459 0.3191583431735675 0.08267201794443657 0.08338613715316602 0.02351021904814768 0.05241952879770874 0.0150633525498081 0.1132376472224448 0.2888576263673854 0.02239910671858532 0.150524210790468 0.2814923067906265 0.01364168198372233 0.06236453877925078 0.1304455357916143 8.980151835773972e-05 0.03069964488392681 0.2494781931869206 5.523514917322001e-05 0.02229206270747001 0.09045709448952498 0.0004561482880146862 0.4760262839849976 0.002008408611676478 0.1708401525812766 0.08364852046913147 0.0503769821525651 0.09137548298980651 0.4567811704517807 0.1191103232567419 0.02016514906331885 0.00569381042370234 0.1091686553252322 0.00860835826842642 0.09020834375738633 0.4374780825471689 0.002991853630514804 0.07890818734129426 0.2608978923851406 2.995899585418598e-05 0.01170866774898252 0.0436915539317191 0.02235745587676672 0.007097852375072483 0.06149244687496863 0.01030174949598755 0.06281323772890561 0.0169857806812004 0.000205875867090478 0.775054047168289 0.003396997409475155 0.2164792531346679 0.04287789655727856 0.0176416450888725 0.2573442704566124 0.3413181696397827 0.05673753622385013 0.04655568061119628 0.01764855087826415 0.01978466443651108 0.01420701501414668 0.1293703264342793 0.2720955751747507 0.0006994708887548107 0.1947639804512395 0.2978909797844691 0.0006193890155207588 0.07056859880032802</probabilities>
		</cpt>
		<cpt id="year1_uacr_mean">
			<state id="S_10_1519___25_1405" />
			<state id="S_1346_45___2797_15" />
			<state id="S_153_155___375_933" />
			<state id="S_25_1405___68_0117" />
			<state id="S_375_933___1346_45" />
			<state id="S_68_0117___153_155" />
			<state id="S_le_2797_15" />
			<state id="S_s_10_1519" />
			<parents>year1_norace_mean time_zero_upcr_mean</parents>
			<probabilities>0.1463674088699399 0.1568052227764693 0.02816128525756142 0.2269473410084134 0.1681411397641572 0.07451576001248685 0.05300569842637593 0.146056143884596 0.1135236237768077 0.07361062258103747 0.1378854604194765 0.1409078493058083 0.1625387636086361 0.1600773100590579 0.1031160680735895 0.1083403021755865 0.05078039936936681 0.0008134000873148019 0.1372468765079054 0.09552524708211609 0.2293908956245093 0.2753752044395847 0.001686259067198368 0.2091817178220046 0.06452191624641007 0.1150439542197718 0.2838401293126362 0.136760416051208 0.04042876170051504 0.1951425548299799 0.08631411726825451 0.07794815037122449 0.110824069061208 0.07935753822704474 0.1139274379290842 0.1629056328205017 0.1703120229384551 0.1338457371750222 0.09487727466746464 0.1339502871812195 0.002726059096207762 0.3311210616816312 0.0763280497704244 0.003424169748616516 0.0004122263287379074 0.03393324514048234 0.5475556676495246 0.004499520584375488 0.1629171481055601 0.1893459315145496 0.07351043722571382 0.2832491859345724 0.1003513231923576 0.01252483440378577 0.04348973302337784 0.1346114066000828 0.1223594841818739 0.08287693981433134 0.1034650201029199 0.1747149002491084 0.1344163660692682 0.1544725491977738 0.06619971578586004 0.1614950245988646 0.1394696989338198 0.0004990009928622116 0.03756378615022188 0.10067193500335 0.1730700487311266 0.3806020241940068 0.0004333993120584766 0.1676901066825542 0.2428962571629071 0.02173215526273605 0.02804783128731895 0.2551059835481823 0.09421326354620752 0.08076395542122723 0.04066905817599308 0.2365714955954277 0.1521004984354564 0.08541348258101279 0.0966244521904206 0.1571248793453473 0.1344900040629454 0.1348911812496531 0.07789827759736176 0.1614572245378025 0.07287356038326252 0.0001907055354381937 0.02494790452964939 0.1686176005078724 0.2335527627169749 0.219491307852991 0.002877704659876003 0.2774484538139356 0.2300555149105599 0.03692363803619306 0.04836787674891271 0.2359089710184566 0.05753871124837159 0.05977905340681271 0.04454261724087411 0.2868836173898193 0.1367542345154332 0.1126762685670032 0.1098907555735973 0.1892427461455354 0.1180748277489715 0.1303950272680349 0.05323972844319492 0.1497264117382294 0.1000442717769261 0.0009520491718115509 0.08604564369890667 0.1045030499411672 0.1607802891077699 0.2504264034090274 0.004379482071650866 0.2928688108227404 0.01139851884762493 0.03141185826344281 0.2947908055779704 0.001513564336550242 0.00189128645003089 0.543704201934042 0.09801780220052182 0.01727196238981696 0.1098099475209114 0.07585844440870407 0.07708510422166594 0.2310574487193788 0.1031839888420877 0.1740608508917647 0.06192656176652418 0.1670176536289632 0.001352926943036325 0.433096817005246 0.07179789418750546 0.004552875126119903 0.0006144108988148316 0.001150518016380893 0.4841773112217384 0.003257246601158122 0.2075670304967527 0.04962381991477516 0.03253126301836784 0.1821492440105987 0.04943654685109394 0.05484384665952365 0.04757547881428895 0.3762727702345992 0.1498955769525078 0.07950941365953419 0.0874289266049549 0.1876111421404421 0.1086110645852322 0.1287892022580256 0.06227880530290109 0.1958758684964021 0.155674663636394 0.000212065210244197 0.0378427172542142 0.09075455980077267 0.151320679077977 0.1811045703383494 0.0001896532087127056 0.382901091473336 0.2464427660206515 0.05753989537347017 0.04507480111526856 0.2612070213539596 0.003659723964603864 0.02204122502572603 0.05766908405603326 0.306365483090287 0.1679521642146066 0.09599856839816395 0.08706830551861097 0.2060606784887022 0.1236683792944228 0.114872044535454 0.0413677613495412 0.1630120982004983 0.1584478810228606 0.0001661338184206001 0.01799767356823138 0.09640427259142884 0.1144487694242764 0.1914409305616644 0.0001581332729280859 0.4209362057401896 0.1631558217115637 0.04432484444681834 0.02391363781339353 0.1772582255112977 0.03723830689843372 0.04665083647938559 0.006360986888893043 0.5010973402502145 0.1638748567694863 0.1018590753128775 0.07032933943557676 0.189671020389444 0.09353704370248381 0.116912118898045 0.04295523708762713 0.2208613084044596 0.152843041373145 0.0001267267732487535 0.01870810018080146 0.09981448696336077 0.1065966364252035 0.1455905587455648 0.0001166150012837096 0.4762038345373921 0.1282204083118095 0.01170999141360012 0.03368532465215337 0.2404680318193519 0.0400435912073244 0.04310790112980113 0.02120999491009531 0.4815547565558644 0.1736059187304647 0.1022467104415203 0.06194251681226846 0.2055166511188738 0.08167648707008428 0.1150486982083607 0.03540252101740745 0.2245604966010205 0.163032965361324 7.841319057698918e-05 0.01798363403448488 0.1202017541235768 0.06503954327168769 0.1166255823997244 7.39875405339437e-05 0.5169641200780916 0.1220871170430247 0.023567542067696 0.03022700000931818 0.2239029745059613 0.03257411603499654 0.02279363093101843 0.01436398583524318 0.5304836335727419 0.1374515163950819 0.09696253683079047 0.04750416010051983 0.2164830376570509 0.08448143604752151 0.1123993544893736 0.03163193246388534 0.2730860260157763 0.151325846271913 3.714260120672809e-05 0.001562166542645802 0.1243517727279779 0.07043606210979082 0.1203029241317204 3.205829566316209e-05 0.5319520273190822 0.1595763439563229 0.01748262369067624 0.01959711619832245 0.1426364431402025 0.01862272884104417 0.02310636767516518 0.01470714119128614 0.6042712353069805 0.09762677392995717 0.08964288349201072 0.02630503768432359 0.2024178635554733 0.02718681664589349 0.1761972716578409 0.02923843745259206 0.3513849155819088 0.1633391334737373 8.932169673210567e-05 0.008306533306265807 0.1297258322351366 0.04149694596024685 0.07165872378520528 4.346672332465603e-05 0.5853400428193513 0.06814018844655662 0.2374947999314574 0.04001920725054408 0.195913733278781 0.2284708698368235 0.08766722134056811 0.07469706258684829 0.06759691732842107 0.0879236718187803 0.08752264135711062 0.1427483511725244 0.1018296640897738 0.2123704031796624 0.1490560625655717 0.1315517578309688 0.08699744798560814 0.07698835801624998 0.0003603099916014863 0.07144910165064984 0.0785631557904333 0.2777328493647035 0.305504639708793 0.0003279473378447448 0.189073638139724 0.04118354228526574 0.001968882329881157 0.008629422717004365 0.2569154338253896 0.006153377303312119 0.01018635084950264 0.004082436471505 0.6708805542181395 0.02713369887974489 0.04884728323410377 0.01567283597142173 0.2703867011753078 0.00169629046099442 0.2672633562795194 0.00550635482730925 0.3634934791715988 0.1260235237574393 5.145379807282644e-05 0.002578839941926045 0.1087420931739849 0.0155202542362525 0.02690104408724021 4.641321609870755e-05 0.7201363777889854 0.01934466625131388 0.2664173182813572 0.1156027169612965 0.1900149039078176 0.1963034541631448 0.02389651504156224 0.06837335357712801 0.1200470718163798 0.112400224912771 0.1442714444622372 0.1080626361116034 0.1041735877514789 0.2017445494482452 0.1060164526497864 0.1626325576461418 0.06069854701773591 0.04410852562729677 0.0009042392441568987 0.05736351991101375 0.2440759079441105 0.2597657304378659 0.2110081101039313 0.0008652119882046942 0.18190875474342</probabilities>
		</cpt>
		<cpt id="year1_av_count">
			<state id="S_0_5___2_5" />
			<state id="S_2_5___5_5" />
			<state id="S_32_5___45_5" />
			<state id="S_45_5___65_5" />
			<state id="S_5_5___32_5" />
			<state id="S_le_65_5" />
			<state id="S_s_0_5" />
			<parents>year1_uacr_mean time_zero_upcr_mean</parents>
			<probabilities>0.1915495601191094 0.2070216868446393 0.04655785956758151 0.04981671463246874 0.4890631635095707 0.01553037804332725 0.0004606372833030429 0.02877529719397131 0.08645610389300967 0.1203451832701101 0.1208320876621465 0.5308541127971277 0.1126317770247077 0.0001054381589271743 0.1422484899660376 0.172788773815976 0.04662121421426318 0.01793827897736147 0.6177626874597907 0.002591161397275817 4.939416929534533e-05 0.2563854920586074 0.2416969216296267 0.04568518967370192 0.01204154324906507 0.3766130702683643 0.009500774371188986 0.05807700874944551 0.01861415389360051 0.07832423402305416 0.14659667792999 0.1279267059468838 0.5220164744480379 0.1064040548867794 0.0001176988716541987 0.2459216543056442 0.08368926034664813 7.232914198692262e-05 0.0001029965241371041 0.002607750253878832 7.784054137928813e-05 0.6675281688863255 0.212888214944909 0.1071946842487407 0.002587894470779438 0.001481511272681073 0.07765154074732541 0.00177849839813598 0.5964176559174286 0.06978902124979504 0.1497278537003484 0.0930904900449885 0.07262785942455427 0.5404158005572645 0.07359126795300922 0.0007577070700400689 0.1999750993134674 0.237580003148107 0.03845627859923768 0.02211687244459248 0.4751214708672767 0.002266534219588653 0.02448374140773023 0.3044988164267206 0.2313299950401028 0.03869700061431587 0.009279110474632386 0.4072070086471262 0.00672253286450617 0.002265535932596136 0.04523921127699693 0.1071119326145123 0.09786077388309113 0.07960869936239998 0.5624733345772122 0.1040012112350359 0.003704837050751615 0.2295883579022466 0.2203685432611795 0.02824161399400928 0.01218065249678441 0.5052541401192249 0.00430864706367026 5.804516288490453e-05 0.03613945713104483 0.07135562393830576 0.1092017344188887 0.09447882778922619 0.6391017991732033 0.0429359473272923 0.006786610222038894 0.0462757805905891 0.1156365545109693 0.1133004949075186 0.0852991293492798 0.5529190460505229 0.08646476427607974 0.0001042303150403841 0.317604412254621 0.2243681361365349 0.02338445405336758 0.005012778666901687 0.4266593303741428 0.002869209575095536 0.0001016789393366339 0.2350821198321991 0.08808244815397526 0.001197460959915525 0.002599276837449468 0.04991419599218312 0.001273195086488628 0.621851303137789 0.08804126853808422 0.131738685847492 0.09252024992732011 0.06878660581249398 0.5242600294122799 0.09055743666981983 0.004095723792510128 0.1876267743865349 0.1975972465372234 0.0396075566764374 0.02846760741239802 0.5383751640710018 0.008269589742501735 5.606117390293029e-05 0.4929959092089203 0.1686334262876195 0.00899528889207624 0.00719707525125289 0.1498064749199077 0.0001636389558587383 0.1722081864843645 0.05364329186155908 0.102508344340763 0.125646957408097 0.1150035377639014 0.5196251195546679 0.08181524505233408 0.001757504018677369 0.163550049760233 0.0696349653276245 7.022290287291656e-05 9.916705983588116e-05 0.01172955594509446 7.069545072576781e-05 0.7548453435536134 0.2324515045609236 0.2522718594022878 0.02097741425772984 0.01301841443389833 0.4706663179733473 0.004884653531726545 0.005729835840086509 0.02596031495304822 0.06339061438546834 0.1491022117870404 0.1408034510225695 0.4851934473333205 0.1346290379508597 0.0009209225676934694 0.115036777414678 0.1820349356959851 0.04418386144106456 0.01428176407803415 0.6401231659128774 0.003990216051348489 0.0003492794060122201</probabilities>
		</cpt>
		<cpt id="year1_pp_mean">
			<state id="S_31_5___50_5" />
			<state id="S_50_5___57_5" />
			<state id="S_57_5___65_5" />
			<state id="S_65_5___69_5" />
			<state id="S_69_5___78_5" />
			<state id="S_78_5___102_5" />
			<state id="S_le_102_5" />
			<state id="S_s_31_5" />
			<parents>year1_uacr_mean time_zero_upcr_mean</parents>
			<probabilities>0.4638576154679493 0.1824211514776395 0.1527395519781339 0.04814982421973046 0.1223355999526572 0.01857712700824662 0.0002690605733191063 0.01165006932232398 0.1146446647004524 0.2623159634764147 0.478055901648981 0.1187683475638187 0.02243324644092882 0.003664413783255904 4.584887322592136e-05 7.161351292244411e-05 0.157176107671833 0.4532158516087775 0.3771280814832368 0.003806438628947455 0.003911691320524092 0.004665941456247586 4.247468320665627e-05 5.341314722688192e-05 0.03217321711817053 0.01959661611042862 0.07768587924363213 0.0212744125660416 0.172513027252516 0.5851920882990636 0.08459914634359554 0.006965613066552015 0.04960921559967943 0.1812335821888319 0.5163660652355637 0.1975184191907627 0.04135217192829943 0.01325226871312244 8.278938704912701e-05 0.0005854877566912792 0.3316844031860257 0.1808836613180245 0.1823514759018879 0.07694500304270872 0.1053187860686926 0.07733736939608969 0.01339242894735794 0.03208687213921295 0.2874610378640346 0.1731372077540824 0.1871898426434344 0.06671669069747878 0.1327449117469184 0.06736089262248668 0.01555562449293671 0.06983379217862799 0.01674485503259793 0.2983278781848215 0.3486150865034669 0.107288995610001 0.165408030552286 0.0623184505931829 6.457454549357786e-05 0.00123212897815016 0.1453940587731922 0.1529275714576764 0.3256269231230546 0.0713830552361618 0.1653611262691215 0.1016779849076538 0.01042104551929042 0.02720823471384944 0.1281410641815806 0.3997800249919434 0.3381846421603929 0.1033683425264643 0.02930285221644963 0.0008342726025708644 0.0001445203324560606 0.0002442809881421977 0.4156207820901077 0.329896860510617 0.1904194982891016 0.04050131537614803 0.02144888695868612 0.002037261631465789 4.326093798758306e-05 3.21342058863591e-05 0.2924401475810619 0.2637404737123049 0.3287862133911355 0.07893739603048865 0.02255886606632248 0.006932382338957046 0.001539323467961809 0.005065197411767643 0.341873612923114 0.2105159295275383 0.2738717221546433 0.0594491155459029 0.07982415735639715 0.02429280861326378 0.009578028724060317 0.0005946251550804037 0.00883672412954133 0.01246586686113955 0.01975940896564817 0.08136376223491788 0.4757560582249817 0.3876885853788465 0.01408050366522283 4.909053970215649e-05 9.218449066669708e-05 0.001321914422825553 0.04447381207100096 0.07367621808470307 0.2848926857089806 0.4937201388067315 0.1017513536485587 7.169276653297452e-05 0.3766229886912941 0.1618583082815984 0.1965731202308546 0.04316027943780858 0.05187313143036655 0.0547661831590847 0.006344817635316062 0.108801171133677 0.8801909960920893 0.04598486769847635 0.004341131075620031 3.873175709236211e-05 0.0003564921569221444 0.0003386489640256401 3.74190432337673e-05 0.06871171321254056 0.0161994168112997 0.01951958095985297 0.2213152034033335 0.2857658648856872 0.3617327991679834 0.09495779307458263 0.0004576928668271469 5.164883043328228e-05 0.06113355571520571 0.04247944740940016 0.09770691558400893 0.06457813111177485 0.2246537687551045 0.3809550240418402 0.1260415980972157 0.002451559285450025 0.03967039514755315 0.09457677525742202 0.1607593512691363 0.1049512589058948 0.3045834869930661 0.2728187345003056 0.02188703900507672 0.0007529589215453478 0.3438812858255599 0.1747934546595024 0.1755703111328126 0.0712063560401338 0.09969061203611954 0.08876843820392404 0.01562979033125425 0.03045975177069354 0.8509334630063441 0.02445248142688803 0.01697744850849512 0.004182233973168347 0.004254628585031131 0.00660689350244397 6.031280637653246e-05 0.09253253819125275 0.6386357332900606 0.3124259212547653 0.02544116914840095 0.00518448727384814 0.006141507328920682 0.004546404601858734 2.893032946969081e-05 0.007595846772675967 0.735256659421612 0.2025291884499185 0.04559129185494382 0.001242788293734944 0.0007485714253246709 4.721337612377569e-05 1.140636874488182e-05 0.0145728808095974</probabilities>
		</cpt>
		<cpt id="year1_upcr_count">
			<state id="S_le_0_5" />
			<state id="S_s_0_5" />
			<parents>year1_uacr_mean</parents>
			<probabilities>0.02321131344478134 0.9767886865552186 0.01798974716718401 0.9820102528328158 0.01113661537368718 0.9888633846263127 0.01414073620010575 0.9858592637998942 0.06398827201663813 0.9360117279833619 0.007948745241583415 0.9920512547584167 0.01783562424468628 0.9821643757553137 0.0113048062760627 0.9886951937239373</probabilities>
		</cpt>
		<cpt id="year1_ppi_coverage">
			<state id="S_0_5___363_5" />
			<state id="S_le_363_5" />
			<state id="S_s_0_5" />
			<parents>year1_uacr_mean time_zero_upcr_mean</parents>
			<probabilities>0.001059645982510794 0.0001387360482609728 0.9988016179692284 0.2754504625571109 0.160678828768036 0.5638707086748529 0.05542277907582456 0.02524235957899978 0.9193348613451756 0.008239070894924476 0.0002555813245836271 0.9915053477804919 0.2560322658141285 0.1504728570193124 0.5934948771665591 0.005869812658659353 0.007286599357802689 0.986843587983538 0.0001982092655941337 7.438221278246541e-05 0.9997274085216232 0.334423862104774 0.1519619164703133 0.5136142214249129 0.05124187367231012 0.04291334612438101 0.9058447802033088 0.002883296195925238 0.0001567324725240499 0.9969599713315509 0.2537232591376818 0.1180899037198835 0.6281868371424348 0.04996573499755735 0.02491323945153714 0.9251210255509055 0.02318255762877437 0.01076929821391062 0.966048144157315 0.2707018143117834 0.1748077967111104 0.5544903889771062 0.05272054588926944 0.01903915258577886 0.9282403015249517 0.0001501922122100165 4.854060173736578e-05 0.9998012671860527 0.3099021652171268 0.09410736994728516 0.5959904648355879 0.0531947906838618 0.0221693838704227 0.9246358254457155 0.004571774835589602 0.001988864017586168 0.9934393611468241 0.2444174716378032 0.1219376683764853 0.6336448599857115 0.004818071999359277 0.005058140922531881 0.9901237870781089 0.005478685793528819 0.000412116849463942 0.9941091973570072 0.2770561265770971 0.1549644580336554 0.5679794153892476 0.05292401705610605 0.02553838827454098 0.921537594669353</probabilities>
		</cpt>
		<cpt id="year1_aceiarb_coverage">
			<state id="S_le_0_5" />
			<state id="S_s_0_5" />
			<parents>year1_uacr_mean time_zero_upcr_mean</parents>
			<probabilities>0.000745886144679571 0.9992541138553205 0.5056900911923801 0.49430990880762 0.2117331603849955 0.7882668396150044 0.005910532847157587 0.9940894671528425 0.5652746978412722 0.434725302158728 0.01556169902185966 0.9844383009781404 0.0001579415089801196 0.9998420584910198 0.4456562451012594 0.5543437548987407 0.3246202398891949 0.6753797601108051 0.003733448167158286 0.9962665518328416 0.3375906518389103 0.6624093481610897 0.2294881990120351 0.7705118009879649 0.06600726151817121 0.9339927384818288 0.6134181787970736 0.3865818212029263 0.2493522469899946 0.7506477530100053 9.310485844597953e-05 0.999906895141554 0.2432703435422274 0.7567296564577726 0.210008329770963 0.789991670229037 0.01028787764653456 0.9897121223534655 0.6240417836417805 0.3759582163582194 0.008037082674130691 0.9919629173258693 0.007049614716454052 0.9929503852835458 0.3512259601278435 0.6487740398721565 0.1227363864256469 0.8772636135743532</probabilities>
		</cpt>
		<cpt id="year1_dbp_mean">
			<state id="S_47_1436___53_9552" />
			<state id="S_53_9552___57_9913" />
			<state id="S_57_9913___59_9993" />
			<state id="S_59_9993___66_9866" />
			<state id="S_66_9866___69_9684" />
			<state id="S_69_9684___74_9928" />
			<state id="S_74_9928___96_6304" />
			<state id="S_le_96_6304" />
			<state id="S_s_47_1436" />
			<parents>year1_uacr_mean time_zero_upcr_mean</parents>
			<probabilities>0.02450666363518765 0.01541665467296083 0.01632900845832397 0.1759505240863784 0.1275430732394702 0.2611821428966358 0.3719417899236007 0.006675504890600627 0.0004546381968418572 0.002384611527445256 0.00747405592212303 0.004055223726596812 0.3176990074129538 0.3293563378142469 0.2966965835808866 0.04224333034434402 4.365147106825042e-05 4.719820033527195e-05 3.785905018457789e-05 3.9708512426979e-05 4.731793327802339e-05 6.546684381090873e-05 0.001087256419320054 0.01723499858498863 0.9785753139601273 0.002873960509413891 3.811818644960065e-05 0.04038186789678106 0.09728470961523487 0.04985498311328677 0.2138144583024828 0.1226112837817373 0.2055498628908875 0.2174811098850256 0.01329720883371025 0.03972451568085415 5.653761279515289e-05 0.0016680447494556 6.084603219581057e-05 0.01644575927750248 0.03000292596641037 0.2319371487473855 0.7113153000317708 0.007482774245787768 0.001030663336696583 0.01398767520054999 0.02740351765630144 0.02353101528516132 0.1499315045013233 0.08038025424222647 0.1696297712193273 0.4683932061662949 0.06015841182923743 0.006584643899577698 0.03124063558857038 0.03214251690574786 0.03321267173452376 0.1062403977723015 0.0670171648355401 0.1751292928567802 0.5049383670746141 0.0349437455474356 0.01513520768448654 0.2385633004917977 0.376778764427851 0.2597236850484735 0.04013724148539968 0.01181109761420416 0.008002346136698439 0.01079558323616038 5.677935478457583e-05 0.05413120220463045 0.003256824610490197 0.004491821194036215 0.00689162511291135 0.04597822456897621 0.1284291993267791 0.1370144569069639 0.6245554838693886 0.03843399674246673 0.01094836766798774 0.0162645018777979 0.04706522099856116 0.04887741586672394 0.5045834091097349 0.1650401561774013 0.1650129840311161 0.05259043335799685 0.0001226248646078078 0.0004432537160601475 0.001051057225885099 0.003387218957654379 0.02177740905602435 0.7273105951228797 0.1939130315025213 0.03211345198986537 0.0203930322597353 2.714817822495521e-05 2.705570720985683e-05 4.502724753105949e-05 0.0008389140062083579 4.552616965163582e-05 4.647359566643425e-05 0.002096259584539128 0.004243071428488288 0.7378334412260045 0.254806253548761 4.503319314963705e-05 0.01825908728768873 0.01837796663674596 0.01625151177744272 0.1659352449137246 0.07909259272745352 0.2444955541812747 0.4053932245187195 0.0452604498917537 0.006934368065196548 0.00927772661413454 0.02533822909723266 0.03364634534534518 0.325915923921393 0.2095652448494041 0.2986342984205293 0.09727332727872567 0.0002777623612108844 7.114211202470428e-05 0.00105307851330608 0.0001561584245565146 0.002119067767776441 0.01159283885707923 0.01420438881945501 0.06615778193994995 0.7692767444756595 0.135366323647597 7.361755462032812e-05 0.03961827744441943 0.03505047850448489 0.02554194017045539 0.1506472548550228 0.07680070227330463 0.1807118940186482 0.4313986266655824 0.04228127189456679 0.01794955417351553 0.09576344623729302 0.1709237081497589 0.1208603933522488 0.4323082925480865 0.0829480605706604 0.0663536096686074 0.004820210343293508 3.351799466607343e-05 0.02598876113538544 0.0001064826685649111 0.0006129798372271106 0.005512389978927338 0.1482423412803696 0.1348484795804413 0.3083471648896997 0.4022382251396894 4.347966689674413e-05 4.845695818395868e-05 0.02469794981133812 0.04773300120700593 0.006315273185986433 0.1570150242025804 0.08440828101294803 0.1933675192017384 0.423266997425126 0.05349799275718307 0.009697961196093592 0.0001713670232704129 0.004002501053264753 0.001949467961581128 0.01274469465065174 0.02060953189052743 0.0551582074153998 0.8208883215737899 0.08326884134136862 0.001207067090146383 0.01478537109814826 0.025803853308944 0.02178423093980937 0.1489317155746179 0.07394595811783074 0.1660869891459516 0.4842159027462519 0.05773129074589086 0.00671468832255535 0.005766715181326119 0.01023043836134283 0.02418144053365175 0.3948146998362661 0.2560874731547795 0.2423605653209128 0.06494127374789709 0.001532962120707182 8.44317431165747e-05 0.0002362871084969136 0.000742255173054397 0.002256579834302715 0.01373613058218583 0.06099004931726261 0.3897884423321418 0.5311971482097959 0.001027483743420208 2.562369933949668e-05 9.97617626628723e-05 0.0002571646557833548 0.0001965311766456029 0.004267085111970428 0.05232187243456702 0.2700939193367627 0.6727381382394476 1.538708024612647e-05 1.014020191421379e-05</probabilities>
		</cpt>
		<cpt id="year1_sbp_mean">
			<state id="S_109_5___134_5" />
			<state id="S_134_5___143_5" />
			<state id="S_143_5___155_5" />
			<state id="S_85_5___98_5" />
			<state id="S_98_5___109_5" />
			<state id="S_le_155_5" />
			<state id="S_s_85_5" />
			<parents>year1_uacr_mean time_zero_upcr_mean</parents>
			<probabilities>0.7467988861139256 0.1204203676334524 0.07605598313552356 0.005143781082390653 0.03702257775168268 0.01411467111943583 0.0004437331635891359 0.9437802289923634 0.02900343787721081 0.009617471333927395 0.0009832255701458677 0.01572478601424189 0.0008386226001325663 5.22276119779811e-05 0.06505304696560468 0.8669513367645775 0.0590685046945162 4.820890647662213e-05 6.196724933499201e-05 0.008768708925757951 4.822649373196639e-05 0.09450689183311187 0.1343580827353913 0.3698917624750462 0.01585114110180537 0.0108855480972636 0.3656642426375026 0.008842331119878985 0.0550499905443934 0.719110268223514 0.2092583929121994 7.136329064533761e-05 0.0007734536924075929 0.01566548563895917 7.10456978811601e-05 0.427006257491848 0.1810326741879964 0.1898662638107208 0.01938946387110312 0.07435650257702076 0.1026638740377037 0.005684964023607394 0.4464840409873224 0.2573404819630792 0.1482037201230729 0.02645915565657621 0.05340891356890495 0.05452279632847719 0.0135808913725672 0.8160716637541574 0.050443194966081 0.002941363443085269 0.00188822535371514 0.1274865741641722 7.400454372010471e-05 0.001094973775068777 0.3304287788565899 0.2005989703811466 0.3167919540573179 0.0004796708707626808 0.02330829773215726 0.1215579013081309 0.006834426793894876 0.9749240015193422 0.01453150703648171 0.0002386894161922412 0.0003474129400940878 0.009182553110665901 0.0005815572430889537 0.0001942787341349378 0.954024296014601 0.00733733793950457 0.004046076098937454 0.0005314088195528799 0.03278018658377851 0.001245980679866242 3.471386375926167e-05 0.0297728942851778 0.2223504963057152 0.6061052444061217 5.646565979504877e-05 5.779296812567665e-05 0.1416006122899302 5.649408513450432e-05 0.5638078274959323 0.2770316477775073 0.07730687023084884 0.0195411547592386 0.01997950987549714 0.04190683478480219 0.0004261550761736819 0.03896593429232001 0.372300424672065 0.4378097294402344 5.943336844993729e-05 0.0008530678622072195 0.1499575268974353 5.388346728819636e-05 0.0001470519130148489 8.976463422021444e-05 0.001634313713944073 8.433322580560638e-05 8.43632458381888e-05 0.9978758221524874 8.435111468967835e-05 0.5368493531956468 0.1562410907771262 0.06676594238812729 0.04861419033423446 0.1137951876545089 0.05990131481919714 0.01783292083115939 0.03168629657671255 0.0003837568076412988 4.284402913251273e-05 0.2116214633567373 0.7285121500721397 4.336209356824558e-05 0.0277101270640684 0.1125450743924864 0.387870697722514 0.4924619446160364 5.588264693657953e-05 7.612701536681093e-05 0.006934365161464793 5.590844519499641e-05 0.04943889566401946 0.1778349602940801 0.3358440467714682 0.001958412958693291 0.01554948569387775 0.4175419401789209 0.001832258438940278 0.02555756301026292 0.06623434364876936 0.3827974959386409 9.482281569296617e-05 0.0009367983259238479 0.5242845717471205 9.440451358940595e-05 0.4334781774239052 0.1746331272068337 0.1738517112195578 0.01894942900250857 0.07327848442781053 0.1200639412538076 0.005745129465576599 0.3784159346709173 0.001607030339702891 0.005259814821974851 0.06652462046133338 0.5414867591869709 0.005635190720700426 0.00107064979840032 0.939818128869672 0.03383034184306795 0.008141959313198503 3.395524132375435e-05 0.01270639892661581 0.005436360410126832 3.285539599544698e-05 0.9644459431681127 0.01957433112249549 0.00364830938174357 1.315159608221383e-05 0.01228758373713187 1.76451316714217e-05 1.303586276261189e-05</probabilities>
		</cpt>
		<cpt id="year1_hba1c_mean">
			<state id="S_4_83665___5_2775" />
			<state id="S_5_2775___5_9245" />
			<state id="S_5_9245___6_25855" />
			<state id="S_6_25855___6_81835" />
			<state id="S_6_81835___8_395" />
			<state id="S_le_8_395" />
			<state id="S_s_4_83665" />
			<parents>year1_uacr_mean time_zero_upcr_mean</parents>
			<probabilities>0.03590041710397456 0.1453886703719445 0.1571074610345926 0.2292810183787632 0.258860332777729 0.1387382816463018 0.03472381868669443 0.02002558881586518 0.2307885034310415 0.1329436407254148 0.1462897332063443 0.2460777758188299 0.212630412904001 0.01124434509850326 0.05961910710222635 0.3954822501844065 0.1302302909039839 0.1436915169402675 0.1527474537118333 0.1140672284293157 0.004162152727966763 0.04291279748995315 0.2684262964686108 0.07805087654307277 0.2455437350165511 0.1334630837726931 0.2074664906282344 0.02413672008088482 0.04194611411287331 0.2105212646029292 0.1087939428514523 0.1436623182905387 0.2016257618903954 0.2704272977614078 0.02302330049040302 0.09249873020982836 0.2715727404121137 0.131065572260363 0.1512520737600073 0.158373350005917 0.1422342766476955 0.05300325670407531 0.06914093898756971 0.2035993409028629 0.1728104196701158 0.1642992303686375 0.1578127308469794 0.1848251607433966 0.04751217848043812 0.04914488720325798 0.245075932192512 0.09564492034152958 0.170366836554938 0.273944950713537 0.1445647457397717 0.02125772725445375 0.06894355893073066 0.1482311949435947 0.0847166811575786 0.1196667229480718 0.3015292461857965 0.2642192516852077 0.01269334414902016 0.07160313732709976 0.2218916521638871 0.1423864870839199 0.2031627427664572 0.2266277625648226 0.11641451237078 0.01791370572303351 0.07120597713618476 0.2831976155974033 0.1281343164485404 0.1671641680501965 0.1736685997754424 0.1486369612684048 0.02799236172382783 0.06471768363294411 0.3933068307473474 0.09859381760044726 0.1237080720204476 0.1612215465198965 0.1527421662060025 0.005709883272914568 0.03193412435649277 0.1492582524734584 0.1163345380433838 0.1700184650061444 0.3505624918339918 0.1677522519217176 0.01413987636481123 0.05656648487453785 0.1935544343471851 0.1091181309190804 0.1514818089955791 0.2679160924642425 0.2054506744689632 0.01591237393041161 0.02878135951843681 0.220766517372165 0.1591202308470211 0.1030730028531016 0.1815105031193835 0.2956954819960004 0.0110529042938917 0.05996668597740111 0.1907297707609998 0.1238009895105857 0.2323673019426272 0.2229586575982504 0.1543195165774297 0.01585707763270606 0.09625750585344342 0.4061559818446502 0.09339626495819035 0.1063944959940296 0.1240012169198515 0.1294438930151654 0.04435064141466946 0.04187971506716268 0.3046139284638528 0.08922478768523273 0.1597598831375513 0.1933560507803424 0.2045166276881022 0.006649007177755917 0.05527075512615547 0.2427728452906756 0.0963987466775226 0.1540160729754048 0.2671058470068728 0.1523606842526416 0.03207504867072696 0.07840935958374805 0.1520428848777991 0.07309176677038552 0.1034878001337992 0.3186187215439095 0.2661185556606906 0.008230911429668164 0.09804299156354583 0.2612881147656041 0.1303496888828776 0.1499646795154659 0.1661738349929268 0.1360084624217657 0.05817222785781428 0.05655487914156374 0.395452591829642 0.1455759171630256 0.1247913341305706 0.1703294739603302 0.1002351019124323 0.007060701862435361 0.09248245042839795 0.3022835049002808 0.1039046083257054 0.1461136699846958 0.1929780196497514 0.1285674898628711 0.03367025684829744 0.08151303767290943 0.5026524235881095 0.1404516242948412 0.09849564443271654 0.1027586414430633 0.06663750013382096 0.007491128434538982</probabilities>
		</cpt>
		<cpt id="year1_hba1c_count">
			<state id="S_le_3_5" />
			<state id="S_s_3_5" />
			<parents>year1_uacr_mean time_zero_upcr_mean</parents>
			<probabilities>0.03587573784939591 0.9641242621506041 0.02425539767090781 0.9757446023290921 0.003549113671519466 0.9964508863284806 0.01196990367898429 0.9880300963210157 0.03528803629166523 0.9647119637083347 0.0001046786675417318 0.9998953213324584 0.001504861515469726 0.9984951384845302 0.01370614065353797 0.986293859346462 0.0137008954682355 0.9862991045317645 0.009651782519401115 0.9903482174805989 0.01499519506205008 0.9850048049379498 0.004229776324158472 0.9957702236758416 0.08952864148115001 0.91047135851885 0.027870028419544 0.972129971580456 0.00659247010739553 0.9934075298926045 0.002912813410067189 0.9970871865899328 0.005057570548096309 0.9949424294519037 0.01185187653623536 0.9881481234637646 0.0008086531458547548 0.9991913468541452 0.04732894652066535 0.9526710534793346 8.694982460763982e-05 0.9999130501753923 0.01027656973047 0.98972343026953 0.01981153957831823 0.9801884604216818 0.002312765446507604 0.9976872345534924</probabilities>
		</cpt>
		<cpt id="year1_upcr_mean">
			<state id="S_0_2572___0_81745" />
			<state id="S_0_81745___5_33375" />
			<state id="S_le_5_33375" />
			<state id="S_s_0_2572" />
			<parents>year1_uacr_mean time_zero_upcr_mean</parents>
			<probabilities>0.3718723276556696 0.3382059515281037 0.1356654261162779 0.1542562946999488 0.01845494661558113 0.9253346221187906 0.003464133990161319 0.0527462972754669 0.1229870396648945 0.07900605413788202 0.2666957720604102 0.5313111341368131 0.1573983634582288 0.6021360967985517 0.1755728171493937 0.06489272259382566 0.0006825689650715482 0.8603171817166134 0.1382147269814692 0.0007855223368458528 0.06429325458382727 0.135817770552959 0.7996429891604818 0.0002459857027319772 0.2568829669187116 0.3289201870477671 0.2250477597442149 0.1891490862893064 0.8895800147876018 0.02025992883791668 0.0001759414140817915 0.08998411496039956 0.2338774749918558 0.1503279023056745 0.6110424158685894 0.004752206833880166 0.3346063078252829 0.1724076971633796 0.09572340226482624 0.3972625927465113 0.007626905768722758 0.006178777896515721 0.001842365949078222 0.9843519503856832 0.0006126965977951889 0.9760417131282425 0.0006010142766561219 0.02274457599730643 0.2561853362281826 0.638823514054693 0.08447744673133248 0.02051370298579196 0.007339775092314762 0.9478423265580597 0.0333371824470891 0.01148071590253626 0.006047953872626134 0.9523369950589043 0.01763298280180639 0.0239820682666632 0.2850452873321625 0.2682467295707387 0.2371781280942414 0.2095298550028573 0.9738808199234407 0.003263995786177247 0.001491790383210289 0.02136339390717183 0.3814299929906159 0.003330629374281606 0.3360776343502256 0.2791617432848769 0.1976353857786249 0.3480589974787614 0.3560368332870766 0.09826878345553698 0.0052785064166377 0.03795409084987882 0.9501502902776089 0.006617112455874559 0.06044149759408483 0.1170983343791594 0.8222668618784759 0.0001933061482799364 0.1049422566803135 0.04541134141752217 0.05795478881715055 0.7916916130850138 0.004282584853000795 0.968719416131576 0.01941970250908587 0.007578296506337381 0.4145130913423024 6.28537279525998e-05 0.07116669159615817 0.5142573633335867</probabilities>
		</cpt>
		<cpt id="year1_map_mean">
			<state id="S_106_025___113_033" />
			<state id="S_113_033___121_795" />
			<state id="S_62_9442___67_9504" />
			<state id="S_67_9504___72_9607" />
			<state id="S_72_9607___73_0007" />
			<state id="S_73_0007___74_9956" />
			<state id="S_74_9956___78_4625" />
			<state id="S_78_4625___84_7469" />
			<state id="S_84_7469___106_025" />
			<state id="S_le_121_795" />
			<state id="S_s_62_9442" />
			<parents>year1_upcr_mean time_zero_upcr_mean</parents>
			<probabilities>0.01226031842284347 0.004288867022193329 0.0008960658555556387 0.01462756555325143 0.006530450100385924 0.005129042952998215 0.06672332299288937 0.2588655628586839 0.626646396142021 0.001724398392675189 0.002308009706502467 1.899707875635022e-05 0.0007360040803422146 0.05929685635317192 0.1960073943059731 0.006233942006673608 0.137975985332004 0.3144689057430973 0.2391410349862405 0.01828490187550817 1.778923391062092e-05 0.02781818900432219 0.0004676081868114599 2.302272711498289e-05 1.77756183509205e-05 2.315504042525083e-05 0.0002661345358031321 1.526835663594078e-05 3.288184935548025e-05 0.0216309468682372 0.9774864748253055 1.875447626462548e-05 1.797751569556623e-05 0.0578368757583311 0.03802220359097314 0.01130857732479882 0.009910341790340732 0.008176819455839396 0.007303063944873051 0.03854066722631982 0.1208452365419142 0.6919347476739465 0.006985098642942622 0.00913636804972066 0.002876761466759827 0.001272315399773454 0.0001936490337767577 0.0007494470746291579 8.830437439683279e-06 0.0002934841101232187 0.002080490084146717 0.01305327720660227 0.9791431415097834 0.0003203896122780667 8.214064687567582e-06 0.532993190762419 0.2532242956485831 2.346479965119385e-05 2.057763155988669e-05 2.054192822246663e-05 2.046881339359642e-05 2.35682633948028e-05 2.117787248786713e-05 0.08838188611276893 0.125015811829625 0.0002550163378942304 0.04412973342440526 0.02982726865278972 0.001856629762049077 0.01950510523695851 0.009304813064183572 0.004312432727939854 0.06748369823926841 0.2325039441174206 0.5692307034480348 0.009395616497599334 0.01245005482935077 0.4178079867023961 0.1725692272224482 4.823923878709935e-05 0.0005817037906430793 4.791440975177257e-05 0.0005903981527068547 0.0001269659901013235 0.001683305823159561 0.3672605201778349 0.03923589244873538 4.784604343586531e-05 0.008609675372681969 6.357542146193678e-05 0.0003964691119435638 3.634940268397187e-05 6.127898489852406e-05 3.393741602026106e-05 0.002207348373133639 0.001581079551145006 0.9862211425891733 6.630272094578772e-05 0.0007228410559121271 0.001506875524852398 0.001372205964258497 0.003308650694162983 0.02294685733005109 0.01760546655995231 0.02315184025848467 0.1793894600502307 0.5977858700883456 0.1520837444472454 0.0005504697374509325 0.000298559344965394 0.0003525865817221504 0.0004810993304468105 0.0001611074373869598 0.001009771160433931 2.139199916136538e-05 2.676803308910725e-05 0.04086174105666472 0.8438100079767448 0.1132343822791785 2.028001328220393e-05 2.086413188939359e-05 0.01354248604056065 0.0003591036136688899 1.129345625309619e-05 0.0002682403895230013 2.950160969603821e-05 1.128437372558183e-05 0.0008148891696039654 0.008945160885154615 0.9759941487726995 1.250600274939073e-05 1.138568636527924e-05</probabilities>
		</cpt>
		<cpt id="year1_uacr_count">
			<state id="S_le_2_5" />
			<state id="S_s_2_5" />
			<parents>year1_upcr_mean time_zero_upcr_mean</parents>
			<probabilities>0.0009373449413847836 0.9990626550586152 0.001947536249091739 0.9980524637509084 0.003893102211523245 0.9961068977884767 0.006000121919552646 0.9939998780804472 0.007163633188552256 0.9928363668114477 0.001389295061141126 0.9986107049388588 0.001334599630310849 0.9986654003696893 0.02198214772391979 0.9780178522760803 0.0005855134712875767 0.9994144865287123 0.001080213954726196 0.9989197860452738 0.008929556622941624 0.9910704433770583 0.0009299845103630967 0.9990700154896368</probabilities>
		</cpt>
		<cpt id="year1_mra_coverage">
			<state id="S_le_0_5" />
			<state id="S_s_0_5" />
			<parents>year1_upcr_mean time_zero_upcr_mean</parents>
			<probabilities>6.232140100535929e-05 0.9999376785989945 0.03128786436699487 0.9687121356330052 0.003734466484069874 0.9962655335159302 5.61927957530506e-05 0.9999438072042468 0.01539377576921344 0.9846062242307865 0.0006841815068905126 0.9993158184931095 9.068209762243223e-05 0.9999093179023775 0.02269266189823776 0.9773073381017623 7.492681927324599e-05 0.9999250731807268 4.505130894129661e-05 0.9999549486910588 0.01893491107098774 0.9810650889290122 0.001025735497921895 0.9989742645020782</probabilities>
		</cpt>
		<cpt id="year1_nsaid_coverage">
			<state id="S_le_6_5" />
			<state id="S_s_6_5" />
			<parents>year1_upcr_mean time_zero_upcr_mean</parents>
			<probabilities>0.0001365837682130224 0.9998634162317871 0.1944753614783726 0.8055246385216274 0.04595688488321142 0.9540431151167885 0.0008071002878388422 0.9991928997121612 0.2390201961090961 0.7609798038909038 0.1105047389425182 0.8894952610574819 0.0001601692153128699 0.9998398307846871 0.1526766039146359 0.847323396085364 8.386847490784088e-05 0.9999161315250923 0.009472502398741017 0.990527497601259 0.2623510762686355 0.7376489237313645 0.315872797048026 0.684127202951974</probabilities>
		</cpt>
		<cpt id="year1_glp1_coverage">
			<state id="S_le_30_5" />
			<state id="S_s_30_5" />
			<parents>year1_upcr_mean time_zero_upcr_mean</parents>
			<probabilities>0.0001422068075888151 0.9998577931924112 0.004685388177962352 0.9953146118220376 0.005229116603937477 0.9947708833960626 0.0001530040035947842 0.9998469959964053 0.01108199948477156 0.9889180005152285 0.001715110790595524 0.9982848892094045 0.0001705731180943281 0.9998294268819058 0.009971197467366693 0.9900288025326335 0.0002175271050466448 0.9997824728949534 0.0001640037258787149 0.9998359962741213 0.009681498006453276 0.9903185019935467 0.001850277814378958 0.9981497221856211</probabilities>
		</cpt>
		<cpt id="year1_sglt2_coverage">
			<state id="S_le_59_5" />
			<state id="S_s_59_5" />
			<parents>year1_upcr_mean time_zero_upcr_mean</parents>
			<probabilities>0.0001073876644549402 0.9998926123355451 0.004129723604264253 0.9958702763957358 0.005354875327556541 0.9946451246724434 0.0001983553835873456 0.9998016446164126 0.006265645515848014 0.9937343544841519 0.001679510778326764 0.9983204892216733 0.0001185471470300321 0.9998814528529699 0.008530245442804153 0.9914697545571958 7.717765292967967e-05 0.9999228223470704 7.08589096768866e-05 0.999929141090323 0.004830886787739312 0.9951691132122605 0.001525791863847138 0.998474208136153</probabilities>
		</cpt>
		<cpt id="year2_norace_mean">
			<state id="S_20_005___23_415" />
			<state id="S_23_415___30_655" />
			<state id="S_30_655___35_115" />
			<state id="S_35_115___40_635" />
			<state id="S_40_635___45_335" />
			<state id="S_45_335___50_795" />
			<state id="S_50_795___57_195" />
			<state id="S_57_195___63_585" />
			<state id="S_63_585___75_085" />
			<state id="S_75_085___79_625" />
			<state id="S_79_625___92_825" />
			<state id="S_92_825___107_355" />
			<state id="S_9_595___20_005" />
			<state id="S_le_107_355" />
			<state id="S_s_9_595" />
			<parents>year1_norace_mean</parents>
			<probabilities>0.4755805535191802 0.1204862368796547 0.04764628304363262 0.02767645382635687 0.04783701528968196 0.01358866425979401 0.006648484488423597 0.00512605104829997 0.00538852215331474 0.01697067925232336 0.005322470842982399 0.0007979185573404693 0.1954753262043223 0.0009640054303989546 0.03049133520429379 0.1951259162514628 0.1413808138839534 0.08827171799051746 0.09860609683589132 0.08061140095291132 0.06435796598635377 0.04940107016408701 0.02402232098685345 0.01551652259523861 0.003898720657134382 0.00304006109234602 0.0006697175627289701 0.1711819382042082 0.000516456363071698 0.06339928047324153 0.3672109470654147 0.1116395119178897 0.0958597248126334 0.09379406533333498 0.1128283954071185 0.0440373105278412 0.01943591031993131 0.01675227869786748 0.01392978014114795 0.03692331279444987 0.004112059498778897 0.004377330734305682 0.06167221306910185 0.003005328539062301 0.01442183114112208 0.293742057171254 0.09237142517842775 0.07732944532363242 0.0917571045005408 0.1711053963459054 0.08619275684665995 0.05499769716648872 0.02983972577889924 0.01743694684067069 0.02767617133952956 0.009707634335082318 0.004108679730334124 0.03768372987030756 0.001825421268420112 0.004225808303847493 0.3097692028561642 0.05642297736194365 0.0545773124144257 0.06976553491573642 0.1601745959606947 0.09553018179687613 0.08161046956978532 0.04269043373492858 0.03578292549358716 0.04540861177598749 0.01399233885781375 0.004843861027398459 0.02140134526302509 0.005205385709074767 0.00282482326255859 0.4243176281689342 0.004709629921068186 0.006307980135655755 0.01062984975681297 0.1547380319646637 0.0167505808259184 0.02425412996794962 0.02605449931059171 0.04652468896536485 0.1030358773393987 0.06034482928924031 0.0514689321599866 0.001552718407365667 0.06894868921808035 0.0003619345689690399 0.2797937785772024 0.03307468409694123 0.03187082634041397 0.06338187846615675 0.1037209285710163 0.08342241107180537 0.1046795518225932 0.09821879389822068 0.08542550459539623 0.06929993714921949 0.01615352325401059 0.0113659839519608 0.01276967008449679 0.004415496197974101 0.00240703192259208 0.2780788802496325 0.02040436460699776 0.02523869858114679 0.04003732462432388 0.1007685442654831 0.06018729595316027 0.07610218625664848 0.1087398591581855 0.12795126196837 0.1037281609320723 0.02285402053646688 0.01286575945459171 0.01537828925843283 0.006801439481347581 0.0008639146731404966 0.2713940449452341 0.01868503857721618 0.01809439455931949 0.03737159333840492 0.0689646890523094 0.05529202349201796 0.06041226971879327 0.07554020979046348 0.1653172615724022 0.1484776344284907 0.049671232262551 0.01248023633062845 0.009913425338551366 0.008035461941082133 0.0003504846525355005 0.3009044506388021 0.01408351017505167 0.0105005304105188 0.02282771997516769 0.06214497930004827 0.02947545293083234 0.03832119146484108 0.04580326841583469 0.1304105951233293 0.1838781056678943 0.1210669232130727 0.03068831525684622 0.004999931359611275 0.004455170912970182 0.0004398551551793508 0.2291616295351825 0.003894998747586466 0.00372178796980046 0.006617393274936864 0.05989172124148853 0.01497684993439304 0.02487705328945273 0.03018009948480446 0.08389058402425122 0.2294895866867706 0.1958387463575663 0.104039038853659 0.003960645494246224 0.008832957273103081 0.0006269078327584999 0.3571694057642978 0.004990594833454371 0.005131097611668684 0.006344496945921099 0.02790057880843923 0.01347116603645502 0.01605901048230443 0.01978235367738449 0.02283734333856489 0.04663436689878803 0.1089875655903929 0.2571932814202964 0.004129351344869565 0.1086040498670471 0.000765337380115926 0.406294013425737 0.03615711843457439 0.01150718070245431 0.0104334439712415 0.02286335825840198 0.003226716057439885 0.002385195673654595 0.003483929424395669 0.001834593971149618 0.01437065754713644 0.001248009126671006 0.00170250176450243 0.307081808665399 0.0003474799052764995 0.1770639930719655 0.2590609928696659 0.001133250184546058 0.0005955627524264381 0.001686557376342406 0.01711682436337457 0.00288827713210356 0.004814485658487189 0.01197597635108902 0.03561519404936768 0.03264242454935092 0.02160380044302736 0.110515324034781 0.0005374550961590245 0.49980242803775 1.144710152877104e-05 0.3531045643809654 0.006523814577996725 0.001731583921883534 0.00264460468859424 0.0002097314964991899 0.0009354368132319867 5.656690371679211e-05 5.829114635514247e-05 0.001011150852062214 0.03123598818371594 0.001315249128265444 0.003284775426171072 0.1152305626235599 0.001005282920253483 0.481652396936729</probabilities>
		</cpt>
		<cpt id="year3_reduction_40_ge">
			<state id="S_0" />
			<state id="S_1" />
			<parents>year2_norace_mean year1_norace_mean</parents>
