<?xml version="1.0" encoding="UTF-8"?>
<!-- This file was created by ACADEMIC version of SMILE -->
<smile version="1.0" id="Unnamed" numsamples="10000" discsamples="10000">
	<nodes>
		<cpt id="time_zero_mean">
			<state id="S_11_325___20_925" />
			<state id="S_20_925___23_715" />
			<state id="S_23_715___34_045" />
			<state id="S_34_045___42_015" />
			<state id="S_42_015___50_265" />
			<state id="S_50_265___55_985" />
			<state id="S_55_985___62_585" />
			<state id="S_62_585___71_015" />
			<state id="S_6_795___8_975" />
			<state id="S_71_015___82_385" />
			<state id="S_82_385___88_705" />
			<state id="S_88_705___109_665" />
			<state id="S_8_975___11_325" />
			<state id="S_le_109_665" />
			<state id="S_s_6_795" />
			<probabilities>0.02872171687205111 0.009053515461610925 0.04343132359196825 0.04472905695221283 0.05575495825107609 0.04718273093383707 0.06096677160836958 0.09273090143312843 0.003934416973017585 0.1497353353028009 0.09368007110848231 0.2557095171873873 0.005686546388067159 0.1068910073828587 0.001792130553131871</probabilities>
		</cpt>
		<cpt id="year1_reduction_40_ge">
			<state id="S_0" />
			<state id="S_1" />
			<parents>time_zero_mean</parents>
			<probabilities>0.6917089061181949 0.3082910938818051 0.6841445096502492 0.3158554903497507 0.751002733532263 0.248997266467737 0.7919818593855364 0.2080181406144636 0.8225694794468469 0.1774305205531532 0.8381552230982856 0.1618447769017144 0.853085206284896 0.146914793715104 0.8658217374979091 0.1341782625020909 0.7142658402419212 0.2857341597580788 0.8829230579819074 0.1170769420180926 0.8912121593421808 0.1087878406578192 0.9055459650229453 0.09445403497705465 0.6483620136281029 0.351637986371897 0.92798886131588 0.07201113868412001 0.7501185865186979 0.2498814134813021</probabilities>
		</cpt>
		<cpt id="time_zero_scr_count">
			<state id="S_10_5___114_5" />
			<state id="S_1_5___2_5" />
			<state id="S_2_5___4_5" />
			<state id="S_4_5___10_5" />
			<state id="S_le_114_5" />
			<state id="S_s_1_5" />
			<parents>time_zero_mean</parents>
			<probabilities>0.1706461309710925 0.1457038656425745 0.1741132864205738 0.1803100979303773 0.0004481453682112755 0.3287784736671706 0.1551763874285691 0.175984235867526 0.1429989921498004 0.1628620078663252 0.0002029438526863418 0.3627754328350929 0.1269919464368754 0.1489653725737702 0.1632113661115341 0.17850289886512 0.001312630934872555 0.3810157850778277 0.1005445990055179 0.1683276308893334 0.1616686792696825 0.1593779593442987 0.002261309158462309 0.4078198223327053 0.08263573670070407 0.1679427371629351 0.1388389655775344 0.1502944159409149 0.003001681897103291 0.4572864627208081 0.08079654209511226 0.1548888043813013 0.1394745815853245 0.127167088772485 0.003079188038856742 0.4945937951269204 0.0608803133460389 0.1595001301300767 0.1292775259761493 0.1200755179268646 0.002926120202423664 0.5273403924184469 0.05940337612028481 0.1572255773192312 0.1244991804156078 0.1099805585163061 0.002994961361286633 0.5458963462672834 0.1464998942472518 0.1185150585280276 0.1632904256588191 0.2316294597398117 0.0004663060509240895 0.3395988557751656 0.06133302837612396 0.1478601481205292 0.1129250145389383 0.1061443553428524 0.001412637280938631 0.5703248163406175 0.05196919915917236 0.1398476205414942 0.1093375621506636 0.09897121161608198 0.001079828348228687 0.5987945781843593 0.04994244526324938 0.1354840895156984 0.09564810160740569 0.08533304250030836 0.0003956264336693472 0.6331966946796689 0.1618224844109006 0.0975922381827958 0.1518344750578201 0.2265864605894815 0.0003228883836739135 0.3618414533753281 0.04833436016325233 0.125765699975209 0.081991153791401 0.0658854970276518 0.0003269321113657887 0.67769635693112 0.124147607318932 0.1426105281535056 0.1976665128687757 0.2051809024340537 0.001020535794631573 0.3293739134301014</probabilities>
		</cpt>
		<cpt id="study_entry_period_egfrckd_flag">
			<state id="S_0" />
			<state id="S_1" />
			<parents>time_zero_mean</parents>
			<probabilities>0.0001920623006619753 0.9998079376993381 0.0006088315580590253 0.9993911684419411 0.0001270288001489569 0.9998729711998511 0.000123344135916126 0.9998766558640838 9.895654605835026e-05 0.9999010434539416 0.0001169311913489902 0.9998830688086511 0.4071530347640431 0.5928469652359569 0.9999402452269245 5.975477307554921e-05 0.001398918152772269 0.9986010818472276 0.9999629378679066 3.706213209349176e-05 0.9999406837024587 5.931629754131506e-05 0.999978180534757 2.181946524300779e-05 0.0009686651510217411 0.9990313348489782 0.9999476730421093 5.232695789074679e-05 0.00306160738389472 0.9969383926161053</probabilities>
		</cpt>
		<cpt id="time_zero_bp_count">
			<state id="S_0_5___6_5" />
			<state id="S_1475_5___21039_5" />
			<state id="S_161_5___1475_5" />
			<state id="S_16_5___24_5" />
			<state id="S_24_5___161_5" />
			<state id="S_6_5___16_5" />
			<state id="S_le_21039_5" />
			<state id="S_s_0_5" />
			<parents>time_zero_scr_count</parents>
			<probabilities>0.02905317240254445 0.09886233893328984 0.3652136682433535 0.004424237481650628 0.1247961180884032 0.00263007665959876 0.003445604305985973 0.3715747838851737 0.1829113203249563 9.490547414774884e-06 0.02301457748082909 0.06492483486447498 0.1954388429124592 0.1502638372181307 9.490547414774884e-06 0.3834276061043201 0.0756389020350213 0.0001064836725035495 0.06323946994794132 0.07734264079507809 0.3004377662091813 0.09456933270231897 1.183151916706105e-05 0.3886535731187885 0.03943079237713139 0.00332246740220662 0.1868731193580742 0.03230942828485456 0.3240847542627883 0.02659227683049147 1.253761283851555e-05 0.3873746238716148 0.001 0.449 0.009000000000000001 0.001 0.001 0.001 0.345 0.193 0.3207724580454097 4.195459032576506e-05 0.004503948667324779 0.02778134254689043 0.06961747285291214 0.08426702862783811 2.46791707798618e-06 0.4930133267522211</probabilities>
		</cpt>
		<cpt id="study_entry_age">
			<state id="S_38_5___44_5" />
			<state id="S_44_5___50_5" />
			<state id="S_50_5___56_5" />
			<state id="S_56_5___66_5" />
			<state id="S_66_5___71_5" />
			<state id="S_71_5___76_5" />
			<state id="S_le_76_5" />
			<state id="S_s_38_5" />
			<parents>time_zero_mean</parents>
			<probabilities>0.04536541996910727 0.05557657824115778 0.09800129668475913 0.2305222202467605 0.1327279372383909 0.1013416707748273 0.27675394469366 0.05971093215133694 0.04480561835664326 0.04205725465330255 0.07385083396598632 0.194412732793178 0.1403691475655413 0.1124098280096134 0.3363853788933629 0.05570920576237229 0.01945517040651018 0.03584149861209095 0.06385904238029418 0.1711357457837335 0.1129976198222105 0.1092243698967664 0.4532117730658048 0.03427478003258949 0.01613803764375943 0.02961396855148195 0.04608662808637789 0.1570486832516191 0.1154237815706146 0.1193642488400768 0.495564911214965 0.02075974084110515 0.01760725520076524 0.02864364849970503 0.04997759768457406 0.1409255748504496 0.1102582071805911 0.1284591816238066 0.5052748230298194 0.01885371193028892 0.01436375323387921 0.02650086622827225 0.05317339381323014 0.1620711222681516 0.1279575947442069 0.1283644672617668 0.4676686000414501 0.01990020240904296 0.01615629764492147 0.03502624593735387 0.0597516805958384 0.1981740950334067 0.1420866497476261 0.1326216672147284 0.3955730351550511 0.02061032867107391 0.02095979781194889 0.05094911933071052 0.08391351384737332 0.2360020242042636 0.1367517372002402 0.124256196965979 0.3248987693408362 0.02226884129864817 0.08007450491563657 0.08806323920699377 0.1160326310750769 0.2558266401691345 0.09838736611209711 0.07889662601815974 0.1431148408150417 0.1396041516878596 0.03899803257209777 0.07297506093562961 0.1067309292602385 0.2667397423437109 0.1328953978168551 0.1118163886433324 0.2305516195536828 0.03929282887445291 0.04937276003334024 0.08836444162162566 0.1431411537561075 0.229252527244218 0.1423164854845586 0.1199345818089139 0.1512692292018156 0.07634882084942068 0.1021633811747545 0.1510196832114837 0.1865397048842835 0.2905534766733344 0.07808047690244772 0.03388540516755757 0.01437742434627057 0.143380447639868 0.06531137242140318 0.09019564051721544 0.08816952822502067 0.2626179229688252 0.1340441681638086 0.09742452651137185 0.1436972182278125 0.1185396229645425 0.1448611989454803 0.09675052968435353 0.05070461721781305 0.02406823178405764 0.002284223302287066 0.0001161469439136119 0.0001161469359095985 0.6810989051861853 0.08801032489791437 0.08757369369480011 0.1242339963655905 0.2158591646978142 0.08660067311803127 0.0682706722346358 0.08652901563812557 0.2429224593530882</probabilities>
		</cpt>
		<cpt id="study_entry_period_dxckd_flag">
			<state id="S_0" />
			<state id="S_1" />
			<parents>time_zero_mean</parents>
			<probabilities>0.6556585598732108 0.3443414401267894 0.7462629655211713 0.2537370344788287 0.7817024776664921 0.2182975223335078 0.8437845944784281 0.156215405521572 0.8907417137990556 0.1092582862009444 0.9177931643699507 0.08220683563004924 0.9465897004290595 0.05341029957094041 0.9654290138769618 0.03457098612303812 0.6774172691570988 0.3225827308429012 0.9743882667312534 0.02561173326874658 0.9809753803277466 0.01902461967225335 0.9852179541636128 0.01478204583638714 0.6031920363757866 0.3968079636242134 0.9839458918700947 0.0160541081299051 0.7004841085003408 0.2995158914996592</probabilities>
		</cpt>
		<cpt id="time_zero_ipv_count">
			<state id="S_0_5___1_5" />
			<state id="S_le_1_5" />
			<state id="S_s_0_5" />
			<parents>time_zero_scr_count</parents>
			<probabilities>0.3579078997444681 0.3091393464905127 0.3329527537650193 0.08263103282463999 0.005491863437349732 0.9118771037380102 0.2074144186780249 0.02170689383183468 0.7708786874901403 0.3511868940153794 0.07826813774657305 0.5705449682380475 0.2346666666666667 0.1706666666666667 0.5946666666666667 0.01704508061862455 0.001289897992760776 0.9816650213886148</probabilities>
		</cpt>
		<cpt id="time_zero_av_count">
			<state id="S_0_5___2_5" />
			<state id="S_10_5___20_5" />
			<state id="S_20_5___67_5" />
			<state id="S_2_5___10_5" />
			<state id="S_le_67_5" />
			<state id="S_s_0_5" />
			<parents>time_zero_bp_count</parents>
			<probabilities>0.2587590086716267 0.08429453571012467 0.01493816680814234 0.4385163362793562 8.32209850035785e-06 0.2034836304322498 0.001669051025274202 0.2606103958035288 0.6340009537434431 0.04172627563185504 0.06175488793514545 0.0002384358607534573 0.03642592243384247 0.3109874913570934 0.2904330881890753 0.3585077629015023 0.001728581306178892 0.001917153812307498 0.2272285408768349 0.1802760766015359 0.05779138718771265 0.4619908622533295 4.860503548167591e-05 0.07266452804510548 0.1886192952050837 0.1935171928766986 0.1034712279908573 0.4794037123552609 0.0003139677994624872 0.03467460377263708 0.2393951470067304 0.1539806942968473 0.04691374424371236 0.4375885582713425 2.213956783563584e-05 0.1220997166135317 0.002564102564102564 0.002564102564102564 0.4487179487179487 0.002564102564102564 0.541025641025641 0.002564102564102564 0.3157491975247361 0.04028508554220855 0.008268804394586188 0.260874780767067 4.136470432509348e-06 0.3748179953009695</probabilities>
		</cpt>
		<cpt id="study_entry_DM_flag">
			<state id="S_0" />
			<state id="S_1" />
			<parents>time_zero_bp_count</parents>
			<probabilities>0.7967493883257601 0.2032506116742398 0.4871244635193133 0.5128755364806867 0.6018291533094474 0.3981708466905525 0.7020997375328084 0.2979002624671916 0.6794137593248437 0.3205862406751563 0.7383767268862912 0.2616232731137088 0.4076923076923077 0.5923076923076923 0.8200511267745457 0.1799488732254542</probabilities>
		</cpt>
		<cpt id="time_zero_uacr_mean">
			<state id="S_111_02___440_058" />
			<state id="S_11_0034___51_8122" />
			<state id="S_440_058___867_873" />
			<state id="S_51_8122___111_02" />
			<state id="S_867_873___2725_15" />
			<state id="S_le_2725_15" />
			<state id="S_s_11_0034" />
			<parents>study_entry_period_egfrckd_flag</parents>
			<probabilities>0.06255245526039011 0.1260558837063245 0.1018535045982707 0.1607704493344663 0.04332565849609775 0.09364603522372714 0.4117960133807235 0.1057612147451807 0.07576864561228458 0.3175508176726326 0.09611374609692561 0.1328927254842414 0.107246860844274 0.1646659895444613</probabilities>
		</cpt>
		<cpt id="time_zero_pp_mean">
			<state id="S_45_5___52_5" />
			<state id="S_52_5___56_5" />
			<state id="S_56_5___63_5" />
			<state id="S_63_5___68_5" />
			<state id="S_68_5___74_5" />
			<state id="S_74_5___87_5" />
			<state id="S_le_87_5" />
			<state id="S_s_45_5" />
			<parents>time_zero_uacr_mean</parents>
			<probabilities>0.2035472118052505 0.1581343244334493 0.2739738359765256 0.1226454021118647 0.06183888152514066 0.02361277369305054 0.007786403289887564 0.1484611671648313 0.27984774985659 0.156864669792003 0.2176494773038707 0.0826019408084851 0.02541827144239422 0.007708582468392498 0.002282892497734274 0.2276264158305301 0.01995520326247602 0.05007548250389941 0.2299805451472925 0.2279111138048494 0.2218924975484543 0.1855440248029108 0.05555242328269588 0.009088709647421566 0.2867522465934635 0.1061142260706932 0.1296864907558236 0.03541788387274601 0.01207921224195931 0.00791248913854822 0.0005020198105376454 0.4215354315162286 0.008028591175836031 0.006848069616407224 0.04494433223117609 0.133868240793191 0.2280523472634264 0.39661572546423 0.176906469373895 0.00473622408183825 0.1250501022774257 0.08586037798042187 0.1870995526615594 0.1229581001104338 0.1206112758969779 0.1789454109559489 0.1134573183396735 0.06601786177755888 0.3291843840535759 0.1340039590980766 0.1021955862325443 0.01095107359137454 0.003668694737822677 0.003237058225123685 0.0006489816735339748 0.4161102623879482</probabilities>
		</cpt>
		<cpt id="time_zero_aceiarb_coverage">
			<state id="S_le_1_5" />
			<state id="S_s_1_5" />
			<parents>time_zero_uacr_mean</parents>
			<probabilities>0.4883477711686567 0.5116522288313433 0.339070882850341 0.6609291171496591 0.009710414006561172 0.9902895859934389 0.01916580042127175 0.9808341995787283 0.4788634804960998 0.5211365195039002 0.2356584018101539 0.764341598189846 0.01136943936344738 0.9886305606365526</probabilities>
		</cpt>
		<cpt id="time_zero_ppi_coverage">
			<state id="S_4_5___78_5" />
			<state id="S_le_78_5" />
			<state id="S_s_4_5" />
			<parents>time_zero_uacr_mean</parents>
			<probabilities>0.1020866764607242 0.3092640359275703 0.5886492876117055 0.0716556814055767 0.1832365554541779 0.7451077631402453 0.001902286433496051 0.00158878113071449 0.9965089324357894 0.03472919942371906 0.0351612244912767 0.9301095760850041 0.06746596005776662 0.2098898096452905 0.7226442302969428 0.02475129095848567 0.04799077554688205 0.9272579334946323 0.009537142256948903 0.005282907872868188 0.985179949870183</probabilities>
		</cpt>
		<cpt id="time_zero_sbp_mean">
			<state id="S_132_5___144_5" />
			<state id="S_144_5___153_5" />
			<state id="S_153_5___169_5" />
			<state id="S_le_169_5" />
			<state id="S_s_132_5" />
			<parents>time_zero_uacr_mean</parents>
			<probabilities>0.04572547934348035 0.009145562135473852 0.005031542366046513 0.00360982644033459 0.9364875897146647 0.3671192941150297 0.03008598027393038 0.006114863540066137 0.001307069051280856 0.5953727930196928 0.5099339494785989 0.2203670027555535 0.08390740079680871 0.0114941756442471 0.1742974713247918 0.009992368935705345 0.003635095964029778 0.002357889563027392 0.0007961168065064005 0.9832185287307311 0.3837791561022829 0.3083950228253973 0.233831646233171 0.04857183095070253 0.02542234388844618 0.1697576641863301 0.2759880415207326 0.3569913697358276 0.1885541918272564 0.008708732729853286 0.1621231458435609 0.005950473266233388 0.002522549676530134 0.0005658672352008242 0.8288379639784748</probabilities>
		</cpt>
		<cpt id="time_zero_hba1c_mean">
			<state id="S_4_425___4_85835" />
			<state id="S_4_85835___6_02915" />
			<state id="S_6_02915___6_32915" />
			<state id="S_6_32915___7_71" />
			<state id="S_7_71___12_3416" />
			<state id="S_le_12_3416" />
			<state id="S_s_4_425" />
			<parents>time_zero_uacr_mean</parents>
			<probabilities>0.01299228645185176 0.3314982288693068 0.09511587278134249 0.2514772478864958 0.2594023460259033 0.04232189272466073 0.007192125260439178 0.01456043586396212 0.3458454042476569 0.0992259716244117 0.232951840717506 0.2468914811788584 0.05483755944155681 0.005687306926048133 0.00333631259918902 0.208783187214767 0.1227591668365354 0.3633663437508655 0.2738216954208929 0.0236130845167897 0.00432020966096069 0.02110103887650691 0.5321690752746284 0.07338625777996961 0.1492157524752345 0.171772600311102 0.03430143073242953 0.01805384455012904 0.01102038444066362 0.2357144975957921 0.09105825954909187 0.2741606364877766 0.3301013240278899 0.05443953121265983 0.003505366686126162 0.01212273998367304 0.404147994685654 0.08497272766654841 0.1717010614163588 0.2720464545637115 0.05090762342413386 0.004101398259920484 0.0164232020483279 0.5867315835968192 0.09576255000551388 0.1581352186939122 0.1180089049478127 0.02341664705009571 0.00152189365751847</probabilities>
		</cpt>
		<cpt id="study_entry_aceiarb_flag">
			<state id="S_0" />
			<state id="S_1" />
			<parents>time_zero_uacr_mean</parents>
			<probabilities>0.427315378978387 0.572684621021613 0.5625117798624624 0.4374882201375376 0.9826888854804493 0.0173111145195507 0.9622128231723364 0.03778717682766373 0.4389456618363858 0.5610543381636143 0.6893718409076318 0.3106281590923682 0.9783613911459164 0.02163860885408376</probabilities>
		</cpt>
		<cpt id="time_zero_dbp_mean">
			<state id="S_47_5___56_5" />
			<state id="S_56_5___69_5" />
			<state id="S_69_5___77_5" />
			<state id="S_77_5___90_5" />
			<state id="S_le_90_5" />
			<state id="S_s_47_5" />
			<parents>time_zero_uacr_mean</parents>
			<probabilities>0.1271308047547963 0.7087794266068471 0.1108469124153271 0.02990672790837391 0.004425746535435858 0.01891038177921976 0.002206026584194685 0.1147969421027557 0.4461225219084596 0.4264528869566452 0.01028455524754482 0.0001370672003998488 0.01947774453321014 0.3636508475819663 0.3969972188218602 0.2079302902407323 0.007924617108911987 0.004019281713319098 0.1153452487986038 0.8039957002954439 0.04655819967402738 0.01889307174617663 0.00475658384092313 0.01045119564482524 0.03190453650443466 0.4294807580409769 0.4039989244225865 0.1218690480175076 0.01028913490154597 0.002457598112948447 0.0004716268052433787 0.005213345799460664 0.02553600592948578 0.5327969651291833 0.4358024028639591 0.0001796534726679885 0.00192889888346415 0.1174415520047673 0.4425124375421661 0.4214134297298949 0.01669054751404401 1.313432566351879e-05</probabilities>
		</cpt>
		<cpt id="study_entry_period_albprockd_flag">
			<state id="S_0" />
			<state id="S_1" />
			<parents>time_zero_uacr_mean</parents>
			<probabilities>0.9270942029320173 0.07290579706798285 0.9612637314180373 0.03873626858196261 0.9842991608393755 0.01570083916062453 0.9701269114658204 0.02987308853417955 0.9118053201292682 0.08819467987073185 0.9485723255419243 0.05142767445807574 0.9999338899763633 6.611002363656385e-05</probabilities>
		</cpt>
		<cpt id="time_zero_upcr_count">
			<state id="S_le_0_5" />
			<state id="S_s_0_5" />
			<parents>time_zero_uacr_mean</parents>
			<probabilities>0.01769059204498735 0.9823094079550125 0.01792331449259364 0.9820766855074063 0.005717932187157276 0.9942820678128428 0.007810402191689599 0.9921895978083104 0.03216505357450384 0.9678349464254962 0.03414726585198907 0.965852734148011 0.004892789417135859 0.9951072105828641</probabilities>
		</cpt>
		<cpt id="demo_race_ethnicity_cat">
			<state id="S_1A" />
			<state id="S_1B" />
			<state id="S_2" />
			<state id="S_3" />
			<state id="S_4" />
			<state id="S_5" />
			<state id="S_8" />
			<state id="S_minus_9" />
			<parents>time_zero_uacr_mean</parents>
			<probabilities>0.7470996761016059 0.02655317095837365 0.03397824353976355 0.05885181689173263 0.01331859245835768 0.01048982296021897 0.08420521498326443 0.02550346210668326 0.6980450635441693 0.02966347830049668 0.05377586268588171 0.05710782480502986 0.01491792633170866 0.01012133560279001 0.09876092631089756 0.03760758241902631 0.6371524456396893 0.04529199630810116 0.03866815994237316 0.04688338251647544 0.008324944280748994 0.00893794957967498 0.07106096098333181 0.1436801607496051 0.6818357537414487 0.04501765603908943 0.03293975687489689 0.0626519042358733 0.01548987369128316 0.007028792931572585 0.1110387551450171 0.043997507340819 0.6489111135701378 0.04050103527232979 0.06032463242208549 0.0714416721251226 0.008396625429804679 0.01411333352343345 0.1357353954811448 0.02057619217594148 0.626638750616195 0.03943050198678007 0.09630250797828831 0.06240271337965438 0.01286698528528687 0.01940736997041911 0.1110604585940838 0.03189071218929236 0.6736269646784471 0.04227201367221736 0.04930379801937527 0.05267496627580796 0.01062249412789588 0.006330846170827077 0.09814264048409684 0.06702627657133262</probabilities>
		</cpt>
		<cpt id="time_zero_mra_coverage">
			<state id="S_le_1_5" />
			<state id="S_s_1_5" />
			<parents>time_zero_uacr_mean</parents>
			<probabilities>0.02541737074257974 0.9745826292574202 0.009576628754347833 0.9904233712456522 7.581130016654343e-05 0.9999241886998333 0.001234296554581139 0.9987657034454189 0.006400447877563479 0.9935995521224364 0.00324343154003921 0.9967565684599609 0.000398612819721219 0.9996013871802787</probabilities>
		</cpt>
		<cpt id="time_zero_map_mean">
			<state id="S_104_039___109_699" />
			<state id="S_109_699___117_038" />
			<state id="S_80_9784___104_039" />
			<state id="S_le_117_038" />
			<state id="S_s_80_9784" />
			<parents>time_zero_uacr_mean</parents>
			<probabilities>0.007329192955414529 0.003320192521801175 0.5935252761969919 0.002819046734354371 0.393006291591438 0.03764626293271152 0.004312631964979938 0.9449420642656536 0.002480953347760115 0.01061808748889485 0.05283977372685664 0.01014226161702357 0.9155404961201604 0.006777732477379021 0.01469973605858049 0.004198617224190747 0.00212979108798214 0.325883412970396 0.001433260334439611 0.6663549183829917 0.09940437418567825 0.02053753465695893 0.8646162516542446 0.01078705940391517 0.004654780099202921 0.3553739779786663 0.3705475753393422 0.02949378819381097 0.2432386869580697 0.001345971530110647 0.03574436973747942 0.003601757885464506 0.9522434320491742 0.001165992920022965 0.007244447407858951</probabilities>
		</cpt>
		<cpt id="study_entry_ppi_flag">
			<state id="S_0" />
			<state id="S_1" />
			<parents>time_zero_uacr_mean</parents>
			<probabilities>0.5960701473997032 0.4039298526002967 0.6933315565320719 0.3066684434679281 0.9937102609795537 0.006289739020446323 0.9338649418223589 0.06613505817764113 0.7090495957616011 0.2909504042383989 0.8930356761958953 0.1069643238041046 0.9778464342182677 0.02215356578173228</probabilities>
		</cpt>
		<cpt id="time_zero_hba1c_count">
			<state id="S_le_1_5" />
			<state id="S_s_1_5" />
			<parents>time_zero_uacr_mean</parents>
			<probabilities>0.04591916081400008 0.954080839186 0.03690987882491426 0.9630901211750857 0.03573685220954554 0.9642631477904544 0.01549039650477623 0.9845096034952238 0.05288967504413724 0.9471103249558628 0.02532269052973961 0.9746773094702603 0.01372303568949654 0.9862769643105036</probabilities>
		</cpt>
		<cpt id="time_zero_upcr_mean">
			<state id="S_0_59875___2_3791" />
			<state id="S_le_2_3791" />
			<state id="S_s_0_59875" />
			<parents>time_zero_uacr_mean</parents>
			<probabilities>0.2073230891289427 0.572650026337615 0.2200268845334424 0.1071021062232412 0.6051722696888477 0.287725624087911 0.9034469069561647 0.06718897078062072 0.02936412226321447 0.794179905535365 0.01246352919605246 0.1933565652685824 0.04989334177575327 0.8232341900873994 0.1268724681368472 0.05279636908021964 0.8085378445387089 0.1386657863810715 0.8056591594890173 0.05930189318770519 0.1350389473232774</probabilities>
		</cpt>
		<cpt id="study_entry_nsaid_flag">
			<state id="S_0" />
			<state id="S_1" />
			<parents>time_zero_upcr_mean</parents>
			<probabilities>0.9864587651976705 0.01354123480232947 0.9171749672189787 0.08282503278102114 0.3963756909639295 0.6036243090360706</probabilities>
		</cpt>
		<cpt id="time_zero_nsaid_coverage">
			<state id="S_le_16_5" />
			<state id="S_s_16_5" />
			<parents>time_zero_upcr_mean</parents>
			<probabilities>0.002755816197479289 0.9972441838025207 0.004923181106226933 0.9950768188937732 0.4176991547823194 0.5823008452176807</probabilities>
		</cpt>
		<cpt id="study_entry_mra_flag">
			<state id="S_0" />
			<state id="S_1" />
			<parents>time_zero_upcr_mean</parents>
			<probabilities>0.9997925182352817 0.000207481764718217 0.9895994342392082 0.01040056576079183 0.9959828020575688 0.004017197942431188</probabilities>
		</cpt>
		<cpt id="ruca_4_class">
			<state id="S_isolated" />
			<state id="S_large_rural" />
			<state id="S_small_rural" />
			<state id="S_urban" />
			<parents>time_zero_upcr_mean</parents>
			<probabilities>0.02439098713026523 0.04878356305033801 0.02632571879023719 0.9004997310291596 0.03301009566859825 0.07540044205162245 0.03090324010669064 0.8606862221730888 0.03369308151224592 0.07067823384653801 0.0315784234147122 0.8640502612265037</probabilities>
		</cpt>
		<cpt id="demo_sex">
			<state id="S_0" />
			<state id="S_1" />
			<parents>time_zero_upcr_mean</parents>
			<probabilities>0.4665481571606032 0.5334518428393967 0.544536057723825 0.455463942276175 0.3948290774873669 0.605170922512633</probabilities>
		</cpt>
		<cpt id="study_entry_HTN_flag">
			<state id="S_0" />
			<state id="S_1" />
			<parents>time_zero_upcr_mean</parents>
			<probabilities>0.8741557954106809 0.1258442045893191 0.1905518787895082 0.8094481212104918 0.3875452759737362 0.6124547240262639</probabilities>
		</cpt>
		<cpt id="study_entry_PDM_flag">
			<state id="S_0" />
			<state id="S_1" />
			<parents>time_zero_upcr_mean</parents>
			<probabilities>0.9309263141313474 0.06907368586865247 0.9032821131335285 0.09671788686647154 0.9195912456681388 0.08040875433186129</probabilities>
		</cpt>
		<cpt id="time_zero_uacr_count">
			<state id="S_le_1_5" />
			<state id="S_s_1_5" />
			<parents>time_zero_upcr_mean</parents>
			<probabilities>0.001172557672687248 0.9988274423273127 0.007347707160833158 0.9926522928391668 0.002391300642319734 0.9976086993576803</probabilities>
		</cpt>
		<cpt id="study_entry_glp1_flag">
			<state id="S_0" />
			<state id="S_1" />
			<parents>time_zero_upcr_mean</parents>
			<probabilities>0.9998298995946334 0.0001701004053665193 0.9912434556830504 0.008756544316949607 0.9968387681068693 0.003161231893130606</probabilities>
		</cpt>
		<cpt id="study_entry_sglt2_flag">
			<state id="S_0" />
			<state id="S_1" />
			<parents>time_zero_upcr_mean</parents>
			<probabilities>0.9999243208237907 7.567917620928423e-05 0.9937013123915659 0.006298687608434078 0.9991350664801634 0.0008649335198365688</probabilities>
		</cpt>
		<cpt id="time_zero_glp1_coverage">
			<state id="S_le_84_5" />
			<state id="S_s_84_5" />
			<parents>time_zero_upcr_mean</parents>
			<probabilities>1.039314272448948e-05 0.9999896068572754 0.002468734198558174 0.9975312658014419 0.0008645001908233895 0.9991354998091767</probabilities>
		</cpt>
		<cpt id="time_zero_sglt2_coverage">
			<state id="S_le_14_5" />
			<state id="S_s_14_5" />
			<parents>time_zero_upcr_mean</parents>
			<probabilities>1.297695562164803e-05 0.9999870230443784 0.003402374491723031 0.996597625508277 0.000223583546919246 0.9997764164530807</probabilities>
		</cpt>
		<cpt id="year1_mean">
			<state id="S_21_275___25_715" />
			<state id="S_25_715___30_645" />
			<state id="S_30_645___35_355" />
			<state id="S_35_355___41_465" />
			<state id="S_41_465___47_335" />
			<state id="S_47_335___52_525" />
			<state id="S_52_525___55_435" />
			<state id="S_55_435___60_645" />
			<state id="S_60_645___65_955" />
			<state id="S_65_955___73_045" />
			<state id="S_73_045___82_515" />
			<state id="S_82_515___90_355" />
			<state id="S_90_355___107_215" />
			<state id="S_9_375___21_275" />
			<state id="S_le_107_215" />
			<state id="S_s_9_375" />
			<parents>year1_reduction_40_ge</parents>
			<probabilities>0.008499196192141623 0.01173817759609082 0.01421185197538451 0.02046039433814941 0.0240566852479334 0.02461995432033848 0.3352969368017594 0.02864945888327139 0.06465153399772616 0.04466726558532721 0.06291225386533821 0.1809890964682955 0.0981513643717999 0.01945366188812191 0.05698010881737074 0.004662059650951274 0.09340903037557571 0.1009387877503593 0.09127033897049321 0.1130198757021985 0.1003114972497761 0.0715627821740451 0.03029134880902682 0.03534932080972548 0.02205169180243556 0.01243786216460508 0.005618707444118629 0.0003534257974844117 6.088580717429093e-06 0.2333722040058635 6.003202337125142e-06 0.09000103516123797</probabilities>
		</cpt>
		<cpt id="year2_reduction_40_ge">
			<state id="S_0" />
			<state id="S_1" />
			<parents>year1_mean</parents>
			<probabilities>0.6437510057320054 0.3562489942679946 0.6802057023444119 0.3197942976555881 0.6953197879488906 0.3046802120511093 0.7119192074140014 0.2880807925859986 0.7183932521616907 0.2816067478383094 0.7525307366102612 0.2474692633897389 0.8592890995098191 0.1407109004901809 0.7900845190307239 0.2099154809692761 0.6306647564962419 0.3693352435037581 0.8190496173831997 0.1809503826168003 0.8671950452315222 0.1328049547684777 0.9639919604876386 0.03600803951236141 0.914685342033886 0.08531465796611393 0.5838034457860722 0.4161965542139279 0.9502216120398992 0.04977838796010079 0.581993454896072 0.418006545103928</probabilities>
		</cpt>
		<cpt id="year1_scr_count">
			<state id="S_0_5___1_5" />
			<state id="S_11_5___29_5" />
			<state id="S_1_5___2_5" />
			<state id="S_2_5___3_5" />
			<state id="S_3_5___4_5" />
			<state id="S_4_5___6_5" />
			<state id="S_6_5___11_5" />
			<state id="S_le_29_5" />
			<state id="S_s_0_5" />
			<parents>year1_mean</parents>
			<probabilities>0.2038034740922427 0.1990784332715903 0.08707704478949584 0.06943351250857893 0.07260459519389796 0.1116972172146048 0.1619728410146811 0.09423909153871153 9.37903761966957e-05 0.2097208191857907 0.1705043539871792 0.1125343550107775 0.08506970522616603 0.0811217806615173 0.1038550595305255 0.1591052104548573 0.07800655915535544 8.215678783105876e-05 0.2314154378784112 0.1689191266631801 0.1143490981789633 0.0929555790216583 0.07352822114682214 0.1122673122599801 0.1438276937382698 0.06265358101876259 8.39500939524039e-05 0.2634685470758369 0.1364572516841953 0.1321248627755659 0.1001720221228779 0.08074380255008567 0.09243946260977426 0.1386837500925135 0.05584613920326075 6.416188588996178e-05 0.2781018945210703 0.1288146994274905 0.1494884511456902 0.09577900816589933 0.08506171875201285 0.0897273844128316 0.1058898996812928 0.067069385189597 6.755870411543117e-05 0.3006323249837318 0.1123682945831886 0.1677542364311379 0.09058943095564659 0.0765976747940269 0.09466570194003231 0.1136939642844599 0.04361496565762701 8.34063701491405e-05 0.01794526579119302 0.006563116478890609 0.01043522490198977 0.005666917172213126 0.004215974739293919 0.005107419377294148 0.004961346364297453 0.002215389040022661 0.9428893461348054 0.3657439238423053 0.09090773099308982 0.1650717876430405 0.0993034681901393 0.07222172041151673 0.0741155975957495 0.08915808986414307 0.04336526230300136 0.000112419157014402 0.1882270126521066 0.04178600336877295 0.09483737369828571 0.05099343988990413 0.03098650231049821 0.03486565900534586 0.04614817514702772 0.02136176815948596 0.4907940657685729 0.4022220411873763 0.07773672915002146 0.1884684657574191 0.0832325975310841 0.06008851264692453 0.07389424793724367 0.0819530682984228 0.03229672126470848 0.0001076162267995189 0.4326834859576612 0.07155589927055818 0.181854555131882 0.08774837874082779 0.05766932725874974 0.06215548240416701 0.07786034679620768 0.02838653138381659 8.59930561298236e-05 0.1413103383253294 0.01781357860869303 0.05853334795941052 0.02879346471222663 0.01712610441481942 0.01675787486832537 0.01712898979029896 0.007890145181051487 0.6946461561398452 0.4925534665892685 0.05609152014803553 0.1854440659404785 0.08348755222666149 0.05188191177316506 0.05401468997525292 0.05551076265941155 0.02091328223319824 0.0001027484545282159 0.1460916194813567 0.2328546628894131 0.09017571908964525 0.07116854084968506 0.07330662255044026 0.1006508146268738 0.1874115531028672 0.09830126928388126 3.919812583734485e-05 0.5215545307926168 0.05413107770143018 0.1758823061354376 0.08387027800072856 0.04302355155151782 0.04585866072643149 0.05306391051442739 0.02104127853880165 0.001574406038608682 0.2147353282961609 0.1791128024438546 0.1274690534865146 0.102320333933998 0.06272859687092973 0.1094806252368231 0.1681989767057566 0.03585219462405342 0.0001020884019089913</probabilities>
		</cpt>
		<cpt id="year1_ipv_count">
			<state id="S_0_5___1_5" />
			<state id="S_1_5___3_5" />
			<state id="S_le_3_5" />
			<state id="S_s_0_5" />
			<parents>year1_scr_count</parents>
			<probabilities>0.07351239017204188 0.008010206765928342 0.0008549481769874257 0.9176224548850423 0.3104852838121934 0.4564208128941836 0.1251313945339874 0.1079625087596356 0.2156368595825427 0.01900498102466793 0.0009784155597722961 0.7643797438330171 0.3758808456117873 0.03464659406363442 0.001761691223574632 0.5877108691010036 0.4381043070612364 0.08416349252856724 0.00183123351889833 0.475900966891298 0.5306638696939783 0.1385118460019743 0.007465449160908193 0.3233588351431392 0.473960302457467 0.2830340264650284 0.02140831758034027 0.2215973534971645 0.1600210970464135 0.355379746835443 0.4279535864978903 0.05664556962025317 0.01753186404673393 0.002582315454062666 0.0002456186935740839 0.9796402018056293</probabilities>
		</cpt>
		<cpt id="year1_bp_count">
			<state id="S_0_5___1_5" />
			<state id="S_143_5___311_5" />
			<state id="S_18_5___31_5" />
			<state id="S_1_5___6_5" />
			<state id="S_311_5___1260_5" />
			<state id="S_31_5___143_5" />
			<state id="S_6_5___18_5" />
			<state id="S_le_1260_5" />
			<state id="S_s_0_5" />
			<parents>year1_mean</parents>
			<probabilities>0.03040215757925031 0.08166607275268695 0.05238104150114679 0.07831430152938763 0.07737064184373194 0.1855499172129567 0.0684265653706277 0.04759423257162658 0.3782950696385853 0.03343712449074239 0.05704193822070139 0.05962028114404345 0.09127876174412999 0.08402740810352341 0.1856598884502997 0.09678512391762606 0.02629114479507782 0.3658583291338559 0.02816039548771859 0.07925853977803272 0.05654733006219909 0.09153704407651662 0.07226000912204801 0.1883136393798333 0.1042719633325354 0.02397103429941742 0.3556800444616988 0.02475827947545536 0.06713824248767607 0.06461997202011621 0.09727321085923051 0.06462104578744998 0.1880923639239444 0.1070209165663171 0.02091638582168431 0.365559583058126 0.03737075592833478 0.06885909834632117 0.06208894366946634 0.1126424726477849 0.06509147261791945 0.1685018531923115 0.1244177688156611 0.02327608347978562 0.3377515513024151 0.04067496458823433 0.06681908349974684 0.07022166487264341 0.1109952392016794 0.04913404700765151 0.1794773057089649 0.1297783927786728 0.01576786148357386 0.337131440858833 0.008232759445612688 0.003815722157673181 0.004310293112306413 0.01426633703640872 0.002996338709455493 0.009817602515911761 0.009614977840985183 0.0008286888404910247 0.9461172803411556 0.03833455488657859 0.05631765847684776 0.07123002852569985 0.1396968360921134 0.04793327139806183 0.1648344853462966 0.1455680329508807 0.01573278112948987 0.3203523511940314 0.07012165488931786 0.0360608243921369 0.0730863746548948 0.2340527367781525 0.02651887499026053 0.1404818462436652 0.1708333218071089 0.007135226942992242 0.2417091393014711 0.03482911322961409 0.05199102523811738 0.064462437341353 0.1773770164365913 0.04189915406056727 0.1828973874300991 0.1449245794572214 0.0120625305558663 0.2895567562505701 0.03901495477213426 0.05730803247637659 0.0752312442669224 0.172241380053597 0.04518696359013578 0.1825591692382257 0.1600921853221126 0.008811255246069469 0.2595548150344261 0.1143195045091434 0.01897482041487386 0.0679974368487591 0.3307313500065302 0.01441289707378654 0.1056424472204313 0.1879654800662601 0.001837645376847632 0.1581184184833678 0.04468803601634022 0.05587763079592971 0.07519147784343859 0.2029990910902646 0.03987569345818542 0.1801856835159419 0.1729678506538263 0.006504751958833209 0.2217097846672403 0.02899180720790752 0.1003963881108403 0.04860690487364652 0.05167678074318132 0.1181749010790309 0.1920471514723433 0.07262726341581159 0.0430025810265635 0.344476222070675 0.04531718323185089 0.06693023387385173 0.07472458975730153 0.2120740827607752 0.03626104288856181 0.18606294834608 0.1940492009105189 0.008744427472702026 0.1758362907583578 0.0196490850397595 0.1240224402657368 0.03688008145460465 0.05342545274135126 0.1444379132072695 0.2299842222049811 0.06118692924281648 0.02488105194042357 0.305532823903057</probabilities>
		</cpt>
		<cpt id="year1_uacr_mean">
			<state id="S_10_1519___25_1405" />
			<state id="S_1346_45___2797_15" />
			<state id="S_153_155___375_933" />
			<state id="S_25_1405___68_0117" />
			<state id="S_375_933___1346_45" />
			<state id="S_68_0117___153_155" />
			<state id="S_le_2797_15" />
			<state id="S_s_10_1519" />
			<parents>year1_mean</parents>
			<probabilities>0.180856988143162 0.0875621249339496 0.09029034124685227 0.1326530301940218 0.134870753636608 0.06500826882787046 0.2284344514553127 0.08032404156222313 0.1742379615442544 0.07574961882914361 0.0927373668259715 0.1560206554824971 0.1764551537828445 0.05812164728597195 0.1646250721214517 0.1020525241278652 0.1535654195771168 0.08569644816968655 0.08877628519936688 0.1904752550536983 0.1640721790171702 0.06017215522109071 0.1438157173655967 0.1134265403962737 0.1965385348623142 0.06457831273119649 0.07521584981492759 0.1595087747901172 0.1561580063357556 0.05115532822655536 0.1421991705828127 0.1546460226563209 0.18810184716999 0.05817109517206232 0.07813740922856975 0.1564050833575197 0.1302510460831752 0.05090767431353502 0.1571993996562911 0.180826445018857 0.1900239866282438 0.05672472856363959 0.0563342433179775 0.1585886355973047 0.1475795460228331 0.04900545822888649 0.1258416635149011 0.2159017381262137 0.01903304044428838 0.01886823796340541 0.00219932395579604 0.01062463592200347 0.01313693238118519 0.90184432393684 0.01475691842218287 0.01953658697429861 0.1913739637026422 0.06398528619181761 0.03931201229433327 0.1524821745093497 0.135703592760537 0.0408921940897596 0.1246212086828146 0.251629567768746 0.1733938743347792 0.09697810599934252 0.0218286136521795 0.1332685084393106 0.1357269097172085 0.01765678263291553 0.1552516839884003 0.2658955212358639 0.2086504950001127 0.05589323679189828 0.02551300252873039 0.1304761677392423 0.120270636592414 0.03264159664019164 0.1041320655933044 0.3224227991141063 0.227177599233328 0.05502840528973606 0.02147515916359694 0.1431905233239843 0.1007304673622114 0.02646909165615537 0.09114867316104677 0.3347800808099411 0.1674833335608588 0.1155902244390743 0.008134932098879744 0.08454850974168826 0.1000193527960424 0.007100185362416279 0.1049556583401425 0.4121678036608978 0.2078280133709389 0.07453191704512382 0.01228577411154683 0.09638520039578785 0.08723092635757976 0.0184610755231742 0.07727512993063318 0.4260019632652153 0.1651559739606346 0.06724092754225858 0.1053253728408721 0.1501678002412245 0.1902383723621719 0.06729442973114665 0.1899057049134482 0.06467141840824359 0.1922201627937342 0.08015348459872862 0.01932435380552523 0.09453534337997969 0.1035021410352165 0.01341805605021135 0.05223622224718106 0.4446102360894234 0.1964978635656917 0.07416536825288882 0.05870613654470289 0.1389748193394622 0.1591017400354849 0.05866345417858227 0.2259103402331218 0.08798027785006544</probabilities>
		</cpt>
		<cpt id="year1_av_count">
			<state id="S_0_5___2_5" />
			<state id="S_2_5___5_5" />
			<state id="S_32_5___45_5" />
			<state id="S_45_5___65_5" />
			<state id="S_5_5___32_5" />
			<state id="S_le_65_5" />
			<state id="S_s_0_5" />
			<parents>year1_uacr_mean</parents>
			<probabilities>0.1018806152106294 0.1532631794029456 0.07833069651300695 0.0536942914473635 0.5679923965289742 0.04459955281886458 0.0002392680782159412 0.3097491077411887 0.2252529475511362 0.03465481680140736 0.02721106747151966 0.3884005978152468 0.01371410598350877 0.00101735663599234 0.07032126809606558 0.100302812526164 0.1173224350711068 0.1038646741791481 0.5074089393300658 0.09640645830825229 0.004373412489197368 0.09888195218504577 0.1429310593211514 0.08964574480137193 0.06782177153737846 0.525994598674103 0.07401092360294259 0.0007139498780068563 0.1086424445425287 0.1609891310789069 0.06977920130550776 0.05463754473612664 0.5498691439104972 0.0534568045017136 0.002625729924719368 0.2350126216570282 0.0946132176470706 0.002675321054971181 0.002822598844685179 0.04321985198532871 0.002133658774706514 0.6195227300362096 0.2530996671906036 0.2110150299711558 0.04474729389625393 0.02985209928462396 0.4371717085040738 0.02185408452301367 0.002260116630275479 0.1106020480457248 0.1701998775250218 0.06147915695446918 0.04104652721465352 0.5883248229396575 0.0272343580342966 0.001113209286176533</probabilities>
		</cpt>
		<cpt id="year1_pp_mean">
			<state id="S_31_5___50_5" />
			<state id="S_50_5___57_5" />
			<state id="S_57_5___65_5" />
			<state id="S_65_5___69_5" />
			<state id="S_69_5___78_5" />
			<state id="S_78_5___102_5" />
			<state id="S_le_102_5" />
			<state id="S_s_31_5" />
			<parents>year1_uacr_mean time_zero_uacr_mean</parents>
			<probabilities>0.01430205594670934 0.3865866502512043 0.3868809117576563 0.1040847322402971 0.1073155289019054 0.0006242061467167037 0.0001028159044198717 0.0001030988510910369 0.1748306223113013 0.3669722130355894 0.3960131254489702 0.03697100586021727 0.01566766638485753 0.005958499934471246 8.483131183919528e-05 0.003502035712753971 0.03644049464167002 0.1519304856264261 0.5254857672900177 0.2384891350364191 0.04432957948551172 0.002979266185034977 0.0001730562187490736 0.0001722155161711306 0.9912160494013426 0.004526853820556488 0.001610706725150648 8.79451265508442e-05 0.001502845493941098 7.631093231700407e-05 7.521565398386261e-05 0.0009040728461577096 0.06464575273746916 0.2199995847414282 0.3910038519635818 0.1728617640703677 0.1379969477813972 0.01316417896788262 0.0001422024478910725 0.0001857172899822617 0.01590234447741723 0.2354798859749463 0.5747548908436921 0.1454487088434649 0.01954731202385286 0.00864646604667276 0.0001090841896658053 0.0001113076002879457 0.1779570424529934 0.5122302137041079 0.2707819307724525 0.02387906782308617 0.01006123568118991 0.004925619588946869 5.665608692188001e-05 0.0001082338903014835 0.009179578136611317 0.02798647160377055 0.04913891133588071 0.03876636902743012 0.1440553625618987 0.666498229796361 0.06395542706403048 0.0004196504740174006 0.461102948789449 0.4583270664854346 0.05352413947653787 0.01283211939525963 0.005603919388018508 0.0002854980896841231 0.0003727073173968816 0.007951601058219456 0.009552505448615215 0.02105458989744021 0.0645414839886629 0.07504081373401993 0.3423870388320962 0.4081836482945785 0.0789058195656485 0.0003341002389383729 0.7176669403671868 0.1494509059692931 0.01117612163147456 0.0003297898397974557 0.000265306500990945 0.0002540916029041632 0.0002529170956514588 0.1206039269927016 0.1374371343043827 0.3056127991188205 0.4356263602121633 0.02251603246741538 0.05998162628814742 0.03784714103586036 0.0003195054758877511 0.0006594010973225181 0.3181321463768502 0.2340895122560079 0.2744214196480545 0.09931581125797492 0.0361682723906489 0.03184875254548409 0.005317957343733311 0.0007061281812462103 0.8218435624261943 0.1077154231985865 0.001605077158774476 0.0001732473829160794 0.0001462742464346503 0.0001404345368289832 0.000146585998598612 0.06822939505166649 0.2736364091817143 0.2222024218437027 0.3323261961195597 0.04139834522853034 0.06501474131548622 0.05891796212065421 0.0004946384587701801 0.006009285731582375 0.0004853651244418572 0.02051835037442709 0.321776528981481 0.1795654151519607 0.4155586248290911 0.06134416513765344 0.0003718022630745464 0.0003797481378702511 0.5618108600067042 0.0549472459657631 0.05317647392326346 0.009028426087109336 0.05212761689738239 0.153041894902524 0.02263968560414898 0.09322779661310457 0.2042387782943397 0.3639690728396425 0.2860961734139586 0.1105900705865279 0.02746433871924984 0.006048318766425747 0.0005072503834224294 0.001085996996433123 0.01477507850114833 0.05582271369408799 0.1094324668316779 0.0967991571906409 0.2557023579528997 0.4548425516494602 0.01185177241264141 0.0007739017674435479 0.530819286095112 0.2767187929559693 0.114922607054198 0.01077290548888587 0.01440623168068089 0.002753212787755609 0.0004215543734777192 0.04918540956392059 0.6302648648886958 0.1469694277747013 0.02968750572115775 0.002658617220120873 0.001196196856951803 0.01108354720161689 0.0004472971422499554 0.1776925431945056 0.8831596705288792 0.07854247827866291 0.03479901642103318 0.0002847126788352952 0.0003363097135252597 0.001652670102414798 0.0001758279028167941 0.001049314373832653 0.268331500468624 0.375376256816393 0.290813523703036 0.03961643728279848 0.01386517321188984 0.01170685139762839 0.0001332772955009174 0.0001569798241292551 0.02780256366909185 0.3133229273203344 0.3212109764143208 0.1299412166414811 0.1769178154478626 0.02758182669504763 0.003042418761958611 0.0001802550499030207 0.05220581100876243 0.5526191711198631 0.2974319623344172 0.04941086213075978 0.03947693637213565 0.008618176109108094 0.0001185379155031696 0.0001185430094505954 0.0002182292020723743 0.0002219696240618897 0.007387946119153763 0.2678075312742693 0.6868063359073133 0.0371703955794593 0.0002012554688314214 0.000186336824838546 0.3140549024807238 0.3519947124379775 0.2460086659627566 0.06665815304789241 0.01113556765952923 0.003991721630500357 0.0002167547987556354 0.005939521981864422 0.1711607519607162 0.5229769465898285 0.2742489919622674 0.02394400887523893 0.004846403055987276 0.001262793979757179 0.0008077949035263318 0.0007523086726780596 0.01817094289418354 0.01561088460016692 0.1983982477118447 0.3122897845351861 0.4033229378549391 0.0518522194124471 0.0001739960749658751 0.0001809869162666555 0.6930357805111871 0.2018879208573582 0.04355418215760779 0.009723471617241988 0.006634347592177178 0.003024936045233769 0.0001196914401474347 0.04201966977904664 0.02523432087684355 0.02062073150035479 0.05151395710892016 0.009378329544385146 0.08130291606540083 0.7404158408414385 0.07123501660927685 0.0002988874533802673 0.02740442435071782 0.1889636046664175 0.317858113314561 0.1156973972105753 0.2515931137619051 0.09591087038793165 0.002343909913958057 0.0002285663939333413 0.00164071099651015 0.01233158095211052 0.005750688569019989 0.006512008289008257 0.1336546602793353 0.8391144739997627 0.0007775158665508078 0.0002183610477020549 0.005282757447777633 0.01992605778673425 0.05936507204277938 0.1607151213568665 0.5400209112356346 0.2116314522106093 0.002840383957657169 0.00021824396194117 0.9606773575495706 0.004442182893616916 0.0001287047388743471 0.0001214914758824568 0.0010015117365118 6.610614883757466e-05 6.600510028671042e-05 0.03349664035641968 0.09778108489493996 0.2430479860506815 0.2622913793089207 0.02726533109537196 0.195872225375166 0.1559892041621895 0.01419950964995737 0.003553279462773087 0.3247384888430855 0.2359124052214671 0.2029682631972771 0.09336128457016656 0.09526549892290233 0.03216231595431671 0.0009519775250515039 0.01463976576573314 0.3229065329335115 0.1767414028348792 0.1982600654743402 0.08969669550078728 0.0725240914211078 0.09022005913682285 0.01233110284907158 0.03732004984947967 0.4732555009807655 0.1817158481392859 0.2080939463975752 0.0724860532934308 0.01815980090491874 0.02055741276652102 0.003617691487396839 0.02211374603010604 0.2163404802446667 0.04945865346364652 0.1217934786555405 0.09714150579977215 0.1657424922656455 0.3024872639055482 0.03100487311166931 0.01603125255351102 0.3054809406524527 0.2176581773235382 0.2112049692396926 0.08721529184459587 0.09833328933809216 0.04722667029960402 0.02163724084800963 0.01124342045401484 0.5891794859093626 0.1973326458297118 0.1198331325563369 0.01570885525715539 0.01473474351596101 0.004061205963827697 0.003316466194659333 0.05583346477298527 0.5792153176304752 0.222528220861072 0.06304776327324223 0.001946823321516237 0.01625360158819864 0.03956264942131221 0.0002058298687629048 0.07723979403542074 0.005076755249160173 0.02843839451755993 0.3638499669409777 0.186614086515187 0.296663937492384 0.1103917063589841 0.008718848201729199 0.0002463047240179946 0.0001830614921448 0.007661123830446299 0.000340377468105574 0.3142795232106823 0.622631273882043 0.0545564322054096 0.0001751863906204036 0.0001730215205481208 0.6275324650520711 0.1228309772539917 0.01139963378634391 0.0002304366556720624 0.001283112629755013 0.0001637704875522962 0.0001597553335399233 0.2363998488010741 0.006016671260444164 0.02284395633092428 0.01965041505289669 0.01193913098833624 0.1144951215664647 0.6386357300847284 0.1847178492013051 0.00170112551490051 0.01794391298092114 0.02591401841505388 0.0705708023263783 0.08404876326610684 0.3091161408479183 0.4260992349927072 0.0654238604016254 0.0008832667692888495 0.01947704177061742 0.1918128716262436 0.4220976500765372 0.1760561124306556 0.1594414413756186 0.02858303770437334 0.002401096056915787 0.0001307489590384052 0.2487461268528443 0.3806072281047925 0.3330703946803949 0.03486227863943944 0.001542480118571506 0.0009384012229214604 0.0001025028120281309 0.0001305875690075361 0.7866801788676349 0.1816379284213371 0.01091696178376435 0.001908871807800149 0.002115431201962002 0.0004452579615350033 4.889526048980833e-05 0.01624647469547661 0.152875185823319 0.3993730953311526 0.4324812439205513 0.01092383620511744 0.002104032235213853 0.001744916594368209 0.0001095958880118941 0.0003880940022658553 0.7055253740425624 0.226856597695818 0.06132159356802429 0.001995185564157845 0.001319918218507756 0.0006833263330555129 7.056383494336881e-05 0.002227440742930849 0.0001736683280794488 0.02130121653872321 0.3172763975982323 0.2179626834079461 0.4172895833461049 0.02568392154300286 0.0001512363631935651 0.0001612928747175312 0.7150442569080937 0.2664592650922785 0.008970064431842922 0.002765882026350938 0.0002677177215130914 9.751059162610014e-05 8.579661148388306e-05 0.006309506616811103 0.8908423861014422 0.08644768618429798 0.009728300968010898 0.001411428974000311 0.002312104471187089 0.002206576147583763 2.171854921513741e-05 0.007029798604262655</probabilities>
		</cpt>
		<cpt id="year1_upcr_count">
			<state id="S_le_0_5" />
			<state id="S_s_0_5" />
			<parents>year1_uacr_mean time_zero_uacr_mean</parents>
			<probabilities>0.00987566999353799 0.9901243300064621 0.007228537431156134 0.9927714625688439 0.01473459648201429 0.9852654035179859 0.004634044833479537 0.9953659551665206 0.007407922145008044 0.992592077854992 0.04465631355701745 0.9553436864429826 0.01029207410274235 0.9897079258972576 0.004027235129590395 0.9959727648704096 0.02638631376828966 0.9736136862317103 0.01391835467474657 0.9860816453252534 0.001206106773784357 0.9987938932262158 0.032842424717395 0.967157575282605 0.07257799596928684 0.9274220040307131 0.003653664198429011 0.9963463358015711 0.5035738959716507 0.4964261040283493 0.08180036318092596 0.9181996368190741 0.07043971930222291 0.929560280697777 0.03042799987363136 0.9695720001263686 0.446483725171802 0.5535162748281981 0.01554372314720403 0.984456276852796 0.3984120982046648 0.6015879017953353 0.03140316892423122 0.9685968310757689 0.06410487849570756 0.9358951215042925 0.0227212543422055 0.9772787456577946 0.01073982585607229 0.9892601741439276 0.0201632501863476 0.9798367498136524 0.05833635137238942 0.9416636486276104 0.01441352901426792 0.9855864709857323 0.0009838510053761804 0.9990161489946238 0.02714846179135576 0.9728515382086442 0.04880272127349224 0.9511972787265078 0.03971214745393211 0.960287852546068 0.01282746216979985 0.9871725378302001 0.1222424077910656 0.8777575922089346 0.002277765982907595 0.9977222340170924 0.001839704239756064 0.9981602957602439 0.00572683933483061 0.9942731606651694 0.001018886591696178 0.9989811134083039 0.001095412908547056 0.9989045870914528 0.006860746571193428 0.9931392534288067 0.0002763466048637019 0.9997236533951362 6.365005424784317e-05 0.9999363499457521 0.0119130001054378 0.9880869998945623 0.003009692618841921 0.996990307381158 0.009083199737855083 0.9909168002621449 0.01066416409065252 0.9893358359093476 0.07245462346646411 0.9275453765335359 0.05856418268440023 0.9414358173155997 0.007758961558164777 0.9922410384418352 0.0005924153847798388 0.9994075846152203 0.005741038052602816 0.9942589619473973 0.001924474014787621 0.9980755259852125 0.01932369213909974 0.9806763078609003 0.001524401545542822 0.9984755984544572 0.006993973562765207 0.9930060264372348 0.002530229271035473 0.9974697707289645</probabilities>
		</cpt>
		<cpt id="year1_ppi_coverage">
			<state id="S_0_5___363_5" />
			<state id="S_le_363_5" />
			<state id="S_s_0_5" />
			<parents>year1_uacr_mean time_zero_uacr_mean</parents>
			<probabilities>0.2966593050234705 0.2224217831224344 0.4809189118540952 0.1575912952832531 0.1203623763533093 0.7220463283634376 0.05268827385142611 0.002308834788886301 0.9450028913596876 0.1752012450436944 0.0456540103100538 0.7791447446462518 0.318299861003686 0.1838106042999879 0.4978895346963261 0.1320677516713532 0.05782102684771973 0.8101112214809271 0.05740101467668034 0.005470299271986303 0.9371286860513334 0.06558680313637202 0.08907526434827012 0.8453379325153579 0.07451159617131123 0.08980685911383877 0.8356815447148501 0.01371591825553292 0.001524623415470508 0.9847594583289966 0.02329046127087763 0.01237802776600241 0.96433151096312 0.1519243321019092 0.0991676706341567 0.7489079972639341 0.07802987825811133 0.02419545616701857 0.8977746655748702 0.008646329180135821 0.0006527685020992462 0.990700902317765 0.2879574998140151 0.3010168359540754 0.4110256642319094 0.2048577350947062 0.215496073754255 0.5796461911510389 0.04543831667236473 0.001038894284286211 0.9535227890433491 0.4520734004192409 0.07765516413730418 0.470271435443455 0.3192285656691856 0.1918673795177626 0.4889040548130517 0.3624856835929094 0.00360459830936699 0.6339097180977237 0.0733119444600646 0.04432931100574684 0.8823587445341886 0.2715368659310317 0.227943550667711 0.5005195834012571 0.2365258511942348 0.174295484535935 0.5891786642698302 0.147745241661352 0.003998703688476159 0.8482560546501718 0.1248410163639658 0.02454442931079826 0.8506145543252359 0.3237349859123942 0.2118891671554041 0.4643758469322017 0.2184032184779043 0.08742136843174093 0.6941754130903549 0.1080725306488978 0.01395010676063612 0.8779773625904661 0.1969945348261218 0.195724044172038 0.6072814210018401 0.2908712357008403 0.171250057191856 0.5378787071073035 0.06015486017799245 0.009395020264761857 0.9304501195572458 0.1076465643014368 0.01815556985497374 0.8741978658435895 0.1867549774264135 0.1806363320010755 0.6326086905725109 0.2564063875684419 0.05646584158631993 0.6871277708452382 0.08774749337117306 0.002587594170113675 0.9096649124587133 0.03132008329426927 0.01365877702267201 0.9550211396830586 0.01858840445847761 0.0137731827245408 0.9676384128169816 0.0001542756212625334 6.714021415981895e-05 0.9997785841645777 0.003364326422010279 0.0004050041626051671 0.9962306694153846 0.01131436582385918 0.01779346817265701 0.9708921660034838 0.001250914778761777 0.00339152618530046 0.9953575590359377 4.535258113791409e-05 0.0001986404688631146 0.9997560069499989 0.3964357984334119 0.1410771833473647 0.4624870182192233 0.1074850511803858 0.0617061724085182 0.8308087764110961 0.03177028430968267 0.0002470543631652297 0.9679826613271522 0.1469114374305447 0.03942174316717394 0.8136668194022812 0.1453087199709256 0.09703853758478609 0.7576527424442885 0.1024579133993957 0.05256042387099801 0.8449816627296063 0.02350426328356592 0.002111339435371573 0.9743843972810626 0.1863569291220751 0.2199892784910472 0.5936537923868778 0.1732910734688996 0.1826323626093281 0.6440765639217724 0.01679025635291374 0.0001621856080042902 0.9830475580390821 0.0782682985028056 0.0238894104451633 0.8978422910520312 0.1050313227545241 0.1264090067397959 0.7685596705056799 0.08560657995781489 0.02828328054017538 0.8861101395020097 0.05962747847346452 0.005004034181626653 0.935368487344909</probabilities>
		</cpt>
		<cpt id="year1_aceiarb_coverage">
			<state id="S_le_0_5" />
			<state id="S_s_0_5" />
			<parents>year1_uacr_mean time_zero_uacr_mean</parents>
			<probabilities>0.5324701280249534 0.4675298719750466 0.4925890714027405 0.5074109285972594 0.04368183068307212 0.9563181693169278 0.06461312118722257 0.9353868788127773 0.6445768457950076 0.3554231542049924 0.4505177991169473 0.5494822008830527 0.05710504722756057 0.9428949527724394 0.3809140095157412 0.6190859904842588 0.3200049927829419 0.6799950072170582 0.05314387685579152 0.9468561231442085 0.0299369962314086 0.9700630037685914 0.4978629903911436 0.5021370096088565 0.3520762421532802 0.6479237578467198 0.008991481553995746 0.9910085184460043 0.557650639373614 0.442349360626386 0.5831818697014707 0.4168181302985293 0.05496581879612832 0.9450341812038715 0.442628405779299 0.5573715942207009 0.6626995246741263 0.3373004753258736 0.4517898733905397 0.5482101266094603 0.096947508510346 0.9030524914896541 0.5142047507933861 0.4857952492066139 0.5629260976977055 0.4370739023022944 0.1165004744591424 0.8834995255408576 0.05993991425177262 0.9400600857482273 0.6213937744338612 0.3786062255661388 0.4751090977142902 0.5248909022857098 0.07660080631666115 0.9233991936833388 0.5117836197171833 0.4882163802828166 0.4796991882091102 0.5203008117908898 0.121590923800199 0.878409076199801 0.1262201689344768 0.8737798310655231 0.592972734909069 0.407027265090931 0.5870352705810943 0.4129647294189056 0.03086786046833675 0.9691321395316632 0.05171502098734091 0.9482849790126592 0.05664372158131414 0.9433562784186857 0.0004817977027722998 0.9995182022972279 0.005063257982254412 0.9949367420177456 0.03935965002687672 0.9606403499731233 0.02042676261064115 0.9795732373893589 0.0002557229120147908 0.9997442770879853 0.4447979993214971 0.555202000678503 0.4055112227121087 0.5944887772878914 0.047542146632789 0.9524578533672109 0.05436929540149814 0.9456307045985018 0.4533451505532166 0.5466548494467834 0.4232621835038016 0.5767378164961984 0.03540626956762782 0.9645937304323721 0.4921453228907481 0.5078546771092519 0.4085089168667593 0.5914910831332406 0.02248765633899131 0.9775123436610087 0.01381705628114005 0.98618294371886 0.4619921125649649 0.5380078874350354 0.3622734557030085 0.6377265442969914 0.04319994843140399 0.956800051568596</probabilities>
		</cpt>
		<cpt id="year1_dbp_mean">
			<state id="S_47_1436___53_9552" />
			<state id="S_53_9552___57_9913" />
			<state id="S_57_9913___59_9993" />
			<state id="S_59_9993___66_9866" />
			<state id="S_66_9866___69_9684" />
			<state id="S_69_9684___74_9928" />
			<state id="S_74_9928___96_6304" />
			<state id="S_le_96_6304" />
			<state id="S_s_47_1436" />
			<parents>year1_uacr_mean time_zero_uacr_mean</parents>
			<probabilities>0.08496835153415876 0.2284480959145636 0.173198077322069 0.4930017832192796 0.00734742227140386 0.00172841576216754 0.0009339712578120569 9.139128144855709e-05 0.01028249143709699 8.774139769359001e-05 0.0008517290481191757 0.000767317473076069 0.01888721990409305 0.04546324648920494 0.231940257952077 0.6981474406366888 0.003779925553479719 7.512154556781688e-05 0.0002671631702753479 0.0002509878960450257 0.0002685774420425851 0.6847767309179366 0.2696488718507917 0.03855957816820756 0.004012097154710651 0.002033548625217789 0.0001824447747729017 0.001933738880416644 0.0553820882872089 0.07882479318886784 0.6530678875854636 0.1618071363423383 0.04386691643274063 0.004977061399650953 7.038533231225481e-05 6.999255100101481e-05 0.1107593314620474 0.1371681663861166 0.1316065595769699 0.5805283035062426 0.01431232733337644 0.005275563360460668 0.002932294191609211 0.0001261173878480033 0.01729133679532894 9.298072834821474e-05 9.463734678431946e-05 9.707556297227159e-05 9.814014003333216e-05 0.001168281644301104 0.03345227263394611 0.9621324784752021 0.002771422053500606 9.27114149119537e-05 4.931051903894626e-05 0.000531811144459133 0.0005098295138113212 0.01034390553550971 0.02482537222527129 0.1135024199001347 0.8497980355832365 0.0003899692931888776 4.934628534949096e-05 0.002661758137918151 0.02808992718649302 0.03371938375395594 0.08377363803872155 0.1097052845077289 0.1689804078535582 0.5570759417754533 0.01563733180670313 0.0003563269394678218 0.0002453609060571372 0.0002478294816407793 0.000245550168486926 0.003420608145047804 0.000251939690487703 0.0002577616635824422 0.6965322067368015 0.298552956838089 0.0002457863698066349 0.00073988890877482 0.0007796701074438174 0.0003979541120547615 0.01785016058719731 0.02294350225130167 0.02577214603655625 0.8359424774687321 0.09529936804914671 0.0002748324787924125 0.0002249373757082003 0.005299618437281481 0.002238094782958347 0.004167616791637675 0.004112570583375291 0.06624685168038399 0.9172402103484183 0.0002452322106839751 0.0002248677895527577 0.0002813467215883957 0.004344914799193808 0.008260526735418683 0.06744095248863438 0.2606013241863682 0.3790860998104548 0.2744719450584427 0.0002836095500414227 0.005229280649857487 0.0002609823726472512 0.0002360120858962219 0.0002181657716391823 0.01080563011348513 0.0002262086735767233 0.00531895306308356 0.2380419353548718 0.7446705027759764 0.000221609788823715 0.0001243114521933012 0.0001293597097263241 0.0001246078478267386 0.0001284393042976873 0.000200563764894523 0.002176293553739831 0.886929748942614 0.1100619259296673 0.0001247494950403248 0.02689283033602684 0.02720186463998805 0.06363537035182948 0.2118682431663814 0.1364022514375865 0.1856311466848099 0.3405176793816462 0.006690971357968953 0.00115964264376267 0.0008147231712667118 0.0005688972197183772 0.0003907140606242239 0.10345999206217 0.04452116007685621 0.2180312210071846 0.6315371493596139 0.0003457351521190638 0.0003304078904467085 0.2309946054316986 0.1581899079043243 0.08391063745615482 0.2582907106560785 0.04013962103423806 0.05113770405690887 0.06585686036526173 0.006774519407874734 0.1047054336874605 0.000465538651546412 0.0008016751606363948 0.007938123967566406 0.1899960499977715 0.2396520868171812 0.3997823900889689 0.1603732235083143 0.0004517430539741049 0.0005391687540407187 0.1283127064630044 0.1557544741557544 0.09299865670072759 0.1661082591182864 0.06100155935752127 0.1213289880714464 0.2062504757501597 0.02875557755202626 0.03948930283107353 0.08255464799740737 0.158582327259087 0.1123243854821398 0.4847536825929107 0.07246537105315651 0.03949014883443204 0.009292737741079157 0.0003755295879920961 0.04016116945179516 0.0006728647330260766 0.02169735856456396 0.003010853954753724 0.05836679424021497 0.1011898883998473 0.2711005896939541 0.5387674217207635 0.0005126360446349149 0.004681592648241302 0.008048157656179594 0.007033605312357455 0.04988011594576432 0.6957023372998107 0.1603999286215609 0.05147386861504207 0.02711460716123408 0.0001568837584457913 0.0001904956296050411 0.00192530337614191 0.004271851623386543 0.003198001851812299 0.04343733766052803 0.244408263430023 0.3505133595053023 0.3520199382772806 0.0001195205909809154 0.0001064236845446255 0.1708198545939191 0.2631926026474846 0.1845767777092643 0.3514928286150958 0.0002097190391329462 0.0001861603353026374 0.004720302648763043 0.0001815097423173192 0.0246202446687204 0.04828605606320825 0.08738977185815834 0.1333866907488337 0.7025958724384028 0.008290504987836374 0.004295733746777658 0.01376520242761301 0.0001061120401424005 0.001884055689027441 0.0001692716571840059 0.0001817334353550832 0.0114086692589259 0.5613819276629426 0.2739655617068567 0.1458811106826284 0.006682032653698532 0.000164773941549826 0.0001649190008588255 0.0002105202664866878 0.0002129140526633042 0.0002601121087100269 0.1368333972751618 0.2264813887447077 0.4332472404558837 0.1926120933232951 0.009963904385734643 0.0001784293873570497 0.002799436373204976 0.008418385284476462 0.005878554799560265 0.2176094782974709 0.2988673250633308 0.4236059713868116 0.04147858985066302 0.0007165410988270212 0.0006257178456548567 0.001829080093221033 0.004840669944971546 0.0002748260773736162 0.2804604720532659 0.1708436937655721 0.3344389492062068 0.2070032526298546 0.0001541677083917666 0.0001548885211426646 0.01577155183443973 0.05399126688817003 0.06694559764386107 0.5469417200079042 0.210421731421267 0.09329974812205367 0.01053132008896416 0.0001117878292601917 0.001985276164080022 0.005058453493865884 0.03627517555386351 0.0457473661230744 0.2683292610487752 0.09597905293217636 0.3243047485995699 0.2238585048450823 0.0002425375292697919 0.0002048998743227899 0.000233450893925832 0.01047484260623887 0.009643647773981386 0.0828209501973878 0.05200637967097549 0.1555239225711247 0.6610369190274007 0.0280610955791894 0.0001987916797757527 0.007265425472434524 0.02358743030754474 0.04269276902884021 0.3043684743414103 0.2727117272579869 0.3089552475530547 0.04010802777075505 0.0001552508565626518 0.0001556474114108977 0.0001733592591100221 0.01929862823324964 0.002881079245366321 0.09590002006087744 0.1512624848285415 0.2472076033343694 0.4797748330461596 0.003337821394223937 0.0001641705981019979 0.001392041091011584 0.02376655713076306 0.03344064684774854 0.4454672534062864 0.3296265187623346 0.166105304756084 7.497786323733559e-05 5.862562707680632e-05 6.807451545780357e-05 0.0012844104345725 0.003391614614378875 0.007411770029335734 0.08640124119919977 0.1728070754602601 0.2281745462803057 0.4737345411018364 0.01636402813878019 0.01043077274133076 0.008370897016095937 0.02305368862477518 0.03016787738034955 0.2474015820585689 0.04992339081636184 0.2569303290873109 0.3823844508434618 0.000869095649574288 0.0008986885235016522 0.03667572065783791 0.08642659042370694 0.05546642084878489 0.2227986934680815 0.06962734954195175 0.1368974849137179 0.3571620534201815 0.0163893814615237 0.01855630526421398 0.005165075317365183 0.03930435384301761 0.008179271066931889 0.1984351780089412 0.07253419398534831 0.2150316481423257 0.4213404193840716 0.0372605133226115 0.002749346929387019 0.1628584587061735 0.1705959638179095 0.07227910666508156 0.2376809623669744 0.07082388142373502 0.1463822113230411 0.08294343480988042 0.002148834612661524 0.05428714627454294 0.004303849452036726 0.007550150862315896 0.005916801714411684 0.03382000465937903 0.06741748398003321 0.1824594472469886 0.5573707325901931 0.1328132433975525 0.008348286097089253 0.01217686947289452 0.01084484035102244 0.007031302886916855 0.08948559913720298 0.08139443163815439 0.2395183479051694 0.5465226560653658 0.01193499922959168 0.001090953313681909 0.2744739491168485 0.3914170995449547 0.1091189256881981 0.06694166460249386 0.01445703313021719 0.02492672336415005 0.005584028474550294 0.0001834936581752442 0.1128970824204121 0.0001923468463613494 0.0001789929563184695 0.0002106365476738697 0.000208041299399742 0.0002187557387977448 0.007323723520266233 0.8539689223478406 0.1375232150203708 0.0001753657229710899 0.0001582552056541162 0.0001812622078047031 0.007273462899852303 0.2222000514125063 0.2380620651121571 0.4237734142372117 0.1052767936985524 0.002919115079380962 0.0001555801468804978 0.2426743621614779 0.235740823256177 0.1044671223383555 0.1975015687227855 0.03796259091539197 0.1100895406623086 0.006463521713179747 0.0001424322524222126 0.06495803797790153 0.0115895876031595 0.004732288869947755 0.01147786137740214 0.06413620636827443 0.05681869889292548 0.2082383161485752 0.6000527550634461 0.04254348317832994 0.0004108024979395323 0.0001189897285291826 0.0001181040443273735 0.003253783115974365 0.002882203357530303 0.01071148777847346 0.03550851805296447 0.8254580395349418 0.1218330254666284 0.0001158489206307926 9.962458348148042e-05 0.0009754634246554945 0.0001025193512959818 0.001619699618685255 0.003800415130284523 0.01925268639932933 0.911304941682379 0.0627461023916293 9.854741825951213e-05 0.000926878317258418 0.0001025189500185317 0.00398471551951779 0.1859149065471861 0.259927130769409 0.3401649865412458 0.2087961888908662 9.106909335769501e-05 9.160537114039247e-05 4.347193548063598e-05 0.0004465319513228845 0.001169828213119676 0.007362953631306294 0.01947838386889462 0.296272657391217 0.6749312778189271 0.0002514449963055161 4.345019342636347e-05 9.750965003325065e-05 0.001472332857908432 0.0009242906502764784 0.005152836518964166 0.07805327666176276 0.4148606878293939 0.4992438280762155 9.778460436803252e-05 9.745315107741813e-05 6.691640944312638e-05 0.003141996767107665 0.0006902265860053179 0.04416234121193716 0.2527848374140969 0.5108349306665207 0.1876298380784622 0.0006243693143833719 6.45435520435175e-05 0.0001332748574352606 0.001964982001164577 0.0001967468273149116 0.003417681959341633 0.02350330100140874 0.3216970245131863 0.6488189105082068 0.0001361066066522048 0.0001319717252894554 7.616321617020275e-05 7.672395268496441e-05 7.694159758055143e-05 0.0008142884320663643 0.0001586852671230483 0.03560029907490816 0.9549054594659175 0.008215281860369265 7.615713318007569e-05 1.915871391307739e-05 0.0002124107372498119 0.0007275781802823891 0.005594524270063701 0.01476062533470977 0.2533310318496381 0.725316253379232 1.92778033224115e-05 1.91397315886206e-05</probabilities>
		</cpt>
		<cpt id="year1_sbp_mean">
			<state id="S_109_5___134_5" />
			<state id="S_134_5___143_5" />
			<state id="S_143_5___155_5" />
			<state id="S_85_5___98_5" />
			<state id="S_98_5___109_5" />
			<state id="S_le_155_5" />
			<state id="S_s_85_5" />
			<parents>year1_uacr_mean time_zero_uacr_mean</parents>
			<probabilities>0.9924113513988124 0.003814750938777282 0.00252063382197686 0.0001322088101051622 0.0008855480252208924 0.000117503748770534 0.0001180032563369959 0.3814492408355998 0.5704302102700597 0.02873836505769404 0.0007716347799236905 0.008737493201097818 0.00977665000336045 9.640585226439589e-05 0.9822620258582464 0.005621977478813421 0.008476855679870304 0.0001978333748565563 0.0002784239325635083 0.002957366079959023 0.0002055175956908329 0.2462162091211562 0.0007193979407489157 0.001289781980218894 0.03629545590930475 0.7153060324467955 8.596920341636862e-05 8.715339835938012e-05 0.9379819617253601 0.001684451505375656 0.003896380267321275 0.0007167783300935136 0.05533039846615264 0.0001667536245275087 0.0002232760811692671 0.009723502064171489 0.422401656984504 0.5553134698933916 0.0001191447869047242 0.0001207885399754307 0.01220229422839426 0.00011914350265831 0.3697845341338463 0.6036945084287797 0.02062986855390895 6.267127170528662e-05 0.002331411014576978 0.003434359353366351 6.264724381633798e-05 0.02989600380949993 0.03714459797789232 0.3034639908118764 0.000448558860212664 0.0004991315183703016 0.6280992357901523 0.0004484812319961431 0.03058323014408669 0.4348661347868538 0.5225252044654841 0.0003142660402331104 0.0003455674035301184 0.01105143431693417 0.0003141628428779246 0.004518304279921537 0.008895788631122782 0.1797547271125962 0.0003378922504341062 0.000338069675102818 0.8058174017409582 0.0003378163098644243 0.8863439238894395 0.0414822815397876 0.0003141881677370494 0.0004126040557515813 0.07086839466324504 0.00028982051482471 0.0002887871692145147 0.7994310460740492 0.1226528968907911 0.05703710564218661 0.000352525816768246 0.0006852264569499087 0.01948873245386637 0.0003524666653885694 0.03229621190347491 0.09070112263932352 0.3723481657573897 0.0002516978118560391 0.002076349765615504 0.5020747638551513 0.0002516882671891062 0.5198605882718866 0.4148169739678857 0.04430663636697781 0.0002225626575366814 0.0203811269731854 0.0002527765671652864 0.0001593351953623925 0.5514600621418764 0.2224843574275364 0.08854044310242827 0.01582335408025838 0.09715561494596471 0.02398048793283356 0.0005556803691022066 0.02070284001474035 0.26869520037664 0.7080156490672613 0.0004242976408052453 0.0004308518915598439 0.001306870371608273 0.0004242906373851184 0.1375404458487045 0.1628207774948446 0.04600775644676677 0.2934988209477765 0.3093365722467084 0.02118419082723554 0.02961143618796385 0.8633920989582216 0.105971568486673 0.01824504918111232 0.0005884847581806093 0.006543511890736824 0.004697691872233499 0.0005615948528421275 0.2042948364799234 0.4464423182275779 0.2003911221943567 0.0006019243110857969 0.001509222533508181 0.1461696175839821 0.0005909586695657372 0.4829787287928863 0.0005032901984856223 0.0004840962304033997 0.09440355603787451 0.3827414058918391 0.0004896350886831273 0.03839928775982791 0.6965270774894748 0.03376705502768255 0.009086110851591689 0.0186835121948937 0.2406425869843036 0.0008114918079946771 0.0004821656440591549 0.5538804527868013 0.0002018723069646016 0.003010487020114462 0.02331612968024356 0.4177853279973959 0.001604579827507621 0.0002011503809726353 0.8118392445652084 0.1411816682013404 0.03492533732677555 0.001093616999088539 0.001599319073982357 0.009224271234171881 0.0001365425994330061 0.9204751732209784 0.01150591218234717 0.0002220588063167806 0.0002419231540455032 0.06256416448237982 0.003318109745760414 0.001672658408172078 0.9833617567115036 0.004617744700158912 0.001084886332758328 0.0001437857579843983 0.007666005841111335 0.002987183341525998 0.0001386373149576611 0.1043346264352553 0.8308715231932848 0.05678913291789917 0.0002115899077383467 0.0002127394812195234 0.007368798176906671 0.0002115898876961281 0.9091484447259215 0.03858422439349785 0.02624784542593521 0.0002280362344674824 0.01176820124315064 0.01379757003639336 0.000225677940634096 0.990572900272213 0.002722944765050641 0.003000678774500974 9.291432647125785e-05 0.001728606711520614 0.001789815617342447 9.213953290114035e-05 0.1536623259671945 0.6170766593616487 0.2199189999272053 0.0001975342776187768 0.0002005111482740791 0.008746460498054569 0.000197508820004224 0.5775520775686473 0.0001470692088591193 0.003007130856066518 0.06160089392032538 0.3564591111020269 0.00108956648016334 0.0001441508639111821 0.0500630697954243 0.05586723515568776 0.4277725625290506 0.0002318294989088963 0.0002326108867584315 0.4656007627722129 0.0002319293619571407 0.01645307134315968 0.5190709022019439 0.3860907211581927 0.0002532256540029203 0.0002602423847627794 0.0776203894398793 0.0002514478180587993 0.01639851420559851 0.04952262035108834 0.6711597315285366 0.0001988780381716233 0.0016357007201911 0.2608856846196203 0.000198870536793585 0.02306729307498661 0.2030916424117168 0.6157598174643134 0.0002096243896487574 0.0002129921932637926 0.1574487942589333 0.0002098362071374972 0.4024236011667465 7.538847572163452e-05 7.538115214877577e-05 0.0455792003857197 0.5516726015338195 7.539774191437981e-05 9.84295439296539e-05 0.2431134930277434 0.3389354048413121 0.2625926079930388 0.0012800840086969 0.02145368379964167 0.1313727462505122 0.001251980079054976 0.7079093822304861 0.1221440023572578 0.1407285229343309 0.007528345669889603 0.01192862909034065 0.002349043515672194 0.007412074202022825 0.527485526508652 0.1912792458920627 0.08754029714022105 0.05338043641980984 0.09273535552689954 0.04350305336554274 0.004076085146812237 0.6495278784493429 0.1404455965282426 0.05426899179346419 0.005806890032319052 0.112288259816516 0.03634363280112936 0.001318750578985756 0.4553071063064921 0.211967537068879 0.1808543306777036 0.04013994838400397 0.05394234707233505 0.03192565518649158 0.02586307530409479 0.2479242132726092 0.3346321308612923 0.2851836392357607 0.00285357986949929 0.008928803324400188 0.1191141756236324 0.001363457812805918 0.7502046352643386 0.114126538935003 0.02877448684430545 0.007891304667039471 0.08812403096550515 0.008155153110695848 0.00272385021311272 0.04334036899570264 0.02742499059981293 0.003925275293545941 0.2822952530624352 0.589829212079086 0.000235782792533959 0.05294911717688345 0.00845873524843193 0.002602742614676053 0.4575370110967142 0.0002224152186024913 0.0002232623886205228 0.5307334023658203 0.0002224310671346188 0.002346045638113852 0.6487769059701929 0.3449978121562217 0.0001975380359937279 0.0001975307536748972 0.003286513264784273 0.0001976541810187295 0.0003869050636781108 0.0001842886803607106 0.0001827044094628998 0.4822343431386605 0.4464491056399428 0.0001827666446523418 0.07037988642324242 0.01057306436896578 0.02777447209553114 0.05292657480115185 0.0002386511617454216 0.001417020011236701 0.9068315668646428 0.0002386506967262995 0.01367317160076534 0.0296353851769221 0.04664364314159461 0.0001454488094000775 0.0001474421057436807 0.9096094438734663 0.000145465292107718 0.002281342484614898 0.08065239054887123 0.7692218354125627 0.0001251446983612549 0.0001258879842579916 0.1474682846082803 0.0001251142630514799 0.9618295326863185 0.02672272336816361 0.002005706097247253 0.0001197461914426339 0.00784302858240586 0.001362323620522217 0.0001169394538998713 0.9609803252665841 0.01606804754411894 0.004611851023697051 6.474052249635196e-05 0.0177379321206897 0.0004812466723213658 5.585685009250839e-05 0.6235361328631635 0.3647974886773797 0.01112431467664685 0.0001260805302786091 0.0001313253083814159 0.000159441522630485 0.0001252164215196676 0.9477405251035657 0.002414884247918599 0.001140826736298008 0.001755184984418888 0.04622275545135392 0.0006455456765889441 8.027779985600598e-05 0.001790188183687724 0.3416476567350165 0.6284225423202037 0.0001696684865354717 0.0001823662300376862 0.02761790711689573 0.0001696709276232462 0.6579285574387782 0.3284766423333473 0.008445434936624958 9.800000722929519e-05 0.002016466631700265 0.002936993225486056 9.790542683388163e-05 0.9696577235062718 0.01520135133615159 0.003896513410621574 0.0005546594555862719 0.009047274853137149 0.001617876675976828 2.460076225481316e-05</probabilities>
		</cpt>
		<cpt id="year1_hba1c_mean">
			<state id="S_4_83665___5_2775" />
			<state id="S_5_2775___5_9245" />
			<state id="S_5_9245___6_25855" />
			<state id="S_6_25855___6_81835" />
			<state id="S_6_81835___8_395" />
			<state id="S_le_8_395" />
			<state id="S_s_4_83665" />
			<parents>year1_uacr_mean time_zero_uacr_mean</parents>
			<probabilities>0.07539556958269482 0.2853363867025454 0.1316140381375043 0.1273195542541342 0.2375240188317589 0.1293011835698814 0.01350924892148125 0.01992352407769798 0.2511213152910655 0.1486074939407173 0.1357659747408509 0.2679829954469508 0.1733625290236697 0.003236167479047619 0.01632496755944048 0.1492642866556526 0.1310185521285984 0.2601514839866901 0.3101058710096889 0.1313316982997766 0.001803140360152936 0.08638075486116471 0.4797633851280372 0.07700810699311829 0.07190949052150555 0.09681943696441191 0.1280487683972751 0.06007005713448716 0.02020129382481654 0.2413365049404087 0.1619940152013351 0.1849614895688955 0.2499108294995598 0.1365154700081795 0.005080396956804807 0.07183412310010305 0.320119320781084 0.1150287241857371 0.1501493056347907 0.1265746256359745 0.2110932055778172 0.005200695084493489 0.06683442118173702 0.333410132673619 0.151806041641283 0.1566018221400004 0.1633841127175516 0.1111310929441046 0.0168323767017043 0.04201266553551169 0.1500046453337922 0.01152751496834501 0.1587022645175752 0.262073632709924 0.3732885912974802 0.002390685637371766 0.07730487058320344 0.1879055932392787 0.07038367520346651 0.1393644637594161 0.2103795536511277 0.3018134803669775 0.01284836319653006 0.005075501901777017 0.06497582771543821 0.1239114341501254 0.1968919622853788 0.2089190157879025 0.3988076989605294 0.0014185591988487 0.1178326371068006 0.1928402753817056 0.2374870556892326 0.1175617829316811 0.1371929553193177 0.1779428872561681 0.01914240631509404 0.02045350877396876 0.1799581151269777 0.0266552058781889 0.1381552560915811 0.3315176424393582 0.3020615751287767 0.001198696561148494 0.02996828266283896 0.2724497302905022 0.07750730647289567 0.1479572007801203 0.2042796215469684 0.2641740616400502 0.00366379660662415 0.1128739669338938 0.4814594266334901 0.104974686575448 0.1545294716010608 0.06286032689716814 0.05920449467746795 0.02409762668147126 0.001502590739806364 0.1865870201761042 0.1259001969279362 0.07640549087361012 0.2686864561770924 0.3288965375724855 0.01202170753296521 0.08025719747547296 0.1572847065096541 0.0379866518620299 0.1714994847937592 0.3537778561443642 0.1870103503922549 0.01218375282246467 0.04065405087851427 0.06221488223178696 0.1643469767264487 0.2925862939891726 0.291315198199981 0.1162270036381139 0.0326555943359827 0.02803127231764444 0.01347851632586675 0.1235812040462237 0.1840437016561376 0.2855847434371003 0.3242788697744668 0.04100169244256043 0.01832897644468149 0.1814118222428615 0.1065617081375329 0.1717081560375538 0.3235680453273876 0.1965998142857488 0.001821477524233798 0.02261924886844725 0.163506816139487 0.08644544536768144 0.2415402501678496 0.234387869026953 0.2026523367603926 0.04884803366918909 0.1385786095205064 0.2518895129898434 0.1219777646883446 0.1170704201080379 0.1130004019347206 0.1583251381768742 0.09915815258167313 0.0339219597122072 0.2314579384617096 0.09942372918530368 0.2238806279160209 0.2157829855444211 0.1805148408521724 0.01501791832816519 0.04542912165555137 0.1555815105704799 0.09407988005317554 0.2035140816631527 0.2982831826030004 0.202479395683274 0.0006328277713660073 0.07913806454785344 0.1466317250422237 0.06348313757040755 0.2082167688730209 0.3314565638045615 0.1439832523206369 0.02709048784129592 0.08689933407160751 0.3452148000575382 0.09698695785985995 0.1888767994346456 0.1016626154572654 0.1348574010058373 0.04550209211324619 0.05799213173887262 0.2248660808695085 0.1260508465581396 0.1001320835974458 0.1799034173159295 0.2604104022264558 0.05064503769364828 0.02081339860040759 0.2828468804789137 0.1840438466079301 0.1141750186242679 0.2277873438888559 0.1604204694170337 0.009913042382591162 0.05909424230788081 0.3754961183010331 0.1610044389242338 0.1112253826322684 0.1630362383174356 0.1047365552679278 0.02540702424922045 0.05092911409569571 0.09816630105101258 0.113756847696077 0.1646752733939475 0.242596087391251 0.3291323663420815 0.0007440100299346355 0.08747448236558268 0.2665974838594148 0.1350962390615896 0.1012741376516903 0.1745078320468602 0.2012300427584148 0.03381978225644772 0.02001588099393012 0.1968512214482853 0.1384494367057086 0.1981863870690473 0.2857962918253405 0.1596625996370358 0.001038182320652342 0.04724309297221647 0.2372180207169375 0.03701412626760029 0.08882820636414973 0.2827064591004214 0.2536896466031353 0.05330044797553937 0.06010368703417837 0.1838221722389312 0.07469759141316588 0.1666580432071042 0.3390526091220896 0.1662393545919019 0.009426542392628502 0.05346407574629187 0.2244324152498401 0.1231727930713417 0.1061464988683645 0.2803046641986086 0.2001618148058998 0.01231773805965347 0.08746499402149061 0.5344938685826184 0.1607978381824584 0.06979447158851061 0.06223887397876789 0.07568689960276534 0.009523054043388868 0.007536018028526738 0.1326511675578463 0.1234513492201218 0.09044015556935556 0.2566328296623431 0.3665632606061121 0.02272521935569455 0.007865794838906958 0.1546847908214631 0.05933154786123295 0.1779175538644051 0.2789278146791055 0.317978612388316 0.003293885546570363 0.08788456632321752 0.1976065966970505 0.1563890510049334 0.1698175908896051 0.2267160465189968 0.1399333716867487 0.02165277687944789 0.03733518611280327 0.1698983670517283 0.0654561256290954 0.2931739340165186 0.2412504686031706 0.1767128935100414 0.01617302507664252 0.08902370976806431 0.1654528184323108 0.1266433283118193 0.2130639272123291 0.3035272732980905 0.08677570545672657 0.01551323752065954 0.06718554158131858 0.2383720679130884 0.1372854740926643 0.1885423754122806 0.174640800117204 0.1574747719286304 0.03649896895481376 0.08428414586053383 0.3158346579824181 0.1316201974814883 0.1429562819186473 0.1540523035833919 0.1295537802510018 0.04169863292251909 0.1072756999337384 0.3136398853317088 0.09316026529068161 0.1971917959630129 0.1685924759730791 0.07922725528042611 0.04091262222735298 0.03158018999800859 0.2468551530529845 0.175336299215064 0.074895927867242 0.2406302500816913 0.1980964697949489 0.03260570999006071 0.04320701973429211 0.2138946717870016 0.08123703979849307 0.2921275575811633 0.1878380227943502 0.1628368986297438 0.01885878967495574 0.04438726087659627 0.5074634219947484 0.07589835238855271 0.08788347553683795 0.1123714490980217 0.06256329895107787 0.1094327411541652 0.06667486635046066 0.1630126645749117 0.1632937996112385 0.07525497965367706 0.3260922620272271 0.2048354943548241 0.0008359334276609018 0.07892977017974477 0.1454833873376508 0.03585029371437776 0.1109333133635962 0.2826113159424817 0.3340968255229797 0.01209509393916922 0.1033096455191291 0.4322785996256183 0.1183555430484054 0.1664524073065357 0.1048581223975299 0.05135043789892751 0.02339524420385409 0.0338676375167979 0.2674853885907618 0.08587307711887715 0.213923001466222 0.2392391463721186 0.1219356357365637 0.03767611319865893 0.06295116872664706 0.3199662199621416 0.1200259895673477 0.1475215143156135 0.1858515558578842 0.1432732047669606 0.02041034680340535 0.01086760008602883 0.1828312131145134 0.1708209496910658 0.1809806667538527 0.339617159550742 0.1143546101447878 0.0005278006590095345 0.1685088912370561 0.4598020216814036 0.1045128582207669 0.0944984738249518 0.09670264512075437 0.05855219054696464 0.01742291936810247 0.02357371347328638 0.2873527746102653 0.1084604214671482 0.1943820411844303 0.1971890878059556 0.1778743319218451 0.01116762953706899 0.08672255193643751 0.4769772201299458 0.1357763682156437 0.09245783327046379 0.09501852916258376 0.1051246563638866 0.007922840921038741 0.07623813211397741 0.4695058697929483 0.1493020498244639 0.1066912637804559 0.1169715224605249 0.0715984588282679 0.009692703199361547</probabilities>
		</cpt>
		<cpt id="year1_hba1c_count">
			<state id="S_le_3_5" />
			<state id="S_s_3_5" />
			<parents>year1_uacr_mean time_zero_uacr_mean</parents>
			<probabilities>0.01357309250391887 0.9864269074960811 0.02610187113980303 0.9738981288601969 0.03912264981546425 0.9608773501845358 0.006328617783199161 0.9936713822168008 0.003538503992873458 0.9964614960071265 0.01625258166824721 0.9837474183317528 0.009208971943266539 0.9907910280567336 0.01423476994308073 0.9857652300569193 0.003881124994232816 0.9961188750057672 0.02667825834747439 0.9733217416525255 0.001037426533096475 0.9989625734669034 0.05470378931417173 0.9452962106858283 0.01487960260770863 0.9851203973922914 0.0003826685527809154 0.9996173314472191 0.0632432049046049 0.9367567950953952 0.04534886081262049 0.9546511391873795 0.07592466527773439 0.9240753347222657 0.02337405901186839 0.9766259409881316 0.0724471643831375 0.9275528356168626 0.01639200606722227 0.9836079939327776 0.01431096912654145 0.9856890308734584 0.01971661885238754 0.9802833811476124 0.04858003988258666 0.9514199601174133 0.02891291097665024 0.9710870890233498 0.007103709599741985 0.9928962904002581 0.01540933903554833 0.9845906609644517 0.00853759554385948 0.9914624044561406 0.007099234680065656 0.9929007653199343 0.02144243372330831 0.9785575662766917 0.01642118514994575 0.9835788148500542 0.05561615076224895 0.944383849237751 0.01014845965903064 0.9898515403409694 0.03069788254102719 0.9693021174589728 0.02520962452654351 0.9747903754734564 0.0002955379314221945 0.9997044620685777 0.005251334863268849 0.9947486651367312 0.009243932764630293 0.9907560672353697 0.003482038212591706 0.9965179617874083 0.002637249929108683 0.9973627500708914 0.001827222867204708 0.9981727771327953 0.0002423284972405193 0.9997576715027594 0.0003675128269723531 0.9996324871730277 0.006060183421425019 0.9939398165785749 0.01241725876505301 0.987582741234947 0.01152808033944496 0.9884719196605551 0.001578751391174177 0.9984212486088259 0.03038792176167417 0.9696120782383258 0.0162675988356848 0.9837324011643152 0.005565145789945715 0.9944348542100543 0.0005986365569462495 0.9994013634430539 0.01171666973694424 0.9882833302630557 0.02360371696018517 0.9763962830398148 0.004270690467413191 0.9957293095325869 0.02064972750897745 0.9793502724910227 0.009313971868101817 0.9906860281318982 0.009401177408343519 0.9905988225916564</probabilities>
		</cpt>
		<cpt id="year1_upcr_mean">
			<state id="S_0_2572___0_81745" />
			<state id="S_0_81745___5_33375" />
			<state id="S_le_5_33375" />
			<state id="S_s_0_2572" />
			<parents>year1_uacr_mean time_zero_uacr_mean</parents>
			<probabilities>0.9979636457941149 0.0002730164963271214 0.0006733466283017202 0.001089991081256199 0.0005405611611488359 0.008013828327764091 0.08195826093337903 0.9094873495777082 0.27617442328412 0.0117214993163232 0.08682193678056244 0.6252821406189942 0.9973138009605504 0.001298041863826584 0.0005593483638023106 0.0008288088118206945 0.8254795991654494 0.0003689202208575929 0.001380044970783489 0.1727714356429094 0.001278064729398373 0.2345905024599567 0.7325716240606797 0.03155980874996524 0.002734244315200242 0.01706713836173649 0.3569080160823264 0.6232906012407368 0.00147461080416153 0.5298225529857509 0.4183545675915935 0.05034826861849415 0.0006041205392735125 0.994471450339226 0.003566053196423172 0.001358375925077288 0.0006103731350125336 0.9911923993033606 0.006100217386610404 0.002097010175016526 0.006828980161590878 0.009120199487701295 0.6268201225111194 0.3572306978395884 0.003280947688971608 0.04853739995041639 0.1002485419515554 0.8479331104090566 0.007060898134436377 0.9917227108745228 0.000580901259587384 0.0006354897314533436 0.0002740168125962124 0.6244129405998908 0.3607015764761546 0.01461146611135823 0.1098003876300242 0.4075567245347596 0.1698172003468292 0.3128256874883871 0.01019239989984175 0.02398975233847777 0.6556024659562474 0.3102153818054331 0.8613839127500431 0.1117104163296501 0.02229411141281595 0.004611559507490835 0.03437247748390152 0.02995368704527145 0.2827602680023342 0.6529135674684928 0.3845640694632545 0.3963754194196736 0.1075409038458702 0.1115196072712018 0.9890138923613387 0.008825223342945648 0.001050478237067786 0.001110406058647983 0.2208221536220113 0.309467288590638 0.1069632565675475 0.3627473012198034 0.9756256107249501 0.002310068296744902 0.00108653201746717 0.02097778896083784 0.02094512681464724 0.03488699293180533 0.1461502222682735 0.7980176579852738 0.9890628543099361 0.009314027335168795 0.000819757645476796 0.0008033607094182501 0.9458375713993723 0.006064507827816976 0.004682109628540295 0.04341581114427045 0.0004812426653961671 0.000592995051876282 0.02235950619098777 0.9765662560917399 0.09467222276693463 0.05831078020452684 0.0651174556050186 0.7818995414235199 0.1762254309309977 0.003657602219353256 0.0076093944709893 0.8125075723786598 0.001123709789900744 0.0007157101931558538 0.07783728617718677 0.9203232938397566 0.9940265849137637 0.003187073196178425 0.0007184348384045381 0.002067907051653351 0.009892646345934862 0.4419143340028729 0.3164565387814728 0.2317364808697193 0.007223232901224406 0.4281489323937034 0.1579195700449423 0.4067082646601297 0.006481975849970351 0.006435402578668027 0.1267621287167299 0.8603204928546316 0.01855704256332864 0.08554074586786733 0.8005411774810565 0.09536103408774764 0.9994412684081881 0.0001654509102296237 0.0001899341382380877 0.0002033465433442699 0.008338663691072223 0.824422949322948 0.1528431120055151 0.01439527498046485 0.1128048497326984 0.7083808805625412 0.1520715273004921 0.02674274240426844 0.1671674868557268 0.4539881207381719 0.3689472114341301 0.009897180971971285 0.05285040173018332 0.7355143071229931 0.2088654231170519 0.002769868029771673 0.4226578923002397 0.3905096808585767 0.1573352107356253 0.02949721610555798 0.01538400723780706 0.778811588000347 0.196718285350871 0.009086119410974791 0.02478665349754125 0.6580900587260238 0.313541279803608 0.003582007972826872 0.9916228354789085 0.00403884517522353 0.003880149190619115 0.0004581701552487806 0.0004201427472000967 0.945695040740267 0.05090510420107675 0.002979712311456241 0.0005059953733981577 0.006645968981685067 0.6824388664543735 0.3104091691905433 0.9944683905360158 0.004727219101030466 0.0004647807111048756 0.0003396096518489144 0.000461758584321572 0.5732032680636254 0.4037351803160049 0.0225997930360481 0.0004829310508824618 0.9626345967011269 0.03628467368346408 0.000597798564526525 0.0002203420471709461 0.8489927561413081 0.139237646849278 0.01154925496224289 0.03647386602601239 0.000436654589826995 0.003709112964552697 0.959380366419608 0.000337397331417605 0.0004191945632927923 0.03455584083101478 0.9646875672742748 0.0003050080609297335 0.002247434189785037 0.3170858233586665 0.6803617343906188 0.1892216971189906 0.002338491932061672 0.004095547625739476 0.8043442633232083 0.0004100185279848731 0.01443385072143456 0.7139837081418082 0.2711724226087723 0.0003172746928897906 0.003563982850934912 0.9287724210091368 0.06734632144703841 0.0002232185369406582 0.0004066271386773725 0.1016130022731336 0.8977571520512484</probabilities>
		</cpt>
		<cpt id="year1_map_mean">
			<state id="S_106_025___113_033" />
			<state id="S_113_033___121_795" />
			<state id="S_62_9442___67_9504" />
			<state id="S_67_9504___72_9607" />
			<state id="S_72_9607___73_0007" />
			<state id="S_73_0007___74_9956" />
			<state id="S_74_9956___78_4625" />
			<state id="S_78_4625___84_7469" />
			<state id="S_84_7469___106_025" />
			<state id="S_le_121_795" />
			<state id="S_s_62_9442" />
			<parents>year1_upcr_mean time_zero_upcr_mean</parents>
			<probabilities>3.070800932158125e-05 1.863386659328653e-05 0.02962597996241956 0.09956709541557195 0.0113219206057639 0.06512325721849868 0.2014668545539867 0.5660932661729509 0.01071225890394401 1.62234112868414e-05 0.01602380187966255 0.0007364596951461956 0.00126370134728437 0.02980211285331932 0.09718043511593354 0.002648202424796583 0.06651562743177054 0.1688893356656144 0.5476270361748721 0.06872641891463409 5.854108690731775e-05 0.01655212928972141 4.08587427061573e-05 0.0004565931749764159 0.01497626943276175 0.06157574868397859 0.004632565719301024 0.05894464432778607 0.2023326152829856 0.6172033695668537 0.03541935231675165 3.556321237991508e-05 0.004382419539518996 0.3305119582072497 0.08155271588173107 0.002563939449579816 0.0009888129097371092 0.0006365654940870511 0.00134654088801486 0.003403893013171481 0.008498750855790757 0.5389295073156463 0.03151596446761758 5.135151737446651e-05 0.3493960816354884 0.3078976587716517 0.0003585728486172668 0.001445548168824281 0.0002724121521259688 3.21225557706418e-05 0.002109275193286696 0.008549083712628615 0.18269340335342 0.1469809428303718 0.0002648987778148492 0.4208551222256136 0.2135733079853411 0.0003258414961672721 0.0001014755921637588 0.0002085414135929391 0.0008422443410941202 0.001515802455465683 0.01084674378571874 0.2826357951891759 0.06824439490343544 0.0008507306122314445 0.01588772480717264 0.001844411669502102 3.438505095040433e-05 0.000655715317336724 3.705869276171762e-05 0.0005616834874200136 0.0006717453659314531 0.001422038962180563 0.9786090709292193 0.0002411663780873129 3.49993394377063e-05 0.1623780763626853 0.007637530895084709 2.267041455808903e-05 9.238192536859749e-05 2.481834142530274e-05 3.418281100802761e-05 2.584897053746758e-05 0.0004808359774017917 0.8292212214930614 5.34083246816661e-05 2.902448418791371e-05 0.1166066398249309 0.005488822964273366 8.221749379276273e-05 0.0001043524146841189 7.268412695051961e-05 7.699515330951518e-05 6.952078256048671e-05 0.0001071472024131377 0.8771996202868678 0.000109552728147098 8.244702207059292e-05 0.0005115347332846532 0.0001585531620009626 0.000125680910497574 0.0002188423191242176 1.73425339524333e-05 5.117621931714023e-05 0.001881315868397371 0.01612661793631167 0.9807424646526608 0.0001564980298944938 9.973634558632056e-06 0.002166504410360352 0.00140711875323325 1.654705012283819e-05 0.0005022344213085115 0.0001400501500972922 0.0002358868117650662 0.002968238357644021 0.01501693342472943 0.9775147641638283 1.894787811571872e-05 1.277457879518572e-05 0.001401684486077011 8.832078224332854e-05 1.888890744576293e-05 0.0003422845669229974 2.095757602072675e-05 2.222922798698123e-05 0.001685914246921948 0.00823891621297029 0.9881425744944194 1.967587982735171e-05 1.855361916416962e-05</probabilities>
		</cpt>
		<cpt id="year1_uacr_count">
			<state id="S_le_2_5" />
			<state id="S_s_2_5" />
			<parents>year1_upcr_mean time_zero_upcr_mean</parents>
			<probabilities>0.001661336569721545 0.9983386634302786 0.004335526737444147 0.9956644732625559 0.001641602624864335 0.9983583973751357 0.0019221090699407 0.9980778909300592 0.009743781437474338 0.9902562185625257 0.001262696693578786 0.9987373033064211 0.0007141867822610401 0.9992858132177389 0.0009696589149416132 0.9990303410850585 0.007172615180102441 0.9928273848198975 0.003077125146736462 0.9969228748532636 0.009859746348558508 0.9901402536514416 0.001442628232177474 0.9985573717678226</probabilities>
		</cpt>
		<cpt id="year1_mra_coverage">
			<state id="S_le_0_5" />
			<state id="S_s_0_5" />
			<parents>year1_upcr_mean time_zero_upcr_mean</parents>
			<probabilities>0.002315975843639326 0.9976840241563608 0.04204847531203549 0.9579515246879645 0.0164555610223765 0.9835444389776236 3.505063076855399e-05 0.9999649493692315 0.004609156795896489 0.9953908432041035 0.002131537769002832 0.9978684622309971 0.000102152002056485 0.9998978479979436 0.005603162136480048 0.9943968378635201 0.002115965926208478 0.9978840340737914 0.000159214798378024 0.9998407852016219 0.01832544814895603 0.9816745518510439 0.005568346291196233 0.9944316537088038</probabilities>
		</cpt>
		<cpt id="year1_nsaid_coverage">
			<state id="S_le_6_5" />
			<state id="S_s_6_5" />
			<parents>year1_upcr_mean time_zero_upcr_mean</parents>
			<probabilities>0.04879908953021939 0.9512009104697806 0.02233729575860063 0.9776627042413996 0.5712109123210108 0.428789087678989 0.00164386726855168 0.9983561327314483 0.03861407764249732 0.9613859223575028 0.1486876442921407 0.8513123557078593 0.0001051111278547255 0.9998948888721454 0.05746059515562373 0.9425394048443761 0.3334166685248408 0.6665833314751591 0.07210443074735659 0.9278955692526435 0.05539458214276895 0.9446054178572311 0.6489443409116856 0.3510556590883144</probabilities>
		</cpt>
		<cpt id="year1_glp1_coverage">
			<state id="S_le_30_5" />
			<state id="S_s_30_5" />
			<parents>year1_upcr_mean time_zero_upcr_mean</parents>
			<probabilities>0.0007122381727708271 0.9992877618272292 0.009668489969143164 0.990331510030857 0.0044327001881384 0.9955672998118615 3.744290240551201e-05 0.9999625570975944 0.001859015734953249 0.9981409842650468 0.001146109826141489 0.9988538901738586 0.00018223839579011 0.99981776160421 0.004081438786009617 0.9959185612139904 0.0072545741955092 0.9927454258044909 0.0007162648164018753 0.9992837351835981 0.01726265049211712 0.9827373495078828 0.003014391153441372 0.9969856088465586</probabilities>
		</cpt>
		<cpt id="year1_sglt2_coverage">
			<state id="S_le_59_5" />
			<state id="S_s_59_5" />
			<parents>year1_upcr_mean time_zero_upcr_mean</parents>
			<probabilities>4.962366857103967e-05 0.999950376331429 0.006752394837893551 0.9932476051621065 0.001793883126398013 0.9982061168736019 3.873060553639485e-05 0.9999612693944636 0.002044297101940967 0.997955702898059 0.0005414671845509008 0.9994585328154491 7.484787574618409e-05 0.9999251521242539 0.002679431334461214 0.9973205686655388 0.004433832046034722 0.9955661679539652 8.372364207723559e-05 0.9999162763579228 0.01371131581642186 0.9862886841835781 0.001759337278480945 0.9982406627215192</probabilities>
		</cpt>
		<cpt id="year2_mean">
			<state id="S_23_445___30_685" />
			<state id="S_30_685___35_115" />
			<state id="S_35_115___39_495" />
			<state id="S_39_495___45_335" />
			<state id="S_45_335___50_795" />
			<state id="S_50_795___55_755" />
			<state id="S_55_755___63_585" />
			<state id="S_63_585___76_215" />
			<state id="S_76_215___92_825" />
			<state id="S_92_825___107_635" />
			<state id="S_le_107_635" />
			<state id="S_s_23_445" />
			<parents>year1_mean</parents>
