<?xml version="1.0" encoding="UTF-8"?>
<!-- This file was created by ACADEMIC version of SMILE -->
<smile version="1.0" id="Unnamed" numsamples="10000" discsamples="10000">
	<nodes>
		<cpt id="time_zero_mean">
			<state id="S_11_325___20_925" />
			<state id="S_20_925___23_715" />
			<state id="S_23_715___34_045" />
			<state id="S_34_045___42_015" />
			<state id="S_42_015___50_265" />
			<state id="S_50_265___55_985" />
			<state id="S_55_985___62_585" />
			<state id="S_62_585___71_015" />
			<state id="S_6_795___8_975" />
			<state id="S_71_015___82_385" />
			<state id="S_82_385___88_705" />
			<state id="S_88_705___109_665" />
			<state id="S_8_975___11_325" />
			<state id="S_le_109_665" />
			<state id="S_s_6_795" />
			<probabilities>0.02873136640289363 0.00905527044392041 0.04343453861375592 0.04472980038701965 0.05575078432345355 0.04717730514545963 0.06095879869214887 0.09273089952983631 0.003935394381097824 0.1497353322756171 0.09368006686467349 0.2557095095709473 0.005687031370867849 0.1068910062717376 0.001792895726570719</probabilities>
		</cpt>
		<cpt id="year1_reduction_40_ge">
			<state id="S_0" />
			<state id="S_1" />
			<parents>time_zero_mean</parents>
			<probabilities>0.6917452017237159 0.308254798276284 0.6841377575210168 0.3158622424789831 0.7510012270272584 0.2489987729727415 0.7919746078625733 0.2080253921374268 0.8225696242577362 0.1774303757422638 0.8381612908278976 0.1618387091721024 0.8530910533953101 0.1469089466046898 0.8658217389763428 0.1341782610236571 0.714336579758111 0.2856634202418889 0.8829230597813076 0.1170769402186924 0.8912121638800404 0.1087878361199595 0.9055459679477488 0.09445403205225139 0.6485043269092442 0.3514956730907558 0.9279888618866942 0.07201113811330577 0.750117978376121 0.2498820216238788</probabilities>
		</cpt>
		<cpt id="study_entry_period_egfrckd_flag">
			<state id="S_0" />
			<state id="S_1" />
			<parents>time_zero_mean</parents>
			<probabilities>0.0001919978189784802 0.9998080021810216 0.0006087136958114381 0.9993912863041886 0.0001270193997146419 0.9998729806002854 0.0001233420863382031 0.9998766579136619 9.896395332919863e-05 0.9999010360466708 0.0001169446364874957 0.9998830553635124 0.4072062780800354 0.5927937219199646 0.9999402657483152 5.97342516846998e-05 0.001398571619700173 0.9986014283802997 0.9999629580826631 3.704191733702154e-05 0.9999407289958774 5.927100412260453e-05 0.9999782103184243 2.178968157581552e-05 0.0009685826938442721 0.9990314173061556 0.9999476834354613 5.231656453877633e-05 0.003060308212955564 0.9969396917870443</probabilities>
		</cpt>
		<cpt id="study_entry_age">
			<state id="S_38_5___44_5" />
			<state id="S_44_5___50_5" />
			<state id="S_50_5___56_5" />
			<state id="S_56_5___66_5" />
			<state id="S_66_5___71_5" />
			<state id="S_71_5___76_5" />
			<state id="S_le_76_5" />
			<state id="S_s_38_5" />
			<parents>time_zero_mean</parents>
			<probabilities>0.04545264690610226 0.05563610945220195 0.09806761669591886 0.230539844491121 0.132673545261185 0.1012755673743196 0.2766704671674612 0.05968420265169024 0.04484954918031375 0.04208899479175809 0.07391401251725374 0.1944108688902908 0.1403312008977878 0.1123794360281767 0.3363262815020114 0.05569965619240759 0.01946099214960563 0.03586712662841877 0.06388060699401428 0.1711457036342628 0.1129870960508061 0.1092156192424335 0.4531714056665256 0.0342714496339333 0.01612940018151891 0.02961741327359302 0.04609352618118188 0.1570416707287718 0.1154208562211075 0.1193755915456552 0.4955546312420866 0.02076691062608525 0.01758031797575022 0.02862661077727669 0.04996397746302972 0.1409131357070412 0.1102701381059857 0.1284774322232182 0.5053080599930501 0.0188603277546482 0.01433467294864293 0.02646718280765448 0.05313781784127537 0.1620567412210519 0.1279733879093408 0.1283877774695363 0.4677268055592755 0.01991561424322263 0.01613261329889577 0.03498501849074349 0.05971780713304704 0.1981651174081974 0.1421092236081636 0.132639715735034 0.3956274377968907 0.02062306652902789 0.02095979482337181 0.05094911244458923 0.08391350877229888 0.2360020247953205 0.1367517403315771 0.1242561993546803 0.3248987764002507 0.02226884307791153 0.08019146461306116 0.08818512786769538 0.1160555136971466 0.2558646157958348 0.09836557175218999 0.07884491252312781 0.143073993831571 0.1394187999193732 0.03899802932855959 0.07297505408832997 0.1067309252643324 0.2667397445967013 0.132895400719741 0.1118163905993571 0.230551624361191 0.03929283104178748 0.04937275316557269 0.08836442565666192 0.1431411441966728 0.2292525324914559 0.1423164924604067 0.1199345864145806 0.1512692362103784 0.0763488294042709 0.102163376935919 0.151019672704506 0.1865397017763922 0.2905534826460374 0.07808047932507711 0.03388540606468317 0.01437742478122328 0.1433804557661619 0.06538178610523769 0.09033418117450855 0.0881825093072371 0.2627015044573313 0.1340344040741278 0.09735378200663217 0.1436793432199554 0.11833248965497 0.1448611753906207 0.09675050274129526 0.05070461153719412 0.02406823142367497 0.002284223331749881 0.0001161469440342878 0.0001161469372694948 0.6810989616941614 0.08812244806819985 0.08764337874257398 0.1242496272317249 0.2158367369793298 0.08656392877626715 0.06823503588935109 0.08649186038217925 0.242856983930374</probabilities>
		</cpt>
		<cpt id="study_entry_period_dxckd_flag">
			<state id="S_0" />
			<state id="S_1" />
			<parents>time_zero_mean</parents>
			<probabilities>0.6557123055898896 0.3442876944101105 0.7463102092001822 0.2536897907998178 0.7817132745742039 0.218286725425796 0.8437908031577489 0.1562091968422512 0.8907495433515964 0.1092504566484036 0.917798412532023 0.08220158746797698 0.9465929488249476 0.05340705117505222 0.9654290141191201 0.0345709858808799 0.6774482207897754 0.3225517792102246 0.97438826702153 0.02561173297846998 0.9809753807376201 0.01902461926237977 0.9852179546190218 0.01478204538097825 0.6032600847751557 0.3967399152248443 0.9839458992278344 0.0160541007721657 0.700418487143264 0.2995815128567359</probabilities>
		</cpt>
		<cpt id="study_entry_DM_flag">
			<state id="S_0" />
			<state id="S_1" />
			<parents>study_entry_age</parents>
			<probabilities>0.8155983293989467 0.1844016706010532 0.7766868740115973 0.2233131259884027 0.7438591149005278 0.2561408850994722 0.7105970535021969 0.2894029464978031 0.7083333333333334 0.2916666666666667 0.7133246244284782 0.2866753755715219 0.7922739382541921 0.2077260617458079 0.8898535220539828 0.1101464779460171</probabilities>
		</cpt>
		<cpt id="time_zero_uacr_mean">
			<state id="S_111_02___440_058" />
			<state id="S_11_0034___51_8122" />
			<state id="S_440_058___867_873" />
			<state id="S_51_8122___111_02" />
			<state id="S_867_873___2725_15" />
			<state id="S_le_2725_15" />
			<state id="S_s_11_0034" />
			<parents>study_entry_period_egfrckd_flag</parents>
			<probabilities>0.05521670642099747 0.1360634951423221 0.1109976113799572 0.1420021304579266 0.04622298984770151 0.09888903989663027 0.410608026854465 0.09850818037462201 0.08252354122094693 0.3196526721589317 0.09186608139002282 0.1391169070919724 0.1048299094615309 0.1635027083019734</probabilities>
		</cpt>
		<cpt id="time_zero_pp_mean">
			<state id="S_45_5___52_5" />
			<state id="S_52_5___56_5" />
			<state id="S_56_5___63_5" />
			<state id="S_63_5___68_5" />
			<state id="S_68_5___74_5" />
			<state id="S_74_5___87_5" />
			<state id="S_le_87_5" />
			<state id="S_s_45_5" />
			<parents>time_zero_uacr_mean</parents>
			<probabilities>0.1915168693014635 0.1527485682123654 0.2767691943619094 0.1303665335568518 0.06499245704285689 0.02562108145068817 0.00828325642696554 0.1497020396468994 0.2893965873505001 0.1638864352087212 0.2176737538932113 0.07168994523793271 0.02059261014375465 0.006844666261067138 0.002164571063901592 0.2277514308409114 0.02093096440002213 0.05450390841122169 0.2495563749571908 0.2249008902247916 0.2075475020859587 0.1807930918070066 0.0515089413745898 0.01025832673921886 0.2807526927502614 0.1004103498766466 0.1254111323607607 0.03840953305724625 0.01523812471395277 0.01032694049879992 0.0009732739145677748 0.4284779528277646 0.008575353903611636 0.007558584201883901 0.04819471898402092 0.1394971064561793 0.232555265156741 0.3842081248442294 0.1747560578071073 0.004654788646226427 0.1340900607997082 0.08981613725066093 0.1874348850374229 0.1216912403839276 0.1164191615729932 0.1713602665022818 0.1084959543717284 0.07069229408127697 0.3305240802370065 0.1321216542441905 0.09686430327385086 0.01051983776155114 0.004006747088015229 0.003391367505748776 0.0006620584179849692 0.4219099514716521</probabilities>
		</cpt>
		<cpt id="time_zero_aceiarb_coverage">
			<state id="S_le_1_5" />
			<state id="S_s_1_5" />
			<parents>time_zero_uacr_mean</parents>
			<probabilities>0.5011789998960456 0.4988210001039545 0.3273241459613495 0.6726758540386506 0.009107305048040895 0.9908926949519591 0.02040832909107075 0.9795916709089293 0.4753529350233664 0.5246470649766335 0.2247904592117574 0.7752095407882426 0.01136402261650808 0.988635977383492</probabilities>
		</cpt>
		<cpt id="time_zero_ppi_coverage">
			<state id="S_4_5___78_5" />
			<state id="S_le_78_5" />
			<state id="S_s_4_5" />
			<parents>time_zero_uacr_mean</parents>
			<probabilities>0.1006428619629094 0.3007802403752413 0.5985768976618492 0.07565819792571329 0.187352792160254 0.7369890099140327 0.001220201519565282 0.001379385814794987 0.9974004126656396 0.0369055688885782 0.04032383339565587 0.922770597715766 0.06819180195288603 0.2096543937125504 0.7221538043345637 0.02410625897429386 0.04561086925316549 0.9302828717725405 0.008752176500310105 0.004871163084542318 0.9863766604151476</probabilities>
		</cpt>
		<cpt id="time_zero_sbp_mean">
			<state id="S_132_5___144_5" />
			<state id="S_144_5___153_5" />
			<state id="S_153_5___169_5" />
			<state id="S_le_169_5" />
			<state id="S_s_132_5" />
			<parents>time_zero_uacr_mean</parents>
			<probabilities>0.04564146917061787 0.01014524326601897 0.005794842484990482 0.003840950410565162 0.9345774946678076 0.3294734140138707 0.02016808141206361 0.005680215844616374 0.001908537243995049 0.6427697514854542 0.5258622952594608 0.2181636880968176 0.08418925194197498 0.01087558673960124 0.1609091779621454 0.01151591826419359 0.004013575797003324 0.002618662525744664 0.0008571860138649039 0.9809946573991936 0.3849788901126485 0.3064182328037015 0.2311687792295235 0.04960105765621119 0.02783304019791527 0.1906515311622904 0.2718304647080884 0.3443988586276662 0.1830515677642317 0.0100675777377231 0.1419834262289821 0.005439995432711906 0.002550195245190237 0.0005720535653608241 0.849454329527755</probabilities>
		</cpt>
		<cpt id="time_zero_hba1c_mean">
			<state id="S_4_425___4_85835" />
			<state id="S_4_85835___6_02915" />
			<state id="S_6_02915___6_32915" />
			<state id="S_6_32915___7_71" />
			<state id="S_7_71___12_3416" />
			<state id="S_le_12_3416" />
			<state id="S_s_4_425" />
			<parents>time_zero_uacr_mean</parents>
			<probabilities>0.01309060081519977 0.3181442146191403 0.0939537278250616 0.2670131559705798 0.2565791846459264 0.04467329157160604 0.006545824552486152 0.01466405255935158 0.3641294411947993 0.1012050229575846 0.226181511845319 0.2350154206524339 0.05260315604569998 0.006201394744811601 0.003200985053182225 0.19748762803616 0.1223440756365995 0.370724484803072 0.2785339339062978 0.02402056556042895 0.003688327004259662 0.02281543808113021 0.484307917154597 0.07602021643961315 0.1586273851128587 0.199348222031144 0.04003575087774112 0.01884507030291607 0.01036570590261106 0.2355707634807487 0.09009581685228657 0.2666621308864238 0.3371696127745692 0.05596365811488235 0.004172311988478458 0.01135514332664753 0.4080395823479957 0.08371184531475674 0.172921809205954 0.2682253698389346 0.05175614524225879 0.003990104723452675 0.0163541501139985 0.606973035037946 0.09481267938538565 0.1509157045049254 0.1091378931456165 0.02021725399252299 0.001589283819605003</probabilities>
		</cpt>
		<cpt id="study_entry_aceiarb_flag">
			<state id="S_0" />
			<state id="S_1" />
			<parents>time_zero_uacr_mean</parents>
			<probabilities>0.419792225559727 0.580207774440273 0.5756140143947758 0.4243859856052243 0.9833076345236617 0.01669236547633841 0.9596890244101337 0.04031097558986634 0.4430440966922812 0.5569559033077188 0.7021851056336438 0.2978148943663562 0.9783715106351637 0.02162848936483619</probabilities>
		</cpt>
		<cpt id="time_zero_dbp_mean">
			<state id="S_47_5___56_5" />
			<state id="S_56_5___69_5" />
			<state id="S_69_5___77_5" />
			<state id="S_77_5___90_5" />
			<state id="S_le_90_5" />
			<state id="S_s_47_5" />
			<parents>time_zero_uacr_mean</parents>
			<probabilities>0.1353470997055122 0.7284054774871239 0.08128742434064645 0.03084678205103849 0.004925285957899155 0.01918793045777988 0.00200105806730987 0.1501493114387359 0.448876870832781 0.3894464524931647 0.009399621756378143 0.0001266854116302945 0.01540978790502737 0.337765349140761 0.4027232493833323 0.2340194096227865 0.007971629574433182 0.002110574373659585 0.1306666576062417 0.8016416566791645 0.03258385994338385 0.01668968995150881 0.004810465601765943 0.01360767021793522 0.03138061536146212 0.418385575870881 0.3995375177351292 0.1383351922026516 0.009554618614014554 0.00280648021586148 0.0004688167809662692 0.005243309981094597 0.02323553766693134 0.5350717458264874 0.4358029594935438 0.0001776302509766285 0.001964428988029677 0.1420448199613097 0.4356575157703679 0.4058015224321438 0.01451773132218775 1.398152596103932e-05</probabilities>
		</cpt>
		<cpt id="study_entry_period_albprockd_flag">
			<state id="S_0" />
			<state id="S_1" />
			<parents>time_zero_uacr_mean</parents>
			<probabilities>0.9199925480275011 0.08000745197249892 0.9634986883601259 0.03650131163987408 0.98267951115793 0.01732048884207011 0.9667584374099473 0.03324156259005284 0.916590262565077 0.08340973743492287 0.9540337880504391 0.04596621194956088 0.9999545335715525 4.546642844738283e-05</probabilities>
		</cpt>
		<cpt id="demo_race_ethnicity_cat">
			<state id="S_1A" />
			<state id="S_1B" />
			<state id="S_2" />
			<state id="S_3" />
			<state id="S_4" />
			<state id="S_5" />
			<state id="S_8" />
			<state id="S_minus_9" />
			<parents>time_zero_uacr_mean</parents>
			<probabilities>0.743172685594123 0.02674730691005506 0.03304813620467904 0.0614830267549594 0.01372463107086661 0.01109403667998377 0.08363117133836567 0.02709900544696738 0.7060749925626203 0.02975705555855815 0.05254024641726601 0.05339815025393076 0.01488281040804989 0.009219385109657141 0.09775918783881203 0.03636817185110579 0.6352747578012967 0.04704913337548484 0.04093848528701608 0.0456268106394925 0.008482717523107634 0.009312929157365856 0.07539295288186358 0.1379222133343728 0.6824685453492775 0.04611114786474621 0.03254623082184231 0.06122722345429312 0.01512836627639246 0.006786066928620865 0.1115272081509135 0.04420521115391413 0.6522636170275524 0.03835742937417597 0.05959005815068076 0.07257226719693863 0.008167425947201481 0.0147815993364625 0.1344461985692008 0.0198214043977876 0.6301001401740989 0.03921454914434407 0.09499376458988303 0.06105195492291045 0.01321399779930544 0.01891199018201311 0.1104867118181996 0.03202689136924528 0.6732657411734511 0.04153946003579666 0.04801122815322157 0.05505226253153585 0.01076478317268053 0.006200057695870226 0.09700588059315757 0.06816058664428667</probabilities>
		</cpt>
		<cpt id="time_zero_mra_coverage">
			<state id="S_le_1_5" />
			<state id="S_s_1_5" />
			<parents>time_zero_uacr_mean</parents>
			<probabilities>0.02811444876627746 0.9718855512337224 0.008632671958590675 0.9913673280414093 7.480105385987474e-05 0.9999251989461401 0.001324787956666274 0.9986752120433336 0.006160470325273178 0.9938395296747267 0.003326409201320503 0.9966735907986795 0.0004362581169484475 0.9995637418830515</probabilities>
		</cpt>
		<cpt id="time_zero_map_mean">
			<state id="S_104_039___109_699" />
			<state id="S_109_699___117_038" />
			<state id="S_80_9784___104_039" />
			<state id="S_le_117_038" />
			<state id="S_s_80_9784" />
			<parents>time_zero_uacr_mean</parents>
			<probabilities>0.008073468141192886 0.003683424382537 0.5620477305837468 0.003191607349507388 0.4230037695430159 0.02846186834764625 0.004153686968145801 0.9536326033029489 0.002852358743356805 0.01089948263790227 0.05654528807365276 0.0112559511128981 0.9153842086410402 0.006773401579859153 0.01004115059254987 0.004520259047647293 0.002272656631350574 0.2642502147552496 0.001527687111114676 0.7274291824546381 0.1058713324441498 0.02342172425531235 0.8552783018680431 0.01054186093543418 0.004886780497060369 0.3611372343635455 0.3632839810658154 0.03483643290858459 0.2396581127856103 0.001084238876444172 0.02834359159191133 0.003150175737917637 0.959417401763496 0.001144028584677552 0.007944802321997535</probabilities>
		</cpt>
		<cpt id="study_entry_ppi_flag">
			<state id="S_0" />
			<state id="S_1" />
			<parents>time_zero_uacr_mean</parents>
			<probabilities>0.6117182597656838 0.3882817402343163 0.6873670213414439 0.3126329786585562 0.9943359382391052 0.005664061760894947 0.927611038358784 0.07238896164121603 0.7066712077690595 0.2933287922309405 0.895798778769437 0.104201221230563 0.9795659771505515 0.02043402284944851</probabilities>
		</cpt>
		<cpt id="time_zero_upcr_mean">
			<state id="S_0_59875___2_3791" />
			<state id="S_le_2_3791" />
			<state id="S_s_0_59875" />
			<parents>time_zero_uacr_mean</parents>
			<probabilities>0.1843384627700633 0.6097992488601586 0.2058622883697781 0.1020384303511065 0.588257521018438 0.3097040486304557 0.8744178236177875 0.09643188740144851 0.02915028898076393 0.7888093445286625 0.01100214909801761 0.2001885063733198 0.03968691206501342 0.828898176485491 0.1314149114494955 0.04894825857294531 0.8132195024190666 0.137832239007988 0.7943039104729115 0.07217174858244377 0.1335243409446447</probabilities>
		</cpt>
		<cpt id="study_entry_nsaid_flag">
			<state id="S_0" />
			<state id="S_1" />
			<parents>time_zero_upcr_mean</parents>
			<probabilities>0.9864458365499701 0.01355416345003002 0.9195639528687836 0.08043604713121627 0.405355382237009 0.594644617762991</probabilities>
		</cpt>
		<cpt id="time_zero_nsaid_coverage">
			<state id="S_le_16_5" />
			<state id="S_s_16_5" />
			<parents>time_zero_upcr_mean</parents>
			<probabilities>0.00305490137666513 0.9969450986233349 0.003996230077896687 0.9960037699221033 0.4142826158569362 0.5857173841430638</probabilities>
		</cpt>
		<cpt id="study_entry_mra_flag">
			<state id="S_0" />
			<state id="S_1" />
			<parents>time_zero_upcr_mean</parents>
			<probabilities>0.9998287209065145 0.0001712790934854866 0.9901539742792304 0.009846025720769657 0.9959931162917167 0.004006883708283148</probabilities>
		</cpt>
		<cpt id="ruca_4_class">
			<state id="S_isolated" />
			<state id="S_large_rural" />
			<state id="S_small_rural" />
			<state id="S_urban" />
			<parents>time_zero_upcr_mean</parents>
			<probabilities>0.02413887717538138 0.04814547283567452 0.02637033024590952 0.9013453197430346 0.0329862073946539 0.07516577590210517 0.030523511296235 0.8613245054070058 0.03356374608371655 0.07014499258411204 0.03157508480993493 0.8647161765222364</probabilities>
		</cpt>
		<cpt id="demo_sex">
			<state id="S_0" />
			<state id="S_1" />
			<parents>time_zero_upcr_mean</parents>
			<probabilities>0.4659034650581676 0.5340965349418324 0.5423825882096419 0.457617411790358 0.3929391015567067 0.6070608984432934</probabilities>
		</cpt>
		<cpt id="study_entry_HTN_flag">
			<state id="S_0" />
			<state id="S_1" />
			<parents>time_zero_upcr_mean</parents>
			<probabilities>0.8898356865974993 0.1101643134025006 0.2037837093751498 0.7962162906248501 0.3888289285109668 0.611171071489033</probabilities>
		</cpt>
		<cpt id="study_entry_PDM_flag">
			<state id="S_0" />
			<state id="S_1" />
			<parents>time_zero_upcr_mean</parents>
			<probabilities>0.9316736920313629 0.06832630796863713 0.9051433503998647 0.09485664960013526 0.9165497363070684 0.08345026369293154</probabilities>
		</cpt>
		<cpt id="study_entry_glp1_flag">
			<state id="S_0" />
			<state id="S_1" />
			<parents>time_zero_upcr_mean</parents>
			<probabilities>0.9998316538068931 0.0001683461931068878 0.9919447376555747 0.008055262344425372 0.9964915327550422 0.003508467244957784</probabilities>
		</cpt>
		<cpt id="study_entry_sglt2_flag">
			<state id="S_0" />
			<state id="S_1" />
			<parents>time_zero_upcr_mean</parents>
			<probabilities>0.9999388977967618 6.1102203238231e-05 0.9943682239481751 0.005631776051824867 0.9985106884974129 0.001489311502587219</probabilities>
		</cpt>
		<cpt id="time_zero_glp1_coverage">
			<state id="S_le_84_5" />
			<state id="S_s_84_5" />
			<parents>time_zero_upcr_mean</parents>
			<probabilities>1.046693628384997e-05 0.9999895330637162 0.002216573442012539 0.9977834265579875 0.001062538094467667 0.9989374619055323</probabilities>
		</cpt>
		<cpt id="time_zero_sglt2_coverage">
			<state id="S_le_14_5" />
			<state id="S_s_14_5" />
			<parents>time_zero_upcr_mean</parents>
			<probabilities>1.188033586076207e-05 0.9999881196641393 0.002746334386994721 0.9972536656130052 0.001115028465468993 0.9988849715345312</probabilities>
		</cpt>
		<cpt id="year1_mean">
			<state id="S_21_275___25_715" />
			<state id="S_25_715___30_645" />
			<state id="S_30_645___35_355" />
			<state id="S_35_355___41_465" />
			<state id="S_41_465___47_335" />
			<state id="S_47_335___52_525" />
			<state id="S_52_525___55_435" />
			<state id="S_55_435___60_645" />
			<state id="S_60_645___65_955" />
			<state id="S_65_955___73_045" />
			<state id="S_73_045___82_515" />
			<state id="S_82_515___90_355" />
			<state id="S_90_355___107_215" />
			<state id="S_9_375___21_275" />
			<state id="S_le_107_215" />
			<state id="S_s_9_375" />
			<parents>year1_reduction_40_ge</parents>
			<probabilities>0.01599197636291123 0.02176401583640973 0.02624796539725091 0.03789356489233281 0.04436028529121878 0.04469992432499252 0.02665139112553825 0.0518710862311084 0.05673699262434921 0.08212000432297856 0.1194198643278589 0.10868171000545 0.1972773229997567 0.03768065561215422 0.1197388284860566 0.008864412159633146 0.09370204640623082 0.1010233651109259 0.091133399908768 0.1124128222565685 0.09970976730281596 0.07088787466907664 0.03131863596418789 0.03482842442619995 0.02229693579760961 0.01207815487044808 0.005383893411606559 0.000364262110899358 5.669637561925891e-06 0.2347928612651487 5.995519853460358e-06 0.09005589134209865</probabilities>
		</cpt>
		<cpt id="year2_reduction_40_ge">
			<state id="S_0" />
			<state id="S_1" />
			<parents>year1_mean</parents>
			<probabilities>0.6078061296837265 0.3921938703162734 0.6443270765800116 0.3556729234199884 0.6588947929660444 0.3411052070339557 0.6787620062940166 0.3212379937059834 0.690108278187764 0.309891721812236 0.7392496424435127 0.2607503575564873 0.7685349997983969 0.2314650002016031 0.8020910742937394 0.1979089257062606 0.8363941396881429 0.1636058603118571 0.8607613328676901 0.1392386671323098 0.9131233306618417 0.08687666933815832 0.9475062473425256 0.05249375265747445 0.9534373381732643 0.0465626618267356 0.5444393591801824 0.4555606408198177 0.9751204256168228 0.02487957438317718 0.5564388790028781 0.4435611209971219</probabilities>
		</cpt>
		<cpt id="year1_uacr_mean">
			<state id="S_10_1519___25_1405" />
			<state id="S_1346_45___2797_15" />
			<state id="S_153_155___375_933" />
			<state id="S_25_1405___68_0117" />
			<state id="S_375_933___1346_45" />
			<state id="S_68_0117___153_155" />
			<state id="S_le_2797_15" />
			<state id="S_s_10_1519" />
			<parents>year1_mean</parents>
			<probabilities>0.1062847553786691 0.1316667541948809 0.1273493584995295 0.09769120670516078 0.1450041833914476 0.1247567194967198 0.2141547145183987 0.05309230781519349 0.1233753996614485 0.09976031566625683 0.1223277753451618 0.1005304901870801 0.1597932769436156 0.1552355307305816 0.1649075284663703 0.07406968299948515 0.1093741076347403 0.1261942044925733 0.1447622188136541 0.1191501708979596 0.1495485264239603 0.1412689723726017 0.1140887165600501 0.09561308280446049 0.140969943375165 0.1102636660502072 0.1025294439548045 0.115824589965516 0.1563440941899888 0.130162913844383 0.1243749026025369 0.1195304460173987 0.1273762959458178 0.09757707412650042 0.1198770291169153 0.1411732792061402 0.1347918935350079 0.1070428193196569 0.1312292343325401 0.1409323744174214 0.1310560079767435 0.08609789699311798 0.1086055776228454 0.1394989060652955 0.1278406255305872 0.1287505682677156 0.09908476400350187 0.1790656535401928 0.1671171988977721 0.07821824542371718 0.07361437695206113 0.1201497180942315 0.1303824734986147 0.126679295331048 0.1052909316933209 0.1985477601092343 0.1732539606910017 0.0867188366990474 0.07870694377702149 0.1092905622837654 0.1098195633163609 0.1087448734869326 0.1153418167987868 0.2181234429470837 0.183240896488045 0.08038888335194307 0.08154712820326773 0.108702804361024 0.1141592684903491 0.09275680589620167 0.1128254964093994 0.2263787167997699 0.1868411676249474 0.05140917913858664 0.06930236924625248 0.1254650779575665 0.08797306301335901 0.08909655295349367 0.09825362524720654 0.2916589648185877 0.1970963805515187 0.06628385434750109 0.06126397844185297 0.1332456433987114 0.08541993272663821 0.08143814302140451 0.06456001542616586 0.3106920520862073 0.1902637770512837 0.0633731595194002 0.05377486196949182 0.1342592928609886 0.07128009995454308 0.070750920541303 0.07023752999636017 0.3460603581066297 0.2039290189409537 0.05500020991098753 0.04320667080403028 0.1059283538434445 0.0481209393021598 0.07967857617671657 0.04432818963969098 0.4198080413820166 0.0960959092154772 0.1307816407139407 0.1355502596566371 0.08753294900310349 0.1899756539341088 0.120422017731939 0.1716097332838605 0.06803183646093322 0.1758819073675542 0.0549087406891959 0.05648360536086292 0.1019293235877161 0.03330530696437801 0.1161161390663443 0.01510825076464933 0.4462667261992992 0.1074227450679944 0.1162872808186307 0.1066964380098391 0.1309572063605953 0.1802579494001231 0.1268833958148703 0.1952558472059882 0.03623913732195889</probabilities>
		</cpt>
		<cpt id="year1_pp_mean">
			<state id="S_31_5___50_5" />
			<state id="S_50_5___57_5" />
			<state id="S_57_5___65_5" />
			<state id="S_65_5___69_5" />
			<state id="S_69_5___78_5" />
			<state id="S_78_5___102_5" />
			<state id="S_le_102_5" />
			<state id="S_s_31_5" />
			<parents>year1_uacr_mean time_zero_uacr_mean</parents>
			<probabilities>0.3420624830078408 0.4369581305953188 0.184727073150656 0.01424717357221103 0.02154123553606409 0.0001559716191255595 0.0001523705983161678 0.0001555619204675051 0.2962236551965029 0.517659737121031 0.1542676411658006 0.004761621030445843 0.00927866929571331 0.005649276045145529 9.510993996093594e-05 0.01206429020540002 0.06566085111834999 0.1992706509719147 0.58622354710848 0.1303233011398687 0.01390186677801489 0.004054640315199409 0.0002186366404475835 0.0003465059277248019 0.9819820386071112 0.00738325109974683 0.00363260083549524 0.0001242487114958198 0.003721869044612853 0.0001075924497216258 0.0001136976401530528 0.002934701611663396 0.145016565277824 0.2905283549937589 0.5288224062462544 0.009892444629371951 0.0211043087414656 0.003919543145112255 0.0002115238726915159 0.0005048530935213602 0.01101153798909495 0.2287844734436475 0.52741948352143 0.1765800716725797 0.04836186621527488 0.00748906702806134 0.0001862446757985719 0.0001672554541131192 0.2278306191962972 0.3172747257259593 0.3197592815559798 0.06174254600267826 0.05310392430357442 0.01914200050624017 0.001044520611308191 0.0001023820979627826 0.2922218437108039 0.5143006041327721 0.1336967117621383 0.01456677134182219 0.001914891673410551 0.0420125747661512 0.0003999314982854811 0.0008866711146161657 0.0332077406611213 0.5980000048119239 0.2769146902237838 0.05571551003976268 0.03549290957114003 0.0002380233254710099 0.0002154034179357135 0.0002157179488615002 0.007576665775744292 0.02191391972654615 0.1256597651314059 0.2260482984801356 0.5965255980275318 0.01614591303979097 0.005793068761479224 0.0003367710573661872 0.7342969334551905 0.0008946727910373022 0.0002667622752400332 0.0002438031655585946 0.0002534960786949641 0.000243068919835938 0.0002427415121847149 0.2635585218022579 0.009260047611750286 0.01917561274184962 0.04082411942032899 0.02186632939002398 0.77880257298505 0.1285881635901034 0.0002595916080232144 0.001223562652870469 0.02038777709322103 0.0448988763672494 0.3073475426327483 0.1781008556198427 0.2527278133384614 0.1758337903054229 0.02033581722713394 0.0003675274159205929 0.7188518905336508 0.05208296682547045 0.0002555749330649893 0.0001491376833044379 0.0001490084294819963 0.000147974455289575 0.0001484036355293548 0.2282150435042082 0.02574838889062179 0.1295597080049929 0.4375478251671622 0.163963265082006 0.212579274450434 0.03013276522542003 0.0002348133897774699 0.0002339597895857373 0.03909993219887302 0.1525223313162491 0.3109400165147788 0.1310162057256256 0.2622794218144499 0.09455525581126085 0.009336724484719503 0.0002501121340432391 0.1447004762823674 0.3161080557916593 0.4642364879823292 0.04284485321604926 0.01575300299407427 0.006777022552147779 0.003913404973889282 0.005666696207483462 0.01901719065778466 0.5025877365308383 0.3673535461566608 0.04623463728137829 0.06169412589333521 0.002505211771472049 0.0003401547476149766 0.0002673969609158246 0.0002098048363684821 0.01121420658750117 0.01632266846238935 0.2409249991224081 0.709501949997109 0.02140766810816662 0.0002050307087035898 0.0002136721773537423 0.4882539143453978 0.2698118208882911 0.145641880571653 0.0338719481483 0.01646278879922089 0.0003403871556131477 0.00266716631189818 0.0429500937796258 0.8600438278690468 0.002029935777780919 0.0001466520167253672 0.0001411520921841836 0.0001466799872452693 0.0001476019776295242 0.0001395475376340692 0.1372046027417541 0.08448833624121184 0.1054231584835316 0.5573587678971242 0.2030864443796874 0.04719564697677751 0.001999339424175435 0.0002144238797363031 0.0002338827177557537 0.04176088177661374 0.08025114814098935 0.5372509286357415 0.1826737098311229 0.1271404647646425 0.03069532152844016 0.0001118031943581854 0.0001157421280915365 0.006106112137937787 0.02236938494859851 0.2404828363599182 0.4409765034352729 0.2663362322817501 0.01713508912566344 0.006240141778656615 0.0003536999322025566 0.1833586253631258 0.4621695159412152 0.2496987404365624 0.07251519093675599 0.02987358456910894 0.001906213721542738 0.0002633175448014464 0.0002148114868874117 0.06046875581300742 0.1961764185500059 0.3904440330152146 0.2910293167908056 0.05820354797097761 0.003274281528750733 0.0001997312410878778 0.000203915090150321 0.6020796855182388 0.2926633445885702 0.03669597855115175 0.02998722725224665 0.01612741710763272 0.01026575441228228 0.0009819526428486798 0.01119863992702905 0.4130123704231621 0.4534694044171047 0.1310941003454561 0.0001011580868688694 7.390383315393617e-05 0.000680828987830448 0.0007996819976091455 0.0007685519088145528 0.04495980921388663 0.03622062679457354 0.1202318305696801 0.05047055349676379 0.1529473274592059 0.5515770820966814 0.04326851711711011 0.0003242532520986789 0.9435880105310277 0.009161247932762812 0.002876355466677284 0.000167649545820922 0.001530173242388724 0.003436328925222645 0.0001376209568358505 0.03910261339926396 0.01679308830331684 0.01455109955410067 0.03251295005641779 0.00326108409635967 0.02152773462420889 0.8119710731048948 0.09915469312432328 0.00022827713637807 0.0425797982754641 0.2053048508871816 0.3169117929286449 0.1091959310710506 0.2299314469154974 0.09057988171232639 0.005214141087573737 0.0002821571222613957 0.001444393020681906 0.01225913412179849 0.006946668740564209 0.005593820428632624 0.0370334149738664 0.8792909801796654 0.05724959782240456 0.0001819907123862479 0.001368312644886515 0.03819347645879415 0.2988921215199807 0.194659495063255 0.3684116849092514 0.09812093132162299 0.000185890817631502 0.0001680872645777331 0.08630668810585794 0.4541168018758682 0.3558984916532553 0.08352532987817156 0.01966708358985179 0.0001521757242992688 0.000189483698614296 0.000143945474081862 0.008168530922420517 0.03516002924280979 0.1858113698519915 0.2604966277619141 0.4410186780744119 0.06732168620719535 0.001806313889395459 0.0002167640498612471 0.1479839704379777 0.427058882365116 0.4016940479947591 0.01144271023888862 0.005910944653463294 0.004166510003551119 0.0001533562110022715 0.001589578095241738 0.1566214651429189 0.3075554063483208 0.278681381550832 0.1289279427424772 0.108869630834139 0.003247574127006585 0.0008523627006181163 0.01524423655368731 0.9708027707271196 0.01128299729601863 0.0107736344528875 0.004475024534490857 0.0001797413838611388 0.001567517902086291 0.0001743213458872256 0.0007439923576488097 0.07478714530973458 0.1160605336596179 0.2738158839051784 0.08833648404023474 0.2575238302130855 0.1874592398198608 0.001009018359102852 0.001007864693185145 0.4744629823428775 0.3500938175490452 0.1527343054165765 0.007693696093431006 0.005101476169264295 0.0002262452964668809 0.0001969881570337775 0.009490488975304981 0.99779600530718 0.0001962092504404894 0.0006922927536522224 0.0001119145332433446 0.000109075019388584 9.976860302566934e-05 0.0001150236584507378 0.0008797108746189323 0.8716059317954407 0.007691535347967101 0.0004542032057618666 0.0002415914908800901 0.01389552777911994 0.000237336923145385 0.0002337054947529742 0.105640167962932 0.5278158360426625 0.396061305289037 0.07518349679695022 0.0001789954685627197 0.0001581465870041508 0.0001578691250095815 0.0001574586979441698 0.0002868919928298368 0.0002467407156243908 0.007905213014643198 0.0007088681753080279 0.1787912411697902 0.6543010595395299 0.1575524133144664 0.000249727096667294 0.0002447369739706589 0.01805426726709069 0.4051017937463971 0.2501080797077718 0.06293078865435164 0.1023719732912992 0.1574434807500814 0.00362158234254112 0.0003680342404670309 0.009174807026545216 0.03047944460702088 0.02555011256500671 0.02448010041522348 0.1754982058804131 0.5943040931269138 0.140059166779281 0.0004540695995958446 0.01945249621923815 0.02913521659363322 0.03846706804519105 0.04934710593437443 0.296751322675076 0.4864860006779218 0.08002092783847121 0.0003398620160940318 0.7157621510671575 0.2705357158917384 0.0124788840270517 0.0001652651589468631 0.0001511499864218305 0.0001446036458377114 0.0001454578068099343 0.0006167724160360136 0.3682453807859536 0.4501444312553246 0.1725008183330745 0.003146169358424464 0.001757313892726264 0.001245182350889627 0.000137173208620729 0.00282353081498615 0.8349345993079829 0.1349450477118412 0.0111379785657778 0.00209937472215484 0.002387577428866867 0.0004945240349956278 5.454739832119604e-05 0.01394635083005947 0.1848806169309057 0.4563442159248184 0.3348466813326292 0.01522309254407914 0.004839525373080346 0.002836752161042609 0.0001431558996965508 0.0008859598337480623 0.6984593142350202 0.2283710113183401 0.05202214955304141 0.0009024815835957289 0.001234336659706307 0.0006889088274011423 7.583153896755606e-05 0.01824596628392774 0.003689490461510743 0.0382451129273973 0.4038591946367859 0.3052256878951758 0.207275477798021 0.04121366286971949 0.0002524504633642555 0.0002389229480253775 0.6176640461021644 0.3172280826256381 0.05823823563432716 0.002164239980193372 0.0002523339349687169 9.249293685726257e-05 8.987835853918761e-05 0.004270690427311843 0.8743730491887214 0.1044448789492375 0.01361755494882241 0.001782179168086061 0.002859240182436203 0.002405351963919114 2.62711989178748e-05 0.000491474399859773</probabilities>
		</cpt>
		<cpt id="year1_ppi_coverage">
			<state id="S_0_5___363_5" />
			<state id="S_le_363_5" />
			<state id="S_s_0_5" />
			<parents>year1_uacr_mean time_zero_uacr_mean</parents>
			<probabilities>0.210315228386205 0.1890765777184148 0.6006081938953803 0.1181513898649113 0.09198566880025801 0.7898629413348306 0.0117181382916965 0.0006387490085889981 0.9876431126997145 0.0919928909585679 0.03227905131993315 0.875728057721499 0.1425394522024015 0.1069791985988045 0.7504813491987941 0.05765601591566552 0.02858884083343629 0.9137551432508982 0.02557080907831924 0.004617146401843662 0.9698120445198372 0.2477334042314408 0.1509078682312297 0.6013587275373296 0.2745601132296481 0.1626727123508867 0.5627671744194651 0.0269805857990462 0.001407717595456221 0.9716116966054976 0.1385768483308104 0.04250168265876824 0.8189214690104214 0.1186181122955206 0.1911559353501897 0.6902259523542899 0.05985672813895677 0.02347923716098624 0.9166640347000571 0.009935851207456589 0.003022827534354127 0.9870413212581893 0.3214002184158491 0.2236524290839734 0.4549473525001775 0.08176246483922607 0.08003321263696994 0.8382043225238039 0.02243428268585004 0.002571879872546145 0.9749938374416038 0.1666356844592903 0.02275180193321195 0.8106125136074978 0.2869378805685091 0.2071124459649709 0.50594967346652 0.1991760160413167 0.0211107556425326 0.7797132283161508 0.06587808420060497 0.004420003742157999 0.9297019120572371 0.2136223727565751 0.1680154156969688 0.6183622115464561 0.1618057781525787 0.103334697098029 0.7348595247493924 0.01499946433898855 0.001084936855765086 0.9839155988052463 0.04163620692749889 0.008758132381923422 0.9496056606905776 0.2711117501021675 0.1552368828430992 0.5736513670547334 0.05594953028235874 0.01940182537819074 0.9246486443394505 0.0611604818625012 0.004475261658155373 0.9343642564793434 0.07198590148118826 0.06483810330133304 0.8631759952174788 0.2954430217889357 0.1579018637344069 0.5466551144766573 0.02721085234085112 0.00583733105884703 0.9669518166003018 0.06307048282286228 0.0131255675921628 0.9238039495849749 0.1750733711948689 0.1250369920429992 0.699889636762132 0.2648918726921114 0.0569710239726728 0.6781371033352157 0.04986825598784765 0.005903533607560469 0.9442282104045917 0.1708290235023108 0.1737259943200788 0.6554449821776104 0.2025495844698079 0.1052166698120848 0.6922337457181073 0.05133262304710898 0.0002862867910014271 0.9483810901618897 0.164936173758425 0.03234862810509603 0.802715198136479 0.2745576398418992 0.1366905691748325 0.5887517909832681 0.1711985662374427 0.05266851826838628 0.7761329154941711 0.03827852064116124 0.002191664732695687 0.9595298146261432 0.3628884200739445 0.1360256913025489 0.5010858886235067 0.3426443054515828 0.2071054930840999 0.4502502014643174 0.03060571295304503 0.0002558524870450536 0.96913843455991 0.09334247613069024 0.01090493233669516 0.8957525915326147 0.1212347608078297 0.07371130951757937 0.8050539296745909 0.1087590031014312 0.05240931142165429 0.8388316854769146 0.001460379574885524 0.0003339207592644135 0.99820569966585 0.1250515153373834 0.1579044182724724 0.7170440663901443 0.1305132196425443 0.1452531237235399 0.7242336566339158 0.002466446272833917 0.0001159954294969669 0.9974175582976691 0.05536570656381492 0.01770552295012875 0.9269287704860563 0.04617159826360665 0.04292093040826717 0.9109074713281262 0.05935643480810134 0.01957970408108635 0.9210638611108124 0.03870811911438182 0.003093386968737703 0.9581984939168805</probabilities>
		</cpt>
		<cpt id="year1_aceiarb_coverage">
			<state id="S_le_0_5" />
			<state id="S_s_0_5" />
			<parents>year1_uacr_mean time_zero_uacr_mean</parents>
			<probabilities>0.4319601532708363 0.5680398467291637 0.3342640910560248 0.6657359089439753 0.005127116903276135 0.9948728830967237 0.02998713177239837 0.9700128682276016 0.4131442985718908 0.5868557014281092 0.2611544998252571 0.7388455001747429 0.04080033072896153 0.9591996692710385 0.4070552026010226 0.5929447973989773 0.4415991986831424 0.5584008013168577 0.04467983196887938 0.9553201680311207 0.05371621325763423 0.9462837867423658 0.50972708657014 0.4902729134298601 0.3045215150860321 0.6954784849139679 0.01911381984922834 0.9808861801507716 0.5537288115822091 0.446271188417791 0.3416247592205635 0.6583752407794367 0.04307798771746787 0.956922012282532 0.09939909782066529 0.9006009021793346 0.5759584630271448 0.4240415369728553 0.3127074131796767 0.6872925868203233 0.03200204826525749 0.9679979517347426 0.4949306718149472 0.5050693281850527 0.4267965409156727 0.5732034590843271 0.009817556444206017 0.990182443555794 0.03222810510626046 0.9677718948937395 0.5803958921186095 0.4196041078813904 0.1959995179660226 0.8040004820339774 0.03827384558909526 0.9617261544109048 0.2638195242085397 0.7361804757914603 0.4368187359250653 0.5631812640749347 0.06665724639134486 0.933342753608655 0.07959879068759755 0.9204012093124023 0.5042787296090568 0.4957212703909432 0.5625820566314048 0.4374179433685954 0.04101909431617581 0.9589809056838242 0.4657710611276045 0.5342289388723955 0.3310947523503616 0.6689052476496384 0.02974776076753976 0.9702522392324601 0.05449923934667045 0.9455007606533296 0.4474333550546121 0.5525666449453878 0.3641587388975883 0.6358412611024117 0.008151304802210812 0.9918486951977893 0.4797766556316629 0.5202233443683371 0.6443673211007048 0.3556326788992952 0.05005038281836183 0.9499496171816382 0.02380649292513719 0.9761935070748627 0.3451925645751427 0.6548074354248573 0.3832489187509779 0.6167510812490222 0.0009417938538315552 0.9990582061461685 0.3459723297377722 0.6540276702622279 0.2976170589045574 0.7023829410954426 0.009521056940272297 0.9904789430597277 0.02116887010742427 0.9788311298925757 0.1973822939118102 0.8026177060881898 0.2387354905850589 0.7612645094149411 0.03062521648766598 0.9693747835123341</probabilities>
		</cpt>
		<cpt id="year1_sbp_mean">
			<state id="S_109_5___134_5" />
			<state id="S_134_5___143_5" />
			<state id="S_143_5___155_5" />
			<state id="S_85_5___98_5" />
			<state id="S_98_5___109_5" />
			<state id="S_le_155_5" />
			<state id="S_s_85_5" />
			<parents>year1_uacr_mean time_zero_uacr_mean</parents>
			<probabilities>0.9449136304533839 0.003135244782481237 0.003587681662174708 0.005377249193339933 0.04263822703896443 0.0001737629752344306 0.0001742038944215311 0.3821593647779318 0.5812412644201173 0.01351917247037315 0.0008338745118357278 0.01177027811568078 0.01037202588776719 0.0001040198162942857 0.5575577151189965 0.4216170601435759 0.01624772904832518 0.0002476106195206324 0.000257390462642449 0.003825562205508178 0.0002469324014311738 0.4703175382360752 0.001492255564159239 0.001843394875521171 0.0009847565947897242 0.5251137528485659 0.0001228014195241595 0.000125500461364612 0.7793454936110845 0.2020112214039821 0.01727979604822568 0.0002415934114238158 0.0006147990591002301 0.0002657236675206937 0.0002413727986630441 0.008072754782996617 0.1475869991579266 0.8178541383719061 0.0001550108269114473 0.0001563107285037923 0.02601977510816385 0.000155011023591524 0.06541188955382971 0.5617482738198413 0.3195283972174804 5.816247169019784e-05 0.001872850424679405 0.05132247998946957 5.794652300929637e-05 0.1781637492519421 0.04115531103311917 0.004237149735397567 0.02114351871297382 0.7432283395299805 0.009928232628345336 0.002143699108241485 0.9943620814762354 0.003897754377895021 0.0002501834742554347 0.0002584611454221036 0.0007368274067423561 0.0002463268022318345 0.0002483653172177941 0.002547045915065359 0.01204983941285076 0.7896249670388439 0.0003026805277887564 0.0003024399201769911 0.1948695658449533 0.0003034613403209187 0.0003787971918479483 0.0002777888500744422 0.000277515971319523 0.7127604023158527 0.1757995408241466 0.0002775505182983584 0.1102284043284605 0.03681964004358781 0.08258284390829779 0.845155354695878 0.0002831890998540979 0.001287019539186351 0.03358879006472248 0.0002831626484735639 0.01836854165060284 0.008673201386981249 0.02112613662763746 0.0002304187721821037 0.00184958484915535 0.949521678863491 0.0002304378499498844 0.8616007684253337 0.0003890013484965516 0.002611901491967299 0.002507896756551311 0.132551981623171 0.0001698113692595306 0.000168638985220604 0.9224598552913178 0.04845477084333284 0.02031171427512297 0.0003151264206454989 0.002237460874112604 0.005952438332530795 0.0002686339629374046 0.01248134428753607 0.03125118325428911 0.4990313338967038 0.0001877729827458803 0.0001884866549192135 0.4566721027150865 0.0001877762087194425 0.9056448163842166 0.081610580234838 0.007700987151279487 0.0004531866823228824 0.0005686484631376918 0.003597829639574106 0.0004239514446311546 0.9791761659622833 0.008104743809951614 0.006727566895803816 0.0003164515267969731 0.002923810229203674 0.002429434288537693 0.0003218272874230238 0.04179967706449778 0.938406349168445 0.01869971046401233 0.0002341197306169034 0.0002438076292120808 0.0003821818937656171 0.0002341540494503646 0.6220030426667326 0.0004818152174434926 0.002775399943104049 0.06944102623912794 0.2756364113794334 0.0005187115257660428 0.02914359302839257 0.03251514321238591 0.0001672223332455149 0.0001576400803117504 0.1965417335142577 0.7657377938768557 0.0001575559715021748 0.004722911011441386 0.9762197928598807 0.003323427034637624 0.003999169657648338 0.001973520309884919 0.01226051748483752 0.001979894330871815 0.000243678322239213 0.09602441825996852 0.5967764277672608 0.2987394530008143 0.0009964921594056808 0.0001480784535847859 0.007190650764964638 0.0001244795940012607 0.572182393433272 0.3874249371273543 0.02585376829322895 0.0003708178703514388 0.0004371146950554916 0.01335754775089826 0.0003734208298395417 0.9571266275762348 0.008729116209977721 0.001932163934710733 0.0003897065582492798 0.0263106686117299 0.005267408543627902 0.0002443085654699053 0.9894528411569085 0.00266791122416246 0.0002510484988262702 0.0002595999763466598 0.003844577309467096 0.003297294011631815 0.0002267278226571564 0.03732295964460226 0.3777491891181053 0.4625041638717678 0.0002507395610864177 0.0002833170170463079 0.1216390061198646 0.000250624667527228 0.9898377372456157 0.003239383038224323 0.001872396071696455 8.180351247356309e-05 0.003477312681753843 0.001409911724675516 8.145572556055855e-05 0.05090272197009509 0.1215973454235705 0.3731663205084561 0.0003333352141195369 0.0003553061318751836 0.4533126356006925 0.000332335151191317 0.4095082554361484 0.0001640924444208476 0.003444728837964333 0.0608819191567722 0.5245081178459359 0.001244843698211882 0.0002480425805466343 0.02678642583662205 0.02183161513606611 0.3109178138386229 0.0002249357220315483 0.0002252881804488633 0.639789289273803 0.0002246320124055575 0.005295187856910889 0.4793871940125333 0.3711977483265684 0.0002867856380016639 0.0002913709509635239 0.1432551882426265 0.0002865249723956857 0.01723437086014644 0.07048987548796444 0.5107664786374931 0.0001670853103808212 0.001394872658901753 0.3997802581717159 0.0001670588733973391 0.0360578583451794 0.4654156826575333 0.4719238594196843 0.0001789281619559159 0.0001808337200958875 0.02606386980993957 0.0001789678856115328 0.9988221156783486 0.0002347651956499198 0.0001729278770765389 0.000174206678269304 0.0002557840712929311 0.0001656739084605573 0.0001745265909021307 0.032291760367777 0.6913786430450355 0.2557497646623721 0.0002258577102184862 0.00335354250293666 0.01677469139355583 0.0002257403181044493 0.9598265280248911 0.02265342576719905 0.01285403278878735 0.001405342769929917 0.001644914710948784 0.0002154565152577275 0.00140029942298593 0.8414885259858843 0.000325710420710486 0.0002625786295748449 0.05304766407533774 0.09558255115114159 0.002140653740150917 0.007152315997199962 0.06535983893989424 0.004352537873307605 0.00433529587083889 0.005494317273915727 0.917285618691679 0.002969150784908992 0.0002032405654557411 0.7225268539120837 0.1281459429789488 0.01746871183181267 0.0160467559545062 0.1109566972511078 0.0003126408967430268 0.00454239717479783 0.9242172381727392 0.05229422679444244 0.006991119128495222 0.0002230574223819244 0.011811280842775 0.004240648076335018 0.0002224295628311291 0.6158216006651758 0.0001142882608836288 0.0001140174603862544 0.0001909282446409479 0.38352233989318 0.0001141216348353081 0.0001227038408982184 0.02104090500676523 0.0002711226045402544 0.004006985486235267 0.3383294913634096 0.5852483012920483 0.0002670932781372576 0.05083610096886405 0.9942863878345387 0.00457681510621672 0.0002303594300317884 0.0001799123209627773 0.0003636532012075678 0.0001830187062636685 0.0001798534007788563 0.003654332129770939 0.6278285504527232 0.36264977689502 0.0002764584738486287 0.0002759024912640631 0.005034440178115058 0.0002805393792579885 0.4968979561083376 0.08760465054447568 0.00937958089789483 0.02006559858692408 0.3802998154380596 0.0004004651830452856 0.005351933241262834 0.009872270889693575 0.02661683968593284 0.05599847323032271 0.0002619288176820616 0.0003386221132600816 0.9066499200796929 0.0002619451834158464 0.01422216582394005 0.03801071145998507 0.07183241077166094 0.0001734834744861536 0.0001746290299709756 0.8754131046166015 0.0001734948233553735 0.967851909650877 0.02991705607307057 0.00138997573798747 0.0001655820232446192 0.0003443698245240634 0.0001664626515318146 0.0001646440387643649 0.9399778068190627 0.03576612040407531 0.002324701365869221 0.0001884838599725021 0.0201120082182923 0.001474463749938061 0.0001564155827899387 0.9619751498798571 0.01496119262494849 0.005168306955965114 0.0005622747598469441 0.01674542630186457 0.0005253842013962477 6.226527612160648e-05 0.5058959813886978 0.4689667998109959 0.02437718558014755 0.0001730490810682988 0.0001841003547457527 0.0002407480191483296 0.0001621357651963905 0.9482859292225373 0.01476247389754981 0.001231525861799433 0.001252813889158048 0.03368714755281317 0.0006937283407879687 8.63812353543242e-05 0.002977518808947697 0.3821519684790085 0.5645038040345813 0.0002531716261339574 0.0002667050896124315 0.04959369591497184 0.0002531360467446632 0.6094140177521401 0.3809737877869246 0.005912210490925241 0.0001007668224997883 0.0006694388920412896 0.002829171175905857 0.0001006070795630124 0.9542169907657116 0.03027803577341193 0.004503586162591837 0.0006436677188666093 0.00858298848285508 0.001745340588351924 2.939050821095854e-05</probabilities>
		</cpt>
		<cpt id="year1_dbp_mean">
			<state id="S_47_1436___53_9552" />
			<state id="S_53_9552___57_9913" />
			<state id="S_57_9913___59_9993" />
			<state id="S_59_9993___66_9866" />
			<state id="S_66_9866___69_9684" />
			<state id="S_69_9684___74_9928" />
			<state id="S_74_9928___96_6304" />
			<state id="S_le_96_6304" />
			<state id="S_s_47_1436" />
			<parents>year1_uacr_mean time_zero_uacr_mean</parents>
			<probabilities>0.006882186385493243 0.06033093437198701 0.08619984293429021 0.7797090084467148 0.06135429664018422 0.003801325439834239 0.001429321948871993 0.0001352342186068719 0.0001578496140175318 8.58770046350193e-05 0.0008651867288354598 0.0008196777480963915 0.0119827249524879 0.02086615939791165 0.07386995373898912 0.8813290992890619 0.01009914356299158 8.217757699106819e-05 0.0001969738343273069 0.0002266783869380287 0.0002085238057317554 0.02749649210718208 0.2010907703139067 0.5077238619257652 0.2608061179693523 0.002057484724005998 0.0001930969327906999 0.002143134856359856 0.003025670475571363 0.0005550525813256015 0.5534882003650691 0.3351492512094799 0.09685750477112356 0.008589250164191433 9.562331971721584e-05 9.631225716195972e-05 0.000189931952677251 0.002109903164577255 0.0002030979123987028 0.02678922674885123 0.2462419644367876 0.4540440050463868 0.2700455048374176 0.000188577272986451 0.0001877886279172351 0.0001210942000989866 0.0001225567616039906 0.0001219828453472898 0.0001275378243569379 0.001455914261538972 0.007054229418334296 0.9892173956972677 0.001655338110934614 0.0001239508805171705 4.54076448281009e-05 0.001307931863974406 0.0004810675010495662 0.008299471515199797 0.01370312153868129 0.04565445384831032 0.8615709243528333 0.06889232770600068 4.529402912251935e-05 0.2726757257087357 0.4452138292051799 0.006019852348454723 0.09461513983154596 0.06245857761829868 0.0007928902634781882 0.02294397349616809 0.0003495324162160062 0.09493047911192283 0.01420592426755652 0.06740775818641467 0.1244755852761916 0.7748075916901264 0.0006637309550703808 0.007147720716990186 0.01088556908946533 0.000190421158367025 0.0002156986598178754 0.000243515198812924 0.0002499360514809871 0.0002461682437162487 0.0004678018177631632 0.006965638421621667 0.1190670245323011 0.8520330073245804 0.02048722492355037 0.0002396834861732171 0.2488833593181114 0.1865558098932569 0.1303600041579537 0.2441158140746718 0.03848383693371781 0.06747633249224765 0.00866920368018243 0.0002163120423565267 0.0752393274075019 0.0002373078735957696 0.003392676493551316 0.009191874528702295 0.05264956482929969 0.1733839456763103 0.4232149578661974 0.333944579833292 0.0002291688764684937 0.003755924022582649 0.0001891980521047003 0.0001907145814170137 0.0002061484462873801 0.009139032131021 0.000238186550283934 0.004308100705623803 0.4674184132125348 0.5181152984917888 0.0001949078289384766 0.0001314303022835403 0.0001332993359124228 0.0001320287836434559 0.0001553885804857635 0.0009983474412337977 0.1148007640972292 0.8706997650538489 0.01281746353362491 0.0001315128717380755 0.1742901533781271 0.3745477575931281 0.2203652678900272 0.1072809724762535 0.02794142601101032 0.02228914529821673 0.05286700129766435 0.002041061317737405 0.01837721473783514 0.0001514638795995269 0.000149419598322944 0.0001746506545567062 0.009502013848470188 0.004659843204219625 0.007856650054688965 0.7970310617703991 0.1803271056547644 0.0001477913349785613 0.0004787763324080953 0.007670467650327652 0.002232074528175054 0.1970151439998781 0.3875023055676559 0.213853908524746 0.1904669359871255 0.0003269489682620933 0.0004534384414217026 0.004183252930616456 0.1022142456704618 0.3369188667518697 0.5239230203698562 0.004768290545013357 0.01078709117873592 0.01662907672899373 0.0002361130684381713 0.0003400427560147455 0.0001967959099545949 0.0006534637907299716 0.01242800622650337 0.5394599987892171 0.2528136380804585 0.1718365616004104 0.02224651267347419 0.0001826566513343648 0.0001823662779172388 0.06025125174647818 0.1103531360370011 0.08937067128419031 0.5166595416229893 0.129841864712855 0.05073572239845175 0.01315882833323623 0.0002713174330666816 0.0293576664317314 0.03017488573445266 0.08509379857522964 0.1061918689650601 0.4614458438756587 0.07905045799442936 0.2331235870243111 0.002201507788968259 0.0001226648370190039 0.002595385204871262 0.009671571956549085 0.002686720473795753 0.006480914233670925 0.6888558580579041 0.1777859057147609 0.07195898807585802 0.04214564598564498 0.0001897042472217641 0.0002246912545945843 0.001839613816749253 0.004189955956967002 0.002867367471851362 0.03816396276891296 0.04857694543795959 0.2795559826752234 0.6246072396485197 9.915884175022348e-05 9.977338206652656e-05 0.0003746662378548336 0.009031275412005844 0.0008564302642231548 0.5961312773856259 0.1695348097799431 0.1792484575513371 0.0440172924224177 0.0002912838599253976 0.0005145070866670403 0.0002996911394058575 0.02214641449138604 0.02146943289178059 0.7877182490412408 0.1152425952477299 0.02032403561017072 0.03240500515366585 0.0001864875558780936 0.0002080888687422863 0.0003451553584403328 0.008908445017656513 0.01476560574458305 0.9146439695018838 0.04637428940046941 0.01233930580092701 0.002201595899827225 0.0001768767612021278 0.0002447565150103918 0.0002044998059049505 0.000206940264496299 0.0002061285452056735 0.0002121831541702858 0.001807318119753081 0.0002382662902356369 0.4375132865892164 0.5594050218598177 0.0002063553712000047 6.346221917627171e-05 7.137530632660225e-05 6.431448092899407e-05 0.003362432120353908 0.1930340292583493 0.6005912954656549 0.2021033940959749 0.0006462617763006911 6.343527693441423e-05 0.005039141082766963 0.0306706491089924 0.04471109416937888 0.1056060832367007 0.1074047730625986 0.1653012214769298 0.5221510794416236 0.01883168148690496 0.0002842769341039439 0.01058169795815555 0.05121086788100425 0.0485525619278113 0.4645420228316555 0.2912069247576449 0.1165475018924405 0.01560157406215641 0.0001251354185183802 0.0016317132706131 0.006346175612528743 0.03221773028118777 0.01730148394834128 0.2237069475769017 0.09991680394610622 0.2855417955986236 0.3292030915119309 0.005541848627114287 0.0002241228972655804 0.0002266232348180468 0.0007648510901405055 0.005600231745396892 0.05894341449935096 0.04087196347972329 0.123067533463623 0.7197247563299791 0.05057484678635675 0.0002257793706114688 0.0197192660624429 0.03630289200337641 0.05938122299033922 0.3207385207651244 0.2141595249128826 0.3129976621206078 0.03631157326216878 0.0001426834840333044 0.0002466543990245042 0.000147363081328075 0.01324710177577317 0.002176934238566258 0.08919921945155787 0.1239839028270914 0.2433820886202546 0.5248552258550411 0.002867959229283304 0.0001402049211042729 0.0168151248361181 0.03584800733970581 0.0379074133897048 0.7266552610305995 0.1309894941577624 0.03752566872690702 0.01281152947661768 0.0001270782042395741 0.001320422838344978 0.0002155420032847656 0.000207430054500299 0.0003903380377854995 0.1971776699721673 0.1854884380228879 0.3710884676706449 0.2435680837529279 0.0001757597076521067 0.001688270778149183 0.001420489128397676 0.001522086820107289 0.002755773299033388 0.04682368428556426 0.3846363497172497 0.4517642210696171 0.1107979885962973 0.0001420404895258418 0.0001373665942071603 0.1179050130096814 0.1933157834722217 0.1519177731607596 0.5007335013041787 0.003130139424430725 0.000501989348856571 0.002215995715092463 0.0001988337394367507 0.03008097082534205 0.00225816490199018 0.1624237319370432 0.1648466681214562 0.5619281006231681 0.02774473578730123 0.06183949520762779 0.01726404220876065 0.001536711961118395 0.0001583492515343104 0.3186466098519933 0.3442512606154 0.2202625504160277 0.0406375380138584 0.0004804576064615113 0.006301085175828519 0.006800629612525106 0.0002021118691311075 0.06241775683877419 0.0001807644217884802 0.0001781358097568521 0.000176563257181029 0.01019646920024641 0.1564729698963337 0.4722696710546578 0.3529020076594228 0.007450172666280286 0.0001732460343326729 0.0001249699026820518 0.0001718193889367784 0.0002797496734358558 0.3661997921692476 0.4776940063627317 0.1501823921020183 0.005168749077190004 8.879530727241039e-05 8.972601648531297e-05 0.1323463669137899 0.198449250622832 0.1647330278977933 0.3775560554548003 0.01609034647524645 0.05705465990178456 0.007053642025928409 0.0002074868570549744 0.04650916385076991 0.0001419608604622295 0.0001458012654086672 0.0001440733931788177 0.0002359193727844853 0.0978696881907412 0.5655256603991825 0.3356400738233469 0.00015691352330923 0.0001399091715859347 0.00105982605895467 0.003100995329528795 0.03598930055275486 0.2839073049878942 0.2693910350744994 0.3778107907409806 0.02437920688237781 0.004089940298681739 0.0002716000743277696 0.44910758107405 0.3990253779446304 0.01397350231562276 0.004200726808939269 0.0003836214697250757 0.0003580239163005378 0.0004058241634239256 0.0003116641423957445 0.1322336781649121 0.001329370807532015 0.000395820351969358 0.0002822473162289806 0.02022610056914702 0.02285620526684778 0.07015524871156993 0.8058627398477867 0.07352490091018099 0.005367366218737356 0.0001400506712534915 0.0001663726671174995 0.003563408563123869 0.004675836848471449 0.02150274620920409 0.07464494120571739 0.8816448146043052 0.01351917745744281 0.0001426517733641028 0.0001280625734767116 0.0001423841808381531 0.0001285878354690959 0.0001461930532393777 0.01758554251930109 0.2721625924228336 0.7081320817391898 0.001446532007128371 0.0001280236685237619 0.001250283261635453 0.0003030028885267763 0.007636546952756848 0.05944537132537978 0.2432435061501287 0.3847023819357359 0.3031741778530495 0.0001225652964422094 0.0001221643363446901 4.852823114867945e-05 0.0009098517462565042 0.001122815586798841 0.008877137602397287 0.01585434477005806 0.2494216697710011 0.7236452938188185 7.186639367987863e-05 4.849207984141132e-05 0.000126472903605803 0.002700460536222666 0.0007197721902656916 0.01359215628538881 0.05624738790880966 0.1972788160509904 0.7290528356242757 0.0001558227967575099 0.0001262757036836467 6.733809897793954e-05 0.001798682933297499 8.985466120205473e-05 0.00938278617540437 0.1158514693443856 0.4567823657873475 0.4152770607257106 0.0006829940801073224 6.744819356696378e-05 0.0001997445617968315 0.003714087957665129 0.0005035586913365766 0.004421636358736588 0.00959284025458078 0.1734340011170958 0.8075356627317399 0.0004012573601819429 0.0001972109668663972 7.833393301485861e-05 8.054249825108746e-05 8.605355742919082e-05 0.001093802267907396 0.0004151174083560797 0.01346331266915933 0.9794807769962601 0.005223760920855545 7.829974876646747e-05 2.287997779478808e-05 0.0003130341223573824 0.0008786499289930811 0.007794360732712229 0.02067197316392582 0.2039413402018233 0.766330488005312 2.440610756253125e-05 2.286775951894752e-05</probabilities>
		</cpt>
		<cpt id="year1_upcr_mean">
			<state id="S_0_2572___0_81745" />
			<state id="S_0_81745___5_33375" />
			<state id="S_le_5_33375" />
			<state id="S_s_0_2572" />
			<parents>year1_uacr_mean time_zero_uacr_mean</parents>
			<probabilities>0.9977962814486355 0.0008431167838592882 0.0003867967455757222 0.0009738050219294349 0.002057545901285512 0.6298585708492836 0.1123681506906064 0.2557157325588245 0.0009488333376614162 0.7090342914812935 0.01248650411367562 0.2775303710673694 0.9721021167220132 0.01726945563739235 0.0003756418905748359 0.01025278575001973 0.0008673856711254138 0.7910304462413686 0.001488850700634489 0.2066133173868714 0.003476693912048522 0.1931980726644973 0.7418247612143183 0.06150047220913579 0.007023181935579549 0.2551132879197403 0.6175950651408564 0.1202684650038238 0.9436252912033478 0.0392367850303155 0.003952571039669727 0.01318535272666702 0.9266845271808553 0.06525472403703346 0.003382132749392567 0.004678616032718792 0.00409347045729003 0.4939284909117013 0.4757820810241555 0.02619595760685315 0.984657708299517 0.01397431603233389 0.000533543344612236 0.0008344323235368701 0.002086125198897216 0.9364035268096751 0.02904299304720475 0.03246735494422305 0.007507610381206236 0.02989863538855281 0.9619582209335972 0.0006355332966439134 0.003107434226531512 0.5715988179155752 0.02670281223567363 0.3985909356222195 0.8758406025943396 0.06897314008179317 0.01126647258468004 0.04391978473918715 0.003043783835629791 0.02040549705220581 0.9743775693908197 0.002173149721344773 0.06740535286645594 0.7174221893602869 0.01435296734757402 0.2008194904256831 0.9427067561796439 0.03127695597085192 0.002110062324854587 0.02390622552464951 0.006511146512334978 0.6977214230441858 0.005271932246155339 0.2904954981973238 0.9424541063178665 0.04886168992287227 0.005821987516691689 0.00286221624256967 0.9876913713956341 0.004980920267817513 0.002354672508151247 0.004973035828397195 0.1995188514331356 0.1819644864731124 0.01057307624547174 0.6079435858482802 0.005686216691789096 0.7919627478359693 0.02578476208819098 0.1765662733840506 0.02756170563228789 0.6372512205454264 0.01679003022228677 0.318397043599999 0.7194290249085512 0.1159411436710841 0.01453293888060821 0.1500968925397566 0.5105972075580304 0.07633094374501195 0.000518018798866874 0.4125538298980906 0.0005859808045577588 0.004303635978173312 0.9932290245428299 0.001881358674439084 0.0003902096072010103 0.3058241535117795 0.00301065042936134 0.6907749864516581 0.02441730997799001 0.5163073473208856 0.4315823257557093 0.02769301694541505 0.975841235390827 0.004667699425123031 0.002634217789414955 0.0168568473946349 0.00100209714119378 0.5691017167900089 0.3971366221943049 0.03275956387449237 0.002653099706176446 0.3923203422687597 0.5249928089743257 0.08003374905073814 0.01887734565824884 0.8111574068654321 0.01581969760649743 0.1541455498698217 0.007052354831135597 0.8893970430579334 0.03826106821416773 0.06528953389676322 0.6729569945913424 0.116029698065275 0.000732066570441926 0.2102812407729407 0.001941509346736806 0.8056258245124878 0.004520069962749212 0.1879125961780262 0.02877167336675034 0.3602233132313155 0.003467011538979521 0.6075380018629547 0.997596893857374 0.0008254712342922172 0.0009380458380194034 0.0006395890703144619 0.9644637192578513 0.01610201134790493 0.01564350695224413 0.003790762441999394 0.9842215684328511 0.001940502753939598 0.0004976726570155595 0.01334025615619372 0.004228110177195542 0.6657139330328672 0.008596728183041514 0.3214612286068959 0.9965092654545931 0.000731813226512263 0.0003374043183582168 0.002421517000536477 0.9784316272351006 0.01417886556945714 0.000500825831296114 0.006888681364146243 0.001369069106132964 0.4715960148968056 0.006912301407855995 0.5201226145892055 0.01608000062346891 0.7389885747736532 0.04684397687427443 0.1980874477286035 0.994620299342422 0.003692484238898046 0.0008311287811077272 0.0008560876375723188 0.005931635150026027 0.050312300382404 0.9200655822743521 0.02369048219321793 0.0006029751009433319 0.0782460032422469 0.9160160465410933 0.005134975115716619 0.001370876106102015 0.6684506541646749 0.0142575749916601 0.3159208947375629 0.05921581569203344 0.239476937143468 0.00550209693628937 0.6958051502282092 0.003804971570246109 0.4074568142978974 0.0007133243414827242 0.5880248897903738 0.00138449488036678 0.6721967414406299 0.03407762251599834 0.2923411411630051 0.01277339598023358 0.1537037407604563 0.003609191304682906 0.8299136719546271 0.006469554795298765 0.7344306193741897 0.1776395991965856 0.08146022663392596 0.0003924917572813923 0.7759371807302663 0.06851773021494498 0.1551525972975074 0.002470156140184442 0.4047131456632907 0.005560882218824625 0.5872558159777</probabilities>
		</cpt>
		<cpt id="year1_hba1c_mean">
			<state id="S_4_83665___5_2775" />
			<state id="S_5_2775___5_9245" />
			<state id="S_5_9245___6_25855" />
			<state id="S_6_25855___6_81835" />
			<state id="S_6_81835___8_395" />
			<state id="S_le_8_395" />
			<state id="S_s_4_83665" />
			<parents>year1_upcr_mean time_zero_uacr_mean</parents>
			<probabilities>0.07246111258552074 0.2921185189730854 0.1204695646365039 0.1908573805325271 0.2056595578079881 0.09673820299036535 0.02169566247400922 0.09505695761531997 0.3160150216997006 0.142609781940156 0.10221540634558 0.1489780515101255 0.1609122474167752 0.03421253347234265 0.08917598976301615 0.1048164947688264 0.07608834134963453 0.3122579348005588 0.291816582738976 0.08055452489597754 0.04529013168301057 0.08133774396501817 0.4644717228294817 0.0812910128645369 0.1141181945257611 0.09971824720078182 0.09259980880412787 0.06646326981029239 0.04454519405528725 0.2354075033487867 0.1671817269127108 0.1782723218118681 0.2357419677801956 0.102364943488756 0.03648634260239552 0.008981563331176143 0.2630980031344213 0.1153695332427503 0.2555520171161624 0.1961441221596576 0.1225071837291893 0.03834757728664279 0.09558548132795049 0.4849929504792241 0.1477564627119384 0.09524036104515481 0.09451751960943208 0.05938662940578133 0.02252059542051873 0.0570272890877602 0.162493189420603 0.1080372776567768 0.149341930750394 0.2383227698035412 0.281032517278012 0.003745026002912862 0.03633185341137764 0.2432511760188425 0.1576423179994824 0.1314949776290419 0.2538713051097757 0.1684745277308532 0.008933842100626619 0.02473899485508208 0.161939017313372 0.1405722657359774 0.217227980541026 0.269925891197669 0.1767207339371029 0.008875116419770745 0.06248681587731585 0.13932629783849 0.07807105665831542 0.1161606769939896 0.3121525122350807 0.2753863739645019 0.01641626643230638 0.0471968852828814 0.2251084041677626 0.06548865119145764 0.1493494244077936 0.2796631183575758 0.2251419957373334 0.008051520855195638 0.05750735951594235 0.3568432099198163 0.1180498888980522 0.1170567481063682 0.1713143398422657 0.1582059747236363 0.02102247899391892 0.0800513004743944 0.4579034603037204 0.1413021223157724 0.1100249454862154 0.1111626155789635 0.08111019104231079 0.01844536479862304 0.01288846568818446 0.04599092037641687 0.1775518458710308 0.06600992123751218 0.3268549639059404 0.3662862722999725 0.004417610620942798 0.05434009342103451 0.2476103476446287 0.07348482855042938 0.1394882883663666 0.2359853872930399 0.2264515103204935 0.02263954440400735 0.01984029054348039 0.1574233164975208 0.1038744330484759 0.2430967014034122 0.2773932723857858 0.1949051448669163 0.003466841254408458 0.01506594283367694 0.1777944115423313 0.02570170753528631 0.1115422211697567 0.2650738705720683 0.3470254393258388 0.05779640702104159 0.08633611104492986 0.125811668215369 0.1268525805695392 0.07822636810802915 0.3313897163806145 0.2502782801075538 0.001105275573964512 0.07918655371530782 0.2378439389754403 0.08550419371611666 0.1060224853982786 0.2110142271095608 0.2757860128534629 0.004642588231832993 0.0788230676197009 0.4157526413577432 0.1517504548453215 0.1510275476697922 0.1096918429622488 0.07000082530162539 0.0229536202435681 0.02688790502708161 0.2621937951571732 0.0973367228017946 0.2041440660042113 0.1891208508996161 0.1762476974567538 0.04406896265336946 0.07163667353232593 0.3774450985536829 0.09896183139097139 0.1573960928771605 0.1416477005081295 0.1313993337817438 0.02151326935598588 0.0412253661558992 0.1956803375530228 0.1292930763191829 0.2607935042650411 0.273843627491067 0.09354245593997436 0.005621632275812603 0.1442073608483148 0.3843157246406063 0.1389724245638173 0.09684398223854337 0.1243905592998727 0.1016746663888973 0.009595282019948422 0.02861422404449 0.1974498123131777 0.1873489997824964 0.1821930344186038 0.2426467350697034 0.147703177434922 0.01404401693660674 0.06498418541693173 0.4200415696707566 0.2534887524316351 0.09001770340565256 0.1189415327811727 0.04233023152406649 0.01019602476978482 0.09685046479441893 0.499121591640708 0.1441006579458732 0.08987232676496565 0.1001848907806661 0.0520891826452315 0.0177808854281367</probabilities>
		</cpt>
		<cpt id="year1_map_mean">
			<state id="S_106_025___113_033" />
			<state id="S_113_033___121_795" />
			<state id="S_62_9442___67_9504" />
			<state id="S_67_9504___72_9607" />
			<state id="S_72_9607___73_0007" />
			<state id="S_73_0007___74_9956" />
			<state id="S_74_9956___78_4625" />
			<state id="S_78_4625___84_7469" />
			<state id="S_84_7469___106_025" />
			<state id="S_le_121_795" />
			<state id="S_s_62_9442" />
			<parents>year1_upcr_mean time_zero_upcr_mean</parents>
			<probabilities>3.760927329635407e-05 5.925458505922981e-05 0.03093665006098856 0.1011292398147449 0.01192964952338372 0.0654583939226087 0.2033753940659883 0.5577772477515627 0.0118897311673108 1.634995594742387e-05 0.01739047987910919 0.0007000179052932758 0.001581831480816202 0.0287077014711068 0.09751214430338019 0.002608491867654104 0.06795389956454137 0.1708132960595391 0.5670758062779723 0.04806675963376169 5.814879989427409e-05 0.01492190263604089 4.449952895485267e-05 7.379478104540919e-05 0.01522917157744186 0.06190229292555858 0.00475858098209925 0.0583460975161763 0.2033230582889642 0.6194306709355452 0.03181960701410076 3.435959985928764e-05 0.005037866850254353 0.005346831392723473 0.002955594068860454 0.001038401504091012 0.0006952855817735472 0.000416423331576697 0.0007557264937830779 0.001322007774302188 0.008236828713704625 0.9788087922413522 0.0004063350858278724 1.777381200479706e-05 0.01756383498973774 0.002453063243716839 0.0001632010395143776 0.0005654082501390907 9.083639627406267e-05 2.761824762688093e-05 0.00175616831246062 0.004915485436653932 0.9716203406268777 0.0008307610775118245 1.328237948693486e-05 0.00812524114063513 0.00044671542260105 2.861206582693104e-05 3.30181110173936e-05 3.114694846274629e-05 0.0002795354128335576 0.0003876695592270117 0.006269576471651629 0.9843408208280011 3.13128563799956e-05 2.635118336351568e-05 0.4277718782140338 0.08535883536587334 4.692188883272372e-05 0.0005540060009929431 4.702346640381781e-05 0.0005120022414604927 0.0008715198512155134 0.001970354204312988 0.4600673412354581 0.02274978382170937 5.03337097067555e-05 0.4582230859849148 0.2755601585749742 2.443720445303563e-05 2.578108606844229e-05 2.433423598537285e-05 6.021404382239954e-05 2.760159721562665e-05 0.0004321190158439752 0.1322106068052321 0.1333103528417891 0.0001013086097008422 0.5173431224032591 0.2253403383397802 7.267739743053418e-05 9.717750988308283e-05 7.290884233056762e-05 0.0001056987017571555 7.646269491732547e-05 0.0003515101189787645 0.1829211728300479 0.07352860688590433 9.032427571125042e-05 0.0003049460116602134 0.0002144675715833603 0.0001956542607610148 6.719776610247404e-05 1.95081618236652e-05 1.959800668652384e-05 0.003041690290096537 0.02239842102629219 0.9736976038838495 2.460503736703134e-05 1.630798377765613e-05 0.003354523783775863 0.001404558344518642 2.446027550304657e-05 0.001078235993658814 3.977546811649299e-05 3.639009655839716e-05 0.00285563235877662 0.02290635721737892 0.9682531945981445 2.423832488556129e-05 2.263353868318367e-05 0.001880689959967135 0.0003192383645766779 2.936789969827757e-05 0.0004683892062598413 3.103304660440366e-05 3.058233922911687e-05 0.002921154432640109 0.008929140507924893 0.9853326578417214 2.921618013822396e-05 2.85302212398405e-05</probabilities>
		</cpt>
		<cpt id="year1_mra_coverage">
			<state id="S_le_0_5" />
			<state id="S_s_0_5" />
			<parents>year1_upcr_mean time_zero_upcr_mean</parents>
			<probabilities>0.001368458312471831 0.9986315416875281 0.03915634234335753 0.9608436576566424 0.01387936056599714 0.9861206394340029 3.983349512227517e-05 0.9999601665048777 0.007347662436376545 0.9926523375636235 0.00447476450876935 0.9955252354912307 0.0002240560755787702 0.9997759439244213 0.005433064041013729 0.9945669359589863 0.004154279685269195 0.9958457203147308 8.236098805509424e-05 0.9999176390119449 0.01839574165140209 0.9816042583485979 0.003714180234801503 0.9962858197651984</probabilities>
		</cpt>
		<cpt id="year1_nsaid_coverage">
			<state id="S_le_6_5" />
			<state id="S_s_6_5" />
			<parents>year1_upcr_mean time_zero_upcr_mean</parents>
			<probabilities>0.03283943071120749 0.9671605692887926 0.03097316323581615 0.969026836764184 0.4826910455399509 0.5173089544600491 0.001397872072911017 0.998602127927089 0.03691213017716831 0.9630878698228317 0.502180814416334 0.4978191855836659 0.01883120052290528 0.9811687994770947 0.04995698660079624 0.9500430133992038 0.3634330725357021 0.6365669274642979 0.05835833592241775 0.9416416640775822 0.05694164714200364 0.9430583528579963 0.4644192418515138 0.5355807581484862</probabilities>
		</cpt>
		<cpt id="year1_glp1_coverage">
			<state id="S_le_30_5" />
			<state id="S_s_30_5" />
			<parents>year1_upcr_mean time_zero_upcr_mean</parents>
			<probabilities>0.0002834618556692504 0.9997165381443308 0.008436719332849264 0.9915632806671507 0.003831117954120783 0.9961688820458791 0.0002773915145398299 0.9997226084854601 0.004255056971714597 0.9957449430282854 0.008451192287379287 0.9915488077126207 0.0001345394951005753 0.9998654605048994 0.002890337639277993 0.997109662360722 0.005354111706141711 0.9946458882938582 0.0003551600480674444 0.9996448399519325 0.01892039145938043 0.9810796085406196 0.00039578026242281 0.9996042197375771</probabilities>
		</cpt>
		<cpt id="year1_sglt2_coverage">
			<state id="S_le_59_5" />
			<state id="S_s_59_5" />
			<parents>year1_upcr_mean time_zero_upcr_mean</parents>
			<probabilities>3.817682320084026e-05 0.9999618231767992 0.006321534856996061 0.9936784651430038 0.001481352664893794 0.9985186473351063 5.743282367232469e-05 0.9999425671763276 0.002808929910208409 0.9971910700897916 0.005878178227721552 0.9941218217722785 0.0001937196380965653 0.9998062803619033 0.002441342382451621 0.9975586576175484 0.006020629307794663 0.9939793706922053 4.480079138625408e-05 0.9999551992086138 0.01387090573465988 0.9861290942653401 0.0001834957504208013 0.9998165042495791</probabilities>
		</cpt>
		<cpt id="year2_mean">
			<state id="S_23_445___30_685" />
			<state id="S_30_685___35_115" />
			<state id="S_35_115___39_495" />
			<state id="S_39_495___45_335" />
			<state id="S_45_335___50_795" />
			<state id="S_50_795___55_755" />
			<state id="S_55_755___63_585" />
			<state id="S_63_585___76_215" />
			<state id="S_76_215___92_825" />
			<state id="S_92_825___107_635" />
			<state id="S_le_107_635" />
			<state id="S_s_23_445" />
			<parents>year1_mean</parents>
			<probabilities>0.1413328798659629 0.05386897914630402 0.03235600258451042 0.02988589607639645 0.02245192238388277 0.008453292513456031 0.01250027403487488 0.01338057985495986 0.008541925167460395 0.008388117411603025 0.008701600321121935 0.6601385306394671 0.2437922310651242 0.08288271190667504 0.0520325090553008 0.05109997257999427 0.02434018122547152 0.01295951721606261 0.01580652870814957 0.01484714004805262 0.02916114665793877 0.005006080533929662 0.007780120443506025 0.4602918605597949 0.2525899739205177 0.1526756527880116 0.08582440834481822 0.07203819039653807 0.03191676517764792 0.01250190660577013 0.02643327571195524 0.02842474944895445 0.02900091343274988 0.007565405311915281 0.004469132433070423 0.296559626428051 0.1970267045472932 0.1541240251931052 0.1353069846618246 0.1309477582349098 0.07506119916984409 0.0311941531976697 0.03789969773093095 0.03140767878669468 0.02194667533042746 0.01136238433307186 0.006391990206612377 0.1673307486076162 0.1383550578913526 0.121016103646675 0.1238363518400679 0.1840930326622516 0.1371510805853782 0.07620625647386341 0.04883768571206565 0.03483321885081432 0.03155207989788763 0.008278374576785964 0.005944368318828165 0.08989638954402955 0.08823530641043946 0.0930012918766526 0.08582245094251173 0.1735668858357423 0.1557710831349207 0.1316615055908325 0.08698573927038623 0.068454131233947 0.04180903815235573 0.01143171529812481 0.009039351741760859 0.05422150051232596 0.05393879688719516 0.0711342518696709 0.07918146655626826 0.160332717602765 0.1424068087978104 0.136393205639021 0.155565777300815 0.08642662848924966 0.04490977371614638 0.02286362695630787 0.004245120819932158 0.04260182536481832 0.05115996622523598 0.04520887872979894 0.07601749913008163 0.1039602644475988 0.1270915169934931 0.1345093928005482 0.1922971941982855 0.1660029243844335 0.04878282928811268 0.01897735199083627 0.006811316134924699 0.02918086567665075 0.03034598693091314 0.0349709812085409 0.05042308568800963 0.08059220317748941 0.09604836110600215 0.0892868887002245 0.2224736142240339 0.2485988719118038 0.07359895846030137 0.02193029815795953 0.01003826810929707 0.04169248232542466 0.02618896272632531 0.02451343320311271 0.04699421144864747 0.05540420333682338 0.07831459070172236 0.07247736335212766 0.1523306324885562 0.3221053419891617 0.1694331062001785 0.01961671924966445 0.0113628862923809 0.02125854901129949 0.01634094678317761 0.01413854831262911 0.0259795863619857 0.04427154928256823 0.04162986487280049 0.04141452810577437 0.08827545667746117 0.277949716984247 0.3758767538794795 0.05577777863957206 0.007797669789755062 0.01054760031054963 0.008861511122550923 0.008161530144207034 0.01249827460927505 0.0198992822105349 0.02906760671291357 0.02869902064357354 0.04873918181475185 0.1462786674390451 0.5250779527424078 0.1520791057784264 0.01178649661775593 0.00885137016455792 0.007238040366973649 0.006169294986557769 0.007953151688412577 0.01481511873567335 0.02023260548624257 0.02086821186712803 0.03937953607852247 0.04823458890984626 0.2735061664547022 0.4652283307891302 0.08784859896708086 0.008526355669729993 0.04790442118258421 0.01872795728452614 0.01281546658182583 0.008074133078244202 0.007569374712720621 0.003548631418829805 0.005288960489052734 0.003348749310684076 0.008004129160130937 0.009460079117796269 0.005259533295037784 0.8699985643685674 0.002027578726896629 0.003471965250131187 0.002244360898121623 0.004349033681705572 0.004449781455401956 0.008864176359644213 0.01962809921323186 0.03521334023862496 0.05268177029351662 0.2021281043266435 0.6627115471797764 0.002230242376305467 0.007078525165702221 0.002673350475881471 0.004098127956771129 0.0001131527794968644 0.0001179226196184409 0.001622831556129682 0.0001309329165808375 0.002201483534258318 0.01186046429088702 0.01381782483569131 0.02297699962017195 0.9333083842488107</probabilities>
		</cpt>
		<cpt id="year3_reduction_40_ge">
			<state id="S_0" />
			<state id="S_1" />
			<parents>year2_mean year1_hba1c_mean</parents>
			<probabilities>0.7063284590709387 0.2936715409290614 0.8415325458728451 0.1584674541271549 0.5495183280680561 0.4504816719319439 0.6192347588212982 0.3807652411787017 0.6110738883740507 0.3889261116259493 0.5466448418917388 0.453355158108261 0.7337872212376492 0.2662127787623508 0.7161823138081614 0.2838176861918387 0.7412200266855115 0.2587799733144885 0.7201289485570543 0.2798710514429457 0.6726171318684966 0.3273828681315035 0.5974911823757016 0.4025088176242984 0.4796697173527553 0.5203302826472449 0.7658127713259544 0.2341872286740457 0.7466388880375429 0.253361111962457 0.6553981257246918 0.344601874275308 0.6804285317055329 0.3195714682944673 0.7711506667057522 0.2288493332942479 0.683143509818118 0.3168564901818821 0.4418982712729894 0.5581017287270107 0.6436307640289617 0.3563692359710383 0.86756315933788 0.13243684066212 0.7491921556589349 0.2508078443410651 0.7143062350131333 0.2856937649868667 0.6854620028983729 0.3145379971016271 0.671865872333416 0.328134127666584 0.5535830992146903 0.4464169007853098 0.8330538162054441 0.1669461837945559 0.7063550445511043 0.2936449554488957 0.7342576603491089 0.2657423396508911 0.7192577960696479 0.2807422039303521 0.7113707984627623 0.2886292015372377 0.7342545911146526 0.2657454088853475 0.6523800100454504 0.3476199899545496 0.9778277748100493 0.02217222518995063 0.7998786072691343 0.2001213927308658 0.8043428592374332 0.1956571407625669 0.8010916968369793 0.1989083031630207 0.7218039234990135 0.2781960765009865 0.6892061250335523 0.3107938749664477 0.662225040752242 0.337774959247758 0.9758524029071404 0.02414759709285964 0.8422223099657175 0.1577776900342825 0.8094110614600722 0.1905889385399277 0.8001895847507582 0.1998104152492416 0.8658087920158388 0.1341912079841612 0.7533810034408415 0.2466189965591586 0.7949380095233149 0.2050619904766849 0.6399394419241867 0.3600605580758134 0.823008324604615 0.176991675395385 0.9229535520664277 0.07704644793357236 0.915658547895278 0.08434145210472202 0.8854086737271484 0.1145913262728515 0.8764121027368058 0.1235878972631943 0.7809957367466567 0.2190042632533434 0.6848546800353252 0.3151453199646749 0.9343107416871773 0.06568925831282259 0.9741220252447714 0.02587797475522867 0.9720269856585553 0.02797301434144466 0.9265463022472729 0.07345369775272713 0.9481855710298287 0.05181442897017134 0.8807469367951968 0.1192530632048031 0.9195623511147654 0.08043764888523455 0.9799957689323456 0.02000423106765443 0.9812510281788606 0.01874897182113937 0.984563629498809 0.01543637050119106 0.9809555577875056 0.01904444221249426 0.9722237406117111 0.02777625938828898 0.9421822761693777 0.05781772383062235 0.7829840971396932 0.2170159028603068 0.9952202181652686 0.004779781834731233 0.9780267469188795 0.02197325308112058 0.9944204707902092 0.005579529209790669 0.9892131397710818 0.01078686022891817 0.9858705792226099 0.01412942077739011 0.9723147513263645 0.02768524867363554 0.855178544756714 0.144821455243286 0.6281143868620299 0.3718856131379702 0.6844687857733494 0.3155312142266507 0.7145164982926913 0.2854835017073087 0.6613970606782964 0.3386029393217037 0.5709615963931204 0.4290384036068797 0.5012356085507815 0.4987643914492185 0.7581012528856158 0.2418987471143841</probabilities>
		</cpt>
		<cpt id="year2_uacr_mean">
			<state id="S_1154_1___2967_56" />
			<state id="S_11_3171___70_4218" />
			<state id="S_380_707___1154_1" />
			<state id="S_70_4218___380_707" />
			<state id="S_le_2967_56" />
			<state id="S_s_11_3171" />
			<parents>year2_mean</parents>
			<probabilities>0.1464246014881982 0.1431694079712493 0.08038048061082155 0.3946260877511238 0.1204364322975189 0.1149629898810883 0.1369488436089923 0.1609885177531209 0.08855831455195709 0.3746375628918435 0.1244990045862811 0.1143677566078052 0.1521694160658673 0.1699206365963885 0.09160863826301828 0.3314249529145331 0.1060003269193634 0.1488760292408293 0.1179795819082413 0.1516106772086466 0.1267847580983673 0.3457683599828334 0.09448136253336339 0.1633752602685479 0.1364508785513987 0.167974811123425 0.1097707481713535 0.3180124776084897 0.1014487698358823 0.1663423147094508 0.0940703072335721 0.1493063763745784 0.1302020162564369 0.315903361283184 0.09825139642037024 0.2122665424318584 0.08559927825126096 0.171888025034219 0.1434578778186176 0.261697504193184 0.08559104924492582 0.2517662654577926 0.07151852758423831 0.1363032418434618 0.1665392481389315 0.2202829828106251 0.07850473799943956 0.3268512616233037 0.04799735746016066 0.1316963947603074 0.1914288475178791 0.1803038009280067 0.05884881535692745 0.3897247839767188 0.01663728441277973 0.08523026718410703 0.1863181170750128 0.16834696568121 0.03945895581241316 0.5040084098344774 0.004618323836186742 0.06803103946155756 0.1412789743989296 0.2455338011794426 0.01471060258060898 0.5258272585432747 0.1996020090071289 0.1069525080865082 0.1065150724147464 0.3272746427409264 0.1892567782359468 0.07039898951474312</probabilities>
		</cpt>
		<cpt id="year2_pp_mean">
			<state id="S_29_999___48_0166" />
			<state id="S_48_0166___52_0012" />
			<state id="S_52_0012___57_0023" />
			<state id="S_57_0023___63_0169" />
			<state id="S_63_0169___68_0067" />
			<state id="S_68_0067___76_0215" />
			<state id="S_76_0215___82_0165" />
			<state id="S_le_82_0165" />
			<state id="S_s_29_999" />
			<parents>year2_uacr_mean</parents>
			<probabilities>0.004078332650988381 0.002748995217754579 0.006600951484673176 0.01910124896704937 0.1481638482715356 0.4305325348327753 0.2440634562715335 0.1446860473621145 2.458494157548797e-05 0.1589431634273672 0.1461636349433491 0.2544313074768608 0.2913423507056194 0.112914212907398 0.02451633004675213 0.004425041686019688 0.006051130977426536 0.001212827829207224 0.0689093748048001 0.1150323590866172 0.2260473055601532 0.3448772266182097 0.1736733439944638 0.06082038321894744 0.006084322725579337 0.004526260398195247 2.942359303394025e-05 0.4150900983692093 0.1340454240284727 0.1478683965580294 0.1350083202816075 0.07620425075269863 0.05941085051177889 0.01070209357330672 0.007355471724287942 0.01431509420060903 0.003113446737905836 0.005834396173811495 0.0115045805627539 0.04139510755230046 0.07434990938903625 0.2166193681736302 0.158054323562654 0.4887897851958385 0.0003390826520693708 0.6419646359085893 0.1971081904577379 0.1124614634164086 0.02373798074152718 0.006380863839697907 0.003902271662868597 0.00146806141835637 0.001697875510596339 0.01127865704421785</probabilities>
		</cpt>
		<cpt id="year2_ppi_coverage">
			<state id="S_le_0_5" />
			<state id="S_s_0_5" />
			<parents>year2_uacr_mean year1_ppi_coverage</parents>
			<probabilities>0.3353767734011304 0.6646232265988696 0.8095844061486638 0.1904155938513364 0.1316626142499094 0.8683373857500907 0.3354919476879218 0.6645080523120781 0.7561582091302783 0.2438417908697216 0.100344501929598 0.8996554980704019 0.2099841135670271 0.7900158864329728 0.6949334527213562 0.3050665472786439 0.04861520047198376 0.9513847995280161 0.3347406444646861 0.6652593555353139 0.7572078254041316 0.2427921745958684 0.1166502536068175 0.8833497463931824 0.1741569415723742 0.8258430584276258 0.5075035520135588 0.4924964479864413 0.06032457269213112 0.9396754273078689 0.1899041051634222 0.8100958948365778 0.6117718468039011 0.3882281531960989 0.03180931219947764 0.9681906878005223</probabilities>
		</cpt>
		<cpt id="year2_aceiarb_coverage">
			<state id="S_0_5___356_5" />
			<state id="S_le_356_5" />
			<state id="S_s_0_5" />
			<parents>year2_uacr_mean year1_aceiarb_coverage</parents>
			<probabilities>0.2329796668653951 0.3243562901013177 0.4426640430332872 0.1201826637410338 0.0432438295984984 0.8365735066604678 0.1857675271408482 0.3793990083106091 0.4348334645485425 0.07707363802976701 0.03093311377134144 0.8919932481988915 0.178368343207191 0.3606225915040071 0.4610090652888019 0.05808901702224939 0.01562922968895226 0.9262817532887984 0.236656507329935 0.2339721617036092 0.5293713309664557 0.06978509444285545 0.01723103315257381 0.9129838724045708 0.1449507679078161 0.3333231095336556 0.5217261225585283 0.09073932145639405 0.03580646332439705 0.873454215219209 0.1569404248071836 0.30552337181312 0.5375362033796963 0.02160190445356 0.005537365792319194 0.9728607297541207</probabilities>
		</cpt>
		<cpt id="year2_sbp_mean">
			<state id="S_107_5___134_5" />
			<state id="S_134_5___145_5" />
			<state id="S_145_5___156_5" />
			<state id="S_156_5___187_5" />
			<state id="S_85_5___99_5" />
			<state id="S_99_5___107_5" />
			<state id="S_le_187_5" />
			<state id="S_s_85_5" />
			<parents>year2_uacr_mean</parents>
			<probabilities>0.04435573545708189 0.6001662868603356 0.3424055823372118 0.01248882954762936 2.751964155672425e-05 2.761044299797501e-05 0.0005009316565439505 2.750405664273482e-05 0.867023396334196 0.09660566446878563 0.01851285255989503 0.007987664486838891 0.001189511105300371 0.007981042869248053 0.0003509614621604601 0.0003489067135756522 0.02222242953088441 0.6492933399639725 0.2919743074705936 0.0344149854730147 1.928075200923065e-05 0.001259313861629759 0.0007970672516529443 1.927569624284641e-05 0.6865879982041151 0.01250901109855697 0.005265184913860849 0.004114778752339707 0.07759043472881391 0.206702071184913 9.816830985425586e-06 0.007220704286414998 0.01419458907691909 0.0179754176160359 0.2166947880735821 0.7052192085831738 3.156893912647758e-05 0.0002873167944783684 0.04556553570252717 3.157521415715713e-05 0.9337173940770708 0.04825915246385903 0.005092609909512657 0.001992047454514483 0.00089824685321439 0.009779431119395381 0.0001710987472229931 9.001937521033368e-05</probabilities>
		</cpt>
		<cpt id="year2_dbp_mean">
			<state id="S_47_5___53_5" />
			<state id="S_53_5___59_5" />
			<state id="S_59_5___63_5" />
			<state id="S_63_5___67_5" />
			<state id="S_67_5___69_5" />
			<state id="S_69_5___74_5" />
			<state id="S_74_5___95_5" />
			<state id="S_le_95_5" />
			<state id="S_s_47_5" />
			<parents>year2_uacr_mean</parents>
			<probabilities>0.01658211131573613 0.05619937744723507 0.1075758814222793 0.2168379774038194 0.1420829085631694 0.3269703405750597 0.1296488170251844 0.002487300536003053 0.001615285711513289 0.002306676389235839 0.009081951295304284 0.02920448824885789 0.1253976934388359 0.1523041603305044 0.4373328974664682 0.2401362453329894 0.003394449492469898 0.0008414380053342372 0.000173372306301455 0.0009567633519958728 0.002635552731991549 0.004385372102254712 0.005114475335075612 0.02912479910764823 0.8578412492882661 0.09959257687869483 0.0001758388977716117 0.06491429017119146 0.1925044598098097 0.2608043338898637 0.2637451381511007 0.1044411126113869 0.07358620644918026 0.02044928425271913 0.0008999939804511658 0.01865518068429707 0.00226206457725055 0.01624405778139051 0.03320602362589092 0.05108268656817312 0.03625516309232722 0.1293937691000136 0.6202479468657955 0.1097782671413274 0.001530021247831151 0.0004925365243263611 0.001734576435913057 0.005012254354122329 0.01092665749380572 0.01580956012428256 0.2397191499284405 0.72192660461596 0.004208338571023911 0.0001703219521254764</probabilities>
		</cpt>
		<cpt id="year2_upcr_mean">
			<state id="S_0_29165___0_70235" />
			<state id="S_0_70235___3_6442" />
			<state id="S_le_3_6442" />
			<state id="S_s_0_29165" />
			<parents>year2_uacr_mean</parents>
			<probabilities>0.006208757737255995 0.6814520088403514 0.1010279599572195 0.2113112734651729 0.04124052306206885 0.3042329589430833 0.04085885678014203 0.6136676612147058 0.00289395683472689 0.1311391411890152 0.8143670370666826 0.05159986490957535 0.9731180914535812 0.01757827992373009 0.005520764556234551 0.003782864066454142 0.005243376388464721 0.03709412741825958 0.9556162081847351 0.002046288008540671 0.004517407304451379 0.2899972022129315 0.02652147706252014 0.6789639134200971</probabilities>
		</cpt>
		<cpt id="year2_hba1c_mean">
			<state id="S_4_81665___5_18035" />
			<state id="S_5_18035___6_0225" />
			<state id="S_6_0225___6_16335" />
			<state id="S_6_16335___6_79165" />
			<state id="S_6_79165___12_19" />
			<state id="S_le_12_19" />
			<state id="S_s_4_81665" />
			<parents>year2_upcr_mean year1_hba1c_mean</parents>
			<probabilities>0.3047498648397625 0.4139209255852228 0.04761045685284043 0.01620199203980113 0.04031868360094357 0.001925672006275633 0.175272405075154 0.05613820513612258 0.785493984063563 0.03918715978450012 0.07689523947069433 0.02348257815978645 0.0007555706500163545 0.0180472627353171 0.01883634348903353 0.5109223218720187 0.1012722548247466 0.2836752052655674 0.07312860654860483 0.00147210829948216 0.01069315970054696 0.01673118222335214 0.2744731576911918 0.1037606961355138 0.3740867013710356 0.215626761843092 0.0007039824244068029 0.01461751831140768 0.005005361406508009 0.09947077645246744 0.01715411640152434 0.1755960197624943 0.6785134609272695 0.01120401305295256 0.01305625199678396 0.001064940206788439 0.04872938475192017 0.01215274973426124 0.08851773790259167 0.7382759697807545 0.1046588943212553 0.006600323302428752 0.08217629739188737 0.2424073370334433 0.01235714114881401 0.03753127796689789 0.004734332216618555 0.005511308978048019 0.6152823052642908 0.4087768668098291 0.4922117454645317 0.008472612848841619 0.03413238601997463 0.01222691581836286 0.002885203202247048 0.04129426983621322 0.0504424038487468 0.7667133897566183 0.04493289348807351 0.09102730226153277 0.03177924080293949 0.001181670033067092 0.01392309980902208 0.02761106661593317 0.341392522265577 0.1082245388521993 0.3597505789336001 0.1460471042086393 0.002189168439151431 0.01478502068489982 0.01565112203476701 0.1339075776160808 0.05500904264603299 0.4319803910434764 0.3581538563176442 0.00233598043688706 0.002962029905111793 0.0009527442177308969 0.08772597087491456 0.01741558475566186 0.1709361812604341 0.7073974010336914 0.002635338531245944 0.01293677932632111 0.001031788189919947 0.04329925240570914 0.002317587601421989 0.0720050165214232 0.8511002638002366 0.02839862150356349 0.001847469977725747 0.197160694288561 0.2207977606355963 0.05885696810265834 0.02211211188781427 0.007887970547911006 0.009491507083381189 0.483692987454078 0.297555659639838 0.5821733639511966 0.003970334009893588 0.01287029248356159 0.008470651964743163 0.006173865673563744 0.08878583227720316 0.06593098320004907 0.7665711835600053 0.04940332412329038 0.06314797780026243 0.03495461519426706 0.003447152165049405 0.01654476395707648 0.05675855996420437 0.4686922900719769 0.07835352594582425 0.2804178308756716 0.09573580454267466 0.003163651668393126 0.01687833693125522 0.01993284317170037 0.2302277164531541 0.0338843814383685 0.3676719872058237 0.3370535171625365 0.006821149733817667 0.00440840483459922 0.001368715822538632 0.04190136979824943 0.02107590586991311 0.2093886545530247 0.692870025809102 0.03103441377206502 0.00236091437510705 0.001139574751641826 0.03183371799010883 0.001024867141946971 0.05022496041431809 0.7901109848245041 0.1243292325255395 0.001336662351940544 0.2683995856971592 0.2116281935986841 0.02031177534741187 0.03294169968997386 0.01628589136291741 0.02511654653433234 0.4253163077695212 0.3265761172530028 0.616135089200343 0.006218258143447029 0.01803310527256592 0.005038317176645202 0.002145824083286938 0.02585328887070912 0.03296584040927971 0.8767630308794239 0.04040808982779242 0.03563210236724034 0.009006151085156433 0.0007106327799178965 0.004514152651189578 0.01259826577016199 0.4745817686352783 0.2012772109564338 0.2371633355509682 0.06506593036350722 0.003508819015261937 0.005804669708388361 0.01532845344146819 0.1298623999363971 0.03667531425994137 0.5027090009072542 0.3076820299293613 0.004715047693809156 0.003027753831768741 0.0009481227392524032 0.07189881434618765 0.02819057470019849 0.1631955438284221 0.729556989342237 0.005152580904622053 0.001057374139080182 0.0009985115551711271 0.04764546868121229 0.02170037003461209 0.04677953221644489 0.7461484879371264 0.1358477225921616 0.0008799069832716659 0.3167820839877057 0.2632580765891026 0.03037468762973536 0.009170670886841406 0.003962027141978555 0.005731237435666636 0.3707212163289697</probabilities>
		</cpt>
		<cpt id="year2_map_mean">
			<state id="S_110_015___116_58" />
			<state id="S_62_7439___68_8289" />
			<state id="S_68_8289___74_9882" />
			<state id="S_74_9882___78_8838" />
			<state id="S_78_8838___86_9829" />
			<state id="S_86_9829___110_015" />
			<state id="S_le_116_58" />
			<state id="S_s_62_7439" />
			<parents>year2_upcr_mean</parents>
			<probabilities>0.0005963660027582134 0.03408330170799819 0.1398050557554381 0.2035998308432377 0.5839060494805866 0.02463872175951614 0.0007544430781830309 0.01261623137228187 0.002294069753870958 0.0007986182000472161 0.002798304132329014 0.004975498461438218 0.07227927251607615 0.9153462859778667 0.001489444628454185 1.850632991762589e-05 0.1679680303549723 0.0001129757740776838 0.0001449568007670334 0.0006102894946386167 0.004104941542111611 0.6984546925353476 0.1285530177309319 5.109576715319278e-05 0.0002705855720789685 1.378293175977407e-05 0.001403142255945829 0.001718604914864702 0.1128209538000794 0.8836397888174276 0.000121213589551295 1.192811829256684e-05</probabilities>
		</cpt>
		<cpt id="year2_mra_coverage">
			<state id="S_le_0_5" />
			<state id="S_s_0_5" />
			<parents>year2_upcr_mean year1_mra_coverage</parents>
			<probabilities>0.4506440980919712 0.5493559019080287 0.003501091920878139 0.9964989080791219 0.3878908278589678 0.6121091721410323 0.00461144576444809 0.9953885542355518 0.2492538919464108 0.7507461080535891 0.00200310053273841 0.9979968994672616 0.4428616453241195 0.5571383546758804 0.001463304705411832 0.9985366952945881</probabilities>
		</cpt>
		<cpt id="year2_nsaid_coverage">
			<state id="S_le_11_5" />
			<state id="S_s_11_5" />
			<parents>year2_upcr_mean</parents>
			<probabilities>0.08538819909690595 0.914611800903094 0.04144788827871683 0.9585521117212832 0.07455042557290456 0.9254495744270954 0.118974180637282 0.8810258193627181</probabilities>
		</cpt>
		<cpt id="year2_glp1_coverage">
			<state id="S_le_298_5" />
			<state id="S_s_298_5" />
			<parents>year2_upcr_mean</parents>
			<probabilities>0.001125709807280755 0.9988742901927192 0.0009415180184169647 0.999058481981583 0.000962118178842597 0.9990378818211574 0.002963392628141027 0.9970366073718588</probabilities>
		</cpt>
		<cpt id="year2_sglt2_coverage">
			<state id="S_le_67_5" />
			<state id="S_s_67_5" />
			<parents>year2_upcr_mean</parents>
			<probabilities>0.0009671177820532549 0.9990328822179466 0.001370075964753168 0.9986299240352469 0.0009651325717867285 0.9990348674282131 0.003758123309780154 0.9962418766902197</probabilities>
		</cpt>
		<cpt id="year3_mean">
			<state id="S_21_975___25_545" />
			<state id="S_25_545___30_845" />
			<state id="S_30_845___35_045" />
			<state id="S_35_045___38_415" />
			<state id="S_38_415___45_185" />
			<state id="S_45_185___49_905" />
			<state id="S_49_905___54_695" />
			<state id="S_54_695___59_135" />
			<state id="S_59_135___64_825" />
			<state id="S_64_825___71_235" />
			<state id="S_71_235___80_025" />
			<state id="S_80_025___87_225" />
			<state id="S_87_225___113_105" />
			<state id="S_le_113_105" />
			<state id="S_s_21_975" />
			<parents>year2_mean</parents>
