<?xml version="1.0" encoding="UTF-8"?>
<!-- This file was created by ACADEMIC version of SMILE -->
<smile version="1.0" id="Unnamed" numsamples="10000" discsamples="10000">
	<nodes>
		<cpt id="time_zero_norace_mean">
			<state id="S_103_735___109_565" />
			<state id="S_109_565___118_375" />
			<state id="S_10_885___21_705" />
			<state id="S_21_705___23_775" />
			<state id="S_23_775___29_075" />
			<state id="S_29_075___34_045" />
			<state id="S_34_045___40_805" />
			<state id="S_40_805___46_885" />
			<state id="S_46_885___55_685" />
			<state id="S_55_685___67_685" />
			<state id="S_67_685___79_985" />
			<state id="S_79_985___90_665" />
			<state id="S_8_195___10_885" />
			<state id="S_90_665___103_735" />
			<state id="S_le_118_375" />
			<state id="S_s_8_195" />
			<probabilities>0.04906477916733827 0.04774188488633511 0.03251141076079408 0.007104088512701581 0.02014055290106893 0.02266613632267705 0.03693111930545826 0.03972775404876982 0.0725431771008436 0.1265670292819978 0.1665387718039431 0.1597452670795672 0.005836823818922789 0.1672547144218319 0.04193667578622307 0.003689814801527461</probabilities>
		</cpt>
		<cpt id="year1_reduction_40_ge">
			<state id="S_0" />
			<state id="S_1" />
			<parents>time_zero_norace_mean</parents>
			<probabilities>0.9374405697677374 0.06255943023226264 0.9361962780709964 0.06380372192900363 0.7010107402035541 0.2989892597964458 0.7506587512986819 0.2493412487013182 0.7707800039138057 0.2292199960861942 0.7850051264208916 0.2149948735791083 0.8292813927247424 0.1707186072752576 0.852268998147507 0.1477310018524929 0.8793642532444503 0.1206357467555497 0.8883949681442199 0.11160503185578 0.9046584490889222 0.09534155091107785 0.9091285574260544 0.09087144257394568 0.6920815093355408 0.3079184906644593 0.9206522842600114 0.07934771573998864 0.9459184544475693 0.0540815455524308 0.7708338449613126 0.2291661550386873</probabilities>
		</cpt>
		<cpt id="study_entry_period_egfrckd_norace_flag">
			<state id="S_0" />
			<state id="S_1" />
			<parents>time_zero_norace_mean</parents>
			<probabilities>0.9999196088898936 8.039111010648741e-05 0.9999171420109104 8.285798908963116e-05 0.0001196511067586269 0.9998803488932413 0.0005471367057218198 0.9994528632942782 0.0001931173553479751 0.999806882644652 0.0001716060995185381 0.9998283939004814 0.0001053347636610318 0.999894665236339 9.792108572296733e-05 0.9999020789142771 5.36302390701517e-05 0.9999463697609299 0.6715775472116309 0.3284224527883691 0.9999765269315921 2.347306840784278e-05 0.9999754958358839 2.450416411612465e-05 0.0006657802514110317 0.9993342197485889 0.9999765247664437 2.347523355632315e-05 0.9999053764452149 9.462355478501284e-05 0.001052416329741429 0.9989475836702585</probabilities>
		</cpt>
		<cpt id="study_entry_age">
			<state id="S_20_5___38_5" />
			<state id="S_38_5___44_5" />
			<state id="S_44_5___50_5" />
			<state id="S_50_5___56_5" />
			<state id="S_56_5___63_5" />
			<state id="S_63_5___69_5" />
			<state id="S_69_5___74_5" />
			<state id="S_74_5___90_5" />
			<state id="S_le_90_5" />
			<state id="S_s_20_5" />
			<parents>time_zero_norace_mean</parents>
			<probabilities>0.1945925381620371 0.2158420903047802 0.2734062486024105 0.1847605317832079 0.09674905142765618 0.01381222987879377 0.002394542362248345 0.0004915947898676353 1.585789562905232e-05 0.01793531479336938 0.5047426144965146 0.2239406620357474 0.1597294087976012 0.0627607364951923 0.02234352280556438 0.006535194476703187 0.0001792696461008694 1.629724056839144e-05 1.629723970354348e-05 0.01973599676630371 0.06346773390132687 0.04818117605580612 0.06273522690850754 0.1050964591869266 0.1651325737494261 0.1444440679360428 0.1332899930301207 0.2469024122395987 0.02538996485418065 0.005360392138063975 0.02249934923363357 0.04029498815713688 0.05420581334829996 0.08536885488547717 0.1528498252258954 0.177823022586904 0.1173584153753749 0.3088910116712917 0.04059754356455906 0.0001111759514274396 0.03796334102861437 0.03553002960821618 0.04875535676467354 0.07549321000347255 0.1354228128799299 0.1382818574072447 0.1133730548086781 0.3644994750980468 0.05024913586154306 0.0004317265395807655 0.03334691123601115 0.02488883152726502 0.02636649245299862 0.08202977042924557 0.1058430720787085 0.1294065862648199 0.1141264968460439 0.4145578004686127 0.06730391223117067 0.002130126465123984 0.02154151064110514 0.01956268132310085 0.04003271197318763 0.05292167152317092 0.1140496942292213 0.1134408369062628 0.1177138935259014 0.4446144959508053 0.07459807962474264 0.00152442430250178 0.0174113990061554 0.02415378971229913 0.03307733300419116 0.05138442364423709 0.1069948446374414 0.1280318116452129 0.1262710342737653 0.4534914576006445 0.05916391999381686 1.998648223639142e-05 0.01631490809189852 0.01856526357099432 0.0306008909010793 0.05497720385321515 0.1093171395558176 0.1487245052721628 0.1299092935935958 0.4321184927013509 0.05814590519985842 0.001326397260027168 0.01893738510090838 0.0181170821238684 0.04351423625239859 0.0780402107323824 0.1416510413199241 0.1768413379473252 0.1413202057498243 0.3475626541865379 0.03332834607437406 0.0006875005124565697 0.03378657317516942 0.03584245405332053 0.06733483976263846 0.1056490244969857 0.1751284889573555 0.1837258101626229 0.1307868298162856 0.2461965934665414 0.02047004726064671 0.001079338848433741 0.0634760780548312 0.05275952350190462 0.08953676574874911 0.1276779397708651 0.1787763552847277 0.1711773436651381 0.1329874633975067 0.1783866487643508 0.002878853876508305 0.002343027935418229 0.1010861773811381 0.08189114150192209 0.1222079147140489 0.1038763105789515 0.2007825994428304 0.1456552502874526 0.08151190893125357 0.1560307257412559 0.0041278375587484 0.002830133862398644 0.1128268614038595 0.07639807652779894 0.1266446539582218 0.209365422289696 0.2584953622645017 0.1510235180163139 0.04206289292608446 0.01712570610669613 4.652460161288035e-06 0.006052854046666403 0.7760853380975581 0.06142854893580658 0.02191093110572366 0.01263450014066387 0.002615951580371755 1.855284566539943e-05 1.85528423641465e-05 1.855284234206707e-05 1.85528411994659e-05 0.1252505187683048 0.1274405487595187 0.07127422522360072 0.0914978459265388 0.1259250230969861 0.2095746863506303 0.09941378674980914 0.08245066903021207 0.1771426402421914 0.006524981244396866 0.008755593376115957</probabilities>
		</cpt>
		<cpt id="study_entry_period_dxckd_flag">
			<state id="S_0" />
			<state id="S_1" />
			<parents>time_zero_norace_mean year1_reduction_40_ge</parents>
			<probabilities>0.9873984998741845 0.01260150012581558 0.9886075940536813 0.01139240594631877 0.9880765677361505 0.01192343226384946 0.9783163021152701 0.02168369788472992 0.7322874613483279 0.2677125386516721 0.6924464849781747 0.3075535150218253 0.8038445897089623 0.1961554102910378 0.6778681403171102 0.3221318596828897 0.7910499605703465 0.2089500394296536 0.7614333911353888 0.2385666088646113 0.8372583644594793 0.1627416355405207 0.7931751950729119 0.2068248049270879 0.8689813186234814 0.1310186813765186 0.8167131157587894 0.1832868842412105 0.9048375019130944 0.09516249808690543 0.8601431610567976 0.1398568389432025 0.9375853959589859 0.06241460404101415 0.8999562817500812 0.1000437182499188 0.968542026507603 0.03145797349239695 0.9215040073068042 0.07849599269319581 0.9833953086118293 0.01660469138817068 0.955169035615243 0.04483096438475713 0.9874892823986682 0.0125107176013318 0.9547159702850467 0.04528402971495329 0.6633802204055332 0.3366197795944668 0.724951243110849 0.2750487568891509 0.9888069109464579 0.01119308905354215 0.9791910902117065 0.02080890978829348 0.9836242072404298 0.01637579275957024 0.9537670072184861 0.04623299278151393 0.7160239763191512 0.2839760236808489 0.7657445040231362 0.2342554959768637</probabilities>
		</cpt>
		<cpt id="time_zero_uacr_mean">
			<state id="S_10_2286___40_2946" />
			<state id="S_117_299___294_336" />
			<state id="S_294_336___792_382" />
			<state id="S_40_2946___117_299" />
			<state id="S_5_77965___10_2286" />
			<state id="S_792_382___2006_18" />
			<state id="S_le_2006_18" />
			<state id="S_s_5_77965" />
			<parents>study_entry_period_egfrckd_norace_flag study_entry_period_dxckd_flag</parents>
			<probabilities>0.1045139423510841 0.12276097846059 0.07985336812958359 0.05435411788906253 0.0913841718872784 0.1162591228701085 0.03324676990912215 0.3976275285031708 0.2102855425057429 0.1036398683106517 0.2067299682808757 0.1311367075509655 0.02151346767072827 0.166651523800414 0.09400247536365831 0.06604044651696368 0.07172105864179798 0.2266317686504433 0.0257688066855836 0.07301454952518323 0.1715020728066316 0.08109913910869637 0.1077751367603697 0.2424874678212942 0.1741972418187701 0.05162317016233964 0.07719170741974857 0.1644696677419356 0.015020101379655 0.2276685528029913 0.2592400543089471 0.03058950436561278</probabilities>
		</cpt>
		<cpt id="time_zero_pp_mean">
			<state id="S_44_5___49_5" />
			<state id="S_49_5___54_5" />
			<state id="S_54_5___58_5" />
			<state id="S_58_5___64_5" />
			<state id="S_64_5___70_5" />
			<state id="S_70_5___82_5" />
			<state id="S_82_5___95_5" />
			<state id="S_le_95_5" />
			<state id="S_s_44_5" />
			<parents>time_zero_uacr_mean</parents>
			<probabilities>0.1420760088803982 0.1774181638289906 0.1346108239130331 0.1860278561632486 0.1132537664522508 0.05066371391418338 0.003931468443173068 0.001716583607391024 0.1903016147973312 0.1327014178321886 0.1806183910058601 0.1130267184088987 0.1262119856998915 0.1029101368969568 0.09132224302522035 0.03078050797456101 0.0068342354315684 0.2155943637248544 0.2766090162846582 0.1760565795593433 0.07539565542715465 0.04750448502218649 0.0159959323263274 0.009427250799438295 0.003039270446952605 0.003672152192204787 0.3922996579417343 0.08943894396960983 0.1586015724683182 0.1461379604158352 0.2367954797308389 0.1579434056127045 0.142737486633163 0.01405116862164783 0.001842166406302419 0.05245181614157999 0.1351146387963057 0.1513596844909706 0.09495861117875785 0.1300491231424344 0.09385927086995544 0.1081077831423632 0.0297657785876509 0.01779131486746796 0.2389937949240941 0.1027525557820475 0.1640375359969805 0.1253581302604506 0.1809082237021692 0.1453134055454104 0.1490415559139839 0.04156272215072284 0.01300692577164448 0.0780189448765905 0.004845343376653402 0.006932523720406971 0.01377479391274896 0.04272578090231485 0.1167761317977058 0.3708690807068672 0.295848665520229 0.1409462333562401 0.007281446706833744 0.1981478991471989 0.1740981190672299 0.09300505400554332 0.08171331833682445 0.03368395087993736 0.01490511983514159 0.001520097240961474 8.930644913182967e-05 0.4028371350380311</probabilities>
		</cpt>
		<cpt id="study_entry_DM_flag">
			<state id="S_0" />
			<state id="S_1" />
			<parents>time_zero_uacr_mean time_zero_pp_mean</parents>
			<probabilities>0.6230694912500485 0.3769305087499515 0.5817605182257841 0.4182394817742159 0.584846186004471 0.415153813995529 0.5979611144124495 0.4020388855875506 0.5771952082105382 0.4228047917894618 0.5297769933974646 0.4702230066025354 0.5937206869842383 0.4062793130157616 0.5090807624589537 0.4909192375410464 0.6352539870908298 0.3647460129091702 0.9289040116715206 0.07109598832847937 0.892399448529794 0.1076005514702059 0.9080713283053922 0.09192867169460783 0.8792234325838049 0.1207765674161952 0.8563838176760543 0.1436161823239457 0.8367971777877629 0.163202822212237 0.7306877808444139 0.2693122191555861 0.5441782552432468 0.4558217447567531 0.9327463921785971 0.06725360782140276 0.8846120093028786 0.1153879906971212 0.8592952202869873 0.1407047797130125 0.7560447724153018 0.2439552275846981 0.7404844873928518 0.2595155126071483 0.1823289880481187 0.8176710119518814 0.3283050932809235 0.6716949067190766 0.2361406721273273 0.7638593278726726 0.1371596438128233 0.8628403561871768 0.86851585511061 0.13148414488939 0.4747952921231705 0.5252047078768294 0.5406713539514765 0.4593286460485235 0.5471891609639218 0.452810839036078 0.5633267734104905 0.4366732265895094 0.5356296881013434 0.4643703118986567 0.5117185485458408 0.4882814514541592 0.3952776942473955 0.6047223057526045 0.2324892131469428 0.7675107868530572 0.4028067150295329 0.5971932849704671 0.2956711428286424 0.7043288571713576 0.3190308999762827 0.6809691000237174 0.2831121337991994 0.7168878662008005 0.3987947908953476 0.6012052091046522 0.468748914366637 0.5312510856333629 0.5858751483748355 0.4141248516251646 0.6181542361187191 0.3818457638812809 0.8156478088459375 0.1843521911540626 0.2414674807920428 0.7585325192079572 0.8757889105478825 0.1242110894521174 0.8193938815570049 0.1806061184429951 0.7971247379546887 0.2028752620453113 0.7512552631742495 0.2487447368257505 0.6986668691686714 0.3013331308313287 0.6657945801005681 0.3342054198994318 0.6598408727295341 0.3401591272704659 0.6205072882958701 0.37949271170413 0.8340946262874032 0.1659053737125968 0.2909074777622861 0.7090925222377138 0.06900581614282782 0.930994183857172 0.1470952912418877 0.8529047087581124 0.2039663967349884 0.7960336032650116 0.4005980086882282 0.5994019913117717 0.483396597541286 0.5166034024587141 0.5138248554219136 0.4861751445780864 0.5494258991040523 0.4505741008959478 0.6891308712291692 0.3108691287708308 0.961667773331326 0.0383322266686739 0.9588604292635472 0.04113957073645281 0.969723305575372 0.03027669442462803 0.9602899913843529 0.03971000861564719 0.9691321534316475 0.03086784656835251 0.9622177600536348 0.03778223994636525 0.9137407344066202 0.08625926559337985 0.446640286996041 0.553359713003959 0.9690978364441428 0.03090216355585722</probabilities>
		</cpt>
		<cpt id="time_zero_aceiarb_coverage">
			<state id="S_2_5___77_5" />
			<state id="S_77_5___89_5" />
			<state id="S_le_89_5" />
			<state id="S_s_2_5" />
			<parents>time_zero_uacr_mean time_zero_pp_mean</parents>
			<probabilities>0.06321969673821519 0.05356550495659004 0.2900541341126659 0.5931606641925289 0.06351728796800808 0.04193468042091968 0.2527116432363524 0.6418363883747198 0.04913170571210344 0.04375469183367537 0.2410145411225671 0.6660990613316541 0.05687610507064958 0.0434693176402178 0.2133710228958895 0.6862835543932432 0.06198930181651182 0.04409186968196919 0.2489593384523737 0.6449594900491453 0.06707910900650278 0.09901783827367744 0.1941925887369225 0.6397104639828973 0.1125261523891565 0.04668403897497199 0.1055929996746527 0.7351968089612188 0.1034088481633296 0.01119464100519633 0.09921953632598636 0.7861769745054878 0.06827674672335375 0.04718287707129424 0.3054012385441069 0.5791391376612453 0.005887243978759591 0.005552288681222068 0.01011404029062556 0.9784464270493929 0.007308480843149911 0.005531791711824325 0.01267044834587757 0.9744892790991482 0.008186591796965617 0.003335507520930233 0.009470533802286442 0.9790073668798178 0.01553431036112914 0.004230630733779736 0.02228803223512445 0.9579470266699666 0.01940072062446853 0.003236345789219938 0.01770916078914734 0.9596537727971641 0.02449666798542175 0.007469895729594262 0.01544682987550617 0.9525866064094778 0.02583512629714955 0.006355340227879451 0.04701084505578142 0.9207986884191897 0.04345778918607152 0.01557536953934142 0.0872175160455723 0.8537493252290147 0.005806176862503064 0.002683273484282872 0.005680265351596498 0.9858302843016177 0.03087324036400815 0.009629752355464441 0.0306874915880462 0.9288095156924813 0.04697642955400103 0.0179776293573826 0.0389650119065986 0.8960809291820176 0.06166823128240855 0.03649275858012116 0.04586560834654284 0.8559734017909275 0.05081892898027755 0.04288169803878204 0.113070584468632 0.7932287885123084 0.06294014968214388 0.01817645198255474 0.1088371515573587 0.8100462467779426 0.02836084947883073 0.0805273334928209 0.1813949553966394 0.709716861631709 0.1194853687163666 0.1185399621808719 0.1192714351069645 0.642703233995797 0.007636230248512899 0.007589573301585726 0.03804321987183155 0.9467309765780698 0.03492390997780248 0.02166609831010867 0.05598309531607698 0.8874268963960119 0.09334688657811796 0.04686080463968982 0.2992248385543 0.5605674702278922 0.1041080346207694 0.045110918194563 0.2904683972027608 0.560312649981907 0.09226808939423989 0.05335253336912467 0.2492690487038343 0.6051103285328011 0.08160026646691161 0.04412464086309738 0.2790774281735348 0.5951976644964563 0.08195562025527929 0.05958100022468912 0.2725182628138685 0.585945116706163 0.09490233299566793 0.05175999026308749 0.2761417836384597 0.577195893102785 0.03584799674840523 0.0586983181914557 0.216126104483858 0.6893275805762811 0.3452173080105859 0.01575621380709289 0.08252168370300529 0.5565047944793159 0.09445871549510586 0.07870848763964371 0.3482980982525455 0.4785346986127048 0.004253397500130569 0.002438484082508791 0.01677944514379279 0.9765286732735678 0.002360534027180258 0.0008011679519853793 0.02167232089776285 0.9751659771230716 0.008289018730289694 0.002438193773545568 0.0329731675401046 0.9562996199560603 0.009366232725876189 0.007038746004155556 0.01704018022751212 0.9665548410424561 0.0003561981526305146 0.001210607175162376 0.008551644475153752 0.9898815501970534 0.009969204694051844 0.0005442420382360357 0.007118824247464144 0.982367729020248 0.008529570441590867 0.006005284146347305 0.0104239679733257 0.9750411774387361 0.01819655496437927 0.001321446527860553 0.001080200098304172 0.979401798409456 0.004311500248776704 0.003851242099824866 0.01677431371305345 0.975062943938345 0.05626067391119893 0.01847376898369125 0.1306677495010571 0.7945978076040527 0.05031923067913992 0.03166971717454995 0.1299585553811993 0.7880524967651108 0.05091035640315016 0.03891086618216631 0.1550799760050134 0.7550988014096703 0.0486215121254578 0.04574168838177663 0.1603480710296247 0.745288728463141 0.06185932942320338 0.04350499040597536 0.1592786440108904 0.7353570361599309 0.04957798164883789 0.05130432517946099 0.1748256594467801 0.7242920337249211 0.0564513217336497 0.05833436563228109 0.144168634990041 0.7410456776440281 0.005306874976240176 0.07337504855666406 0.1148089982555945 0.8065090782115013 0.04857260310802732 0.02645235402509613 0.1731763666515875 0.7517986762152891 0.007801620227427462 0.2729382978839347 0.1995051006776811 0.5197549812109569 0.3704788941174132 0.006069226614662479 0.1938075754314403 0.429644303836484 0.1496803677078342 0.08133478171306535 0.375495346553774 0.3934895040253263 0.1353804256629391 0.059951413233156 0.4164579978336191 0.3882101632702857 0.0706465482958504 0.08606300163647772 0.2794130980184662 0.5638773520492057 0.06556772174398892 0.06923207096542319 0.2687609523399512 0.5964392549506367 0.05710073993734525 0.06531519494771888 0.2462864985643346 0.6312975665506013 0.03865888003853368 0.03964242312135233 0.1788639211620762 0.7428347756780378 0.00519632880158986 0.02443801688839303 0.1341327838009305 0.8362328705090866 0.0006498501834264186 0.000562101872890069 0.004431434792034621 0.9943566131516488 0.002109779657742358 0.0005594421896492725 0.004548534525729587 0.9927822436268787 0.002036731563422127 0.001220041595312337 0.005307267929027516 0.991435958912238 0.005938911390768177 0.002792390054549269 0.008417877239463334 0.9828508213152193 0.001685302871574811 0.0003454121184831645 0.0073338696610885 0.9906354153488536 0.007157857638170066 0.00646986713292549 0.01530707788164114 0.9710651973472633 0.03896799075162107 0.003767004820910805 0.0430665138092313 0.9141984906182369 0.07280669253704102 0.05228403362033253 0.3628017288891527 0.5121075449534739 0.001775796373167283 0.0004235255604827535 0.003704623326215735 0.9940960547401342</probabilities>
		</cpt>
		<cpt id="time_zero_sbp_mean">
			<state id="S_122_5___131_5" />
			<state id="S_131_5___134_5" />
			<state id="S_134_5___142_5" />
			<state id="S_142_5___151_5" />
			<state id="S_151_5___160_5" />
			<state id="S_160_5___169_5" />
			<state id="S_le_169_5" />
			<state id="S_s_122_5" />
			<parents>time_zero_uacr_mean time_zero_pp_mean</parents>
			<probabilities>0.5447362656099801 0.03493496200731758 0.01405135097244922 0.004998603064236008 0.0007758623225597864 8.590418615650011e-05 8.477187397032037e-05 0.4003322799633305 0.6538503314525985 0.1488877638113172 0.05243429095158602 0.008397874618330109 0.001260453353101927 7.048916547272777e-05 6.779011529976153e-05 0.1350310065322937 0.5392814787299117 0.2118810850771692 0.221284780169961 0.0126270292290209 0.003096178863205884 9.384995258455867e-05 9.178470246607544e-05 0.01164381327568087 0.1320719875340276 0.2438904095829329 0.572945087688509 0.03711114171650388 0.006764609755350546 9.090735164231488e-05 6.618069917535199e-05 0.007059675671858438 0.01499693470579346 0.01451787266746232 0.7180204363697295 0.2255118401713987 0.01833806999681026 0.004116327898657643 0.0009644764794120262 0.003534041710736123 0.009710318567231006 0.01229437662818632 0.07650138473101907 0.7639177871615924 0.08170047119489664 0.04193421315333248 0.01182553170811351 0.002115916855628474 0.00304024391431697 0.003027706427918998 0.003095399122715184 0.06586822966055289 0.4645056554680937 0.3014604194682887 0.1320236475449779 0.02697869839313565 0.007291145437053691 0.01961818205977049 0.05952449909857366 0.00876172061205115 0.1410876284733758 0.1487654950792351 0.6074935158841241 0.00745781335581587 0.2159887981094716 0.005340178701184944 0.001552640426587751 0.00106809026448863 0.0005686258418180093 6.367304825040779e-05 6.179859914866698e-05 0.7753561950090501 0.01745329780608133 0.006748167076148971 0.00925938539260277 0.0001610429593015066 0.0001288985486957098 9.07359586239412e-05 7.4679838328221e-05 0.9660837924202176 0.04458537116277322 0.01051751424174827 0.01344172796223113 0.004548237474086169 0.0008468139966713768 0.0006178649361831437 5.84909794191682e-05 0.9253839792468876 0.1586237347328055 0.01606662636686601 0.02177864772048173 0.01046829493312816 0.001358176426067997 0.000107767627938268 9.111393960835943e-05 0.7915056382531039 0.4411644808142839 0.01155139131388425 0.06076267963962387 0.02508363182095092 0.0001353593668930881 0.0008960027283364324 0.001454958613876267 0.4589514957021513 0.4279084284006122 0.2275099827101173 0.1408759869125802 0.004959249581005137 0.005282137860605135 0.0001271070635956375 0.002737363755173583 0.1905997437163107 0.1836102994967861 0.1129267619829085 0.4634889680444558 0.1664913886766617 0.02581032972782134 0.006092547453606731 0.002169826991141707 0.03940987762661809 0.01670781659354273 0.009505078060574572 0.1716644245719762 0.5425738474429449 0.1673143015395747 0.0375723619967147 0.02722692358254997 0.02743524621212223 0.002141976431384803 0.002154338225232278 0.003245615445105025 0.1902604808187722 0.4778906874020395 0.1131926615134128 0.1592881904192918 0.05182604974476154 0.0169666458030746 0.001700922561490236 0.0033888103963341 9.165078323410463e-05 8.207707331563829e-05 5.708007223262898e-05 4.578969054018746e-05 0.9776670236197785 0.0832332544790465 0.004536664041263383 0.004448771453814164 0.001187794686526951 6.939614016611256e-05 6.938637757608622e-05 6.947410721647626e-05 0.9063852587143904 0.3126779271330812 0.01950207377922586 0.007631581515531564 0.005395075488059433 0.003617658683742624 0.0001113800535897095 0.003594874471451597 0.6474694288753181 0.667283212276286 0.1127169025769792 0.03538102460754157 0.01933723156320619 0.0002640993381457634 0.000263870765004194 0.0002613965978954919 0.1644922622749417 0.5175481260204939 0.2538943605501354 0.1223991716981019 0.02677908143941437 0.01039885355031732 0.006969567333626647 0.006912272489461923 0.05509856691844829 0.03832583664397178 0.02865798173820602 0.3936870525314443 0.2707167272763655 0.185509335571309 0.001642676778658823 0.03939504509526452 0.04206534436477997 0.001974028230411568 0.01585232864662896 0.2002456322076578 0.2315753961617589 0.1161605486287499 0.2838300878707183 0.1485730022751413 0.001788975978933302 0.005318964807600768 0.005549616330754236 0.008074196149629682 0.1845926770233138 0.3083824620170484 0.4187956107943999 0.0640466664527906 0.005239806424462747 0.004726336517866751 0.005212987499946464 0.008068070845659898 0.009748376242594768 0.009771967406245025 0.09053471812723289 0.8672245019577584 0.004713041402695919 0.01521800203835621 0.002702407727640375 0.002026184046631104 0.0004378745194173845 4.86349740602674e-05 4.865225407321773e-05 4.848924729247789e-05 0.979469755192529 0.02992206783982642 0.002128479456895089 0.01535904987010203 0.01010560000705722 0.0002564652693671748 0.0002696244771475677 0.0002735125675037415 0.9416852005121008 0.03089878135664466 0.009571480634008176 0.01530146310516041 0.004592251798174242 0.001300702763421861 0.001360642990764435 0.0001533346065323732 0.9368213427452938 0.1662479003563656 0.0119202525046798 0.02682807053156372 0.006355520927796282 0.001459813443563842 0.0001711617351750606 0.00156541737678458 0.785451863124071 0.6008553513621133 0.006646700139067408 0.01945979934167142 0.006302202124565977 0.004110868350819547 0.002607068572495904 0.001800263157499907 0.3582177469517666 0.5222894784309613 0.2600790356315965 0.1203235084248082 0.01995216844916064 0.01563807682526292 0.00263993341611666 0.0001574963661323 0.0589203024559616 0.1026149745383948 0.1392471726809389 0.6576085981945603 0.05839436726680856 0.01656842410263727 0.008477480560786711 0.0157458670111577 0.001343115644715658 0.03003585562676996 0.001641389608212533 0.2463079137562733 0.387194403177917 0.1373361866937305 0.1455777341235305 0.05051094913177503 0.001395567881791285 0.008725309824326658 0.01269721382188888 0.01078276808090184 0.01311689509966361 0.01601073597852395 0.01251099946856911 0.9165667546905742 0.00958932303555163 0.02536030046295027 0.0003326344780125298 0.01955683624307834 0.0003926285274255921 0.0004089785603123589 0.0004262362701718939 0.0004312057041336918 0.9530911797539154 0.2594127923668701 0.02429507152923965 0.03787035088938179 0.01907892251143017 0.0007897559733720005 0.0009430536839934632 0.0003317064723583098 0.6572783465733545 0.397968172608063 0.07138783343825852 0.1494232235966902 0.01920841979390728 0.0005251128655206261 0.0002951861797738866 0.0002965365295148916 0.3608955149882716 0.4512701358637432 0.1197982185505476 0.2105466684290881 0.07672148516857562 0.009313298627728787 0.004605772015774168 0.0004442000762860196 0.1273002212682566 0.2513267598565583 0.1105527130675909 0.3451707324055552 0.1860054744286005 0.02864198537607625 0.003570947299633579 0.008063711017831626 0.06666767654815355 0.04340201897313598 0.01183278280630054 0.5538350299513776 0.2774710370263549 0.06996395484939814 0.02584888006059418 0.001088673626108143 0.01655762270673054 0.01707422261342332 0.007929589062478272 0.1370596037429201 0.5716541614784605 0.2496972726862788 0.0127334537849437 0.003403586094883294 0.000448110536612107 0.001431934586061196 0.001538122269987289 0.002051251702641536 0.1175124057420177 0.399324480380968 0.2755348011075214 0.2011392011074014 0.001467803103401551 0.0028265570697026 0.002830015337280089 0.004316318644362205 0.006855262570225649 0.02226500166861319 0.3477826694424048 0.6102211634260158 0.002903011841395688 0.1402615856447667 0.01775200392230921 0.006626898348347439 0.003703801683510081 0.0001928609852693991 0.0007192525532379412 0.0001939210180157709 0.8305496758445434 0.03606983239009375 0.2180213981334173 0.5207604052478606 0.1862771678426718 0.02861553225137901 0.005001975255362102 0.001679728278051676 0.003573960601163867 0.006803726779088325 0.07037222291222896 0.5501180847180521 0.2861260360081567 0.06252296702756913 0.01531641663829896 0.004787027444027601 0.003953518472578325 0.009950942865977806 0.0008473420886942204 0.3728079692919782 0.401630791753306 0.1489092283721606 0.04566434387826829 0.01711861085335201 0.00307077089626281 0.009680935214138198 0.00395384622226477 0.1139792845301641 0.5294612699931586 0.2424849201740384 0.07390398031303164 0.02541252182154672 0.001123241731657742 0.002511579441800411 0.0006910884463899082 0.02002480458465939 0.3876725998552413 0.4055594250709225 0.1292769160007077 0.05417706619726859 8.652040301016866e-05 0.002424481518474098 0.003086768196383572 0.003562785216787568 0.0234773491294525 0.3645016582342115 0.3631845659213314 0.2396771923702453 8.519941311412708e-05 0.0002693556398573854 0.0002620170511663124 0.006587495843700414 0.01549303052227649 0.02203636425004311 0.1897714247799439 0.765269892138404 0.0003104197746082092 0.001195755343100708 0.007092384866934556 0.001215975290194385 0.001148580198238437 0.00107072262864635 0.0763827562857369 0.9080759100909861 0.003817915296162693 0.3125342743004712 0.1916479099378684 0.3452896561637634 0.09497094889517797 0.01871675894537075 0.003534048952679702 0.003515327913775746 0.02979107489089289 0.2418008657528917 0.1715264285797371 0.005240034878247728 0.2760188268598062 0.003729895149378915 0.003961431651096208 0.007309415590710597 0.2904131015381315 0.05315850349157775 0.003227227473170577 0.2440996379857053 0.2289303491503277 0.002553459576335067 0.002511662018542119 0.002562169948464939 0.4629569903558765 0.3681485292422993 0.1200300623753906 0.01699427505837966 0.1291811487877207 0.03196646352076783 0.001344396860276345 0.001340540861444292 0.3309945832937212 0.2669238763898548 0.08614411841186814 0.2595544614835484 0.180448389155931 0.05028278229817842 0.01363994057693203 0.01397070484391385 0.1290357268397734 0.07141635766129384 0.0713805994842612 0.2996424137487263 0.416191913144864 0.06894922191343859 0.02093860830958093 0.001698273652466423 0.04978261208536872 0.03529650421165375 0.01743565892171945 0.130142008302505 0.4423661549992297 0.3118838919385716 0.04144795984859444 0.00851295428296457 0.01291486749476166 0.005361843238187511 0.007235753372903763 0.02456605458134052 0.1450395997459606 0.3456932503822467 0.3205836741113453 0.1514523403997623 6.748416825330784e-05 0.000145987656124102 0.000156420261418282 0.004734314769862739 0.03033266081988322 0.1011860984034192 0.1381354410950031 0.7251550521392175 0.0001540248550718727 0.1901856251171762 0.003327089685038272 0.0250944816220663 0.002669677500563896 0.003174747955962706 0.0358521859268981 0.04278904986717864 0.6969071423251159 0.5075557133330338 0.07996769187716639 0.02474179334913179 0.0007984479946540183 4.508373436795703e-05 4.55345572290533e-05 4.244506278880328e-05 0.3868032900916282 0.5238520495786635 0.1721897481027411 0.1236396931366899 0.002740408973833961 0.0004724144316437026 4.965115594525032e-05 4.827719485328044e-05 0.1770077574256294 0.411563868399999 0.1980516530474629 0.3505908705361291 0.01680971092170624 0.003401788620297834 9.556338010915851e-05 9.007748274294218e-05 0.01939646761155281 0.1891225751417724 0.2138868072391084 0.5222984461876258 0.05923442638791075 0.008066473598927634 0.0001049291964872978 0.0001007977909885244 0.007185544457179249 0.02313903320331168 0.02968974500553738 0.5350458931923152 0.3968881895891241 0.01009824095707131 0.004605856186370297 0.0002591585687874067 0.0002738832974827255 0.01063493221018282 0.006413086327954106 0.1140852756660353 0.6898275918909983 0.1445747146188217 0.02894088959763882 0.004954691326965467 0.0005688183614035198 0.004814436235896736 0.004814470514041976 0.04494295038098816 0.1205567747987474 0.73520334272183 0.005004740591305754 0.07984875293057854 0.004814531826611415 0.04147299541249889 0.04163528290309965 0.04420024603209468 0.04152683149193721 0.04234195651453807 0.04213640843176351 0.6966431809511303 0.05004309826293758 0.2178296614774504 0.01718947600599065 0.001096400101864672 2.832635545978381e-05 2.208361204277353e-05 2.2231657334642e-05 2.095267544588049e-05 0.7637908681144112</probabilities>
		</cpt>
		<cpt id="study_entry_aceiarb_flag">
			<state id="S_0" />
			<state id="S_1" />
			<parents>time_zero_uacr_mean time_zero_aceiarb_coverage</parents>
			<probabilities>0.7188889874189621 0.2811110125810378 0.9748210604870813 0.02517893951291873 0.003550868612547005 0.9964491313874531 0.6538821752842303 0.3461178247157696 0.6273644914319078 0.3726355085680921 0.956964500885922 0.04303549911407795 0.04485219125876681 0.9551478087412332 0.9821153725993601 0.01788462740063995 0.540135090958116 0.4598649090418842 0.9403723007564917 0.0596276992435082 0.03983196398337804 0.9601680360166219 0.9335097513032886 0.06649024869671126 0.5278413423055538 0.4721586576944463 0.9621449186554726 0.03785508134452739 0.008687210611855877 0.9913127893881442 0.6762449938899098 0.32375500611009 0.8007730069681201 0.1992269930318798 0.9324291397264032 0.06757086027359682 0.01325385211008448 0.9867461478899157 0.9817068940959435 0.01829310590405658 0.7965008280533015 0.2034991719466986 0.9757079574530277 0.02429204254697228 0.005705391401299081 0.9942946085987009 0.8268401923689357 0.1731598076310642 0.6965213238446508 0.3034786761553494 0.9795939259406974 0.02040607405930252 0.01134951752583387 0.9886504824741661 0.6692519126914575 0.3307480873085426 0.8123050115613073 0.1876949884386927 0.9359956820862633 0.06400431791373674 0.01856787353945099 0.9814321264605489 0.9935463689135126 0.006453631086487568</probabilities>
		</cpt>
		<cpt id="time_zero_ppi_coverage">
			<state id="S_le_78_5" />
			<state id="S_s_78_5" />
			<parents>time_zero_uacr_mean study_entry_aceiarb_flag</parents>
			<probabilities>0.1423812195427117 0.8576187804572885 0.137539723050539 0.8624602769494609 0.01037619018918786 0.9896238098108122 0.1290691603000405 0.8709308396999594 0.1707175589077554 0.8292824410922446 0.1704549930281797 0.8295450069718202 0.2298333085271206 0.7701666914728795 0.232947170132976 0.7670528298670241 0.002153518939017878 0.9978464810609822 0.07383442447866434 0.9261655755213357 0.05408907110578882 0.9459109288942114 0.08224482619320726 0.9177551738067927 0.1140759662689479 0.8859240337310521 0.1822867810700523 0.8177132189299477 0.00372570435970942 0.9962742956402906 0.04330724687236504 0.9566927531276349</probabilities>
		</cpt>
		<cpt id="study_entry_period_albprockd_flag">
			<state id="S_0" />
			<state id="S_1" />
			<parents>time_zero_uacr_mean time_zero_sbp_mean</parents>
			<probabilities>0.9733556981376781 0.02664430186232184 0.9774313034344246 0.02256869656557538 0.9778833021651653 0.0221166978348346 0.9483525962008251 0.051647403799175 0.8220724163683304 0.1779275836316696 0.765851936996309 0.234148063003691 0.9151380416524039 0.08486195834759611 0.9705741285618931 0.02942587143810694 0.9523553668721024 0.04764463312789761 0.9446673995765027 0.05533260042349711 0.9149101796712367 0.08508982032876325 0.8889465288820073 0.1110534711179926 0.77060485334192 0.22939514665808 0.278295211166372 0.7217047888336281 0.02814738620873162 0.9718526137912683 0.991076320693818 0.008923679306181889 0.924973581689862 0.07502641831013801 0.795415322474846 0.2045846775251539 0.1930642078600363 0.8069357921399637 0.01456332486837499 0.9854366751316249 0.01640881291590751 0.9835911870840924 0.0155562998476206 0.9844437001523795 0.09599866835075986 0.9040013316492401 0.9854008156017356 0.01459918439826437 0.9194826206823342 0.08051737931766575 0.8962814820615042 0.103718517938496 0.8240370637256623 0.1759629362743377 0.3229805201021506 0.6770194798978494 0.1680568180708467 0.8319431819291533 0.04424774139129056 0.9557522586087093 0.01278409652561623 0.9872159034743838 0.9300775163320953 0.06992248366790449 0.9994035279630097 0.0005964720369903083 0.9991043625177429 0.0008956374822570883 0.9997070898281624 0.0002929101718376944 0.9996813844022269 0.0003186155977730812 0.9991969402622847 0.0008030597377153558 0.9978851524755686 0.002114847524431268 0.9978361169781256 0.002163883021874497 0.9998799279001658 0.0001200720998342556 0.7910098516192513 0.2089901483807487 0.9468707993794289 0.05312920062057105 0.9448984038045274 0.05510159619547261 0.959369444629396 0.04063055537060391 0.9349607501665603 0.06503924983343967 0.9453138504626786 0.0546861495373215 0.9493532152531955 0.05064678474680446 0.0493061305281239 0.9506938694718761 0.8689007274008085 0.1310992725991914 0.764420995811978 0.2355790041880221 0.8858892336296394 0.1141107663703606 0.8899284778075222 0.1100715221924778 0.9278272660642199 0.07217273393578014 0.9135453184899847 0.08645468151001529 0.8976482985023329 0.102351701497667 0.6795501054418779 0.3204498945581222 0.9999497093590475 5.029064095249323e-05 0.9998282280161314 0.000171771983868516 0.9998712439199966 0.0001287560800034241 0.9994962115457963 0.0005037884542037539 0.996775039209304 0.003224960790696122 0.9760857393342484 0.02391426066575174 0.9556861709890641 0.04431382901093592 0.9999114715976178 8.85284023821468e-05</probabilities>
		</cpt>
		<cpt id="time_zero_dbp_mean">
			<state id="S_48_5___56_5" />
			<state id="S_56_5___67_5" />
			<state id="S_67_5___77_5" />
			<state id="S_77_5___90_5" />
			<state id="S_le_90_5" />
			<state id="S_s_48_5" />
			<parents>time_zero_uacr_mean</parents>
			<probabilities>0.003110825571623302 0.03969734026174512 0.6371162409417295 0.3077266996955528 0.01158527376944183 0.0007636197599075202 0.1416051951509026 0.6439155427225841 0.1466193454255888 0.03564222500398144 0.005448625805847191 0.02676906589109587 0.03084058333602917 0.3970994304593988 0.4673600737585593 0.09459410994970677 0.009824509500195384 0.0002812929961107067 0.1105353106128863 0.736917698555706 0.1086150193432667 0.02926489970552756 0.005860378117006565 0.008806693665606997 0.01715315647787051 0.1851254170084843 0.4823483543293859 0.2875028875797518 0.02674193004012382 0.00112825456438366 0.001134719658066742 0.00582125270819517 0.02706011438885196 0.6109475996387755 0.3529270372548231 0.002109276351287581 0.0417080790725816 0.2238950009885583 0.4778416031347724 0.2107839687785167 0.02654722934215229 0.01922411868341869 0.002943320853094371 0.07335410631923367 0.4616569337639735 0.4467502241495684 0.01528473942150113 1.067549262880308e-05</probabilities>
		</cpt>
		<cpt id="demo_race_ethnicity_cat">
			<state id="S_1A" />
			<state id="S_1B" />
			<state id="S_2" />
			<state id="S_3" />
			<state id="S_4" />
			<state id="S_5" />
			<state id="S_8" />
			<state id="S_minus_9" />
			<parents>time_zero_uacr_mean time_zero_dbp_mean</parents>
			<probabilities>0.6156229763373027 0.003631463247743159 0.0759803634670215 0.2403936270625096 0.03132388749248018 0.02384213310505051 0.00401351911311152 0.005192030174780912 0.6402730189799392 0.01895381680198129 0.04868436460150342 0.06325293839061419 0.004955207936837827 0.01012692433912021 0.1305935542487717 0.08316017470123226 0.7355545496568482 0.02067655814175271 0.05351243449529625 0.05790060770162243 0.01503709133429542 0.01239282377980394 0.07931194423130244 0.02561399065907853 0.7261521450809634 0.02146012550746592 0.05778550241848491 0.06952254055879797 0.009581553280811719 0.01723397260932045 0.06597083521966518 0.03229332532449076 0.5758967538018972 0.03859815975644836 0.06996042908354806 0.08253473911455213 0.005664430313618989 0.01794009185403038 0.09767711889375445 0.1117282771821506 0.1468374406465296 0.1198050561755682 0.01377420602628881 0.4266654624882655 0.1187167326008925 0.1190063255182297 0.03798456576373772 0.01721021078048811 0.7454282426493648 0.02631400153454324 0.03261465817564709 0.04308408710830573 0.01047042381039034 0.003588204048766927 0.0825275310561175 0.05597285161686453 0.759001444879474 0.02761666395348785 0.03017408253131322 0.04460695365453228 0.01081874718333989 0.004955082497326822 0.06404901335925575 0.05877801194127042 0.6548211232778112 0.04036373815273193 0.03752010467461948 0.1010012252693129 0.01317560445034334 0.0004149377631171137 0.1029283374143252 0.04977492899773894 0.5728304996113668 0.0569891143508492 0.09158956027710437 0.06115443605325736 0.01391521427073805 0.01462797646358189 0.06834155885796041 0.1205516401151419 0.5083662232945109 0.02949543959910695 0.224292568387043 0.07164688962242785 0.004869269177703884 0.002272158543686792 0.153206979242175 0.005850472133345474 0.8195674720199086 0.01984942319548919 0.02139199354609917 0.0421033703315976 0.0008224903681938973 0.004147500786829226 0.05744581536022794 0.03467193439165421 0.725661393634601 0.04009920645084567 0.02838403320594792 0.07349722812380814 0.001313500819230862 0.01504707567287421 0.1080221525541041 0.007975409538588179 0.7276627778933041 0.03462677532988433 0.04130400132208711 0.04497746665556224 0.02613179025298692 0.004359087200174401 0.09888779249795702 0.02205030884804401 0.7317353788287511 0.02324694718816152 0.03661105578755202 0.05476168817624062 0.02943292732955739 0.01553725802886374 0.09044698220450546 0.0182277624563681 0.6407922521272359 0.01702451249648319 0.06379159866558594 0.05068570766498611 0.01037381423999142 0.02054336791203566 0.1441268904276217 0.0526618564660598 0.423620355870111 0.1025602306876506 0.1510319626863649 0.1178877637413274 0.002352561047093744 0.07074272258866438 0.1282665254198125 0.003537877958975429 0.6660221937794729 0.04278537400574898 0.04851664219312733 0.05612701875414631 0.04469007495696613 0.04188831801778541 0.04855789321265407 0.05141248508009884 0.7772536087846695 0.008085206787261026 0.02808425738668712 0.07587023050232995 0.009439253662959829 0.005838589458624728 0.07335367130309701 0.02207518211437075 0.7548697872692594 0.02440807637021765 0.03295587556661391 0.05447355660173794 0.013497358913448 0.00977684881252348 0.08953225037580255 0.02048624609039716 0.6577496199898578 0.02215134958551029 0.05182998235789598 0.09074735886718095 0.0007435331443017303 0.0300165855618093 0.1136973050811251 0.03306426541231897 0.5474004296294425 0.04064453827557653 0.07185245499589729 0.1044384784436621 0.01533418046416383 0.01448851187931574 0.09042952670995531 0.1154118796019868 0.4586002699456156 0.05030627590042366 0.1248150884148243 0.188132685646537 0.002826435230807132 0.003319636847561915 0.1683529067803078 0.003646701233922447 0.7558197089280413 0.01780438659011247 0.07721524730557253 0.09339983028473554 0.001981640335365753 0.0019570301097973 0.04804473903529097 0.003777417411083932 0.6655511713237184 0.08301757725682042 0.02074866570134834 0.004394883701554712 0.003420069925056372 0.02587689763347657 0.06001731770612845 0.1369734167518968 0.5783831125328228 0.0782702329792419 0.05497049470976636 0.06414699024759808 0.007318616131373035 0.01009142033501424 0.1096496159736604 0.09716951709052321 0.6143027174074579 0.05088315337198306 0.04842627910355479 0.0534130975814029 0.01678895354923721 0.01020358889878694 0.1217556623530915 0.08422654773448575 0.5299990723231252 0.04805972061303485 0.0575511856175077 0.08218273844488877 0.009761795038058969 0.0132890025864517 0.1476252862119312 0.1115311991650015 0.488515572824529 0.04470439713841496 0.1216373790184965 0.09841273319470556 0.01919914924728327 0.001283670177408346 0.05976396313869953 0.1664831352604627 0.3572116978902208 0.03535006640558488 0.03489378409039978 0.02965189636779363 0.03696606036573004 0.03437753586602822 0.02887956009837851 0.4426693989158641 0.19046624418271 0.01138915642113319 0.01080260856701589 0.4982142002618981 0.01017397756369459 0.01084964167403202 0.2577838085398384 0.0103203627896777 0.5628851152379121 0.1180674711874321 0.04733532982477374 0.03192217285831364 0.001942717149745029 0.02973303479585955 0.1243714097250323 0.08374274922093171 0.4660003813970983 0.07464680734171228 0.07972348487734549 0.1188786472540326 0.02870373670535706 0.03969644767237485 0.161821298790563 0.03052919596151636 0.6764479621657976 0.03383109958147654 0.08722138467397361 0.05666180936693509 0.01111921180586685 0.01877163793621466 0.09591910835654066 0.02002778611319493 0.6421242135814893 0.02898956992944712 0.1178660251631337 0.0601971947907415 0.01212938666036898 0.02185601796490132 0.08709715608806087 0.02974043582185735 0.03526992685669857 0.06958084889209597 0.5099190977012055 0.1854542979449491 0.01464566127236696 0.1597533503876715 0.01596630145206486 0.009410515492947677 0.6782208818190643 0.04135218219850562 0.04891191301767728 0.1148105775511168 0.0238131442828626 0.02679256400000789 0.02239822094809764 0.04370051618266792 0.6378894241958849 0.04005135295030091 0.05035441711733091 0.100687310184847 0.005797301309943444 0.01159254753216047 0.1353297112503545 0.01829793545917768 0.6409779578032894 0.04197014485065251 0.06117828616629939 0.07936989044685828 0.01341166238964129 0.01271281033972044 0.1387342560278157 0.01164499197572292 0.5158977857481022 0.03093368198194942 0.09656369747561637 0.110969426284563 0.01205756757581332 0.02312564831397112 0.1868723484195697 0.023579844200415 0.3759131697858425 0.01351418152080051 0.1498914203317193 0.1122853018320268 0.006453778552200165 0.09266003349454166 0.1961384574515347 0.05314365703133441 0.7275882634548814 0.04588057101063233 0.01367506821521587 0.1047946247168553 0.001024150142870704 0.00792248795158729 0.09803394219167963 0.001080892316277417 0.6164357114311456 0.01150051111781473 0.04151553108216065 0.1057663389186279 0.002734784411742554 0.002431049223101595 0.003783116445871805 0.215832957369535 0.6957297478726241 0.02756131765325706 0.04121207954946218 0.05796378190055022 0.006314124693192701 0.004671945501491928 0.09059124717612869 0.0759557556532931 0.7358063257359032 0.03060251186246034 0.04005178430509041 0.04304571449582186 0.008118799251273923 0.004809020691795914 0.08398596078201392 0.05357988287564028 0.7213458928107699 0.02670203846257927 0.04139280047432406 0.04543920965845308 0.009827656372212803 0.005352153719056408 0.07914698270169476 0.07079326580090983 0.6736237653175796 0.02235739119649793 0.0731814585213755 0.04686501291641196 0.01408289772386058 0.01162591090564389 0.06488613719391835 0.09337742622471219 0.1295577414867463 0.12380743371211 0.1249671160254861 0.1222992223875176 0.1240210774613238 0.1189859811724746 0.1225879708113895 0.1337734569429521</probabilities>
		</cpt>
		<cpt id="time_zero_map_mean">
			<state id="S_105_1___117_061" />
			<state id="S_117_061___138_971" />
			<state id="S_66_4061___98_0402" />
			<state id="S_98_0402___105_1" />
			<state id="S_le_138_971" />
			<state id="S_s_66_4061" />
			<parents>time_zero_uacr_mean time_zero_dbp_mean</parents>
			<probabilities>0.004881169359258611 0.004876273766585995 0.7782519343146077 0.004885020618532706 0.006207480790220198 0.2008981211507948 0.0004005547393676217 0.0004180495478616982 0.9979191115681881 0.0004053260437762876 0.0004472031310314083 0.0004097549697749839 0.0004685816223817879 2.534264665548064e-05 0.9698148174686623 0.02963787335288719 2.815738974471785e-05 2.522751966854723e-05 0.03585596977726016 0.000373646696956634 0.513951542135522 0.4497053323651135 6.106538079895893e-05 5.244364434879405e-05 0.5219496312218884 0.2234752704025139 0.001392721174519891 0.2501293376915066 0.001645363228632412 0.001407676280938844 0.01820873134055258 0.01841019729098695 0.1290533907738833 0.01818800815222775 0.1164483127659323 0.6996913596764172 0.0001878283163177109 0.0001851713424012402 0.9315552789206692 0.0001857001258468937 0.0002232671257643003 0.06766275416900049 4.45561081988384e-05 4.098499751319128e-05 0.9995290241571152 0.0002926630063778966 4.917349486887554e-05 4.359823592596028e-05 0.004557627834924491 0.0001762054382241388 0.9678281417080602 0.02703997404755397 0.0002107465698813404 0.0001873044013559817 0.1874699282252833 0.005251811760728317 0.3825360129554435 0.4228614768273432 0.001087439922538894 0.0007933303086625574 0.530811208225513 0.2200312569017319 0.006065974943937182 0.1513761601972576 0.08697420961866766 0.00474119011289259 0.0009906268611973724 0.0009775304966401894 0.4908015208029918 0.0009794061365317314 0.001142936911862073 0.5051079787907768 0.0008335231363435383 0.0009115036437145133 0.8932296160239934 0.0008381384114334938 0.004673121460213555 0.09951409732430139 6.569799427255879e-05 6.900495738283549e-05 0.9993755059057675 6.614932910237932e-05 0.0003635481353856658 6.009367808902452e-05 0.001060606271518364 5.925205404727964e-05 0.9915925719126772 0.006930605953314204 0.000305993122517562 5.097068592533695e-05 0.07857333780118438 0.009134136611222433 0.7468956672779836 0.1640063391128517 0.001137380540675456 0.0002531386560822956 0.4176478499048442 0.37619749775209 0.002597733258876259 0.1207762506126763 0.08042202137928663 0.002358647092226463 0.06125857844788479 0.06409470291270712 0.06100353228069781 0.06134597529362126 0.08853225700637816 0.6637649540587107 0.0002132072936550618 0.0002326706297681445 0.9959393585511331 0.0002136195066198463 0.002154031213401512 0.001247112805422236 3.201503567965057e-05 3.462225980445609e-05 0.9993844300648743 0.0002247202203327652 0.0002921290483249383 3.208337098373571e-05 0.006766567538584043 0.0002350863348362316 0.9527143257895931 0.03904851882085216 0.001016501928217182 0.0002189995879172532 0.2561862560130731 0.0008749483899736397 0.3430544530961601 0.3966336708940127 0.002394378106398094 0.0008562935003825183 0.5345896601693975 0.4453106195188763 0.003887915646821412 0.004065693323498249 0.008251062847370764 0.003895048494035807 0.002637131619501755 0.00288816749706522 0.3439141947280976 0.002643702620879357 0.01964812429221238 0.6282686792422436 0.003589968582178017 0.003738297119249886 0.8997718677903358 0.003441284106363845 0.006403844418403868 0.08305473798346866 0.00569880099063357 0.0003362205328917685 0.9871775982843535 0.005962834937284309 0.000491616487679149 0.0003329287671575353 0.005223148029012646 0.0001288010135692685 0.9140099590373009 0.08032690348669531 0.0001845807010097542 0.0001266077324121518 0.2121685870884044 0.01386610213433777 0.3474512371688338 0.4259932248541026 0.0003062385051651208 0.000214610249156374 0.49391031081525 0.3878765535955458 0.002649251818362066 0.0677365488516492 0.04539769739621719 0.002429637522975685 0.04793068505465007 0.04889035530672371 0.6447165359589485 0.04542493834868727 0.1010779887194979 0.1119594966114925 0.01165153332748545 0.01239919764867608 0.7266035197421754 0.01163563345875737 0.1802923606467369 0.05741775517616883 0.002462886496070895 0.002583098299756895 0.8492356394573483 0.1191360740592956 0.02330938498892663 0.003272916698601824 0.0597743657767196 0.0005969025235883172 0.428428182203682 0.5013748812548937 0.009018717901286624 0.0008069503398296542 0.5027053800011062 0.01171588474292909 0.008823466113791098 0.4762902224173134 0.0004302336697017359 3.481305515867311e-05 0.5709701942790008 0.4083768147431411 4.108301044856543e-05 0.004166227063916626 0.01638604153433491 5.963936915821603e-05 0.006392061662389245 0.007223691348097711 0.006508015490418875 0.006382599374870462 0.9645847182701008 0.008908913854122794 0.0005912796228958845 0.0005988857771901496 0.9965533644012277 0.0005887194018327652 0.001011429010481037 0.0006563217863722884 0.004214444264089063 0.0001118753505516193 0.933239920884134 0.06207831356544746 0.0001953263253275357 0.0001601196104501489 0.1353551761402752 0.0009919693694280085 0.262856753627188 0.6006264274957293 9.352338526627942e-05 7.614998211329453e-05 0.6659779494580216 0.1895967929229023 0.01776574339944628 0.126243861736396 0.000207919927858622 0.0002077325553750915 0.1931200427261676 0.6725007688722485 0.0009278334455553668 0.0009272775318575824 0.1308148254066233 0.001709252017547545 0.00127443547827123 0.00129379051127363 0.9548671085812706 0.001269497418401005 0.002235828465594372 0.03905933954518941 0.004146834715557106 0.004039061195321842 0.7531887279904848 0.004182715186311715 0.003849816838398642 0.230592844073926 0.0001592999922288786 0.0001554076883652936 0.9982491981228322 0.001126257361542543 0.0001517365777174732 0.0001581002573137761 2.528820279868997e-05 2.464976522302106e-05 0.9907028586463945 0.009197981839055592 2.416093610312012e-05 2.506061042503359e-05 0.0121455699538749 2.578143388062728e-05 0.5821108882355949 0.4056666445412051 2.505566657146752e-05 2.606016887292137e-05 0.4383431246729338 0.05570154685197674 0.009654982630234669 0.4948076982880703 0.0007305577015068787 0.0007620898552775192 0.1662098475058929 0.1657578164766689 0.166759320809273 0.1663615893143012 0.1647104222136696 0.1702010036801945</probabilities>
		</cpt>
		<cpt id="time_zero_hba1c_mean">
			<state id="S_4_425___5_91335" />
			<state id="S_5_91335___6_31665" />
			<state id="S_6_31665___6_71665" />
			<state id="S_6_71665___7_71" />
			<state id="S_7_71___9_48335" />
			<state id="S_9_48335___12_625" />
			<state id="S_le_12_625" />
			<state id="S_s_4_425" />
			<parents>time_zero_uacr_mean time_zero_map_mean</parents>
			<probabilities>0.1272904510762545 0.07444704882826349 0.1041695215270867 0.1659077454403819 0.2235106108321349 0.2170672292641088 0.08633327133363897 0.001274121698130857 0.1754057599624824 0.05675621323604988 0.006175913236514908 0.1613664811066248 0.2053583815466821 0.3401194799901689 0.04871669115364769 0.006101079767829148 0.2173573992229631 0.114474827370342 0.1262577724603854 0.1914203864271457 0.1558869685295469 0.1401288125109912 0.0524817718926049 0.001992061586020848 0.1975481217545845 0.08192631896191631 0.08743691622436231 0.249863260982629 0.149526322661128 0.1817334705631276 0.051659492957722 0.0003060958945303274 0.05955650361644319 0.06437265429799328 0.5664249766845142 0.06282391087252054 0.0620591157742024 0.06190382627460907 0.05928228846404601 0.06357672401567135 0.09562079367187661 0.1060398472920291 0.06428662876253481 0.08666962059766108 0.049324842131397 0.4713632068536674 0.0316206774586941 0.09507438323213971 0.05716996851306503 0.2530563590670649 0.005573128800962719 0.207594767655778 0.1980294197975148 0.205671156015867 0.06999658840117132 0.002908611748576355 0.1312331113440804 0.4485338636201396 0.01747528273236419 0.01640285462209411 0.1296738434805809 0.1273405772249683 0.1158813850288206 0.01345908194695191 0.3737306747438323 0.1501858169723388 0.1597795177232023 0.1487939186714047 0.08951219053241123 0.05497161120411504 0.01804962909848193 0.004976641054213834 0.1287044924812345 0.1169327779175167 0.08135554941175972 0.17369741463064 0.2070164529176213 0.1706449581846602 0.1201370377349151 0.001511316721652571 0.08883813426920965 0.1368854305967284 0.2069795574635133 0.1936220304332789 0.1212468131742543 0.1030748201051583 0.07356765103551176 0.07578556292234531 0.501061465278699 0.1328105653575836 0.1193242581684144 0.1361736376103166 0.04568332367327185 0.03617577409132724 0.003965664786194433 0.02480531103419275 0.05174337499757086 0.09518609861302042 0.002498996600649576 0.1444546002949222 0.1739921411546581 0.4377708439246364 0.09262413578669208 0.001729808627850295 0.1126395574541436 0.1627642019738682 0.2266408107529947 0.1942016625893201 0.1033720670672307 0.191370426750426 0.004900332501274554 0.004110940910741971 0.5070179036033394 0.08466944274896504 0.09014724067669826 0.07724333325882442 0.08514908212595815 0.09594399322709155 0.04766556069731901 0.01216344366180425 0.06744067894341957 0.07637295435021973 0.05710321857397786 0.2108310156362649 0.2514993191555913 0.2760986598313597 0.05934389577921018 0.001310257729956767 0.05489517147703189 0.05352445873849278 0.03909252115632148 0.04031705717290706 0.04038162448985747 0.6608760399662746 0.04017410534337452 0.07073902165574011 0.5063814292885501 0.330901964238395 0.02613032919213376 0.03106496762332361 0.02494849145309734 0.02249523631235214 0.02056295479341616 0.03751462709873173 0.08369271480295533 0.08695778476274937 0.09356474453329346 0.1477355545903747 0.1938666515961429 0.3453867190653313 0.04604581764979142 0.002750012999361505 0.5905692435427227 0.01094030889417753 0.01244285360586534 0.01263452713627824 0.01408062321515158 0.3160040373998227 0.03155593403024379 0.01177247217573826 0.2648994820566513 0.1246573350421577 0.1159260492555224 0.1829406786679245 0.1532652324513305 0.1084008750231645 0.04460186446505341 0.005308483038195672 0.04039688582253859 0.04102641402940261 0.09569990852208865 0.2098816539864013 0.2357147833861543 0.2349626038032548 0.1265396071595047 0.0157781432906549 0.01988067249729305 0.02035246205360499 0.3516428551889157 0.02083480128104483 0.1882244173426589 0.3575717604677083 0.02067518028265994 0.02081785088611425 0.1376787313207271 0.3239964771320424 0.01484147082491862 0.2186277007109162 0.009760829399999048 0.1442981134483996 0.007672030671992742 0.1431246464910043 0.02597073632519465 0.03384409063396075 0.1811908686077048 0.3026729839826007 0.3220571531736662 0.1218276656158473 0.01217309891613759 0.0002634027448878482 0.03146067043313169 0.005220321499561706 0.06434598787853966 0.4368853162609339 0.2938645460722919 0.1568688793131426 0.009983756705085447 0.001370521837313258 0.02484013567661571 0.02842780170067036 0.1441163508523976 0.3123639252591155 0.2485981860661503 0.1845514506032107 0.05706961737135899 3.253247048087514e-05 0.04631345450837685 0.02843496272642197 0.1119421210314519 0.3396688221210888 0.2296543085258257 0.1926696098097642 0.05118397689591707 0.0001327443811534418 0.0308384211748229 0.1039060498621674 0.09014694323268156 0.1334056990749998 0.5198525405804588 0.0608056031534195 0.0478309700550115 0.01321377286643867 0.02458547816229456 0.01615374158973855 0.4144170505832827 0.2461232035204846 0.1807513538451918 0.06581187596413748 0.04219494103616402 0.009962355298706291 0.3333106680842582 0.1067010537283882 0.09634650745240043 0.1067197847145531 0.1600015917251889 0.1362060490020758 0.0531774052206127 0.007536940072522745 0.3208164378346686 0.08597444297024512 0.07381332158579995 0.1496905733546609 0.1387221002747138 0.1892311236296596 0.03127331376554422 0.01047868658470791 0.08164194960046275 0.04446623524204461 0.1311291326147206 0.2630972023674679 0.2729163898439817 0.1326119740735319 0.07326206116579874 0.0008750550919917896 0.3649685223632396 0.1013730072158482 0.08839013605477955 0.08941912482042366 0.1393498530876791 0.1614305603147787 0.04370997938642991 0.01135881675682134 0.2543995057468889 0.146521549909062 0.2397208004643843 0.1954979191008487 0.01925114584250123 0.1301883391364311 0.007562398294683649 0.006858341505200023 0.1208624113461484 0.3190420193171863 0.09317899669686779 0.08809197019744412 0.08441618934134655 0.1003118946327547 0.1157371631134017 0.07835935535485038 0.1279747902088018 0.06431962595467013 0.06200380480321614 0.2353501226585189 0.2527072322188382 0.1762936768614669 0.07870472025918179 0.002646027035306066 0.1367679401491019 0.09557791534188885 0.1266961190306459 0.1092767936015578 0.2476003981702282 0.218546505271212 0.06457118199576269 0.0009631464396025438 0.1643744270802417 0.09551143870999537 0.1130901765069229 0.2659802550725374 0.1816614088540969 0.1409994754512459 0.03448770199213735 0.003895116332822694 0.2539782342174433 0.09934389444048404 0.07189315357216311 0.1460339272188566 0.196686227306843 0.1888888807961127 0.04300972081841279 0.0001659616296846995 0.0274613634063061 0.02734966709244536 0.5390433109327173 0.04213537762872007 0.03258856541291009 0.2744619822042598 0.02852811245664379 0.0284316208659976 0.6182279012696843 0.08774585463987146 0.04644223486968513 0.05703122664457106 0.04851511005448881 0.05037321137775704 0.0464324224288198 0.04523203871512251 0.412321411143867 0.2876388587425839 0.07822770765576079 0.07686612293492917 0.07210385241206194 0.03632057856953807 0.03463389716008679 0.001887571381172429 0.2380465942909135 0.4200464650592884 0.01482794014824565 0.01384765594288847 0.190423867454355 0.0993739129312359 0.01115122260341159 0.01228234156966151 0.6391539610772995 0.2377668172643571 0.0479074710676073 0.0391822408240499 0.02095133930449938 0.00940094846794718 0.001423474881711171 0.004213747112528473 0.6443409298947541 0.2241772565972768 0.04507597845486541 0.05145776719846225 0.02539161547025984 0.004629648780326312 0.002363388864627559 0.002563414739427594 0.1304161779010181 0.1501362008832623 0.1356998078769247 0.1300938433628505 0.1088963762952704 0.1074174891921469 0.1167715809674788 0.1205685235210484 0.6281798248493836 0.09973512755854502 0.1515818717275961 0.03469549018498346 0.02145867495070636 0.01982071290284449 0.02201450284089888 0.0225137949850421</probabilities>
		</cpt>
		<cpt id="study_entry_ppi_flag">
			<state id="S_0" />
			<state id="S_1" />
			<parents>time_zero_uacr_mean time_zero_ppi_coverage</parents>
			<probabilities>0.2346819439252746 0.7653180560747255 0.8461249242359726 0.1538750757640273 0.2281369351249681 0.7718630648750318 0.9867406721385864 0.01325932786141359 0.3475466891813312 0.6524533108186688 0.8600966330499487 0.1399033669500513 0.2675969717303458 0.7324030282696541 0.8274887017169126 0.1725112982830874 0.1536920986037211 0.8463079013962788 0.9950537749062279 0.004946225093771997 0.2472683481805243 0.7527316518194758 0.9263525135881956 0.07364748641180444 0.2909539943329015 0.7090460056670985 0.8864229423500684 0.1135770576499316 0.2038289006344334 0.7961710993655666 0.9866274597174974 0.01337254028250252</probabilities>
		</cpt>
		<cpt id="time_zero_upcr_mean">
			<state id="S_0_5671___1_56075" />
			<state id="S_le_1_56075" />
			<state id="S_s_0_5671" />
			<parents>time_zero_uacr_mean time_zero_hba1c_mean</parents>
			<probabilities>0.4128953493565752 0.2452385835390484 0.3418660671043764 0.7350124324444148 0.03705052081128213 0.2279370467443028 0.1435222980668452 0.6116887453717251 0.2447889565614295 0.04863713225126243 0.7142532534258778 0.2371096143228597 0.03519616046854684 0.6993840795003187 0.2654197600311344 0.07097138065599096 0.6765413937991426 0.2524872255448663 0.2000727273191129 0.3918998925940725 0.4080273800868147 0.05962541883584079 0.8064944564069375 0.1338801247572218 0.4426988820913788 0.4116462821634831 0.1456548357451381 0.680746883800185 0.2300134759719669 0.08923964022784825 0.2983413719732449 0.6430021316149702 0.0586564964117847 0.2770159055770434 0.6662371158471927 0.05674697857576388 0.2268389174368572 0.6633954993068534 0.1097655832562895 0.3002485491002291 0.5651238314014917 0.1346276194982792 0.3080051896572766 0.5085964639503237 0.1833983463923999 0.3189156727117065 0.5328531739923238 0.1482311532959698 0.177784880880508 0.175582327348423 0.6466327917710689 0.5518035852891833 0.05359999331357155 0.3945964213972452 0.08296518763476164 0.6545750273064022 0.2624597850588362 0.1993676616489298 0.6240890954639883 0.1765432428870818 0.2279569390268626 0.6217504749375926 0.1502925860355446 0.2087916002484615 0.6004006778325607 0.1908077219189777 0.1834409621209555 0.4149356005403855 0.401623437338659 0.02158146935428519 0.06620438445282031 0.9122141461928944 0.3453074425541869 0.3830936461007963 0.2715989113450167 0.6182447594238667 0.1867559671119198 0.1949992734642135 0.2290665841687032 0.5948899327385674 0.1760434830927294 0.1098578036455813 0.7122831768247622 0.1778590195296566 0.1269555401648676 0.7183770789961191 0.1546673808390132 0.1448489002256244 0.6797909836233901 0.1753601161509856 0.2360497104099344 0.476377700234278 0.2875725893557875 0.2112046439321447 0.621437458523495 0.1673578975443602 0.2342348256695433 0.1657306266166217 0.6000345477138349 0.1730741728374126 0.09059596895792618 0.7363298582046613 0.5198133907864418 0.4555880926125005 0.02459851660105763 0.4986876840330999 0.4864316530616449 0.01488066290525513 0.4807735500386272 0.5115609746728488 0.007665475288524158 0.4785533055203795 0.5045647822565411 0.01688191222307951 0.4783003088433864 0.4913255985349915 0.03037409262162217 0.3731709513189842 0.3702834919942707 0.2565455566867451 0.2479055591887045 0.4434438533603651 0.3086505874509304 0.546437058449489 0.1906060046411973 0.2629569369093136 0.1270660677928966 0.7392511202571195 0.133682811949984 0.09210092196917496 0.7562781613700912 0.1516209166607339 0.08990241814263518 0.8109977778011319 0.099099804056233 0.1594901243649661 0.6787050699978767 0.1618048056371572 0.2135563545309004 0.5270525797981243 0.2593910656709754 0.02495786618534363 0.7455144299508367 0.2295277038638197 0.1474178070188503 0.7026267201414089 0.1499554728397407 0.1123790338009551 0.7368565230664726 0.1507644431325722 0.2702204228706311 0.5569385212906024 0.1728410558387665 0.231555129129564 0.6825587769134996 0.08588609395693629 0.2595314070246544 0.6188082248271018 0.1216603681482438 0.2065347197056934 0.6537414588100752 0.1397238214842314 0.1376239791039384 0.7178772559887354 0.144498764907326 0.4245946496406922 0.5129376565889627 0.06246769377034508 0.4430895769209641 0.4428837119624819 0.1140267111165541 0.4652403085870257 0.4851123490303511 0.04964734238262313 0.4389555444796128 0.4581320709664602 0.1029123845539271 0.4418693163915992 0.4481433755093105 0.1099873080990904 0.4139415743815605 0.3736038385231758 0.2124545870952636 0.390588612500061 0.3921611098822169 0.217250277617722 0.4905063573186721 0.4656956564837662 0.04379798619756156 0.4391074900517735 0.4393525253820162 0.1215399845662104</probabilities>
		</cpt>
		<cpt id="study_entry_HTN_flag">
			<state id="S_0" />
			<state id="S_1" />
			<parents>time_zero_uacr_mean time_zero_upcr_mean</parents>
			<probabilities>0.2539737286560003 0.7460262713439999 0.3837840528528217 0.6162159471471783 0.2125363946463823 0.7874636053536178 0.8878427323723189 0.112157267627681 0.951871190872889 0.04812880912711105 0.6032251508289578 0.3967748491710423 0.5924684261971596 0.4075315738028403 0.7641184973602828 0.2358815026397172 0.6389034080474986 0.3610965919525015 0.3623301469889024 0.6376698530110976 0.3933799583857666 0.6066200416142334 0.2470673785688238 0.7529326214311761 0.9362223109993365 0.06377768900066355 0.9418519938630243 0.05814800613697556 0.5287417999985293 0.4712582000014707 0.1856503555161538 0.8143496444838464 0.3311189584726608 0.6688810415273393 0.1220112740041051 0.8779887259958949 0.2152460103644385 0.7847539896355615 0.2005434652062636 0.7994565347937364 0.09538594441112953 0.9046140555888705 0.8804807704786823 0.1195192295213176 0.9023359457053622 0.09766405429463774 0.3886588341263947 0.6113411658736053</probabilities>
		</cpt>
		<cpt id="ruca_4_class">
			<state id="S_isolated" />
			<state id="S_large_rural" />
			<state id="S_small_rural" />
			<state id="S_urban" />
			<parents>time_zero_uacr_mean time_zero_upcr_mean</parents>
			<probabilities>0.02899110281528827 0.05887832348679447 0.03273135411272032 0.8793992195851968 0.03525216994317593 0.0851113591600315 0.03881062140653825 0.8408258494902543 0.03939724782816987 0.09944135956892926 0.02877158333267368 0.8323898092702271 0.01700253148344249 0.04036121675398635 0.02975880579641796 0.9128774459661532 0.0459472368414248 0.08672746433103962 0.04517866897413187 0.8221466298534036 0.02326777264537871 0.08217367345761113 0.01390947335869161 0.8806490805383185 0.04304649569861897 0.03396520472544023 0.01831468192003714 0.9046736176559036 0.06284257219548453 0.0938538026866066 0.06799370409184735 0.7753099210260614 0.03395171956442345 0.0625103699938553 0.03117697151475787 0.8723609389269635 0.03448663792603345 0.1009324764094048 0.02586887621260729 0.8387120094519545 0.03276063835338876 0.1054950274585837 0.04082210320388936 0.8209222309841381 0.05548067581579218 0.07782409296614842 0.0446938815599904 0.8220013496580691 0.02283054993951918 0.04589342398955801 0.02479899843324114 0.9064770276376817 0.02168245798341586 0.04955875223274925 0.02328030197872999 0.905478487805105 0.02803283357168106 0.05363546326270171 0.03309547609182559 0.8852362270737917 0.03814632287790953 0.03455956466655513 0.01937438608749773 0.9079197263680374 0.02528393243032557 0.0665593978476597 0.03313473278228358 0.8750219369397311 0.02123563319407052 0.06991825056892527 0.03337023232187931 0.8754758839151248 0.048755081523271 0.09847778021871521 0.03491533115078761 0.8178518071072262 0.01409595881585454 0.08286196043833612 0.02987485151002468 0.8731672292357847 0.01775784294105073 0.1269687779508083 0.042248153309001 0.8130252257991402 0.02489258594599199 0.04342328164160753 0.02191968011042877 0.9097644523019718 0.02310469184724583 0.04823457991410515 0.0267685986207594 0.9018921296178896 0.02455689027247323 0.06160428544965566 0.02737649021528015 0.886462334062591</probabilities>
		</cpt>
		<cpt id="demo_sex">
			<state id="S_0" />
			<state id="S_1" />
			<parents>time_zero_uacr_mean time_zero_upcr_mean</parents>
			<probabilities>0.5085615840632668 0.4914384159367333 0.5535544811304631 0.446445518869537 0.5034701789105961 0.4965298210894039 0.3631322457321747 0.6368677542678253 0.393677362210926 0.6063226377890739 0.2343698440677792 0.7656301559322207 0.6475353608723344 0.3524646391276655 0.5294293617436132 0.4705706382563868 0.2744315696079599 0.7255684303920401 0.4563294747809817 0.5436705252190183 0.4812903503836496 0.5187096496163504 0.3745137504158899 0.6254862495841101 0.5148087390465504 0.4851912609534495 0.4928620955092646 0.5071379044907355 0.4109037844040886 0.5890962155959114 0.5861771836737714 0.4138228163262286 0.5990523672189623 0.4009476327810377 0.5215436142172355 0.4784563857827644 0.4186382011135072 0.5813617988864928 0.4223843321109031 0.5776156678890969 0.2549524873398027 0.7450475126601972 0.4552500821063684 0.5447499178936316 0.4464868262972845 0.5535131737027155 0.4135397907922553 0.5864602092077446</probabilities>
		</cpt>
		<cpt id="time_zero_nsaid_coverage">
			<state id="S_0_5___89_5" />
			<state id="S_le_89_5" />
			<state id="S_s_0_5" />
			<parents>time_zero_uacr_mean time_zero_upcr_mean</parents>
			<probabilities>0.01272531534005869 0.0001373956052731455 0.9871372890546681 0.03146550569693778 6.998637422361587e-05 0.9684645079288386 0.2227589618470825 0.2133853613671709 0.5638556767857466 0.002124251858730227 4.865241860906306e-05 0.9978270957226607 0.001409238011754229 3.853473029369624e-05 0.9985522272579521 0.2674446021511138 0.07959329056377469 0.6529621072851115 0.05633986283532456 0.0002589050421195638 0.943401232122556 0.09857660863398519 0.0009153125498030302 0.9005080788162118 0.22497615701718 0.2333822592367695 0.5416415837460505 0.07782589845591883 0.0002865596193005264 0.9218875419247807 0.06363320261838372 8.958056083486262e-05 0.9362772168207815 0.2234916285840428 0.3398050477036617 0.4367033237122956 0.001622178539885746 5.134541181080498e-05 0.9983264760483034 0.00181708507170283 5.180685929755424e-05 0.9981311080689996 0.05999702912440869 0.04286948146045948 0.8971334894151319 0.04444245386075009 0.001264476559768249 0.9542930695794817 0.01876479973571274 0.0007098222574276305 0.9805253780068597 0.1683349053650324 0.1950353758646613 0.6366297187703063 0.02830410415463152 0.003481284380608778 0.9682146114647596 0.009410081726491847 0.000491616112928341 0.9900983021605798 0.2562711919242061 0.1725741302308123 0.5711546778449816 0.009497531217563105 1.768828451998938e-05 0.9904847804979169 0.006972764254217531 1.742630417638232e-05 0.9930098094416061 0.1381390814438302 0.2228570320995526 0.6390038864566172</probabilities>
		</cpt>
		<cpt id="study_entry_nsaid_flag">
			<state id="S_0" />
			<state id="S_1" />
			<parents>time_zero_uacr_mean time_zero_upcr_mean</parents>
			<probabilities>0.9779356227572075 0.02206437724279255 0.9910377564394184 0.00896224356058148 0.3782235888873372 0.6217764111126628 0.993404139622409 0.006595860377590978 0.9995836084789953 0.0004163915210047634 0.6464228609130094 0.3535771390869906 0.9640734697250911 0.03592653027490883 0.9835637395402226 0.01643626045977739 0.4124690368953941 0.5875309631046058 0.9815107663248115 0.01848923367518858 0.9768900026761831 0.02310999732381688 0.1829932980621448 0.8170067019378551 0.9973460327181158 0.002653967281884182 0.9977231458425423 0.002276854157457546 0.805062081294069 0.1949379187059311 0.9271790730775581 0.07282092692244183 0.9695637676510712 0.03043623234892889 0.3399000323455642 0.6600999676544358 0.9605856979681725 0.03941430203182743 0.9721891429315433 0.02781085706845658 0.3885264916640266 0.6114735083359734 0.9987416966638268 0.001258303336173125 0.9991868972660467 0.0008131027339532233 0.2670307615913336 0.7329692384086663</probabilities>
		</cpt>
		<cpt id="study_entry_PDM_flag">
			<state id="S_0" />
			<state id="S_1" />
			<parents>time_zero_uacr_mean time_zero_upcr_mean</parents>
			<probabilities>0.626873361989203 0.373126638010797 0.9950366431981814 0.004963356801818726 0.8957676602443851 0.1042323397556147 0.8987217765483972 0.1012782234516028 0.9984370349612737 0.001562965038726409 0.962455396133258 0.03754460386674189 0.8339548833625414 0.1660451166374586 0.9992929935082655 0.000707006491734429 0.9445180384428108 0.05548196155718927 0.760462007704672 0.239537992295328 0.9870501005069757 0.01294989949302437 0.9117686223410381 0.08823137765896193 0.9776549578617263 0.02234504213827378 0.9907648919673254 0.009235108032674626 0.3968859174464896 0.6031140825535105 0.7554616258938524 0.2445383741061476 0.9941026425994653 0.005897357400534667 0.9215391679006195 0.07846083209938036 0.9761797985590522 0.02382020144094776 0.9084014646654891 0.09159853533451089 0.9139045195306069 0.08609548046939305 0.917051047968667 0.08294895203133305 0.9161567206903488 0.08384327930965119 0.9444639047006602 0.05553609529933985</probabilities>
		</cpt>
		<cpt id="year1_norace_mean">
			<state id="S_100_655___111_455" />
			<state id="S_21_155___25_785" />
			<state id="S_25_785___29_635" />
			<state id="S_29_635___35_365" />
			<state id="S_35_365___42_655" />
			<state id="S_42_655___44_855" />
			<state id="S_44_855___49_825" />
			<state id="S_49_825___56_665" />
			<state id="S_56_665___62_185" />
			<state id="S_62_185___69_465" />
			<state id="S_69_465___72_685" />
			<state id="S_72_685___80_085" />
			<state id="S_80_085___90_745" />
			<state id="S_90_745___100_655" />
			<state id="S_9_375___21_155" />
			<state id="S_le_111_455" />
			<state id="S_s_9_375" />
			<parents>year1_reduction_40_ge</parents>
			<probabilities>0.08508159014530908 0.01884751068312929 0.0178991987814138 0.03178200617438379 0.05006538089798417 0.01768833937825961 0.04142025098869409 0.06673371927312197 0.06130744536304652 0.09093713837701795 0.0408523708788346 0.1000852576301098 0.1446492195586272 0.1197234487705138 0.03631207280928177 0.06799481329202854 0.008620236998243838 4.656512422570349e-06 0.08953360253490616 0.07592062290459169 0.1112001536046249 0.1337244784511072 0.03697318338480784 0.07607713520787182 0.0760775776302845 0.02892590955061204 0.01840506977659839 0.004136581269467605 0.003121155622584391 0.000154643814173703 4.518922543418149e-06 0.2465445547111028 4.707064160619713e-06 0.09919144903814005</probabilities>
		</cpt>
		<cpt id="year2_reduction_40_ge">
			<state id="S_0" />
			<state id="S_1" />
			<parents>year1_norace_mean</parents>
			<probabilities>0.9523854496806532 0.04761455031934682 0.644022691716281 0.3559773082837189 0.6527787079070357 0.3472212920929644 0.7177663477035109 0.282233652296489 0.7333096601606914 0.2666903398393086 0.7409331513923485 0.2590668486076515 0.7541497034603466 0.2458502965396533 0.7952149904074293 0.2047850095925708 0.8203343681691908 0.1796656318308093 0.8584711692586705 0.1415288307413295 0.8751786389826268 0.1248213610173732 0.8970320023906 0.1029679976094 0.9261329021555461 0.07386709784445396 0.9334750293579934 0.06652497064200667 0.5461507841857041 0.4538492158142959 0.9619787284243804 0.03802127157561969 0.543289909387251 0.4567100906127491</probabilities>
		</cpt>
		<cpt id="year1_uacr_mean">
			<state id="S_130_042___657_861" />
			<state id="S_20_1998___44_3109" />
			<state id="S_44_3109___130_042" />
			<state id="S_4_05425___6_17005" />
			<state id="S_657_861___2627_95" />
			<state id="S_6_17005___20_1998" />
			<state id="S_le_2627_95" />
			<state id="S_s_4_05425" />
			<parents>year1_norace_mean</parents>
			<probabilities>0.05056404568304983 0.06593241945979469 0.04991948960696036 0.1468611815680629 0.09755534660401524 0.1850717807624522 0.07874206675501649 0.3253536695606484 0.147147848317226 0.121627129367602 0.09108981327685202 0.1421915138612515 0.192892070975591 0.09876767017002183 0.1804949328117395 0.02578902121971641 0.1638460446934297 0.1573735117051572 0.1348673951943229 0.08364671034736923 0.1707703978586705 0.1010017645368816 0.1522291520003834 0.03626502366378542 0.1596669535612337 0.1385056487768977 0.1247310392213288 0.1145058031999446 0.1572911431399674 0.1291760527265086 0.1434118079962615 0.03271155137785758 0.1456034370789324 0.1399894227889441 0.1188413356308383 0.1114326376359098 0.1331926013896904 0.1706031142360407 0.1444874840259693 0.03584996721367523 0.1156908327988879 0.1589929507868308 0.08230313968667051 0.1249147649428233 0.1686932389476007 0.1776029415846012 0.1264848242774109 0.04531730697517454 0.1414552851756248 0.1484345725510486 0.1162207102992867 0.1374294233626467 0.1244037091240139 0.1770990990034412 0.1181397833847271 0.03681741709921096 0.1260785734206713 0.1158319770376927 0.1206526693504536 0.1392838635563475 0.1191268030368153 0.1924162465074193 0.1167157817610705 0.06989408532952966 0.1141546014945088 0.118197292246056 0.1109661712552429 0.1256050459222926 0.1028186039493709 0.204534949953901 0.1226959922936569 0.101027342884971 0.1132581322280586 0.0984189960191337 0.1039970449881781 0.1437442980219288 0.1208193905198202 0.2100491213226576 0.09115135481461413 0.118561662085609 0.09149984216412377 0.08662418317637742 0.1198939388555412 0.1317977260599874 0.1216286965685916 0.2026787203906712 0.08606574388494531 0.159811148899762 0.08102380248427261 0.1056283677546499 0.0955660598444432 0.135285443847424 0.1192751932545353 0.2149619036256676 0.09330702614921668 0.1549522030397906 0.0705872836278249 0.09128652714811131 0.06608766673059725 0.1627244016500102 0.1170751582778142 0.2127570965447458 0.08595538874758847 0.193526477273308 0.06774630173695319 0.07674242154974349 0.06132682500802343 0.1444796923143324 0.1059317566541058 0.2099797703480908 0.08070754998660291 0.253085682402148 0.1663595891653394 0.1082211491585228 0.1055298294467097 0.1345197142196931 0.1723336418842323 0.08117017053124298 0.2066269675748795 0.02523893801938025 0.01907046347886314 0.07982902240827582 0.03491873979244584 0.1812663829389332 0.07479863430917946 0.1888970833775809 0.06146797280308666 0.3597517008916348 0.1260213353026574 0.1491430963771148 0.09680757285710084 0.1291615335086449 0.1682477509063895 0.09405596961184295 0.1977752499210724 0.03878749151517707</probabilities>
		</cpt>
		<cpt id="year1_pp_mean">
			<state id="S_47_5___51_5" />
			<state id="S_51_5___55_5" />
			<state id="S_55_5___59_5" />
			<state id="S_59_5___65_5" />
			<state id="S_65_5___70_5" />
			<state id="S_70_5___80_5" />
			<state id="S_le_80_5" />
			<state id="S_s_47_5" />
			<parents>year1_uacr_mean time_zero_uacr_mean</parents>
			<probabilities>0.1636865011085066 0.1535014304213312 0.1015497495303897 0.1059335737289795 0.02866813465645996 0.01803460348768819 0.01131241072856056 0.4173135963380844 0.05060313509104389 0.03306920745854274 0.0406624975290284 0.07388148780840256 0.09250996355257625 0.172074294683001 0.5072749927012499 0.02992442117615543 0.1534241964173138 0.1469250532537509 0.125851816030775 0.1431837001703311 0.06100846587373631 0.02710259115344583 0.01949481724198814 0.3230093598586588 0.09844465611410151 0.04919567425337533 0.1010885103153939 0.1209726618124306 0.2265093885761862 0.2327455284604084 0.07194153317971379 0.0991020472883903 0.06678357495132251 0.03246357462734799 0.1281057029625664 0.1350638635426922 0.3467132576837487 0.1192868632804426 0.07165811947958191 0.09992504347229782 0.04203870574626672 0.06984025412716707 0.05087532567672366 0.1747408585545946 0.2331444337249307 0.2735003029630567 0.1387245974814375 0.01713552172582315 0.0001595695144470502 0.001917804323386075 0.002838928001913811 0.05067141249944405 0.1984651883904533 0.3548386002599558 0.390930316209416 0.000178180800983997 0.2095926208335764 0.08559659600884874 0.0799728730442744 0.1339569605344068 0.01905130895932717 0.002427531738886399 5.899203488410437e-05 0.469343116845796 0.1386929660200448 0.1525642216634514 0.1687685307651334 0.1876704428649223 0.07333462723659066 0.04104212643697539 0.04608321469969705 0.191843870313185 0.08050346654226792 0.1975174401967158 0.2007326850251957 0.2716320499181639 0.09551367415324853 0.1149528468492727 0.02416687399488861 0.01498096332024664 0.3722319922476268 0.1909553168944289 0.06628992098584795 0.01512844206159998 0.0002112474459992432 0.004289794004079209 0.0002132036066232394 0.3506800827537947 0.03749724284304413 0.05870958102718401 0.09414495748934693 0.3705320226022952 0.1228945161176035 0.2442094870756751 0.04876799089849478 0.0232442019463564 0.1111286359729083 0.2083588496137389 0.1139553411631075 0.1021737294094862 0.02810683908326939 0.1209806753193853 0.01792160124467924 0.2973743281934251 0.1683679854209694 0.1467501387171431 0.09172485537016237 0.100576830603133 0.09418692743061884 0.08882862771365589 0.02408973924823669 0.2854748954960807 0.04166451057558677 0.1313435225892042 0.1150173019206028 0.1597553393843187 0.1285829634626507 0.2308517565349421 0.1072906243140495 0.08549398121864543 0.2213135097930131 0.1854617961230545 0.1166165885810896 0.1203697292085081 0.06405526822064768 0.06644714214094249 0.01248795165344775 0.2132480142792967 0.1419954714720032 0.1961522099836586 0.06623331601589616 0.1627650499089625 0.08511669702612081 0.01617814515853999 0.01182927640554004 0.3197298340292788 0.05315440488411204 0.1193083210958353 0.1609803154814402 0.1554258476909055 0.1020891545724005 0.173191872287364 0.01624593808726226 0.2196041459006804 0.08546286285531308 0.1305581346782296 0.118798422752384 0.1410494503435371 0.01712918024386185 0.02873935609263238 0.01589088357276378 0.4623717094612782 0.1343181431809227 0.1144542556610341 0.1747769162178119 0.1467193920880217 0.1383532589851705 0.08080810153934191 0.08923785786787405 0.1213320744598232 0.0769183697817373 0.1674039764187341 0.05870528380100561 0.1166071899081902 0.09237567191990373 0.06692224620480443 0.1613127317901343 0.2597545301754904 0.06495921068009201 0.1204356898362393 0.1498247374721675 0.2109386484349449 0.2051531676997052 0.1897411541608459 0.007322344294385688 0.05162504742161939 0.0002195541589516435 0.0240303592404349 0.09111849022283441 0.1632119350046567 0.008563198025827543 0.4262330889568565 0.2864030586965011 0.0002203156939373584 0.1669694474692699 0.05856550509377035 0.05424282854239998 0.04882641673840352 0.01766578931873468 6.430877936196721e-05 0.0005037188905138059 0.653161985167546 0.1349868839502894 0.1669794120673842 0.1875715469270062 0.2071695062729246 0.09309942153610597 0.07603478470635108 0.01048668483800749 0.1236717597019311 0.1137202435533701 0.0149943065669508 0.02713876830470817 9.5243798337044e-05 9.02038750136851e-05 9.011661889767512e-05 8.723135999003924e-05 0.8437838859227326 0.03806401287813622 0.0001285734849696754 0.0001185453352209418 0.0001185090602355082 0.0001175436366972069 0.0001183772253481334 0.0001175774568334904 0.9612168609225589 0.2495181489502906 0.2294289832862301 0.1862421831956393 0.09095023988458874 0.05126092485810262 0.01694003760263405 0.0001701687785764748 0.175489313443938 0.2176585605169661 0.05743178755751826 0.1524456863067993 0.1514434168211303 0.05375060562776538 0.02610655277246779 0.01260671131812807 0.3285566790792249 0.2228849695175607 0.1503571238507126 0.116196006574229 0.08896739074627774 0.01474658312310511 0.0006892094438059352 6.507831971536466e-05 0.4060936384245936 0.01435177098734366 0.04363123991979527 0.06630037098379951 0.09467593358376253 0.2396858117325463 0.4339514999736581 0.1072147439693924 0.0001886288497021001 0.2483529773932006 0.09136854126597439 0.1095148466281119 0.04063422354427048 0.03810037273813573 0.0134194134792715 4.136862703945357e-05 0.458568256323996 0.0941378511688802 0.08653004540572119 0.09411513586817885 0.2291088487539019 0.1324670870216855 0.2012693549085276 0.07820817041454955 0.08416350645855532 8.891312069837769e-05 0.007867758865622753 0.05359093695344786 0.2198091496292913 0.2140335651293707 0.3327060490759111 0.1625543073981867 0.009349319827471171 0.1007104955099895 0.114465375348843 0.1032532987186153 0.1472445362704136 0.1367199490888142 0.08941726229971837 0.1018380218493464 0.2063510609142595 0.02874357783282053 0.09155708610536675 0.08191533267283851 0.1785831299821843 0.1207637316068727 0.2270917816741408 0.2017383244945904 0.06960703563118603 0.08743850708349661 0.05494455724521113 0.03167452797312961 0.1181366415866453 0.07346947064978561 0.2230298340404387 0.1535937470100454 0.2577127144112477 0.0356004232668809 0.1082593084148873 0.1970419425451957 0.2259239326284143 0.05379284118153783 0.1749413444933724 0.1274639932651015 0.07697621420461018 0.01432553785356615 0.01316556372112701 0.01750043044117386 0.05197005021809845 0.06062260895639248 0.2316802993974582 0.587532030593508 0.0232034788186758 0.1768703310349379 0.07934408034837817 0.1058471310327545 0.1677160798171959 0.08595976688618075 0.1095591054147086 0.03113897017466899 0.2435645352911752 0.1179789521636995 0.1454810273453406 0.1194210814387093 0.1417677729352165 0.05150952904900431 0.01702642153234532 0.01674685568649165 0.3900683598491928 0.1267243669186673 0.2913545176165168 0.177405190354967 0.1568821110246156 0.04548040488151473 0.02036333649674122 0.01094056587298722 0.1708495068339901 0.2692602203806136 0.1832681922272199 0.112008248674788 0.02620038107822081 0.009705658248499926 0.006894013403965159 0.0001126684782825531 0.39255061750841 0.1031667256427576 0.1621651260489127 0.1787822297560407 0.2330207509399584 0.07521290561885807 0.09469590660114104 0.002265500659474346 0.1506908547328571 0.1291847886869134 0.1134980615083527 0.1713027550106638 0.1236025606698601 0.08322360952321223 0.08460482937011969 0.02278787110724181 0.2717955241236364 0.119740882643261 0.1400767414639277 0.1575480479237805 0.1624750944217934 0.08198610944974402 0.06046077264981491 0.007370959599190093 0.2703413918484883 0.02415258233202695 0.06015776558294915 0.1043536542771367 0.1188132656578294 0.2228290146649912 0.2244200276631681 0.2246987151672069 0.02057497465469171 0.09500337731778433 0.1544856114114266 0.03682151986195283 0.09583349648235058 0.01548536523403598 0.009761423022699545 0.003693641318125842 0.5889155653516243 0.1335778551451599 0.1365154580772436 0.1533417872931413 0.1653769361823312 0.07920845068807757 0.1404451728269362 0.007146205176703464 0.1843881346104068 0.1759679566209831 0.1271814956914442 0.1016041917317764 0.1084299295322766 0.05503623399153487 0.0508521356085871 0.04708771784394451 0.3338403389794531 0.109885416083866 0.04904802280910865 0.03648650726186069 0.008591438796454055 0.008743481518257814 0.01286982316975853 0.0001883998157565854 0.7741869105449377 0.1160248415213879 0.1360990752291552 0.1735039710802738 0.2916130822333613 0.1024386169398377 0.06959166530970096 0.01310320319944536 0.0976255444868377 0.07654138053169503 0.07664389755054575 0.03185435896096653 0.08525984376873133 0.1192350288823504 0.2495693702451157 0.2083137430517082 0.152582377008887 0.09748684393628557 0.09723071904132514 0.0991216426006063 0.1817778959645514 0.08419094195240488 0.105052552412173 0.1566728830237021 0.1784665210689517 0.0001660051003178741 0.03671945118741235 0.05723888232720627 0.06952358719161894 0.1003962531093002 0.2087407217752341 0.5078774223707965 0.01933767693811394 0.1255063067088628 0.2725815908699627 0.1459592640571638 0.05881748703346049 0.0729329737546964 0.01848765472661205 4.445543630958447e-05 0.3056702674129321 0.2110526204335665 0.1525038471100444 0.1011272124015383 0.02040735847647343 0.007651887987124593 0.004012796286662572 0.002519426097006336 0.5007248512075837 0.1717424965763663 0.01345231164200968 0.005335444861802495 0.001968941912048112 7.181146846827336e-05 0.001720472707464538 7.287231164310984e-05 0.8056356485201974 0.1488626638198618 0.08202377236599039 0.03671313400102819 0.001813776416227467 8.968298461484536e-05 9.082744312130133e-05 8.067985991507407e-05 0.7303254631092408 0.1624712650433562 0.1894120068639103 0.1522102087246193 0.09278550821659487 0.02542169492032417 0.0001948134601445478 0.0001847702949939498 0.3773197324760568 0.1395340111860847 0.1664765207922277 0.04302503326764812 0.09531840420152475 0.003129653506574329 0.0001357719006262328 0.001767831728813006 0.5506127734165011 0.2614195018330198 0.1839181996494775 0.1050525108701034 0.1196357334639835 0.03755890132860601 0.003426087567820163 0.0007592427931414562 0.2882298224938482 0.0004980116816310313 0.09275418304614215 0.08566858719500665 0.4832205056892006 0.1476990433615313 0.1138023584624932 0.01692780554439187 0.05942950501960336 0.1915196714333105 0.08020744854589187 0.05712428483853084 0.0194748534773949 0.002319451279548442 0.001974158174653554 0.0002917216375109542 0.647088410613159</probabilities>
		</cpt>
		<cpt id="year1_aceiarb_coverage">
			<state id="S_le_2_5" />
			<state id="S_s_2_5" />
			<parents>year1_uacr_mean year1_pp_mean time_zero_uacr_mean</parents>
