<?xml version="1.0" encoding="UTF-8"?>
<!-- This file was created by ACADEMIC version of SMILE -->
<smile version="1.0" id="Unnamed" numsamples="10000" discsamples="10000">
	<nodes>
		<cpt id="time_zero_mean">
			<state id="S_10_865___23_725" />
			<state id="S_23_725___29_305" />
			<state id="S_29_305___34_755" />
			<state id="S_34_755___41_965" />
			<state id="S_41_965___50_185" />
			<state id="S_50_185___57_555" />
			<state id="S_57_555___71_065" />
			<state id="S_71_065___82_415" />
			<state id="S_82_415___90_225" />
			<state id="S_8_925___10_865" />
			<state id="S_90_225___95_105" />
			<state id="S_95_105___109_555" />
			<state id="S_le_109_555" />
			<state id="S_s_8_925" />
			<probabilities>0.03966052061810131 0.02104993222928142 0.02516039569418754 0.0411392510498992 0.05813146118606387 0.06408525653768554 0.1421224132188768 0.1485167521690757 0.113270063200821 0.004609725946948858 0.07027181629668043 0.1598783400221254 0.107088683798242 0.005015388032010891</probabilities>
		</cpt>
		<cpt id="year1_reduction_40_ge">
			<state id="S_0" />
			<state id="S_1" />
			<parents>time_zero_mean</parents>
			<probabilities>0.6656098395236951 0.3343901604763049 0.7355108534773082 0.2644891465226918 0.7644805391019055 0.2355194608980946 0.8005614221046614 0.1994385778953386 0.8174978796582278 0.1825021203417722 0.8489392607235292 0.1510607392764708 0.8699363970987861 0.1300636029012139 0.8840103254658335 0.1159896745341667 0.8957219297976196 0.1042780702023803 0.6457012925937117 0.3542987074062883 0.9114335959825713 0.08856640401742863 0.9124333109705871 0.08756668902941286 0.9336834830325613 0.06631651696743884 0.7780432454719054 0.2219567545280947</probabilities>
		</cpt>
		<cpt id="time_zero_scr_count">
			<state id="S_1_5___2_5" />
			<state id="S_2_5___4_5" />
			<state id="S_4_5___10_5" />
			<state id="S_le_10_5" />
			<state id="S_s_1_5" />
			<parents>time_zero_mean</parents>
			<probabilities>0.1581183011618005 0.16651003217885 0.1830065452646713 0.1541309850173315 0.3382341363773467 0.1518273351904384 0.1649157484269104 0.186024188350493 0.1079045338646808 0.3893281941674773 0.1550591801816552 0.1812465634695334 0.1619808276327632 0.1163061140714792 0.3854073146445691 0.1568172924629719 0.1665412663742965 0.1568627119243705 0.0861697403469472 0.4336089888914141 0.1650709957529067 0.1442686508454942 0.1393328369192575 0.07501981072020616 0.4763077057621354 0.1595914559117921 0.133584589801807 0.1302424658157928 0.06996494940738059 0.5066165390632275 0.1533201345977508 0.1301894549172604 0.1174759841091568 0.05917903997426683 0.5398353864015653 0.146512376330169 0.1167138172326121 0.1126352396803724 0.0552854901436072 0.5688530766132394 0.1480082475352323 0.1073010713419436 0.1042452998639214 0.04454871499303809 0.5958966662658647 0.09440366902859863 0.1270389664234888 0.2615772683103275 0.1763190974709291 0.340660998766656 0.1472646452864681 0.0969568475632928 0.09238340387594765 0.04189971244944862 0.6214953908248428 0.1423644265732628 0.09164149675401981 0.08282683679346882 0.03867623785049484 0.6444910020287538 0.1377351081783114 0.08198074575933142 0.06385771317554739 0.03661548066963901 0.6798109522171708 0.1238081250215007 0.1766514922451002 0.2109859236499469 0.1399665363318658 0.3485879227515866</probabilities>
		</cpt>
		<cpt id="study_entry_period_egfrckd_flag">
			<state id="S_0" />
			<state id="S_1" />
			<parents>time_zero_mean</parents>
			<probabilities>0.0001558142507105412 0.9998441857492895 0.0002934970837896381 0.9997065029162103 0.0002455702204384726 0.9997544297795615 0.0001502151454421938 0.9998497848545579 0.0001063149355272874 0.9998936850644726 9.643959078237051e-05 0.9999035604092176 0.8388867551380932 0.1611132448619068 0.9999581235226723 4.187647732770527e-05 0.9999449772646801 5.502273531975259e-05 0.001337629892937141 0.9986623701070628 0.9999111740059545 8.882599404543766e-05 0.9999607314242983 3.926857570174909e-05 0.9999410207581826 5.897924181743557e-05 0.001229684798083496 0.9987703152019165</probabilities>
		</cpt>
		<cpt id="study_entry_age">
			<state id="S_38_5___44_5" />
			<state id="S_44_5___48_5" />
			<state id="S_48_5___56_5" />
			<state id="S_56_5___65_5" />
			<state id="S_65_5___70_5" />
			<state id="S_70_5___76_5" />
			<state id="S_le_76_5" />
			<state id="S_s_38_5" />
			<parents>time_zero_mean</parents>
			<probabilities>0.04022527416971219 0.02777494591691014 0.1086097950482505 0.1943597957496714 0.1366836119152605 0.1515505479251219 0.285253374452166 0.05554265482290731 0.01860994513419823 0.01796682834622929 0.07343193846655537 0.1621507251254754 0.107278096709616 0.1441152118893352 0.445754976529816 0.0306922777987745 0.0215723634665241 0.01704213768281118 0.06789494566701297 0.1307197415632499 0.1134334104144615 0.1338528930428417 0.493345694507125 0.0221388136559737 0.01751890626837448 0.01750959947025688 0.06126200141543562 0.123688451028456 0.09774353422727015 0.1570647109001753 0.5055647136117987 0.01964808307823285 0.01830534423372635 0.01938976162496 0.0582021198427022 0.1180436692829846 0.1123040723018672 0.1509620882076372 0.5060849681092818 0.01670797639684043 0.0132700574944868 0.01408075183566536 0.06764111190811636 0.1349388614656004 0.1204726404131951 0.1572085094468959 0.4764583054542133 0.01592976198182674 0.02376883304142492 0.02456485517830976 0.08540166798983116 0.1959156031392974 0.14223093107286 0.1573004041320272 0.3507446946554566 0.02007301079079302 0.03630143049191195 0.04387593994801136 0.1321895577703951 0.2330718066643845 0.1341039507450206 0.1350195318766035 0.2463895702206476 0.03904821228302551 0.05523579150690448 0.05643628612724577 0.1633881140745896 0.2050774319042215 0.1561851668539502 0.1558577362404961 0.1335942896864681 0.07422518360612446 0.06002332899440883 0.06792804671148776 0.1322963331652618 0.2341660255386721 0.1183600385123952 0.09159388331771619 0.2037034969485434 0.09192884681151452 0.07829828595983186 0.05455156940596156 0.1437335381550448 0.3388080773353922 0.1694150457650485 0.08058480996224862 0.03010111837200018 0.1045075550444723 0.1118167342888887 0.1164560560590257 0.2937543146393523 0.2410209188381346 0.04671187964760485 0.01369557720739541 0.003025205056984849 0.1735193142626136 0.1408433186895246 0.06650416137021838 0.07885543783984028 0.02379369541798648 0.003361996001716861 0.0007070290503261925 0.0002452957845489585 0.6856890658458382 0.07256778102760909 0.05263162737797347 0.178628741942386 0.2475122849757583 0.07929281621024584 0.1137081506497512 0.1208535256405285 0.1348050721757477</probabilities>
		</cpt>
		<cpt id="time_zero_bp_count">
			<state id="S_0_5___1_5" />
			<state id="S_15_5___169_5" />
			<state id="S_169_5___1083_5" />
			<state id="S_1_5___6_5" />
			<state id="S_6_5___15_5" />
			<state id="S_le_1083_5" />
			<state id="S_s_0_5" />
			<parents>time_zero_scr_count</parents>
			<probabilities>0.03447457707547394 0.2939829643865519 0.0227655586399981 0.1357036087977792 0.1411844259377892 9.490592450233706e-05 0.3717939592379054 0.02376965855408718 0.4202744722836812 0.06144232494169706 0.0428152843389344 0.07881360999820607 0.0002242420618310112 0.3726604078215631 0.0244731582177875 0.3672075418247061 0.1941327373738963 0.02050709013361872 0.01114276271266466 0.007837705975857347 0.3746990037614694 0.01674084116832208 0.1320699106958649 0.3588080992661145 0.01405876978396062 0.003949423796752041 0.1450676412508474 0.3293053140381385 0.06275524823431984 0.1141119014556824 0.004587777053557653 0.2562794608023729 0.0902850593388185 0.0001133561934990223 0.4718671969217496</probabilities>
		</cpt>
		<cpt id="time_zero_ipv_count">
			<state id="S_0_5___1_5" />
			<state id="S_le_1_5" />
			<state id="S_s_0_5" />
			<parents>time_zero_scr_count</parents>
			<probabilities>0.08008082821236782 0.006172839506172839 0.9137463322814594 0.2060834379796289 0.02002232454304451 0.7738942374773267 0.3521354338805038 0.08453600675700489 0.5633285593624913 0.363798913417234 0.3033491506773949 0.332851935905371 0.01878668988369445 0.001418002013122029 0.9797953081031835</probabilities>
		</cpt>
		<cpt id="study_entry_period_dxckd_flag">
			<state id="S_0" />
			<state id="S_1" />
			<parents>time_zero_mean</parents>
			<probabilities>0.7197376778006168 0.280262322199383 0.80920809686282 0.1907919031371801 0.8389965119953581 0.161003488004642 0.8699186888354511 0.1300813111645489 0.9047703963130204 0.09522960368697957 0.9412780319854035 0.05872196801459658 0.9637505208378936 0.03624947916210634 0.9811469963308938 0.01885300366910631 0.985321403126286 0.0146785968737139 0.6443010431707455 0.3556989568292544 0.9867194396236383 0.01328056037636178 0.9865847091663998 0.01341529083360014 0.9848204959395003 0.01517950406049984 0.6721784961581214 0.3278215038418786</probabilities>
		</cpt>
		<cpt id="time_zero_pp_mean">
			<state id="S_44_5___49_5" />
			<state id="S_49_5___55_5" />
			<state id="S_55_5___58_5" />
			<state id="S_58_5___64_5" />
			<state id="S_64_5___70_5" />
			<state id="S_70_5___85_5" />
			<state id="S_le_85_5" />
			<state id="S_s_44_5" />
			<parents>study_entry_age</parents>
			<probabilities>0.1861803179997335 0.1920125751467661 0.0811734097522102 0.1064840282548487 0.04887371851710526 0.03986011700673999 0.01247512641485664 0.3329407069077395 0.1818957157732425 0.2113746606474801 0.06832653681820235 0.109905961718379 0.05700983910715362 0.07386123272279251 0.01121423938338773 0.286411813829362 0.1505479520369737 0.1918495111945718 0.09039358720274737 0.1217045927312465 0.08951536257284511 0.0857985524842024 0.02827937296199829 0.241911068815415 0.1245370051097821 0.1854241766851356 0.09407906294193158 0.1511942726646323 0.1043403327737624 0.1216257441196324 0.04685126844123956 0.1719481372638842 0.1011475829437929 0.1582111716008221 0.09852095204669413 0.1678290675148695 0.1377364531837421 0.167117171089456 0.06403522184547261 0.1054023797751506 0.08110927511157202 0.1341559452911649 0.0926575538885578 0.1891103869622713 0.1484276448602996 0.1980081672987037 0.07851233581945619 0.07801869076797451 0.05489641150698214 0.1089342900247947 0.0942205714033125 0.1654098232303426 0.1971919384258292 0.2301113979662117 0.09732511675730081 0.05191045068522668 0.2067519869710404 0.2056252464814525 0.08156577406037663 0.09481266529512791 0.04972334526759079 0.02611897556440159 0.004169237000330479 0.3312327693596797</probabilities>
		</cpt>
		<cpt id="study_entry_DM_flag">
			<state id="S_0" />
			<state id="S_1" />
			<parents>time_zero_pp_mean</parents>
			<probabilities>0.8307703349053871 0.1692296650946129 0.8031233896143151 0.1968766103856849 0.7843979688258546 0.2156020311741454 0.7597660563383893 0.2402339436616106 0.741495843628262 0.2585041563717378 0.6308086846878843 0.3691913153121158 0.5651082273496676 0.4348917726503324 0.8593827808248742 0.1406172191751257</probabilities>
		</cpt>
		<cpt id="time_zero_uacr_mean">
			<state id="S_118_725___867_873" />
			<state id="S_12_1648___49_4391" />
			<state id="S_49_4391___118_725" />
			<state id="S_867_873___1974_72" />
			<state id="S_le_1974_72" />
			<state id="S_s_12_1648" />
			<parents>time_zero_pp_mean</parents>
			<probabilities>0.09484529450335313 0.1323652826263964 0.1481767940253223 0.004117266357062569 0.005626435089472122 0.6148689273983935 0.1351982918893577 0.1755090829967332 0.2713865530583629 0.007122004168647226 0.01460398535465593 0.396180082532243 0.1580560011246772 0.1760507342480594 0.4247795398085153 0.00883421221647316 0.02975425280423176 0.2025252597980433 0.189422757148414 0.1596086990941071 0.4488008836792702 0.02359362274758697 0.0698934829971382 0.1086805543334836 0.1994986091791933 0.07867359331751113 0.5165619870137658 0.05891363520567403 0.1213184367566512 0.02503373852720465 0.2080295812032839 0.02113710778556391 0.248959851180979 0.2922576121396956 0.2239691224047142 0.00564672528576338 0.09488283425950937 0.006309261193373948 0.0787774887661012 0.3795177978359072 0.4352787432929623 0.005233874652146045 0.06637877584064406 0.0701664134407891 0.1394067000077064 0.002979879555274135 0.002761568047206482 0.7183066631083799</probabilities>
		</cpt>
		<cpt id="time_zero_aceiarb_coverage">
			<state id="S_le_1_5" />
			<state id="S_s_1_5" />
			<parents>time_zero_uacr_mean</parents>
			<probabilities>0.5906053455174937 0.4093946544825064 0.1434569696246152 0.8565430303753847 0.005627075860792126 0.9943729241392079 0.04020176243756316 0.9597982375624369 0.3157939449444456 0.6842060550555542 0.04301899980464025 0.9569810001953596</probabilities>
		</cpt>
		<cpt id="time_zero_av_count">
			<state id="S_0_5___2_5" />
			<state id="S_10_5___17_5" />
			<state id="S_2_5___10_5" />
			<state id="S_le_17_5" />
			<state id="S_s_0_5" />
			<parents>time_zero_uacr_mean</parents>
			<probabilities>0.1618369534609414 0.1618384747971359 0.4576524455895918 0.1675397137642982 0.05113241238803276 0.2476756082943039 0.1011938433713357 0.4169920776903552 0.05683862452904159 0.1772998461149635 0.2969877755745991 0.03031918899425289 0.2208796760376819 0.01475631094763352 0.4370570484458327 0.286968445011899 0.06677558134878879 0.2981613425215192 0.03650001435544377 0.3115946167623495 0.3040709601018054 0.08826079635991828 0.3438716766928377 0.05117233917343783 0.2126242276720008 0.2537257220106441 0.09704165119957452 0.4198316985244905 0.06964709100285017 0.1597538372624408</probabilities>
		</cpt>
		<cpt id="time_zero_sbp_mean">
			<state id="S_132_5___146_5" />
			<state id="S_146_5___160_5" />
			<state id="S_160_5___174_5" />
			<state id="S_le_174_5" />
			<state id="S_s_132_5" />
			<parents>time_zero_uacr_mean</parents>
			<probabilities>0.3180534743993794 0.0846787540885529 0.007285480089239215 0.003067742033533669 0.5869145493892949 0.6854774461572233 0.1683628069424571 0.01370098666541689 0.003075399494828341 0.1293833607400743 0.3425901431575739 0.03543698890212172 0.004010276212637698 0.001072006878517126 0.6168905848491495 0.3471758422648328 0.4821265744937683 0.08589192661043955 0.02851572947822059 0.05628992715273885 0.05753107081630143 0.4482493885291806 0.3225837055798048 0.1627133550168351 0.008922480057878098 0.02438436048632529 0.002970190171660816 0.0008872586775572868 0.0005203324457231556 0.9712378582187334</probabilities>
		</cpt>
		<cpt id="time_zero_ppi_coverage">
			<state id="S_le_63_5" />
			<state id="S_s_63_5" />
			<parents>time_zero_uacr_mean</parents>
			<probabilities>0.2850516398751476 0.7149483601248524 0.05241045841882363 0.9475895415811765 0.001397861140910267 0.9986021388590898 0.0116753755016728 0.9883246244983273 0.08426275897304039 0.9157372410269596 0.06632630723012467 0.9336736927698753</probabilities>
		</cpt>
		<cpt id="study_entry_aceiarb_flag">
			<state id="S_0" />
			<state id="S_1" />
			<parents>time_zero_uacr_mean</parents>
			<probabilities>0.3667806602204873 0.6332193397795128 0.8027379287391134 0.1972620712608866 0.9866352237807865 0.01336477621921344 0.9424583793891552 0.05754162061084494 0.5819878970681602 0.4180121029318398 0.924092152863597 0.0759078471364031</probabilities>
		</cpt>
		<cpt id="time_zero_dbp_mean">
			<state id="S_55_5___67_5" />
			<state id="S_67_5___77_5" />
			<state id="S_77_5___90_5" />
			<state id="S_le_90_5" />
			<state id="S_s_55_5" />
			<parents>time_zero_uacr_mean</parents>
			<probabilities>0.4253667822618559 0.4063840137516092 0.09784296532072735 0.00570710237349521 0.06469913629231261 0.02354341120641914 0.1470836685234204 0.5967516919175484 0.2311423469399328 0.001478881412679383 0.3589408261920778 0.3562319604498436 0.1786644799576024 0.01417859365849695 0.09198413974197948 0.3424240052282983 0.4766114338775055 0.1229020633664462 0.02478520919600391 0.03327728833174595 0.02689888046486235 0.1975334333600786 0.5287734253108082 0.2450155634939836 0.001778697370267341 0.2964637859904807 0.4296171613853718 0.2453079837507065 0.00531192142150349 0.02329914745193751</probabilities>
		</cpt>
		<cpt id="study_entry_period_albprockd_flag">
			<state id="S_0" />
			<state id="S_1" />
			<parents>time_zero_uacr_mean</parents>
			<probabilities>0.9444015741234457 0.05559842587655425 0.9583932757451983 0.04160672425480176 0.9851757610607378 0.01482423893926223 0.9507302858360821 0.04926971416391795 0.9234742292189386 0.07652577078106139 0.9999709719261295 2.902807387045061e-05</probabilities>
		</cpt>
		<cpt id="time_zero_mra_coverage">
			<state id="S_le_1_5" />
			<state id="S_s_1_5" />
			<parents>time_zero_uacr_mean</parents>
			<probabilities>0.0183644745953828 0.9816355254046172 0.002050468023865002 0.9979495319761351 0.000120037302902864 0.9998799626970972 0.001163789895049078 0.9988362101049509 0.005308635292424127 0.9946913647075758 0.00417888137767802 0.9958211186223219</probabilities>
		</cpt>
		<cpt id="demo_race_ethnicity_cat">
			<state id="S_1A" />
			<state id="S_1B" />
			<state id="S_2" />
			<state id="S_3" />
			<state id="S_4" />
			<state id="S_5" />
			<state id="S_8" />
			<state id="S_minus_9" />
			<parents>time_zero_uacr_mean</parents>
			<probabilities>0.7473389820462547 0.02294068211783862 0.03625808250351899 0.06011105879873593 0.01416816071589161 0.01044983501617651 0.08647472218684361 0.02225847661474002 0.6919608323718925 0.02703500951342592 0.06620287423675764 0.05147923274952652 0.01446819987982202 0.01187205951770741 0.09298824297229254 0.04399354875857549 0.6882026272581687 0.03819126728050504 0.03334041080024612 0.03412791551725575 0.009029186871866495 0.003606298559801196 0.07605382243854211 0.1174484712736146 0.6006102911320491 0.03514755512011542 0.04407709799449858 0.06486208028947811 0.009071943915603042 0.01555324444557391 0.102846021521129 0.1278317655815528 0.6254327958278221 0.04297222737611787 0.08334239094118917 0.06659854313764767 0.00952730714302334 0.02360454628564759 0.1295677394700912 0.01895444981846121 0.7160661659274515 0.03157798702927932 0.04280540963378926 0.05438236767921419 0.01504987418410215 0.008010534231187864 0.1007563542317557 0.03135130708322011</probabilities>
		</cpt>
		<cpt id="time_zero_hba1c_mean">
			<state id="S_4_85835___5_91335" />
			<state id="S_5_91335___6_24165" />
			<state id="S_6_24165___7_75835" />
			<state id="S_7_75835___12_275" />
			<state id="S_le_12_275" />
			<state id="S_s_4_85835" />
			<parents>time_zero_uacr_mean</parents>
			<probabilities>0.2758722750162265 0.1044353090811858 0.2908109089188187 0.2574913149347895 0.05648540015714207 0.01490479189183757 0.3491218059585802 0.09537520304219489 0.2295819422058051 0.2476556811566027 0.05734014054371063 0.0209252270931064 0.416721179011037 0.1392343751388921 0.2155412088149736 0.1729323337543562 0.0367625316061046 0.01880837167463658 0.1421574901016531 0.100683351245524 0.440520544214269 0.2908907727022668 0.02475828772911078 0.0009895540071762239 0.2401359915434801 0.0733109854212057 0.2538122925886141 0.3502250826390486 0.06702028560215675 0.0154953622054947 0.5441070666828879 0.1008118382220687 0.1823184322463846 0.1185794150763636 0.02897132927274147 0.025211918499554</probabilities>
		</cpt>
		<cpt id="time_zero_upcr_count">
			<state id="S_le_0_5" />
			<state id="S_s_0_5" />
			<parents>time_zero_uacr_mean</parents>
			<probabilities>0.01628129194893761 0.9837187080510625 0.0306804413661853 0.9693195586338148 0.000667600165517727 0.9993323998344823 0.01178081475469975 0.9882191852453003 0.03084273648273208 0.9691572635172679 0.00577840703369497 0.994221592966305</probabilities>
		</cpt>
		<cpt id="time_zero_hba1c_count">
			<state id="S_0_5___1_5" />
			<state id="S_le_1_5" />
			<state id="S_s_0_5" />
			<parents>time_zero_uacr_mean</parents>
			<probabilities>0.2584284385295669 0.04667415669637273 0.6948974047740603 0.2076078132906586 0.02645712799397889 0.7659350587153624 0.1151473955765354 0.01123958451917855 0.8736130199042861 0.379852265830584 0.08181967765471823 0.5383280565146977 0.2030517976849368 0.04103714796327947 0.7559110543517836 0.1589179475965963 0.01559295325570554 0.8254890991476981</probabilities>
		</cpt>
		<cpt id="time_zero_upcr_mean">
			<state id="S_0_66025___1_93225" />
			<state id="S_le_1_93225" />
			<state id="S_s_0_66025" />
			<parents>time_zero_uacr_mean</parents>
			<probabilities>0.02756444202959836 0.02676881474361629 0.9456667432267853 0.1450970839834881 0.5948930273797371 0.2600098886367747 0.9807167497487969 0.002390778214843237 0.01689247203635997 0.8605231158628478 0.05328565809970542 0.08619122603744675 0.007018217833418956 0.9909788545447936 0.002002927621787328 0.4284501216353755 0.002816045271032869 0.5687338330935917</probabilities>
		</cpt>
		<cpt id="study_entry_nsaid_flag">
			<state id="S_0" />
			<state id="S_1" />
			<parents>time_zero_upcr_mean</parents>
			<probabilities>0.9949802645305801 0.005019735469419953 0.8285148893690835 0.1714851106309165 0.7093268010327597 0.2906731989672404</probabilities>
		</cpt>
		<cpt id="study_entry_ppi_flag">
			<state id="S_0" />
			<state id="S_1" />
			<parents>time_zero_upcr_mean</parents>
			<probabilities>0.9937562513067254 0.006243748693274591 0.8699757286540485 0.1300242713459514 0.749960954608338 0.250039045391662</probabilities>
		</cpt>
		<cpt id="time_zero_map_mean">
			<state id="S_103_01___103_307" />
			<state id="S_103_307___107_062" />
			<state id="S_107_062___122_997" />
			<state id="S_le_122_997" />
			<state id="S_s_103_01" />
			<parents>time_zero_upcr_mean</parents>
			<probabilities>3.923494615842406e-05 0.01923049897011861 0.01109374547443879 0.001191352437611351 0.9684451681716729 0.01396636079959901 0.263586443252568 0.4589950006531634 0.07897067605982054 0.1844815192348492 0.0009964953575466228 0.00495295995746252 0.001495415275335086 0.0002026578961056494 0.9923524715135501</probabilities>
		</cpt>
		<cpt id="time_zero_nsaid_coverage">
			<state id="S_le_18_5" />
			<state id="S_s_18_5" />
			<parents>time_zero_upcr_mean</parents>
			<probabilities>0.0003041563485787145 0.9996958436514212 0.0673852990920956 0.9326147009079044 0.1733237700933101 0.8266762299066899</probabilities>
		</cpt>
		<cpt id="study_entry_mra_flag">
			<state id="S_0" />
			<state id="S_1" />
			<parents>time_zero_upcr_mean</parents>
			<probabilities>0.9999355326331154 6.446736688464474e-05 0.9967117626216792 0.003288237378320856 0.990791664075844 0.009208335924156092</probabilities>
		</cpt>
		<cpt id="demo_sex">
			<state id="S_0" />
			<state id="S_1" />
			<parents>time_zero_upcr_mean</parents>
			<probabilities>0.4656465894414826 0.5343534105585175 0.5628771052858066 0.4371228947141934 0.4505041924541304 0.5494958075458697</probabilities>
		</cpt>
		<cpt id="study_entry_PDM_flag">
			<state id="S_0" />
			<state id="S_1" />
			<parents>time_zero_upcr_mean</parents>
			<probabilities>0.9368923819647984 0.06310761803520157 0.9105780200964505 0.08942197990354957 0.9224231708575547 0.0775768291424455</probabilities>
		</cpt>
		<cpt id="ruca_4_class">
			<state id="S_isolated" />
			<state id="S_large_rural" />
			<state id="S_small_rural" />
			<state id="S_urban" />
			<parents>time_zero_upcr_mean</parents>
			<probabilities>0.02731212613589695 0.05498131836724576 0.02858341378857583 0.8891231417082814 0.02874087037896916 0.07367725978956897 0.03224742457575955 0.8653344452557022 0.04003834365120765 0.08252357826712069 0.0363067651964598 0.8411313128852118</probabilities>
		</cpt>
		<cpt id="time_zero_uacr_count">
			<state id="S_le_1_5" />
			<state id="S_s_1_5" />
			<parents>time_zero_upcr_mean</parents>
			<probabilities>0.00152707903691246 0.9984729209630876 0.007316811164359676 0.9926831888356402 0.003049562781183016 0.9969504372188169</probabilities>
		</cpt>
		<cpt id="study_entry_glp1_flag">
			<state id="S_0" />
			<state id="S_1" />
			<parents>time_zero_upcr_mean</parents>
			<probabilities>0.9998380684398852 0.0001619315601147679 0.9954442533044284 0.004555746695571614 0.9935217304515891 0.006478269548410989</probabilities>
		</cpt>
		<cpt id="study_entry_HTN_flag">
			<state id="S_0" />
			<state id="S_1" />
			<parents>time_zero_upcr_mean</parents>
			<probabilities>0.9128382949691287 0.08716170503087121 0.2158561027174262 0.7841438972825737 0.3854929442124163 0.6145070557875838</probabilities>
		</cpt>
		<cpt id="time_zero_glp1_coverage">
			<state id="S_le_60_5" />
			<state id="S_s_60_5" />
			<parents>time_zero_upcr_mean</parents>
			<probabilities>1.453375418577616e-05 0.9999854662458142 0.000873252207428662 0.9991267477925714 0.003156489101780588 0.9968435108982194</probabilities>
		</cpt>
		<cpt id="study_entry_sglt2_flag">
			<state id="S_0" />
			<state id="S_1" />
			<parents>time_zero_upcr_mean</parents>
			<probabilities>0.9999267366988138 7.326330118611448e-05 0.9984459716138389 0.001554028386161184 0.9967361494185403 0.003263850581459888</probabilities>
		</cpt>
		<cpt id="time_zero_sglt2_coverage">
			<state id="S_le_34_5" />
			<state id="S_s_34_5" />
			<parents>time_zero_upcr_mean</parents>
			<probabilities>1.558253720924831e-05 0.9999844174627907 0.0007188463060068845 0.9992811536939931 0.001519469066375345 0.9984805309336247</probabilities>
		</cpt>
		<cpt id="year1_mean">
			<state id="S_21_355___26_195" />
			<state id="S_26_195___32_965" />
			<state id="S_32_965___35_345" />
			<state id="S_35_345___43_305" />
			<state id="S_43_305___52_485" />
			<state id="S_52_485___60_625" />
			<state id="S_60_625___65_865" />
			<state id="S_65_865___71_115" />
			<state id="S_71_115___80_445" />
			<state id="S_80_445___89_285" />
			<state id="S_89_285___117_615" />
			<state id="S_9_355___21_355" />
			<state id="S_le_117_615" />
			<state id="S_s_9_355" />
			<parents>year1_reduction_40_ge</parents>
			<probabilities>0.01000226006051166 0.01729305991314685 0.0940942680712244 0.02764233730644254 0.04316236915866564 0.04404430440105724 0.02943791172858889 0.0324589854331423 0.05796250041555149 0.06039615937757878 0.1329792429292028 0.01929656141301878 0.4268743783448027 0.00435566144706594 0.1042508206606174 0.1333568845121901 0.04476445017682196 0.1381715798481281 0.1318443385172788 0.06673127252685042 0.02009835593785099 0.009857406772266203 0.006419372674651157 0.000761446244874748 0.0001291209813814161 0.2520339163421368 6.802391150098948e-06 0.0915742324138019</probabilities>
		</cpt>
		<cpt id="year2_reduction_40_ge">
			<state id="S_0" />
			<state id="S_1" />
			<parents>year1_mean</parents>
			<probabilities>0.6349896095374755 0.3650103904625245 0.674763592657955 0.325236407342045 0.3207725653532614 0.6792274346467385 0.7288457919825252 0.2711542080174749 0.7452954469348511 0.2547045530651489 0.7825042276526208 0.2174957723473792 0.7879307807721071 0.2120692192278928 0.8283165898180805 0.1716834101819193 0.8657706054442715 0.1342293945557284 0.9042334787214605 0.0957665212785395 0.9259767191973157 0.07402328080268436 0.5930640280428122 0.4069359719571878 0.9962882493581955 0.00371175064180456 0.5722866866514961 0.4277133133485039</probabilities>
		</cpt>
		<cpt id="year1_scr_count">
			<state id="S_0_5___1_5" />
			<state id="S_10_5___23_5" />
			<state id="S_1_5___2_5" />
			<state id="S_2_5___3_5" />
			<state id="S_3_5___4_5" />
			<state id="S_4_5___6_5" />
			<state id="S_6_5___10_5" />
			<state id="S_le_23_5" />
			<state id="S_s_0_5" />
			<parents>year1_mean</parents>
			<probabilities>0.2145617269011693 0.1812371504572631 0.1019261476413972 0.08026085484165503 0.07007552722832647 0.1041444292820547 0.1395627666325528 0.10815019662308 8.12003925013391e-05 0.2259551624895525 0.1650776283344702 0.1093764499228252 0.09403510409435305 0.07437821028556106 0.1129838450039844 0.1350821071824946 0.08305086765393255 6.062503282646053e-05 0.0346976892072626 0.02241127772588373 0.01560526894229163 0.01427043452900745 0.01020370775326877 0.01598240420837522 0.01831940879845715 0.008481632431031526 0.860028176404422 0.2700072506741789 0.130492703841157 0.1382668274620464 0.105341494734921 0.08761009006192627 0.1017804593952246 0.1022295362644794 0.06421687961654184 5.475794952470323e-05 0.300296784330786 0.1138039838532959 0.1545966427224984 0.1076068696126016 0.07132852223941036 0.09552064224073532 0.1013834788582126 0.05541009508377 5.298105868966849e-05 0.3480482264019326 0.09980647623612028 0.1634239239441959 0.1014849379934911 0.07793773882318195 0.08309021944351687 0.07900125428674336 0.04712034768374411 8.687518707381491e-05 0.361411866267493 0.09036439961790742 0.1872797613017083 0.1010572193606181 0.0620391462156502 0.07373805440539674 0.08265274348664797 0.04123000395681662 0.0002268053877616397 0.432010415005813 0.06249440419014882 0.1797944388401966 0.08939773294749334 0.06215085105997413 0.0729892541624613 0.0651196957383921 0.03481701162544938 0.001226196430071315 0.4283550620998861 0.06761873521374503 0.1892992934425848 0.08311346879011965 0.06137624900731714 0.07317184166486392 0.06990125277172603 0.02657172194403089 0.0005923750657264774 0.4505770715387731 0.05972816880450405 0.196661060852686 0.09266632131489486 0.05410132781969629 0.06089928685381853 0.05558208270200791 0.02211652091092037 0.007668159202698996 0.5169787940836742 0.04802928999137499 0.1826759271067462 0.08163551531691172 0.04717768119426107 0.05358735998282235 0.04992064042725973 0.018938866189449 0.001055925707500726 0.1540466610199571 0.2241769316209727 0.08543810048789185 0.07465536917913757 0.08614678693234096 0.1134342598886025 0.1437983606694279 0.1182689059868216 3.462421484793796e-05 0.03056159921056389 0.002402628660681247 0.009174613668681818 0.005303448022240583 0.003169447349411957 0.003035662553477115 0.002837546795676983 0.0009699302514451281 0.9425451234878213 0.2017364948975087 0.1887467339984976 0.1357567279839469 0.1064083896123771 0.07187705714035493 0.1054603240436121 0.1368645351592431 0.05304694688426759 0.000102790280191821</probabilities>
		</cpt>
		<cpt id="year1_ipv_count">
			<state id="S_0_5___1_5" />
			<state id="S_1_5___2_5" />
			<state id="S_le_2_5" />
			<state id="S_s_0_5" />
			<parents>year1_scr_count</parents>
			<probabilities>0.07540196713587373 0.006434418988161847 0.001958301431179693 0.9162053124447848 0.3328300708038318 0.3028425655976676 0.263692211578509 0.1006351520199917 0.2225742709185064 0.01447942218588171 0.004667484328154811 0.758278822567457 0.3966752819548872 0.03765272556390977 0.007342575187969925 0.558329417293233 0.4738867059593975 0.0721185330713818 0.01088736083824493 0.4431074001309758 0.5467258748674444 0.1214872746553553 0.02975874867444327 0.3020281018027572 0.5147755610972569 0.2287406483790524 0.07238154613466334 0.1841022443890274 0.1735987544483986 0.1971752669039146 0.5850756227758007 0.04415035587188612 0.01731472877221512 0.002824079451736555 0.0007042049018469044 0.9791569868742014</probabilities>
		</cpt>
		<cpt id="year1_uacr_mean">
			<state id="S_1517_28___3183_18" />
			<state id="S_157_533___486_277" />
			<state id="S_25_1405___157_533" />
			<state id="S_486_277___1517_28" />
			<state id="S_5_9066___25_1405" />
			<state id="S_le_3183_18" />
			<state id="S_s_5_9066" />
			<parents>year1_mean</parents>
			<probabilities>0.1188820227811718 0.1395307437578178 0.2644562785197371 0.1762228895861092 0.1651663792201116 0.08762201775470115 0.04811966838035107 0.1099585816987216 0.1537573639818317 0.2578545951834066 0.1678003906817343 0.1734216926671124 0.07370532112309995 0.06350205466409338 0.05980411272713794 0.08215725323522373 0.06249132787111962 0.06907653099181837 0.05566174054655634 0.5725306631035257 0.09827837152461824 0.1109448138126203 0.1290254255443671 0.2575822145057838 0.1422114061964042 0.2094887132816378 0.05952001565765985 0.09122741100152708 0.08930262223868267 0.1490181728212175 0.2112767849560337 0.1460093330725762 0.2284489160983481 0.04887115941040952 0.1270730114027325 0.07084746962631738 0.1526606021467379 0.1978593524867254 0.1370524708231658 0.2463307586954226 0.04208804905764305 0.1531612971639877 0.09554544181898231 0.1132815920899931 0.1710578730263527 0.1530514140942395 0.2478563350299492 0.03633455360275306 0.1828727903377302 0.08376289511848073 0.1230255933610792 0.1549351546293345 0.1355144053385322 0.2628035749261056 0.02629514488732129 0.2136632317391463 0.07670939319369949 0.1192363135889422 0.1483177752998034 0.1301949019931934 0.2726704873186307 0.02429447666103501 0.228576651944696 0.07624139919138087 0.115637453335565 0.1547917586692063 0.109413572077441 0.2791747151438837 0.02197544071757471 0.2427656608649484 0.07696054959100659 0.1121323552866724 0.1232972567488414 0.08641718601203489 0.291024633631241 0.01597956616349051 0.2941884525667131 0.09071636519085642 0.09917903012253733 0.3276733117787948 0.2336288026460462 0.1213902699276086 0.08872130029068637 0.03869092004347038 0.06680810928620215 0.07858878768361605 0.01994222105400804 0.02761625418318931 0.04084191997466036 0.5672459439645551 0.1989567638537691 0.0675395724863125 0.1416667995804927 0.284943984025329 0.2451058691375204 0.1485743938337409 0.06750159992553673 0.04466778101106771</probabilities>
		</cpt>
		<cpt id="year1_bp_count">
			<state id="S_0_5___1_5" />
			<state id="S_170_5___363_5" />
			<state id="S_18_5___31_5" />
			<state id="S_1_5___18_5" />
			<state id="S_31_5___170_5" />
			<state id="S_363_5___1387_5" />
			<state id="S_le_1387_5" />
			<state id="S_s_0_5" />
			<parents>year1_uacr_mean time_zero_uacr_mean</parents>
			<probabilities>0.02035210029219839 0.01708346992423857 0.0495710018852482 0.6374164301001293 0.2321909596318121 0.02162894534212279 0.003065256406497254 0.01869183641775355 0.06735452334785835 0.0003519608662781325 0.02793945774519629 0.870376386863983 0.02991881054830604 0.0002317368327188433 0.0001891054385554208 0.003638018357104063 0.001315514950960798 7.076006635853242e-05 0.001196102792773522 0.0001943101997011402 9.465493248629798e-05 7.600252730808029e-05 6.673158964208228e-05 0.9969859229407695 0.001359963167676436 0.0003617633752997951 0.02318093546673236 0.1501797406807276 0.04152942482458384 0.0005192701619779981 0.0003113923845954152 0.7825575099384066 0.02423611780801066 0.02884729707634075 0.1160512328462536 0.4824286162510621 0.2039419578709086 0.03173023042408149 0.002293336072886115 0.1104712116504565 0.2295653984364191 0.0008662257124107883 0.00842221914561518 0.4897286118313924 0.003083577926258925 0.001201562199865265 7.845407512249921e-05 0.2670539506729159 0.0001973849718224982 0.09563832513160624 0.1263137269691083 0.2814973165933037 0.3905530211364761 0.04608016368208364 0.01736909942194164 0.04235096209365809 0.05163445072515772 0.04792622819617497 0.08604556372612213 0.4080341237731374 0.2597181196731245 0.05697981750430864 0.01345378579842827 0.07620791060354655 0.005176065614013036 0.001979195490143405 0.0001245487534384745 0.004275724695038693 0.003026772938540042 6.935792146973349e-05 0.0005191667563673288 0.9848291678309894 0.1845876730927155 0.01623623682985241 0.02501078815325771 0.3590075753487589 0.04671810040057268 0.0005607436290863388 0.000217541786451461 0.367661340759305 0.08437383558518416 0.009014772882816243 0.1240135008611529 0.6280159750008825 0.1534800789383582 0.0001955444594967826 0.0001614664079607159 0.0007448258641483183 0.1047169023167894 0.00275873668104242 0.08738517632922696 0.6062499236832286 0.1974936950372542 8.308825610029768e-05 5.728985909179538e-05 0.001255187837266348 0.00474968457731884 0.1532074479071139 0.06124392493942253 0.1414467297643139 0.3402398892792853 0.1880122237717084 0.09815705675772672 0.0129430430031105 0.01019619435168605 0.09442724389788917 0.090812351671199 0.2643616144732944 0.3201235596509318 0.1086883711548644 0.04815813694045822 0.06323252785967698 0.1117828206889676 0.06774188237727333 0.07900931831891317 0.2433532422823745 0.2391207063850296 0.04802138238566715 0.01940729459375293 0.1915633529680218 0.03981582538056392 0.08208265508835107 0.08389411978088911 0.1093965879419953 0.1881258461287033 0.04662874178499039 0.01423139317078331 0.4358248307237237 0.00238692529631951 0.2301040164136822 0.06677203227381399 0.06116880405886123 0.4386325409354501 0.1703631017639297 0.02986979932757059 0.0007027799303728465 0.0003209061406678873 0.1913358066824849 0.06192347480263238 0.07275189650592122 0.4301530116962751 0.1825453834182866 0.05157305775050917 0.009396463003222694 0.005059326890330488 0.1424267772042172 0.0960710248582383 0.2061274413721815 0.3839243589134117 0.1199785403320474 0.02482825886515538 0.02158427156441808 0.06954056194471511 0.04714217288033597 0.08931891225979026 0.5151164457821067 0.2294243949263368 0.03374429973628566 0.001580008734712551 0.01413320373571706 0.004223945825106859 7.941624444377154e-05 0.0001675877354190471 0.02861110484512543 0.002860535231684415 0.0002609874336863641 6.483137200793152e-05 0.9637315913125261 0.139426806286038 0.04073200293027831 0.07741928208400331 0.3772813451959929 0.292220423968024 0.02773023495724774 0.002766085642986887 0.04242381893542873 0.008338320656983585 0.102473854496708 0.07477954433897722 0.2330190222646228 0.3726722290859941 0.1239584376014509 0.06672211581265537 0.01803647574260788 0.03045388795411284 0.05061545367452601 0.1136959245595037 0.552392961066375 0.2192468872473562 0.02968057193587682 0.003299131679027691 0.0006151818832216021 0.0005434095170998199 0.1693789220581438 0.08610694338347369 0.09617283971326129 0.4713975414021677 0.140708612415843 0.03558620951042121 0.0001055219995893785 0.007540494836756623 0.05568694561815317 0.1574325742060485 0.3516026455283187 0.3436532764903492 0.02175614745877924 0.001456584920976109 0.06087133094061861 0.03605018944694038 0.01156141970809664 0.04196395894137411 0.2322877097520192 0.06880219495830082 0.0002909472815387396 7.943735690500607e-05 0.608964142554825 0.04890436340898381 0.0001597511177743481 0.0002292790967315643 0.0425288721243917 0.00118967133473886 0.0001573590924468275 0.0001476441689269211 0.906683059656006 0.01254572075494758 0.1111849114644461 0.1067025431773948 0.3909822748698206 0.3116545055063408 0.06277686404016065 0.002001685203115266 0.00215149498377419 0.00618088426494324 0.09368562475444663 0.1186789711119344 0.2368251447153944 0.4472660678163779 0.05320672599803419 0.007746730654167029 0.03640985068470235 0.005742794870366358 0.0008079030490580714 0.001128038975021349 0.009311734296524142 0.0001509390802739574 0.001643922962872425 0.002147472588530391 0.9790671941773533 0.0005632013632838092 0.0004649554664411234 6.933474510045726e-05 0.0002753632862389682 0.001409947896062801 0.0005694501905113739 6.10637326927566e-05 0.9965866833196688 0.00139458956355512 1.449672249206662e-05 1.653627777437092e-05 2.176611351211547e-05 1.497539870561429e-05 1.442372736402388e-05 1.430061960590639e-05 0.9985089115769907 0.0132095898946694 7.512862029090084e-05 0.001507661448226042 0.004516113579231071 0.002776675414981041 7.389096360721821e-05 7.366987350233245e-05 0.9777672702054918 0.006003381960507238 0.007301183991763664 0.01642792170294345 0.01782904311088525 0.02290340971332917 0.005974257676887798 6.665528841338464e-05 0.9234941465552702 0.002671215658421932 3.000677687814446e-05 0.0001358592567707067 0.002625383273861134 3.038043398798394e-05 2.412381446863248e-05 2.062817241839762e-05 0.994462402613193 0.007190744499172816 0.0080241247620067 0.1377183923923535 0.6518158903954008 0.08818269402514525 0.001260897803729436 0.001519467310925078 0.1042877888112663 0.05344352979051484 0.001570103715715751 0.1010446291198624 0.7372542542410973 0.05953150321889505 9.309248293363297e-05 0.001162344368204123 0.04590054306277707 0.1709291569444444 4.32092323703844e-05 0.0001347689966211167 0.1260485419937762 0.001412909351001107 4.474127672707334e-05 4.874885446158449e-05 0.7013379233505981 0.1073008073564439 0.0003228043176306905 0.02995738994887508 0.2722553872282319 0.006620183106852981 0.0002194632292785349 0.0001626125279775996 0.5831613522847091 0.05891832549642867 0.01273755960162344 0.1020453117164795 0.6212493399771262 0.1113749612375117 0.0001796102302618252 0.0004413207390585627 0.09305357100151011 0.06040383627712091 0.003408306065996155 0.09485931055572915 0.7397899756149032 0.06174924544608741 0.001844255912980989 3.668073530000035e-05 0.03790838939188208</probabilities>
		</cpt>
		<cpt id="year1_pp_mean">
			<state id="S_31_5___51_5" />
			<state id="S_51_5___60_5" />
			<state id="S_60_5___67_5" />
			<state id="S_67_5___76_5" />
			<state id="S_76_5___102_5" />
			<state id="S_le_102_5" />
			<state id="S_s_31_5" />
			<parents>year1_uacr_mean time_zero_uacr_mean</parents>
			<probabilities>0.01624968205670769 0.05726554050072612 0.08073424116185994 0.2481633916880273 0.5373997821880614 0.05998170352747943 0.0002056588771382907 0.8896694817294455 0.05984264391985954 0.000190688906538291 0.0001821894923805758 0.0001819971091254932 0.0001822112998437496 0.04975078754280692 0.3446461880220543 0.219871437009562 0.1240845011303803 0.1414986468732813 0.09879248360744479 0.02837806647341989 0.0427286768838573 0.06948996283009022 0.2677326140180562 0.1723603229710456 0.3270615667344902 0.1583482100810893 0.002598425484541986 0.002408897880686647 0.006702454998769106 0.04169971282340811 0.165145518746864 0.5035971651113619 0.2785810154137451 0.00396899416537629 0.00030513874047561 0.3219745135286116 0.2518949152963748 0.163298752547582 0.1408220443833313 0.08129442350254393 0.000340520121467471 0.04037483062008883 0.08636139691123876 0.2525888272516001 0.5020152475888119 0.1402145075320415 0.01852456370195954 0.0001401485917091739 0.0001553084226391635 0.6241551757264477 0.2511756322997408 0.0754182944489305 0.01681285259116152 0.0002382290017854348 0.0002158914774653755 0.03198392445446887 0.3960784940808434 0.2566502056278012 0.1296351149056016 0.09197192236417205 0.05476686156344648 0.008458603956874301 0.06243879750126097 0.01151697366527183 0.0136277740307568 0.01163463979660913 0.2726997769249364 0.6850980386188905 0.005025841641769406 0.0003969553217659104 0.002394277980354752 0.002403187777103111 0.00105085450777195 0.07860222187314889 0.7934900995445748 0.1218791943269074 0.0001801639901390828 0.7929713077521512 0.1264069300965262 0.01439498974032245 0.003885462008509427 6.147101094224996e-05 4.953863444301989e-05 0.06223030075710538 0.2537676538731207 0.3266806911514882 0.2403692670264663 0.142540177253397 0.02198853549125489 7.351541872434505e-05 0.01458015978554864 0.2636729384926612 0.408401807130918 0.2423774090366945 0.05936574097444462 0.02201630019106135 0.0001665342432264429 0.003999269930993986 0.163762240706571 0.4256511856665366 0.2123043548530456 0.1341577287659244 0.04102286085867361 0.002159905217930028 0.02094172393131874 0.02884782243250388 0.05546704958364088 0.2282776734178323 0.6582576757846625 0.02442708348005884 0.004382841174401375 0.0003398541269001209 0.004207171152300822 0.0624618279946236 0.1389505918746746 0.3755379015600231 0.4123519775446253 0.006335902785399731 0.0001546270883528116 0.8176333803338218 0.1361544529491974 0.01487805735687549 0.0009595999994755556 0.001536549480686931 0.0004433227821963763 0.0283946370977463 0.003959898694015743 0.01559627773029918 0.03208209523451283 0.4765515260399366 0.4681949885979338 0.003516395461861941 9.881824143996844e-05 0.004914800690356963 0.1121053080962077 0.4127263569062619 0.3551016066708063 0.1049786103442045 0.01000846676757045 0.0001648505245921547 0.307223267504002 0.207194360662713 0.1094109736030798 0.0722492907496196 0.2411343258139191 0.04130858242082128 0.02147919924584517 0.009746249710626742 0.0194303622253794 0.004881877858160126 0.03445242056367698 0.7652869696933676 0.1659739403353641 0.000228179613424834 0.2384822010821963 0.3143103116666242 0.2463736852483319 0.1464013428598327 0.03781574806031847 0.001186073386427704 0.01543063769626894 0.1438877914633604 0.5747030856731693 0.2240296477043483 0.05701337508674471 0.0001939258530521781 8.718987809244887e-05 8.498434123267245e-05 0.3941507440627401 0.4227665105557177 0.1560062321890064 0.0241920253478364 0.002219885961956842 7.454464737072762e-05 0.0005900572353719443 0.669498413170816 0.2999127692885901 0.01947290168996144 0.006247169973177078 0.004620780627218639 9.922014887924915e-05 0.0001487451013574134 0.005695547636046871 0.08653884345029174 0.3933544638459511 0.4100331844579722 0.104084229427874 0.0001480839822576057 0.0001456471996066523 0.3550596042686566 0.4174619513591495 0.1277086769868893 0.02628062507229927 0.05050279233320306 0.001635388982080127 0.02135096099772209 0.3004411671175389 0.4878037965312481 0.2091041102629811 0.00088800788958499 0.001416010435020675 0.0001575221553600914 0.0001893856082660077 0.6129767429432122 0.3136495202265944 0.06049229690646345 0.008159405766649998 0.003102584609212991 3.594613365251185e-05 0.001583503414214269 0.2428010744020457 0.2140346436389967 0.1584671993446402 0.09389285145303655 0.2543706838365765 0.01786008053299938 0.01857346679170502 0.3968936215109976 0.225256849439527 0.1241089402672807 0.08666505458785859 0.1102564186375766 0.02129185909443026 0.03552725646232946 0.3888820924669322 0.2366661142356403 0.1197032145141021 0.09838976350000388 0.09439883350466201 0.02200842250288087 0.03995155927577866 0.2690375298461441 0.2842683495819866 0.1103978620948819 0.1404353482803289 0.1411327953024889 0.03034835911527602 0.02437975577889363 0.07526319837389134 0.1540904999948055 0.1743280670447912 0.1689759524338023 0.3834609813564752 0.04280209408674448 0.001079206709490084 0.4522440778079136 0.2386442250165947 0.1289888120424491 0.06675005352631405 0.05320674372765313 0.01024000989922986 0.04992607797984532 0.4073388163488008 0.4200809827906865 0.1511606537115212 0.01517900729494319 0.0001041862898626647 9.527317302836679e-05 0.006041080391157457 0.429652950880794 0.4692315353724016 0.09446385252987344 0.003572133669244263 0.0001123323281998135 0.0001015959415180106 0.002865599277968691 0.5405881045643062 0.376054612476011 0.04409002719232839 0.007139185933828279 0.0002404231981129015 0.0001770369026936534 0.03171060973271957 0.1335249716763799 0.469418659814538 0.3377503393349133 0.05615876274378223 0.001971950608866319 0.0004852695789019155 0.0006900462426183877 0.06283198506900831 0.251993606197732 0.3555901703157924 0.2986793741532461 0.0302383444306016 0.0004936654081272446 0.0001728544254924807 0.8536975533268901 0.1182803800948515 0.00557421162963158 0.0008755892272647175 0.0002221544074280181 2.736422225913328e-05 0.02132274709167491</probabilities>
		</cpt>
		<cpt id="year1_av_count">
			<state id="S_0_5___2_5" />
			<state id="S_25_5___44_5" />
			<state id="S_2_5___25_5" />
			<state id="S_le_44_5" />
			<state id="S_s_0_5" />
			<parents>year1_uacr_mean</parents>
			<probabilities>0.3926629693126511 0.04111329660813837 0.5412050114641113 0.02478057617009486 0.0002381464450044315 0.2103588282049986 0.08294068851943588 0.6639537549732899 0.04033602620352046 0.00241070209875522 0.05334806517598074 0.1990745011432028 0.5686423358533242 0.1766597923702691 0.002275305457223219 0.1420648084417252 0.1179744259150536 0.6537828076141915 0.08421073243712882 0.001967225591900943 0.05061643735712217 0.1972191142767359 0.6016023848094744 0.1480077424405082 0.002554321116159486 0.2183903830589571 0.005327275563128184 0.1108340310607667 0.00435437958180692 0.6610939307353412 0.1930094040373896 0.04758793906116521 0.7463024080580667 0.01273718009331392 0.0003630687500645234</probabilities>
		</cpt>
		<cpt id="year1_upcr_count">
			<state id="S_le_0_5" />
			<state id="S_s_0_5" />
			<parents>year1_uacr_mean time_zero_uacr_mean</parents>
			<probabilities>0.02032779479213278 0.9796722052078672 0.009223516256946019 0.9907764837430539 0.003412732658030499 0.9965872673419696 0.05976929710043763 0.9402307028995623 0.06205303024983894 0.9379469697501611 0.002504576829070617 0.9974954231709294 0.0587015983881224 0.9412984016118777 0.08239494039750736 0.9176050596024927 0.0004329350357150421 0.999567064964285 0.002874266524010842 0.9971257334759892 0.008277443887778485 0.9917225561122216 0.00304891542412339 0.9969510845758767 0.03241094864393999 0.9675890513560601 0.132453848950521 0.867546151049479 0.02750408516929884 0.9724959148307012 0.06520876451387696 0.934791235486123 0.1359708635239255 0.8640291364760745 0.03310583417228119 0.9668941658277188 0.05202402741691965 0.9479759725830803 0.02502836139318089 0.974971638606819 0.00337527129588446 0.9966247287041157 0.0439454528866882 0.9560545471133118 0.04111014230852492 0.9588898576914752 0.01371132007708924 0.9862886799229107 0.05629872786530182 0.9437012721346982 0.007149928898328392 0.9928500711016716 0.005500975080527686 0.9944990249194724 0.001654315873388149 0.9983456841266117 0.02409014959263301 0.9759098504073669 0.01871433012752341 0.9812856698724765 0.001913374353938617 0.9980866256460614 0.002277550300181677 0.9977224496998183 9.827339421148626e-05 0.9999017266057886 0.000577620873778694 0.9994223791262212 0.01934867506771898 0.980651324932281 0.0001137814165646754 0.9998862185834353 0.00488868051724387 0.9951113194827561 0.0009360794181567699 0.9990639205818432 0.0002364331526728625 0.9997635668473271 0.0009154423487792911 0.9990845576512206 0.006194557237883506 0.9938054427621165 0.00254398129641212 0.9974560187035878</probabilities>
		</cpt>
		<cpt id="year1_ppi_coverage">
			<state id="S_0_5___363_5" />
			<state id="S_le_363_5" />
			<state id="S_s_0_5" />
			<parents>year1_uacr_mean time_zero_uacr_mean</parents>
			<probabilities>0.08943460065326274 0.08647898522736172 0.8240864141193756 0.03972203045300023 0.0123711963662342 0.9479067731807657 0.0004395454823519194 0.0001859810943441987 0.9993744734233038 0.007540182683151194 0.005578956320313208 0.9868808609965355 0.08993344670401734 0.04423939176604774 0.8658271615299349 0.007754347917772828 0.008196702948844994 0.9840489491333823 0.1946933263101902 0.1777123298882288 0.6275943438015812 0.1533002780682872 0.02785148840774142 0.8188482335239714 0.003936845719795131 0.0006426042166742955 0.9954205500635305 0.006028033773529454 0.002998290335032448 0.9909736758914381 0.07730432078833273 0.04984749409630802 0.8728481851153593 0.02364712158749842 0.01602154175965193 0.9603313366528496 0.3381138911914005 0.1992177245153251 0.4626683842932744 0.2320660193196027 0.08968766661820293 0.6782463140621944 0.1844545328371725 0.01391322045619641 0.8016322467066311 0.136433128814051 0.02807851526259695 0.835488355923352 0.3711084166091675 0.1520757268539815 0.4768158565368509 0.4252501877685668 0.09785342754387097 0.4768963846875622 0.2354167122388513 0.2337488221061675 0.5308344656549812 0.1332478128329695 0.04756270056488097 0.8191894866021495 0.0002357193327875888 0.0001776502384737057 0.9995866304287387 0.2136584607584888 0.01956845305611557 0.7667730861853955 0.3004014384619697 0.08775402642406253 0.6118445351139679 0.1430669342569774 0.0527795513770655 0.8041535143659571 0.2890950287778202 0.2258120368644536 0.4850929343577262 0.150879947420758 0.05655053606077441 0.7925695165184675 0.02939357693908718 0.003925152650814504 0.9666812704100984 0.0004123512710826139 0.0003963923090145177 0.9991912564199029 0.146022692004781 0.06982256064513231 0.7841547473500867 0.1957386210499321 0.08007591216503776 0.72418546678503 0.009795969818896536 0.02411552894279169 0.9660885012383118 0.004479502265504642 0.001682860223613468 0.9938376375108818 9.413394134052113e-05 4.041785682134328e-05 0.9998654482018382 0.0003034230354911786 0.0002385985853687325 0.9994579783791401 0.01389877490312675 0.004738655829224692 0.9813625692676486 0.004672872415702745 0.001281204662254442 0.9940459229220426 0.04548118846063553 0.05297026570905221 0.9015485458303123 0.04798446523385074 0.02276250838482345 0.9292530263813258 0.0006890904953702457 0.0004095846570374762 0.9989013248475922 0.004420313162103631 0.0006308817463530728 0.9949488050915433 0.05978977801641021 0.02385863401422853 0.9163515879693612 0.04938991373781642 0.02410434689300511 0.9265057393691785</probabilities>
		</cpt>
		<cpt id="year1_aceiarb_coverage">
			<state id="S_le_0_5" />
			<state id="S_s_0_5" />
			<parents>year1_uacr_mean time_zero_uacr_mean</parents>
			<probabilities>0.4289509666065387 0.5710490333934612 0.1416048484636578 0.8583951515363423 0.001482486512883176 0.9985175134871168 0.04635541362375144 0.9536445863762486 0.3501728379455484 0.6498271620544517 0.03326401333140681 0.9667359866685932 0.6622030243847588 0.3377969756152414 0.2391858452443517 0.7608141547556482 0.00612810140309466 0.9938718985969053 0.06145631321953072 0.9385436867804694 0.3366078977790088 0.6633921022209912 0.04815798582794242 0.9518420141720575 0.6000770865276928 0.3999229134723074 0.4722800248397228 0.5277199751602771 0.178442539415787 0.8215574605842129 0.1781124744995116 0.8218875255004884 0.8251603935063508 0.1748396064936491 0.1857136437079659 0.8142863562920342 0.5915476718179514 0.4084523281820486 0.3460767203692692 0.6539232796307308 0.0004266859851178804 0.9995733140148821 0.3411629743390852 0.6588370256609147 0.5137173108863561 0.4862826891136439 0.1904867050451081 0.8095132949548918 0.7145794184856863 0.2854205815143138 0.341786093222252 0.6582139067777479 0.04148819757943572 0.9585118024205642 0.0006828551958845549 0.9993171448041155 0.5794315066995696 0.4205684933004304 0.1425932300335638 0.8574067699664362 0.04469437336439447 0.9553056266356056 0.01577357004678186 0.9842264299532182 0.000239523956681063 0.9997604760433189 0.005674323593005611 0.9943256764069944 0.06163045696211188 0.938369543037888 0.001083459776810768 0.9989165402231893 0.4649027733990571 0.5350972266009429 0.1890819481769081 0.8109180518230918 0.004049627137288109 0.9959503728627118 0.03892350654756956 0.9610764934524304 0.4002055143825847 0.5997944856174151 0.052228855139582 0.9477711448604181</probabilities>
		</cpt>
		<cpt id="year1_sbp_mean">
			<state id="S_107_5___133_5" />
			<state id="S_133_5___143_5" />
			<state id="S_143_5___158_5" />
			<state id="S_85_5___99_5" />
			<state id="S_99_5___107_5" />
			<state id="S_le_158_5" />
			<state id="S_s_85_5" />
			<parents>year1_uacr_mean time_zero_uacr_mean</parents>
			<probabilities>0.02014067307171994 0.005804170684040211 0.3833657289353734 0.0001874670830842474 0.001512005845200521 0.5888022706339737 0.00018768374660796 0.9911133078577209 0.0005176362489748501 0.0001838533964654344 0.0001889178738562364 0.007629342963176049 0.0001849025214060254 0.000182039138400569 0.4612812699094591 0.1683133640294933 0.1365222155482251 0.03518657509870608 0.06615289786951413 0.1147592858635329 0.01778439168106943 0.4655040291751655 0.1660444845485293 0.2520897310564847 0.002701031976423392 0.00192908278702672 0.1101396483123781 0.001591992143992188 0.02289807858526532 0.4835545274383368 0.4596064468749194 0.0002879318285992284 0.0003045573844297575 0.03306064495298913 0.0002878129354605978 0.05808470501290058 0.3616456692976913 0.3972999614052586 0.0001702977210827573 0.02332254606791665 0.1593617971209799 0.0001150233741703468 0.1025920632338499 0.646360411194445 0.2386183859528126 0.00167467582423932 0.0001495810667439783 0.0104700081426916 0.0001348745852174919 0.7432561612140929 0.006217667846584445 0.003591945964471881 0.04818203989461831 0.1918114661299571 0.0002191173689977801 0.006721601581277614 0.617907632557524 0.1290615702786241 0.0897394620656559 0.03048328092247977 0.05242837606445111 0.02660684571200394 0.05377283239926114 0.06536099954623151 0.3283018831462707 0.5909395289328323 0.0005309867197240925 0.003203845532695852 0.01127883745649492 0.0003839186657504806 0.0002276016650844019 0.001443475873722344 0.007022965274301023 0.0001864591949496255 0.0001904395406497289 0.990742601232718 0.0001864572185749142 0.5424858799501744 0.0004473689090440558 4.956711204108405e-05 0.1163646948717863 0.3354539681392854 4.957440509858617e-05 0.005148946612570159 0.7868803610415026 0.01365272778297801 0.004198701749095284 0.05437262582209581 0.1297261291347128 0.003174730206659452 0.007994724262956221 0.4455960886274368 0.4497218106257956 0.09658747333055351 0.0001396939220072317 0.003373827095579782 0.004444745693671498 0.0001363607049551364 0.846929322822114 0.02756968426462403 0.005471320374853369 0.03122219293684672 0.06316980361190697 0.005132708228360672 0.02050496776129399 0.1577452837476368 0.6409833538874853 0.1939722916374066 0.0003369481406522451 0.000338444584989407 0.006288400019588618 0.0003352779822409696 0.002992645096530951 0.1933853323834096 0.5802013780103294 0.0001546968852459597 0.0001547912989144234 0.2229564615776001 0.0001546947479694863 0.5116269303648514 0.003780369070561847 0.0005037690977582031 0.1329645356521665 0.343891446799408 0.0004507508281516885 0.006782198187102422 0.02587650581110053 0.4803283655998984 0.4607782724141773 9.847303853376222e-05 9.874752879444758e-05 0.03271826830039911 0.0001013673070965641 0.0001705898199773602 0.002044928627013965 0.6811207278895329 0.0001649400291742988 0.0001649483622739518 0.3161689345696034 0.0001649307024240948 0.4967503599524548 0.1165514216128991 0.1049488771871828 0.01626673253711664 0.03091930256314621 0.2255490903631208 0.009014215784079646 0.006402624387629589 0.03804445518527509 0.4347172611305865 0.0002296871428227663 0.0002290716443446772 0.5201482027473389 0.0002286977620024308 0.822364031270075 0.05120967907023694 0.01599271751179881 0.0377723343635173 0.067437727751743 0.0002859088709947453 0.00493760116163443 0.009435141216141536 0.7223539996568562 0.2678536518285499 8.18919462667504e-05 8.219492866410255e-05 0.0001112157724290968 8.190465109238828e-05 0.9391456391618895 0.02357593653639324 0.007649050074190262 0.003233337982638142 0.02624515317801928 7.58996708711094e-05 7.498339599854085e-05 0.8681564182988136 0.1096524638933226 0.01739343419681159 0.0008771263170519632 0.003004810173245648 0.0008166781877972413 9.906893295728861e-05 0.1395832140287107 0.5850587614826237 0.2589000716604858 0.0001459308987451444 0.001158711061340287 0.01501187872780972 0.0001414321402847674 0.5090509080635149 0.3121028156331573 0.09141930781829054 0.001992728496341515 0.04322465682082081 0.04066742227454188 0.001542160893333101 0.4867618761063029 0.4956504208752077 0.01502331924152106 0.0001571656233678117 0.0001622971078694421 0.002088059917618685 0.0001568611281123674 0.9494906932732762 0.03618915965912498 0.00785746264197798 0.001357996950302414 0.004197271999734064 0.000871432327570098 3.598314801408309e-05 0.5083556958144144 0.1295954149479701 0.2402909951816224 0.02430055622727957 0.02638534722211814 0.05871269763806067 0.01235929296853485 0.4543768901327355 0.1723990021581374 0.1501882726456401 0.03739848289791502 0.06801981825181726 0.1052773659337341 0.01234016798002092 0.4753848353451886 0.1779444207391682 0.1378997720606588 0.03721914143744114 0.07197948544471564 0.08442280796543342 0.0151495370073942 0.3534027414712116 0.2026467582012474 0.2158966283608494 0.02095450748279845 0.03842386770939946 0.1592763984486751 0.009399098325818716 0.08689129404032486 0.1361714214580182 0.4551292020113942 0.0009155865558705751 0.0009680576135606018 0.3190088901573609 0.000915548163470545 0.5076000600738556 0.203498074539075 0.1195992901736794 0.03676723813873445 0.07278382940963767 0.05258725803384267 0.007164249631175228 0.8412326773806427 0.1494628381310517 0.0005693617475427211 0.001113957212882125 0.007415963657127334 9.53097237014034e-05 0.0001098921470522255 0.03542353720171468 0.6878241783656716 0.266807421503305 8.749508797653932e-05 0.0007076121659931783 0.009062224769536872 8.753090580218341e-05 0.8093031584725735 0.1742479222562164 0.006583903649111956 0.000702325264205272 0.008857498520234793 0.000155014278618029 0.0001501775590401625 0.6322128032440051 0.3536754395924169 0.01200577399394028 0.0004580996860983637 0.0005452037027067671 0.0006472615189857491 0.000455418261846959 0.003606293115502591 0.01528552539206277 0.6960096111537355 0.0001647160604136015 0.0001684322300859074 0.2846007055405276 0.0001647165076718434 0.9765730622898647 0.01098567795961256 0.001775549409239737 0.0003413352988893109 0.009698593791085616 0.000411978798454833 0.0002138024528531189</probabilities>
		</cpt>
		<cpt id="year1_hba1c_count">
			<state id="S_1_5___3_5" />
			<state id="S_le_3_5" />
			<state id="S_s_1_5" />
			<parents>year1_uacr_mean time_zero_uacr_mean</parents>
			<probabilities>0.06727928505159952 0.01827567750109598 0.9144450374473045 0.009153478083892209 0.00315012781469502 0.9876963941014127 0.002716694311597625 0.0002889246217187352 0.9969943810666837 0.1874143718893773 0.038216931826032 0.7743686962845907 0.09074898619543893 0.02701525768633952 0.8822357561182216 0.02683832232922042 0.002821749456995629 0.9703399282137839 0.117531548767614 0.03042531916124506 0.8520431320711409 0.07904062066389238 0.02193771015057663 0.8990216691855309 0.02298842329820029 0.001959927884795728 0.9750516488170039 0.06714536119638279 0.01550847145936677 0.9173461673442505 0.01666721608896684 0.01209948850059312 0.9712332954104401 0.01292453393529757 0.002091970094531485 0.984983495970171 0.08544845898478172 0.01760336362311613 0.8969481773921021 0.1817677420242083 0.04357265101693217 0.7746596069588597 0.06969991523030622 0.01338113074644144 0.9169189540232524 0.2479922403316701 0.07378252487620492 0.678225234792125 0.2329072173863405 0.03238020831822614 0.7347125742954335 0.03837568221578876 0.004612029019867205 0.957012288764344 0.1011936992661857 0.01861439076418591 0.8801919099696285 0.03931255224476741 0.01369505900368052 0.9469923887515519 0.04492689227531058 0.01192666734819695 0.9431464403764925 0.1019062176635584 0.03599476755159084 0.8620990147848508 0.07644682174742569 0.0034789637748713 0.920074214477703 0.02500280016537099 0.004162447256994559 0.9708347525776343 0.09709249290486219 0.01518852924962117 0.8877189778455167 0.1067533193114794 0.02590312976057658 0.8673435509279439 0.0408520269796268 0.007264533256828637 0.9518834397635446 0.692313113900146 0.1730724856072023 0.1346144004926517 0.06276982192612209 0.01414885572190376 0.9230813223519742 0.0801157145651816 0.01049737352298244 0.909386911911836 0.003267443111112289 0.0005669502265716233 0.996165606662316 0.0003221227784761516 0.0009342657645844227 0.9987436114569395 9.458496477590001e-05 0.0001390051706803669 0.9997664098645437 0.03675704106657617 0.001061358420939261 0.9621816005124847 0.02461474893694417 0.01011659433353744 0.9652686567295183 0.0001448573144449267 0.0008255939215549017 0.9990295487640002 0.05107937386970295 0.005600006125317003 0.9433206200049801 0.02524969894938861 0.002372734761143454 0.9723775662894679 0.004384208929821674 0.0001642553032186492 0.9954515357669597 0.09832150367595881 0.02070094434028091 0.8809775519837604 0.01527171357425058 0.008310416185294838 0.9764178702404546 0.03490998226792008 0.006468008855331338 0.9586220088767485</probabilities>
		</cpt>
		<cpt id="year1_dbp_mean">
			<state id="S_49_9643___55_8967" />
			<state id="S_55_8967___59_9993" />
			<state id="S_59_9993___63_9918" />
			<state id="S_63_9918___69_9682" />
			<state id="S_69_9682___75_9831" />
			<state id="S_75_9831___96_6304" />
			<state id="S_le_96_6304" />
			<state id="S_s_49_9643" />
			<parents>year1_uacr_mean time_zero_uacr_mean</parents>
			<probabilities>0.0002380535836678919 0.005805990766760052 0.0207338317767829 0.04286948945808965 0.1774934244441351 0.7020490192761905 0.04820751434000325 0.002602676354370679 0.0001602629990035613 0.0001605457687042363 0.0003017647789544099 0.002099174275650185 0.1157819877958024 0.8810197113519886 0.0003172590057219817 0.0001592940241746593 0.0472876300209714 0.06117959197766322 0.09722819035133561 0.1594132707551593 0.1878680850159747 0.3485826881218984 0.0717834259362265 0.02665711782077094 0.01524480421547211 0.1036094883947126 0.2083752838385756 0.08358852613830423 0.3029707671299774 0.2562525306560626 0.0229003064154795 0.007058293211416088 0.004701204161282587 0.005712328320225077 0.07139152204617101 0.2938968645422554 0.4491212194862734 0.1661792375915611 0.00492428783824661 0.004073336013984929 0.0001021775148697678 0.0001664063415603374 0.002194426088355773 0.01034998061010919 0.01511589027147062 0.7906795282996469 0.1812889444232998 0.0001026464506875439 0.002756236289026595 0.006085993407630593 0.008457672509280532 0.0815058227554897 0.3415742318355003 0.5449642526221421 0.01453072227166812 0.000125068309262129 0.04136054220374086 0.05689233771829404 0.2258870167988906 0.4761120873285443 0.1368400078347239 0.05506618344384129 0.0001997700117302366 0.007642054660234798 0.04028114458269958 0.04936976584713419 0.07506551217169564 0.1898855186085712 0.3390553877094931 0.236994647985959 0.01564728279925176 0.05370074029519549 0.09022641242719358 0.1142636874042528 0.2207228703114509 0.1447155740303319 0.3386328413234799 0.06670947825472116 0.001834295796023689 0.02289484045254617 0.0001641802175304085 0.001469112464350698 0.00143222671196504 0.008768249357745601 0.0721253272033793 0.7909462637347867 0.124930542580775 0.0001640977294672922 0.03915377439560506 0.074128881636863 0.2856060623978924 0.4755417207457331 0.1131612692005537 0.001418905733354635 4.350714281028471e-05 0.01094587874718782 0.179061268725813 0.2826346464780518 0.3715525144428786 0.0762126379471844 0.01325135612377096 0.01189216691515179 0.0009752084210912864 0.06442020094605841 0.002444599430476679 0.00389911723261843 0.0121002666134532 0.1544966445660241 0.2866319319590293 0.535294520414056 0.005011846708632742 0.0001210730757096933 0.1683461581992599 0.2111975357487776 0.3128457922082377 0.1649234960044154 0.02821547477729526 0.03211005201849453 8.371475273536962e-05 0.08227777629078424 0.002935287197146646 0.008920511100235232 0.1665651942592609 0.3867775512207142 0.2631591163938257 0.1637507788384449 0.007563540064710826 0.0003280209256615282 0.004403560787919371 0.01186367707638847 0.03398652155678827 0.1832757396550906 0.2647281580439044 0.4695247706860275 0.03198149705236796 0.0002360751415135496 0.08103063250579842 0.1791290746326542 0.2377405707979598 0.4291514666206911 0.04722376381228808 0.008146946076564925 4.877453878435031e-05 0.01752877101525912 0.01812741404332232 0.05597451403355368 0.1616772948741022 0.4196322736857176 0.2921105534881835 0.04335089102306374 8.675842385326437e-05 0.009040300428203658 0.0001471837675425364 0.0001495539902261773 0.004179922794917775 0.002317514328382257 0.007895893299833969 0.8447720792398813 0.140390155635894 0.0001476969433221079 0.02289644714407111 0.03442976137120103 0.07828770560592456 0.1751390476341652 0.2703824210302278 0.3768495434446578 0.02465619426595758 0.01735887950379498 0.03357989626177634 0.05074906320538481 0.08187599075400354 0.3038262265075444 0.3571339417291275 0.1451839378727924 0.02041280881905824 0.007238134850312774 0.1067139156844231 0.170459837658125 0.3099095674507553 0.2847948436291856 0.0546951905807529 0.03999160948673029 0.0002020811511854416 0.03323295435884228 7.183990415758301e-05 7.263118602436073e-05 0.001354599303556595 0.0004368031186868807 0.07348632103673498 0.9041558258830585 0.02035027075389919 7.170881388174158e-05 0.009005311085501719 0.0140602933224626 0.0624448523752868 0.4865655924348923 0.3272153286567928 0.09879153905990103 0.0006185069597878711 0.001298576105374759 0.0008667484583174239 0.003863015839735885 0.005424942885857546 0.04441975678620185 0.3312708399222942 0.6115136451549091 0.002548334718737248 9.271623394659603e-05 0.0001686205324485301 0.01230028952401667 0.04527074613835507 0.301997914866959 0.4669571046977127 0.1695921503374145 0.003587168020757368 0.0001260058823361245 0.01250977162653208 0.001449770077417023 0.002487316556915402 0.1278958286984944 0.2330114509807966 0.6086958309721744 0.01257824771314243 0.001371783374527521 0.0001683433623150005 0.001346484315355799 0.0001478789261069007 0.07439811842342225 0.2870338790488284 0.6339774655491983 0.002789239718207236 0.0001385906565659632 0.0002840097754485135 0.002660775250044507 0.003554778028505983 0.2095081189120623 0.4757730048347642 0.3078966336764621 0.000287715084323287 3.496443838907302e-05 0.08593923612895395 0.04009852417390664 0.1065658903147711 0.2319010529674423 0.2111114498157384 0.267221388832163 0.01731427542158132 0.03984818234544354 0.03696236402894015 0.04576482066717361 0.08783018878498289 0.1551092308497547 0.2031689970189369 0.3937723644224229 0.05675952186771228 0.02063251236007645 0.0381553942185578 0.05441760533643525 0.09717824794023687 0.1572676059761049 0.1940791963578738 0.3938142383142975 0.04171819442587873 0.02336951743061516 0.02723429295974684 0.06135326395931508 0.06550310271276719 0.1182356912541958 0.1396507996142606 0.41883309958916 0.1448924148698078 0.02429733504074675 0.001176836138450691 0.00903226978131684 0.001372699349762197 0.1013675070612467 0.2000530298603935 0.6264748921831782 0.05899142049121045 0.001531345134441188 0.02543577849111127 0.03481032060938118 0.08345486449846717 0.1440730768650628 0.1851827282050499 0.4793341130259727 0.03530408734028011 0.01240503096467492 0.004413568698029005 0.001321046302428417 0.04627719296983485 0.246711224972037 0.365294975267374 0.3357158507664811 8.565606181217247e-05 0.0001804849620034407 7.744327165565234e-05 7.720616494382027e-05 0.0006989973095326698 0.002143997021142797 0.01137884707601444 0.8765490292553849 0.1089972928763614 7.718702496430678e-05 0.0001306950328049063 0.0001912390757030755 0.0005793341971850127 0.1081214304828656 0.3040788382673774 0.5865112940782807 0.0002406102002297328 0.0001465586655533595 0.0005032918417143301 0.004720819581889279 0.006677665653894413 0.3406580183375149 0.3680743758007231 0.2785276159583753 0.0004377482893607653 0.0004004645365279448 0.0001540245280800747 0.0001542551334267759 0.001270779963397606 0.0001555436539567756 0.00542297144124061 0.7625738815835832 0.2301157560406746 0.0001527876556405118 7.232854678679708e-05 0.0002273253387708622 0.002250235201707821 0.03177834710402241 0.3337551018815703 0.6317088322957158 2.492283203592527e-05 0.0001829067993901539</probabilities>
		</cpt>
		<cpt id="year1_upcr_mean">
			<state id="S_0_35905___0_81955" />
			<state id="S_0_81955___4_5714" />
			<state id="S_le_4_5714" />
			<state id="S_s_0_35905" />
			<parents>year1_uacr_mean time_zero_uacr_mean</parents>
			<probabilities>0.001759225344412416 0.03483663633237342 0.9586031023628397 0.004801035960374416 0.6573965894131404 0.3414238458970793 0.0007284253181958501 0.0004511393715845095 0.4114592575847605 0.2485674467994203 0.3186074794911559 0.02136581612466332 0.04079455764891957 0.4478388888155831 0.3327185459736256 0.1786480075618716 0.4648954464191818 0.5035121346889527 0.01733596325799949 0.01425645563386601 0.02340108931441902 0.002665046468661231 0.9737165728694919 0.0002172913474278004 0.3092618215319533 0.4158179092782359 0.2600800804173954 0.01484018877241548 0.07130360295777641 0.02620763885522334 0.000663164065033636 0.9018255941219667 0.4562485175893854 0.2889974682370873 0.2148938989339445 0.03986011523958284 0.2530846865283145 0.5994570258046058 0.03803581410248499 0.1094224735645947 0.0003875996768639829 0.0004388228996920285 0.9987078349700137 0.000465742453430363 0.0001421346077538645 0.0001335290843393867 9.842566208780881e-05 0.9996259106458191 0.01718658869146465 0.01102466512008384 0.005706073677522111 0.9660826725109294 0.1296965595787585 0.7453394065689188 0.08600250879975396 0.03896152505256871 0.03891312219374207 0.0614063696644804 0.01214816671410907 0.8875323414276686 0.1252217286444403 0.7829794618402856 0.08507397706527992 0.006724832449994212 0.02698692948940085 0.5750653588527032 0.3905755133961351 0.007372198261760684 0.004810900010463192 0.008855049851983312 0.00416925979511005 0.9821647903424434 0.5648502626608226 0.3972016282499149 0.01913288143152689 0.01881522765773558 0.00089324003255572 0.009780155149083302 0.9868256986805705 0.002500906137790429 0.3802038309693077 0.2648340265482959 0.340705224703529 0.01425691777886742 0.02168152108323806 0.5321096559514784 0.4382052461171911 0.008003576848092638 0.004559998314676956 0.1026247570723575 0.00540923239864789 0.8874060122143176 0.0103136923640731 0.3510773708887767 0.6363722060939384 0.002236730653211836 0.2508330144378709 0.4868575005718447 0.006169532180844916 0.2561399528094395 0.1315491425206098 0.8599172468936519 0.0008578261329731567 0.007675784452765003 0.328388560928896 0.5719937329146448 0.09925092271882408 0.0003667834376351758 0.03790839099361115 0.5451446783441797 0.4120563071640909 0.004890623498118182 0.08057620399872022 0.9014956009369225 0.009892879398617991 0.008035315665739199 0.05398261211985822 0.9038633481738545 0.00460539641046804 0.03754864329581941 0.979941564598893 0.0005627625327408963 0.01893077617809607 0.0005648966902700424 0.943700799092186 0.002499302736467476 0.05287838339551112 0.0009215147758354522 0.3838176791137692 0.2443240288961719 0.3611197087709953 0.01073858321906359 0.2922997068948009 0.168243825363392 0.5260610970298438 0.01339537071196329 0.2617652848969723 0.02631314605196211 0.7107527379923674 0.001168831058698363 0.9540621655995476 0.002805122413918771 0.04268999498626334 0.0004427170002702081 0.8521071029977266 0.09207707411288525 0.001157283980983265 0.05465853890840484 0.0230890066400121 0.1871215087995125 0.7895756324615354 0.0002138520989400673 0.5250700656119343 0.347974249397161 0.1259274303607145 0.001028254630190255 0.315581716029194 0.6011067740291337 0.08063387724918092 0.002677632692491338 0.001423897588522522 0.001317546740449607 0.9965194813384025 0.0007390743326253049 0.3873431513124247 0.6047320630970657 0.007262383667228017 0.0006624019232814165</probabilities>
		</cpt>
		<cpt id="year1_hba1c_mean">
			<state id="S_4_82915___6_055" />
			<state id="S_6_055___6_3732" />
			<state id="S_6_3732___9_50835" />
			<state id="S_le_9_50835" />
			<state id="S_s_4_82915" />
			<parents>year1_upcr_mean</parents>
			<probabilities>0.5081140932622901 0.1083494430298851 0.3121546962044394 0.04590764094754005 0.02547412655584553 0.3754980826901503 0.1159215293924694 0.41112233453487 0.0804558412879208 0.01700221209458958 0.336303265029274 0.09384377575918644 0.4287877904667921 0.1243813550900408 0.01668381365470655 0.4812793596657133 0.1086361318062515 0.3192179798245581 0.06202677383035225 0.02883975487312507</probabilities>
		</cpt>
		<cpt id="year1_map_mean">
			<state id="S_103_024___111_454" />
			<state id="S_111_454___128_392" />
			<state id="S_65_8053___72_9607" />
			<state id="S_72_9607___75_947" />
			<state id="S_75_947___84_9925" />
			<state id="S_84_9925___103_024" />
			<state id="S_le_128_392" />
			<state id="S_s_65_8053" />
			<parents>year1_upcr_mean time_zero_upcr_mean</parents>
			<probabilities>0.01443035611887973 0.0006565035882325125 0.002037886102948582 0.00163188364468421 0.05924235578375606 0.9206962088654588 7.211972480648629e-05 0.001232686171233508 0.001862224908530181 0.005281492480314664 0.0001312548937821145 0.0003103939624739063 0.004215147052029286 0.9879301315754916 0.0001414176757708364 0.0001279374516076247 0.006929730141318388 0.0001711184002110218 0.001518198005349621 0.003097148847726367 0.06561709553551057 0.9225926324836563 2.851769267286419e-05 4.555889355482247e-05 0.006404771247829158 0.0008150857979834767 0.00131789212847042 0.0004141850066207929 0.02962492843001737 0.9609012485063403 7.367224829877729e-05 0.0004482166344396464 0.1268304232312259 0.01441801349512691 0.0003506486229213047 0.003374677564662689 0.003332775451245309 0.8503719158701187 0.001282854059496595 3.869170520253955e-05 0.003275305151980994 0.0004001717220232609 0.0007721986454259515 0.0008168553134962175 0.01457507038254138 0.9801259197783165 1.684023964081886e-05 1.763876657489458e-05 0.3891406498911706 0.1499197029454662 0.0002540734762526 0.000467016397842728 0.003899037383475294 0.4496379558555531 0.006613049497705454 6.851455253412186e-05 0.4884935779004824 0.3623263516518764 3.46436830110868e-05 6.979391895547519e-05 0.0006191270713725481 0.08497203541506118 0.06344971158382899 3.475877541189793e-05 0.5594134202353385 0.1965373995457731 0.0004685388923247089 0.0005351349681610674 0.00312673805410706 0.2333753232420288 0.006247078595963947 0.0002963664663027736 0.001725639680628414 0.0001926360586135614 0.1245674377198194 0.1446163087017126 0.6790164429776856 0.01742036035008645 3.520746533433323e-05 0.0324259670461198 0.01369802040170318 0.00373570349272476 0.05444856585061301 0.0784489423768452 0.608417136240811 0.2251231455158567 0.0008053442698581262 0.01532314185158814 0.001521110526849936 0.0003749670476552185 0.1047146125104849 0.1068282514439056 0.7282419248144967 0.04066605407585146 2.207581889954514e-05 0.01763100376185657</probabilities>
		</cpt>
		<cpt id="year1_uacr_count">
			<state id="S_2_5___4_5" />
			<state id="S_le_4_5" />
			<state id="S_s_2_5" />
			<parents>year1_upcr_mean time_zero_upcr_mean</parents>
			<probabilities>4.083846292203568e-05 3.987231341157556e-05 0.9999192892236664 0.0008806110256146653 0.0007408878213323107 0.998378501153053 0.0003699033091690812 0.0003675623042070845 0.9992625343866239 0.005859549664431972 0.0003287209745172312 0.9938117293610508 0.009330951278360115 0.002505846881696124 0.9881632018399438 0.003251181097455731 0.001225066197420466 0.9955237527051237 0.0005597102106292094 0.000345660502619041 0.9990946292867517 0.002698694729129813 0.0007837247364953831 0.9965175805343748 0.004623362339822498 0.0009220287787378864 0.9944546088814396 0.001459217866818402 0.0004594019452676296 0.998081380187914 0.01184101483583857 0.0007880216498808698 0.9873709635142804 0.003848598704131212 0.0001826547906523032 0.9959687465052165</probabilities>
		</cpt>
		<cpt id="year1_mra_coverage">
			<state id="S_le_0_5" />
			<state id="S_s_0_5" />
			<parents>year1_upcr_mean time_zero_upcr_mean</parents>
			<probabilities>5.94087035058549e-05 0.9999405912964942 0.000224344989690851 0.9997756550103092 0.003826273788613728 0.9961737262113862 0.0003318081809849629 0.999668191819015 0.01316254537734071 0.9868374546226594 0.01351244239094044 0.9864875576090596 6.721172656584338e-05 0.9999327882734341 0.00382191788357166 0.9961780821164283 0.004933529152917503 0.9950664708470826 0.002063172896291463 0.9979368271037086 0.01138004785930291 0.988619952140697 0.04052528380797364 0.9594747161920264</probabilities>
		</cpt>
		<cpt id="year1_nsaid_coverage">
			<state id="S_le_3_5" />
			<state id="S_s_3_5" />
			<parents>year1_upcr_mean time_zero_upcr_mean</parents>
			<probabilities>0.0006148808969271499 0.9993851191030728 0.002220438287896447 0.9977795617121037 0.007291626164325028 0.9927083738356749 0.006916326265776945 0.993083673734223 0.2307257381738854 0.7692742618261145 0.4925272553719739 0.5074727446280261 0.0001109148861541938 0.9998890851138458 0.1019101966738873 0.8980898033261127 0.2175248555796017 0.7824751444203982 0.07887229638350451 0.9211277036164955 0.1397495152147297 0.8602504847852703 0.3024650338750897 0.6975349661249104</probabilities>
		</cpt>
		<cpt id="year1_glp1_coverage">
			<state id="S_le_327_5" />
			<state id="S_s_327_5" />
			<parents>year1_upcr_mean time_zero_upcr_mean</parents>
			<probabilities>3.796091265788494e-05 0.999962039087342 0.0002183061632257466 0.9997816938367743 0.001546245797518641 0.9984537542024814 5.155127391363735e-05 0.9999484487260865 0.005055752733691665 0.9949442472663084 0.005015877245260595 0.9949841227547394 5.936969311255781e-05 0.9999406303068875 0.001003959071278836 0.9989960409287212 0.0008461676289933167 0.9991538323710067 0.0004632891084986555 0.9995367108915014 0.01046953527784502 0.989530464722155 0.001132527860571359 0.9988674721394287</probabilities>
		</cpt>
		<cpt id="year1_sglt2_coverage">
			<state id="S_le_114_5" />
			<state id="S_s_114_5" />
			<parents>year1_upcr_mean time_zero_upcr_mean</parents>
			<probabilities>4.990492741690097e-05 0.9999500950725831 0.0002167668475544046 0.9997832331524455 0.0006661497061089478 0.9993338502938911 0.000290097777706597 0.9997099022222935 0.004987298693002529 0.9950127013069975 0.003911945139588733 0.9960880548604111 6.187800037297878e-05 0.9999381219996269 0.0007807628911836645 0.9992192371088164 0.001955609138766653 0.9980443908612333 0.0002369357507336032 0.9997630642492664 0.008346571787253534 0.9916534282127466 0.002055974238334111 0.997944025761666</probabilities>
		</cpt>
		<cpt id="year2_mean">
			<state id="S_19_915___23_595" />
			<state id="S_23_595___27_355" />
			<state id="S_27_355___31_205" />
			<state id="S_31_205___38_625" />
			<state id="S_38_625___40_595" />
			<state id="S_40_595___48_455" />
			<state id="S_48_455___53_595" />
			<state id="S_53_595___57_265" />
			<state id="S_57_265___63_555" />
			<state id="S_63_555___68_985" />
			<state id="S_68_985___76_195" />
			<state id="S_76_195___88_745" />
			<state id="S_88_745___113_695" />
			<state id="S_9_545___19_915" />
			<state id="S_le_113_695" />
			<state id="S_s_9_545" />
			<parents>year1_mean</parents>
			<probabilities>0.1053642828028882 0.06926618557991382 0.03719152315648774 0.0319607790597416 0.0504452777134605 0.02345346986962749 0.008178687253918706 0.002912601469810439 0.00348050905732206 0.001215689122279285 0.00414157876999795 0.001210985122802798 0.003170459613734793 0.2636426408872277 0.3693588529148689 0.02500647760591789 0.09812274482804527 0.06445780044625801 0.07111025328484384 0.07732377439078102 0.07691795236548409 0.03244903681636838 0.007592791271282059 0.006711639683773758 0.0071022462630007 0.0032629890723871 0.003246781975400989 0.004062966465800358 0.005214971132846011 0.1506126118455797 0.3747785440774347 0.01703289608071392 0.06224320933781871 0.07648848937458592 0.08038131084902926 0.1677284208788338 0.04571087653949334 0.1256515486458304 0.06389294071504653 0.03507492564461303 0.03345661333687041 0.01639660688231459 0.01209977054890765 0.003618070919232476 0.0009268256061341166 0.1520937575600945 0.06260903771848611 0.06162759544270902 0.04042026212648542 0.05143288333086764 0.06268240729788883 0.1358087546750458 0.1011800324024753 0.0861433861884765 0.0288785285831132 0.00979659724499231 0.0157410145889875 0.01062244643336624 0.01063329099808112 0.009660720729303641 0.006466936665361202 0.05125872538906448 0.3691026952443785 0.0101713181021125 0.02017869098103848 0.02643501664243976 0.04725985553293049 0.1025523757719398 0.1053084438112473 0.1337826019785127 0.07564376666313491 0.03534390140914454 0.03441491034238229 0.01857449366919215 0.01580314155226294 0.01163335990533952 0.01090413451714315 0.02366012685836353 0.3357882089566813 0.002716971408247189 0.01042519177570989 0.01017643509901981 0.022048436042923 0.07554270945409597 0.08839788139351866 0.1050804371453114 0.09556390493128701 0.05371819582241096 0.08222485940302032 0.03954723019444905 0.03000317952679417 0.01721197653640821 0.01608530496181412 0.01205026481969824 0.3402111264092793 0.001712866484260027 0.01324841051968122 0.0115896615990484 0.01343654255415426 0.05699300042420304 0.09016509606265322 0.08951913503630611 0.06028057612211458 0.04620389481091265 0.09668646310318028 0.07722591363301842 0.05989261169712369 0.03730648316028425 0.01690471396549287 0.01377691358023731 0.3130598839880167 0.003710699743573017 0.005277801603267007 0.008123799965747492 0.0116034001626114 0.04228499084949709 0.04617468669234334 0.06343567035973434 0.04972390780828733 0.04845916692938782 0.08827186046269196 0.08964510373517469 0.09835796006827058 0.08786393889619433 0.02387369789390639 0.01277534403090581 0.3241007190591209 2.795148285936445e-05 0.003011816482803038 0.00417185698878146 0.009583043402615614 0.02836387596763078 0.05020688480641788 0.04806692136797307 0.02657534433376801 0.02582752723601984 0.04419290160744724 0.06993444838147092 0.1165065936312587 0.1657693611447621 0.05060460838784316 0.006854143682168556 0.3488061298736105 0.001524542705429032 0.001978020195093331 0.003146492351090365 0.00535890550210993 0.01411616813677027 0.0411347081028085 0.02434797980530863 0.02373875085881785 0.01559787659613476 0.02461746748361689 0.03056094004011898 0.07869874258540929 0.2320038213017265 0.1391985158491406 0.003896616270232689 0.3613397342410383 0.0002652606805831088 0.002440997099223653 0.002506179815206566 0.002734811727250575 0.007133257583592706 0.02292882176461699 0.01441627160086733 0.01222452754028723 0.00761209078853676 0.01516269521146873 0.01197909180987195 0.01960305831308518 0.07904349305365602 0.3629526493943317 0.004502885861156708 0.4342846423324663 0.0004745261043816847 0.02639624240749035 0.0166195314163152 0.009115955515812516 0.01142661733465451 0.04287177276511361 0.009667018387764785 0.001919874248398463 0.002143354669517145 0.002140953789241121 0.000548342453428182 0.0002926262694677305 0.001954799691396663 0.001717189573029449 0.2908482385833111 0.3831852737416284 0.1991522091534307 8.955643592914063e-05 0.000417865432023659 0.0001375478325563728 0.0009761591524801618 0.1330351334039198 0.009680330986410258 0.01115843894239237 0.01038122737671089 0.02218872154371612 0.02211231631396769 0.0337734566145166 0.07408984962245198 0.2144597797748143 7.7163420299241e-05 0.467418958247737 3.494900074391367e-06 6.056926562018504e-05 0.007077301620240546 6.068367145524256e-05 0.003053134078548604 0.04083294078641862 6.279766531271199e-05 0.001096737564293259 0.001129712138603387 0.004867973820702687 8.128413211000814e-05 9.267929673574931e-05 0.002505977945679364 0.000112385540485214 0.1081861333790787 0.3472310893581961 0.4835485997365198</probabilities>
		</cpt>
		<cpt id="year3_reduction_40_ge">
			<state id="S_0" />
			<state id="S_1" />
			<parents>year2_mean year1_hba1c_mean</parents>
			<probabilities>0.6362793243785855 0.3637206756214145 0.6462535247395226 0.3537464752604775 0.5775375236583068 0.4224624763416931 0.2998391893646091 0.7001608106353909 0.7897934277864014 0.2102065722135988 0.7486010985269874 0.2513989014730126 0.5396055141898091 0.4603944858101908 0.5571822486439508 0.4428177513560492 0.6648334328279039 0.3351665671720961 0.7146997261547691 0.2853002738452308 0.7337880296608004 0.2662119703391995 0.4428715447031249 0.5571284552968752 0.5772574433424176 0.4227425566575824 0.6139189390522233 0.3860810609477768 0.6435406556069951 0.3564593443930049 0.7067885687000206 0.2932114312999793 0.5734322857595611 0.4265677142404389 0.6552739550126819 0.344726044987318 0.4727072465537 0.5272927534463 0.6099549961128062 0.3900450038871939 0.3540723945709475 0.6459276054290525 0.3317540378505385 0.6682459621494615 0.2969725139524507 0.7030274860475493 0.1986932407505413 0.8013067592494587 0.03239453628929332 0.9676054637107068 0.739334446054546 0.2606655539454541 0.6584133298489164 0.3415866701510836 0.6379124511509605 0.3620875488490396 0.6225538240932559 0.3774461759067442 0.9729186770315723 0.02708132296842766 0.8619807245773045 0.1380192754226957 0.6128738164369384 0.3871261835630616 0.641348022776274 0.358651977223726 0.5215087609096969 0.4784912390903032 0.9581669679068722 0.04183303209312773 0.78096904435641 0.21903095564359 0.847411742952403 0.1525882570475971 0.7012997071808902 0.2987002928191098 0.7022007968442437 0.2977992031557563 0.4690204283334662 0.5309795716665336 0.821394673649126 0.178605326350874 0.8933812805329983 0.1066187194670019 0.7427567043368004 0.2572432956631996 0.7617718776061223 0.2382281223938776 0.7870624736620366 0.2129375263379632 0.8927228684636669 0.1072771315363332 0.8323368896439927 0.1676631103560074 0.7689992121780094 0.2310007878219907 0.6608047153845324 0.3391952846154676 0.6025162914782466 0.3974837085217534 0.8948318542173052 0.1051681457826947 0.8966244626930852 0.103375537306915 0.8104037923331922 0.1895962076668078 0.6666119050518736 0.3333880949481263 0.7020704863153211 0.2979295136846788 0.9371178921592009 0.06288210784079899 0.9538459646115379 0.04615403538846199 0.8769829085614846 0.1230170914385153 0.7698489106856955 0.2301510893143045 0.8491146325641318 0.1508853674358683 0.976399004599857 0.02360099540014292 0.9855133107119972 0.0144866892880028 0.9488367767834696 0.05116322321653053 0.9177604426748659 0.08223955732513405 0.7081997399113568 0.2918002600886433 0.599614973368083 0.400385026631917 0.5339194372613024 0.4660805627386976 0.5208421419514996 0.4791578580485005 0.5124512763085385 0.4875487236914615 0.4487179374563778 0.5512820625436223 0.9975603273164024 0.00243967268359764 0.9989788115200412 0.001021188479958795 0.9971551725963643 0.002844827403635715 0.9981184134419615 0.001881586558038456 0.9896709225786214 0.01032907742137852 0.5090666108866504 0.4909333891133495 0.4739794960464507 0.5260205039535492 0.6148799353634506 0.3851200646365494 0.3726047031644895 0.6273952968355105 0.681180151984803 0.318819848015197</probabilities>
		</cpt>
		<cpt id="year2_scr_count">
			<state id="S_0_5___1_5" />
			<state id="S_16_5___32_5" />
			<state id="S_1_5___2_5" />
			<state id="S_2_5___3_5" />
			<state id="S_3_5___5_5" />
			<state id="S_5_5___8_5" />
			<state id="S_8_5___16_5" />
			<state id="S_le_32_5" />
			<state id="S_s_0_5" />
			<parents>year2_mean year1_scr_count</parents>
